
#include "network_evaluate.h"



float linear(float num) {
	return num;
}



float sigmoid(float num) {
	return 1 / (1 + exp(-num));
}



float relu(float num) {
	if (num > 0) {
		return num;
	} else {
		return 0;
	}
}

static int state_dim = 22;
static int action_dim = 4;
static int hidden_dim = 48;
static const float linear_1_weight[48][22] = {{1.7337301,-0.06104511,-0.18630968,0.0051744864,-0.022403909,-0.08763321,0.03161285,0.017519828,0.2547846,-0.25208983,0.12677918,0.07915753,-0.20171952,0.08513955,0.023586445,0.03192829,-0.1164758,-0.0847687,0.28959998,-0.18714833,-0.2260758,0.24893528},{0.19178088,0.0075757476,-0.2557279,0.09740117,-0.08652325,-0.010858403,-0.047628224,-0.07125942,0.06405411,-0.3552193,-0.09820005,-0.06501622,-0.024229603,-0.6636932,-0.20795207,0.43964636,-0.053454593,-0.24168135,-0.12685202,-0.30968472,0.12995397,0.19573496},{0.4634581,-0.086388715,0.35241234,-0.012276266,-0.0843074,0.031830586,0.16965076,-0.023623139,-0.15144132,-0.31026706,0.18713097,-0.46672183,-0.032928463,-0.33853385,-0.34113505,0.1695246,-0.12823683,-0.08396307,0.08432176,0.12520283,-0.0356603,-0.2900709},{-0.8528268,1.6411612,-1.3098973,-0.06406653,0.0049055777,-0.020198438,0.059366424,0.046513636,-0.059591267,0.47825247,-0.08288278,0.23597154,-0.058530655,0.19323972,-0.46928468,0.19982798,0.10207132,0.113575116,-0.12539096,0.106838696,0.09716877,-0.03196129},{1.0089222,0.40527886,-0.01610195,-0.029103486,0.10113425,-0.033213537,-0.13087125,0.024350636,0.08354413,-0.6655323,-0.37788564,-0.2790505,0.52398634,0.39045635,0.45591986,0.2463078,0.2215246,-0.11621788,0.29065016,0.07231724,-0.10263611,-0.079578064},{-0.45941764,0.24206518,0.17984772,-0.00727085,-0.06350853,0.06978362,-0.06263722,-0.046162996,0.077977896,-0.21588351,0.053090233,-0.037508022,-0.37429005,-0.0055986727,0.14867881,0.2775441,0.79700845,0.053564806,-0.08031472,0.27784643,0.25537184,-0.26589984},{-0.40193847,-0.47646815,-0.373364,0.07972602,-0.0021110568,-0.077903405,0.09667259,-0.073281944,-0.11006521,0.1592636,-0.10077227,0.065945245,-0.0020356805,-0.2845485,-0.540817,-0.0836556,-0.45368096,0.051696204,0.1615513,-0.083947375,-0.32535,0.36103025},{-1.3347574,0.23452997,0.2279748,0.050793983,0.10843712,-0.097989514,-0.0407846,0.013533738,0.19814493,0.19038026,-0.013132124,-0.1048414,-0.35425457,0.025890296,0.13132161,0.15626827,0.22189406,0.2050591,0.012310169,0.2926868,-0.073523216,-0.08247006},{-0.6756715,0.15923448,-0.3708382,-0.052632235,0.00391217,0.09690078,0.09131199,-0.02762787,0.044050936,0.44891584,-0.15179195,0.03367508,-0.30508193,-0.008993682,-0.25221348,0.15375073,-0.2647288,-0.10521821,0.118244424,-0.18204258,0.013669037,-0.027732976},{-0.88825744,-0.038243797,-0.175227,-0.0980179,0.10129437,-0.063689075,-0.09737399,-0.048214618,0.098651454,-0.25259495,-0.34853745,0.19976124,-0.5858299,0.047909673,0.0017868099,0.062212177,0.028554976,0.26484284,-0.064131856,0.06515487,-0.039700508,0.23243085},{0.17043588,-0.328466,0.5446761,-0.032637652,-0.018039921,-0.007328054,-0.023036288,0.051379494,-0.097799845,0.9290658,0.20593171,-0.113180414,-0.3656704,0.06093394,-0.20122659,-0.3352622,-0.093091495,-0.14565894,0.04858001,-0.3422124,0.019205894,-0.35723704},{0.39073166,-0.46231508,-0.69916725,-0.019430928,-0.026552722,0.09151599,0.027293883,-0.07221828,-0.08006847,0.34065908,0.41347927,0.10687114,0.095703535,-0.053468682,0.10978694,0.046735372,0.48292503,-0.5062455,0.051453177,-0.0984256,0.21626687,-0.06358276},{-0.17846926,-0.162611,1.7559056,-0.030731516,0.076747514,0.03549112,0.07427197,0.0037747833,0.08628886,0.039945494,-0.12498615,-0.012843517,0.28467593,-0.08682783,0.48279518,0.12218999,0.052199762,-0.049775407,-0.024814943,0.05194662,0.11588514,0.021459233},{0.071460836,-1.6976877,0.3478861,-0.07570129,-0.030864108,0.081719585,-0.05959107,0.13784172,-0.042693023,-0.016116131,0.016207365,0.13280116,0.0051708682,-0.24817276,-0.38285246,0.030585786,0.19462298,-0.21905234,-0.186936,0.021538302,0.05229214,-0.23875487},{0.09882075,0.10597526,0.6028002,0.0058367164,-0.21820386,-0.07221502,0.25472885,0.029395573,-0.06751135,0.034523934,0.13513702,-0.15352888,-0.14743218,-0.08597872,0.13063115,0.03068034,-0.1747939,0.6753324,-0.21395084,0.17746,-0.3449834,0.14452048},{-0.3964644,-0.58728856,0.212596,0.037894472,-0.0393501,-0.07370737,0.13776915,-0.032004755,0.003605972,0.49000764,-0.00684652,0.30405608,-0.39164647,0.054301266,-0.024374835,0.23215483,-0.12964712,0.15563978,0.22322029,0.058188766,-0.3477373,-0.17133784},{-0.008135212,-0.029110648,0.06039153,0.04582717,0.031098781,-0.059675448,0.23683591,-0.05780279,-0.06873712,-0.25909567,-0.14684954,0.17476568,-0.24571846,0.038587496,-0.39875457,-0.07539548,-0.01582329,0.21066926,-0.23029487,-0.14559904,-0.3858087,0.17225607},{0.11301661,0.3609875,0.8901524,0.046613086,-0.01113299,0.08843835,-0.04750922,0.013703844,-0.1430431,0.39279658,0.09695848,0.018490419,0.23285842,0.25534993,-0.107840836,0.29853615,0.13982369,0.19213717,-0.086693905,0.26532412,-0.13526967,0.20094202},{-0.15456903,0.5585643,-0.12454715,-0.043276962,-0.069419906,0.03415083,0.07759425,0.01504235,0.04384115,-0.23583685,-0.3482603,0.18213283,-0.1269174,0.26514202,0.05657279,0.15528357,0.12538862,0.08300336,0.00252307,0.10305581,0.12888461,-0.41723773},{-0.3435463,0.38043705,0.41824797,0.12968327,0.17358494,-0.15456468,0.0018702722,-0.061539017,-0.06556267,-0.0030750583,-0.486031,-0.41914734,-0.20307957,0.35699603,0.60042834,0.43419623,0.119536705,-0.1455892,0.102157,0.2257641,0.034276325,-0.15769345},{-0.17507365,0.052674025,-0.058792625,0.0387113,-0.10772243,-0.08272077,0.23534644,0.07031108,-0.1292293,0.3419325,-0.3752161,0.20882455,-0.1658624,0.004773051,0.21307562,-0.16613026,0.18130966,-0.115350485,-0.0068217283,-0.13933158,0.44678435,0.0295826},{-0.22990444,-2.1652706,0.22194518,0.01568555,0.069211185,-0.0698906,0.047847986,-0.06291181,-0.005292145,-0.06575827,0.12041226,-0.18286622,-0.15851171,-0.03150329,0.42179966,-0.06637976,0.06946855,0.13038327,-0.13169174,-0.108644165,0.057067033,0.071668655},{-0.2805509,-1.2469618,-0.3983471,0.08042994,-0.10844738,-0.05095074,0.042297363,0.023752414,0.00064527517,0.34463263,-0.061852995,0.16835783,-0.01028153,-0.12289247,-0.14698046,0.3207042,-0.06947355,-0.13181385,0.107734375,0.097250246,0.018330324,-0.14903611},{-0.18946224,0.50673246,-0.17460841,0.025588445,-0.09183105,0.039576374,0.050152294,-0.0059957253,-0.059012692,-0.068976976,-0.03651942,0.11564604,0.015288483,0.02091434,-0.06998663,-0.78743243,0.34339705,0.45649266,-0.4027662,0.049808435,0.09459373,0.20297556},{-0.025464254,-0.057841476,0.15600403,-0.081784576,-0.16643016,0.2821914,-0.15805927,0.06560343,-0.027171765,-0.39141577,0.44523355,0.06324044,-0.40012452,-0.33847916,-0.5616303,0.16446626,-0.070275165,0.06534166,0.04011301,0.04392849,-0.15026122,0.15043594},{0.006419739,0.5769426,0.3115046,0.057356242,0.028100997,-0.06841926,-0.054606285,-0.09884522,0.041843787,0.09981742,0.57443273,-0.5214795,0.251733,0.26636901,0.24788882,0.10187767,0.2015604,-0.21024343,0.09088563,0.08270643,-0.119204715,0.021576433},{0.0995649,-0.31679174,-0.8185162,0.0024012919,-0.01186335,0.06517939,0.0038800724,0.053551715,0.02033016,0.153953,0.18934533,-0.44851807,-0.044809587,-0.12700094,0.49739495,-0.062992215,-0.23906603,-0.048290562,-0.18381229,-0.2014613,-0.15802063,0.38337794},{1.6556737,-0.11504327,-0.44549063,0.06011194,-0.00016311526,-0.1766766,0.047942255,-0.050467618,-0.095505066,-0.30745578,-0.107150994,0.045627277,0.10441737,0.34667838,-0.077817686,0.191967,0.11746779,0.22316697,-0.2717662,0.22751616,-0.035193563,-0.11217572},{-0.6934787,-0.20056908,0.26610607,-0.04107986,0.0072110705,-0.024575176,-0.014404353,0.05240333,0.09613402,0.2889133,0.90264714,-0.023578143,-0.7389908,-0.56541556,0.39556107,0.22846775,-0.05433289,0.21455994,-0.23302846,0.1732068,0.06559708,-0.022729535},{-0.6087973,0.75391245,-0.3195532,-0.013650151,-0.1949946,0.07114401,-0.07831349,-0.009881993,0.03255106,-0.3804159,-0.33368883,0.2134409,0.04245318,0.4292227,-0.43131936,-0.09912841,0.08947381,-0.08687277,0.1811113,0.09884106,-0.18407807,-0.09799863},{0.4646404,0.28695598,0.475857,-0.07666211,-0.062356964,0.20457141,-0.05007828,0.06697578,-0.13138719,0.12498797,-0.49023598,-0.12169162,0.052796666,-0.29502034,0.26208457,-0.07585352,-0.20499931,0.39406675,0.25424248,-0.037841525,-0.42525667,0.05067328},{0.20144714,-0.41071782,1.220399,-0.0010373896,0.054914046,-0.06125568,-0.08248001,-0.019118175,0.11721661,0.27058116,0.06748533,-0.28314906,0.15270391,-0.15422146,-0.07184933,-0.12844218,0.10362897,0.042642266,-0.051986706,0.38039044,0.30666327,0.14393765},{-0.050303992,0.15206245,-0.12822571,0.014839648,0.07708426,0.036293242,0.0012256651,-0.070310794,0.05794193,-0.6037885,-0.11755329,-0.07537805,0.082396396,0.20046622,-0.033507362,-0.12834398,0.034639418,0.30228683,-0.38884938,-0.09733898,-0.15822987,0.11568656},{-0.5585858,-0.3536244,-0.17816141,0.0486809,-0.30310443,-0.038707282,0.13816254,-0.008197055,-0.012042087,0.14692335,0.48051524,-0.35398817,-0.33341295,-0.20578046,0.292954,-0.17057437,0.085494,0.037659764,-0.18587515,0.13007542,0.25839913,-0.16391727},{1.3190144,-0.61313874,-0.5152935,-0.052114177,0.09709796,-0.058942392,0.020112887,-0.0035726605,0.07233022,-0.6512575,0.21556905,-0.22161841,0.5894904,-0.38838845,-0.2752602,-0.025373437,-0.21208589,0.49472913,0.1408272,-0.0980836,-0.2711304,0.011981121},{0.084297046,0.1727437,0.33099464,0.1297108,0.12672551,0.050995108,0.09415694,-0.059967995,-0.075384334,-0.30096865,-0.093931526,0.12918338,-0.21506202,0.05067399,-0.09399447,0.03083828,0.06217325,-0.06639082,0.028306317,0.4244232,-0.168407,-0.33435515},{-0.1459873,1.0216585,1.0781864,0.03326734,-0.124303736,0.0148707945,0.096001446,0.016986439,0.0023153394,-0.007430933,0.090447016,0.05580801,-0.042351007,0.078880936,-0.057684157,-0.11064051,0.07236023,-0.42184907,0.012755687,-0.26797292,0.14870736,-0.2823851},{-0.80568814,-0.73615503,0.5855797,0.029640572,-0.028852504,0.045152694,-0.07094782,-0.0030215657,0.018123692,0.7016149,0.4658013,0.37247807,-0.033996414,-0.59233886,0.17463318,-0.08006308,0.016026694,0.2068106,-0.24772581,-0.07242527,0.09685414,-0.059614222},{0.26492196,-0.08264506,0.29188204,0.047880072,-0.094708495,-0.0025569946,0.06491771,-0.0042411895,-0.1439472,-0.29016125,0.25284374,0.1930881,0.20686117,0.060598362,0.03896347,0.1571784,0.18603574,-0.18788677,0.44222063,-0.01346859,-0.20359042,-0.32745954},{0.03850893,-0.2411407,0.21596627,0.014853655,0.13985525,-0.16552883,0.026137164,-0.084319755,-0.030258633,-0.0917177,0.37932926,0.520004,0.05884709,-0.09101928,0.18223609,0.20397595,-0.0838472,-0.23667973,0.12528916,-0.2090223,0.0040467056,-0.012543723},{0.16963395,-0.48122373,0.120959215,0.056370545,0.10965035,0.024831897,-0.07500662,0.046995822,0.16432744,0.22581106,0.12151198,0.452619,-0.099211685,-0.24397624,0.22490047,-0.009757417,0.2884412,0.15488867,0.0063760146,0.50614977,-0.08136776,-0.07900806},{0.24220312,-0.009969017,-0.7156137,0.010917551,0.15301012,-0.059227966,0.012910533,0.03369279,0.15576261,-0.07739827,0.03750818,-0.061823845,0.9037103,0.18351763,-0.16963412,0.12496926,0.04205656,-0.3033715,0.2080208,0.13264072,0.054608956,0.05595275},{0.05105858,0.333168,-0.89380145,0.030840328,0.043756895,-0.06740131,0.117336065,-0.0022783752,-0.04475493,0.23521441,-0.18299125,0.13046263,-0.75080186,0.5520163,-0.09150409,-0.3425031,-0.24147646,0.13143902,-0.025867207,0.114953,0.06986493,0.12214966},{0.32397535,-0.53065455,1.0411355,0.0130454395,0.05595751,-0.046950325,0.053995833,-0.04229038,-0.04937749,-0.08563258,0.08483203,0.28098214,-0.13706462,0.2994022,0.2892163,0.20022494,0.03131043,0.055632155,-0.23284586,-0.069843285,0.19309177,0.46073428},{-0.5948278,-0.012524917,0.0954271,-0.029123446,-0.123932034,0.11073586,-0.040347293,0.0093367165,0.034976993,0.37089592,-0.38850668,-0.6413352,-0.81510526,0.26595718,0.2993913,0.3665022,0.20012483,0.060505766,0.09342843,0.1573688,-0.024814555,-0.1376435},{0.46937653,-0.6751956,0.3203079,-0.0014413269,-0.040461075,-0.0247128,0.06855365,0.03111891,-0.027464222,-0.07403641,0.99056107,-0.04697493,0.2769889,-0.49412394,0.2570226,0.25230342,0.29153803,0.25492772,-0.17959392,0.0046295626,0.03105388,0.13909493},{-1.0366036,0.25081894,0.56177515,-0.0010809369,0.022936072,-0.14687079,-0.051880583,0.013651039,-0.037240453,-0.32541403,0.21266706,-0.40228873,-0.13991709,0.30650178,0.15610212,0.14049625,-0.15620796,-0.27991435,0.30414262,-0.234344,-0.17063265,0.035757214},{-0.10635083,-1.1187205,-0.78618026,0.010276908,-0.0038164011,0.14933403,0.060523085,0.025066579,-0.053172648,-0.030076867,0.9251155,0.3136403,-0.013944034,-0.4890066,-0.07327895,0.006303389,0.030077742,-0.035005655,-0.011031715,-0.05494838,0.2003542,-0.06142121}};
static const float linear_1_bias[48] = {-0.104620084,-0.08724842,0.33625594,-0.1540443,0.07681374,-0.0002731459,-0.07459058,0.04569449,-0.54773957,0.28929037,-0.018223653,0.017851612,0.071162544,-0.4143875,-0.24257743,0.33770135,0.036563095,0.28221118,0.42797738,-0.54377866,0.08862714,0.10587231,0.00860605,-0.25399467,-0.08732003,0.24585675,0.25848222,-0.21050356,-0.27843732,-0.30860233,-0.18656689,0.56149936,0.45759377,0.041722696,-0.33106932,-0.20778821,-0.131318,-0.2324266,0.36239055,-0.5312345,0.074924596,-0.06323679,-0.29794928,-0.10076114,0.10445207,0.24500237,0.17266482,-0.33559263};
static const float linear_2_weight[48][48] = {{0.44253165,0.14520474,0.55506283,-0.5123895,0.3385848,-0.09528205,-0.2963131,-0.1384838,0.04219146,-0.25872377,0.5110902,0.33657402,0.37096766,0.43011487,0.14973417,-0.19558987,-0.024848664,0.33178926,-0.18589976,-0.3322779,0.049765214,0.3827876,0.25342453,-0.057027094,0.06336,-0.085200354,-0.076903366,0.47260126,0.10064078,-0.33385795,0.1601047,0.19692777,-0.25691274,-0.31830004,0.30209765,0.026037151,-0.021234142,-0.08125762,-0.16196766,0.15465039,-0.06258167,0.13475582,-0.29759672,0.056111,0.2620983,-0.1913521,-0.43008462,-0.14495441},{-0.2658598,0.03725732,0.054174304,-0.2656276,-0.38017732,0.10692255,0.17845626,0.21490635,0.07902362,0.23934145,0.068383865,0.048029073,-0.08126508,0.6337157,-0.011726797,0.27737662,0.23163562,-0.101229586,0.06848375,-0.46072468,-0.05047786,0.5928314,0.67729557,-0.36814857,0.20023933,-0.044314038,-0.12958178,-0.15800513,-0.25279412,-0.14731564,-0.27845666,-0.04504892,0.052929834,-0.009591617,-0.40738937,-0.12390352,-0.26828584,0.26816764,-0.061113328,0.037805352,0.109289795,-0.0679409,-0.156666,-0.1209298,0.014349193,0.25617912,0.38860843,0.25311208},{-0.16985032,-0.07286848,0.09821611,0.29005343,-0.34718105,0.3473032,-0.0139317345,0.24235022,-0.20116556,0.053978678,-0.035217,0.11342866,-0.22426549,-0.03730673,-0.045337707,0.007737283,0.061699606,-0.050078396,0.17014691,-0.13342458,0.0966298,0.11010988,0.5003645,0.04661339,-0.07124338,-0.3137732,0.299709,-0.25658768,0.26909164,-0.091191165,-0.18853858,0.30069274,0.23402983,0.17980573,-0.43238336,0.055635966,-0.2470212,0.48452374,0.15061797,-0.14191483,0.41245615,0.049412817,0.13417053,0.16473642,-0.31691617,-0.25186446,-0.07854587,-0.47997275},{0.27108198,0.02079673,0.10752472,-0.09682743,0.26123017,-0.0489517,-0.0016782122,0.041321598,-0.38011858,-0.09212713,0.14624833,0.47729808,-0.122247696,0.07313128,-0.29246914,0.30315,0.016947182,-0.31840247,0.11100498,-0.3622906,-0.048188794,-0.014312664,0.057721555,-0.24300656,0.06451073,-0.26654994,-0.37039083,-0.04139551,-0.07634483,-0.2854782,-0.24654752,-0.07971988,-0.12032971,-0.120101295,-0.21621478,-0.048396036,-0.27925527,-0.21417257,0.19560306,-0.0031865072,0.09512317,-0.07684805,-0.12402057,-0.06972289,-0.0061219446,-0.10697818,-0.16861299,0.0013426915},{0.18059263,-0.09450525,-0.18101087,0.26092622,0.23760247,0.121964134,-0.21296218,-0.3195604,-0.10738995,0.068281345,-0.1318051,-0.17327158,0.13842924,-0.52820486,0.06730887,0.003625648,0.19267727,0.2860157,0.052018337,-0.31672275,-0.02907244,-0.5695363,-0.17072725,-0.0958953,-0.08264245,-0.4652799,-0.3043778,0.17803028,-0.18940315,0.2583891,0.17684291,-0.34963357,0.2614919,-0.224852,-0.39307866,0.16139413,0.17894074,-0.39081204,0.16053988,-0.077290855,-0.00807453,0.07290075,0.17890352,0.057204284,0.045554724,-0.23327735,-0.20082176,-0.6891087},{-0.25706178,-0.054954305,-0.14532293,0.30045635,-0.16100988,0.0778477,0.29486832,0.17346562,0.015012908,0.3604275,-0.28672427,-0.101969495,-0.12993465,0.2157633,0.27071825,0.16574998,0.22602533,0.022065535,-0.10651239,0.06948968,-0.19961724,0.030917028,0.20836967,-0.026079403,-0.09711372,-0.092388526,-0.044051982,0.007500105,0.025149608,0.35777608,0.13864356,-0.2297163,0.18165067,0.05575888,0.32594576,0.122673616,-0.35375372,0.10237982,0.016112134,-0.042976007,0.30446157,0.14492913,-0.08326263,0.060651604,0.009749002,-0.12554504,0.28267878,0.08111945},{0.104599446,0.1454713,-0.077936895,-0.22241619,-0.062990285,0.11170227,0.033925787,0.04145341,-0.16521679,-0.09203635,0.062250406,0.17777693,0.08049426,0.13781826,0.025409495,0.19940473,0.04038317,0.057235505,-0.3616195,0.0219542,0.052711505,-0.31748578,-0.039107382,0.16395503,0.12726331,-0.15109488,0.15607442,0.118531264,0.04897311,-0.20028715,0.27090526,0.5390426,0.03929993,-0.45375243,-0.08702969,-0.3300835,-0.16803974,0.11582139,-0.079321064,-0.08864511,0.14741309,-0.10479664,0.06634477,0.08862243,-0.12326517,-0.31589043,-0.12958254,-0.12527458},{-0.10588862,0.20298433,0.49032354,-0.26335043,-0.17076875,0.0063546333,0.3470996,0.024309183,-0.0029726624,0.16658738,0.26153472,0.32319608,0.007297063,0.023026701,-0.1467985,0.1678269,-0.22484629,-0.069620445,0.15594295,-0.11854716,0.0756034,0.35795248,0.56322926,-0.28480583,0.1703208,-0.21393204,-0.03002078,-0.264881,0.07828472,-0.2085453,0.07247016,0.3678019,-0.049218595,0.103451796,0.08750575,-0.05809399,-0.29411054,0.4048319,0.0346659,-0.17184204,-0.053324208,-0.1733869,-0.1662838,-0.06280687,0.074229695,-0.0169779,-0.011334478,0.19792923},{-0.22005741,-0.17650624,-0.23825468,0.20993195,-0.071956545,-0.20428981,0.2977109,-0.032937523,0.082937315,0.13546027,-0.17623086,-0.11983576,-0.23849025,-0.15349814,-0.21300186,0.29460335,0.085995145,-0.26732033,0.060085975,0.0029663283,0.21862291,0.11413787,0.08625177,-0.022524346,0.18983051,-0.048579972,0.22747663,-0.47144273,-0.038198616,0.24637483,-0.29909986,-0.023559654,-0.04536355,0.0069963615,-0.117074415,-0.24615417,-0.34253022,-0.016852856,0.25320208,0.12084977,0.040457334,0.13666199,0.1681169,-0.16954601,-0.19995409,0.0057467553,0.21824865,0.20284466},{-0.43599862,-0.13549882,-0.03152984,0.4297136,-0.0023737135,-0.045435444,0.31950995,0.13162683,0.15915208,0.2882753,0.14751749,-0.37733784,0.20865609,-0.29868507,0.011176671,0.55416507,0.1195931,0.03258163,0.28428364,-0.022460433,0.18792452,-0.3470728,0.28553015,-0.21008874,0.19610651,-0.060794685,-0.35129282,-0.28414732,0.14332247,0.18448973,-0.08357178,0.01655778,-0.05060638,0.05091439,-0.6736662,0.039958626,0.15101226,-0.018047651,0.090619974,-0.026824731,0.049843352,-0.1869559,0.09509998,-0.07660096,0.026024826,-0.19037764,0.1082033,-0.17036724},{0.13976778,-0.12226765,-0.20643859,0.27660063,0.10361622,0.08163745,-0.12709974,-0.44576377,0.0285922,0.049711708,0.11743181,-0.13450953,-0.046945374,-0.35559356,-0.29493997,0.033127833,-0.02716111,-0.18025388,0.23707749,0.10908469,-0.10414092,-0.5610738,-0.25799832,-0.31502882,0.016536992,-0.13246202,0.123775676,-0.14121327,-0.20018636,0.14661725,0.003261068,-0.41846702,-0.12250188,-0.38561326,-0.443238,0.2766773,0.26351485,0.00012505596,0.020396238,0.22079356,-0.07940702,-0.0019800116,0.29600316,-0.3064093,-0.32057524,0.20510551,0.38829157,-0.21647137},{0.17790104,-0.07927961,0.14236753,-0.051798154,0.37150946,-0.024533,0.2896848,-0.3373496,-0.0628955,0.117708296,0.29969648,0.40686882,-0.47360608,0.1612115,0.044118736,-0.14200456,0.34682295,-0.26374933,0.055534847,-0.006642483,0.25217178,0.4019299,0.11772449,0.3417735,0.434444,0.027034702,0.033301614,0.50224185,-0.24769916,-0.33318403,-0.38964832,-0.11770818,0.10517858,0.25621998,0.48529893,-0.10424912,-0.16045798,-0.21147808,-0.11728596,-0.13913622,0.13417718,0.120056726,0.19799325,-0.028008556,-0.0076545975,-0.045098826,-0.05199384,0.45678955},{-0.0030890803,0.14248382,-0.027120098,0.044707373,0.34150937,0.27770406,0.13718775,-0.07629524,0.18028904,0.014991325,-0.07199002,0.089318894,0.12771331,0.19967383,-0.24859443,0.3036769,-0.048455223,-0.35290495,-0.1635642,-0.025483996,0.21091016,-0.12656075,0.31000152,-0.46083358,0.13061091,-0.17011726,0.3005881,-0.25397232,-0.13054262,0.38737094,-0.07665742,0.15992214,-0.0902996,0.16925594,0.0042399736,-0.17629266,-0.23083583,-0.3364813,0.26591262,0.12406346,0.2736306,0.02092415,-0.006226333,0.021881333,-0.122114226,-0.15360557,0.21032853,-0.36196995},{-0.71180683,-0.20640938,-0.07735244,0.3161172,-0.53573066,0.3496476,0.20298517,0.5178198,0.2911293,-0.0661735,0.18646325,-0.048543304,0.028369559,0.24762286,0.06088211,-0.08032211,-0.38293847,0.3669455,0.06047175,0.3399321,0.007949928,0.29884556,0.3897505,0.32511964,-0.42252195,0.19454353,0.2498329,-0.51112455,0.3172118,-0.21283682,-0.11702893,0.2579135,0.03987099,0.0661701,-0.23089604,-0.12022547,0.23669071,0.4951316,-0.2546326,0.12762661,-0.0024380856,-0.07725318,0.14656278,0.15038711,0.619164,0.08531693,0.0026813215,-0.030162973},{0.022169784,0.35416162,-0.03128729,-0.00988538,-0.23136844,-0.013687457,-0.19309184,-0.22479399,0.11939264,0.1250034,-0.2934188,-0.19180751,-0.011065824,0.048455942,-0.17153598,-0.034360833,0.080893554,-0.37188402,0.038440883,0.047057822,0.14513347,-0.24032293,-0.19182667,0.35750088,0.02185875,-0.15626188,-0.014615199,-0.001160792,-0.38394412,0.01697498,-0.1316145,-0.16389717,-0.019321235,-0.24024823,0.06835514,-0.0055986354,0.2504016,-0.22668426,-0.113791764,0.121731855,-0.2796953,-0.027183903,0.13124268,-0.119446255,-0.22233114,-0.06959209,-0.11859084,-0.07040617},{-0.21199296,0.13543561,0.28068066,0.31232837,0.3413272,-0.06728696,0.1535888,0.1159974,-0.052726366,-0.119452395,0.039580595,-0.12933332,-0.3739471,0.05521164,0.1548805,-0.3788828,0.07331652,-0.35494184,-0.036368676,-0.14839014,0.005955962,0.24054587,-0.1802591,0.08940149,0.29381132,-0.10634581,0.09006536,-0.093933344,-0.26571044,-0.1151756,-0.09725846,-0.022146193,0.05111384,0.2756943,0.06902032,-0.20944548,-0.12030835,-0.008808125,-0.46417972,-0.19232874,-0.45535293,0.3085112,-0.09984454,-0.07876316,-0.15341131,0.1487715,0.26099893,0.36805227},{0.11982887,-0.24986388,0.14606838,-0.10369296,-0.12441246,-0.073696494,0.083313756,-0.2090153,-0.11316461,0.27420154,0.08484356,0.108887315,-0.0485497,0.2384335,-0.031762507,-0.13410075,0.074850336,0.06533959,0.035031646,-0.20897627,-0.09467429,0.18209845,0.3559504,-0.16019368,0.3964648,0.094177745,-0.0037467221,0.19672309,0.059884597,-0.08884094,-0.32382917,0.09470314,-0.13896345,-0.041874208,0.30661386,0.14261958,0.033683505,-0.22941132,0.19411165,-0.004853608,-0.027491005,0.1538131,-0.04634698,0.18950316,0.09979321,0.4485621,-0.093919575,0.67525166},{0.10257352,0.13716187,2.8315764e-05,0.5753333,0.26113957,0.07943376,0.06849017,0.07746957,0.44089815,0.0013145991,-0.12056614,-0.03659417,-0.58391255,-0.15930092,-0.13112874,-0.045455635,0.21757369,-0.18354604,0.2228979,-0.017472103,-0.121871844,-0.17402945,-0.009269943,0.40878582,0.26203373,-0.21195021,-0.009975201,0.20790334,0.30775556,0.17098176,-0.33730045,-0.5910585,0.09622882,0.041718893,0.5058043,0.106349334,-0.059077546,-0.09373427,0.062360346,-0.067910284,-0.10973667,0.31414238,-0.19163679,-0.17751741,0.009261837,0.41041982,-0.017968876,0.10497218},{0.082736164,-0.27953497,0.17777787,0.018597875,0.26109785,-0.14938699,-0.02248109,0.13991669,0.07358444,-0.09545136,0.06644367,-0.11185606,0.0031198864,-0.1338935,0.27991873,-0.11311338,-0.09844167,0.12849018,-0.096001774,0.115459815,-0.23612225,-0.2504498,-0.18222128,0.2063951,0.06502163,-0.031100841,-0.0027749042,-0.029150734,0.3925903,0.06627034,0.116500236,0.14922018,-0.16360316,0.12314991,0.19629501,0.18700933,0.14910488,-0.26241428,0.15444456,-0.025469698,-0.42936546,-0.28628984,-0.3152839,0.09133837,0.14668718,0.21205793,0.15509385,-0.1053007},{0.32201356,0.23135601,0.049072474,-0.17340197,0.22750312,0.28156912,-0.20898028,0.19752526,0.31594652,-0.3171625,-0.20742457,-0.33207268,-0.01574258,-0.14893296,0.05463863,-0.6990351,0.20010005,-0.13801974,-0.25114962,0.10482354,-0.19412243,0.12051318,-0.20650825,0.09942982,0.14767712,-0.17530093,-0.12828492,0.19149868,-0.10914265,0.29429772,0.06883142,-0.07393886,-0.12863962,0.10744642,0.39576024,0.34273437,0.09624163,-0.17254314,-0.045395065,0.10409478,-0.48753545,-0.09503553,0.2371279,0.05536702,0.1697166,-0.059555415,0.11373152,0.12439613},{-0.3931303,0.23984203,0.19681135,-0.08201659,0.1141654,0.16009347,0.025495293,0.3099425,-0.16616218,0.32114038,-0.038841616,-0.073797524,0.07278492,0.15417539,-0.07044135,-0.08994717,0.0079112565,-0.056200847,0.35293233,0.098392665,-0.034907963,0.12211312,-0.02105767,0.15245402,0.1879768,0.20803584,-0.20451024,-0.016444054,-0.03288385,-0.121373504,-0.19751829,0.08632775,0.10966123,0.055854198,-0.022372061,0.10710004,-0.041517217,-0.15892947,0.0007586982,-0.36324129,0.043118738,-0.01873969,-0.07880588,-0.30957666,0.07740378,-0.025512766,0.22712554,0.12110926},{-0.084332444,0.12511489,0.3757259,-0.12738506,0.12349034,0.0019067905,0.348747,0.06966591,-0.09912647,-0.31007394,-0.023244228,0.14811826,-0.025595373,0.20439579,0.029306382,-0.05455397,0.1004897,-0.049492005,0.059834532,0.053824183,0.10151537,0.06448798,0.21002555,0.12775862,-0.11385619,-0.12852082,0.13288441,0.18754277,-0.09184558,-0.08104272,0.14620009,0.3764112,0.26023093,0.21647589,-0.06797561,-0.48610944,-0.2164612,-0.1794782,-0.007085094,-0.41985294,-0.1419028,-0.028552357,0.14458029,-0.23426953,0.36309025,-0.3576582,-0.38162884,-0.27578434},{-0.10394337,-0.07159039,-0.37325424,-0.1672767,-0.42908895,0.07301064,0.024119698,-0.18046553,-0.12959272,0.42795962,-0.30103186,-0.0624691,0.16307776,0.070937395,-0.0713096,-0.054108404,0.05789267,0.09220257,0.17262459,0.12359489,0.199816,-0.025018446,0.0860992,0.3206973,0.08625133,0.1539203,0.07621379,0.01309979,-0.11777598,0.026480496,-0.18892612,0.18734916,0.3897813,-0.18563074,0.097129785,-0.15494512,0.12524074,-0.44536048,-0.27223772,-0.18291925,-0.035564184,0.07054152,-0.28258497,0.019872027,-0.32429084,0.41569856,0.29688948,-0.0405468},{0.22800575,0.40563893,0.3621707,-0.62134683,0.44991136,0.034764837,0.05673375,-0.3010601,0.0017135057,-0.14240283,-0.45029053,0.15524445,0.12909216,-0.39277914,-0.012066639,-0.33613676,0.0140350675,-0.30138984,-0.049462795,-0.19636802,-0.15856634,0.22559376,-0.10206353,-0.16432452,0.08388272,0.19288787,0.33888727,-0.03489029,-0.12271866,-0.39086714,-0.042297535,-0.10034975,0.029926106,0.16262552,0.5242812,-0.10278569,-0.19761522,0.0847621,0.09005268,0.12593606,-0.26769632,0.17094314,-0.5269782,-0.35964033,-0.057064056,0.5909185,-0.12091771,0.31018937},{0.02510932,-0.1381046,-0.16626063,-0.41770378,-0.32077962,-0.2900318,0.013797986,-0.21113032,-0.038567036,0.029270971,-0.22542463,0.10805685,0.17459044,0.37447622,0.02303526,0.056521863,-0.00405334,-0.06654638,-0.10346622,-0.31251436,0.109733835,0.6779993,0.21294862,0.09245876,0.22448471,-0.056014184,0.039108682,-0.03368318,0.24224088,-0.20052303,-0.32500663,0.19503284,0.06552344,0.097001575,0.083015226,-0.0974931,-0.1470502,0.49059772,-0.12331623,0.28305438,0.26590466,-0.11499994,0.0092119435,0.35148138,-0.3702613,0.42512444,-0.1440515,0.6011288},{0.7257787,0.015323237,0.119411305,-0.4827944,0.07612699,-0.08960093,-0.010532392,0.09428911,-0.03188841,-0.13190834,0.16404206,0.30057263,-0.5804693,0.17403877,-0.07804706,-0.16497432,-0.12659983,-0.018634934,0.0056022997,-0.08715735,-0.35205805,0.38833913,0.06395932,-0.3330401,0.24155185,0.10151501,0.40023604,0.32364842,0.23524895,-0.34465593,-0.0017756064,0.11443571,0.049847886,0.15601753,0.049375292,-0.20662463,-0.18317053,-0.4816988,0.2902813,-0.0805003,-0.013227649,-0.41403595,0.7116934,0.118075565,0.6319493,0.11274236,0.006766772,0.07337866},{0.26223484,-0.2882358,0.20193815,-0.43498427,0.05886087,0.25204945,-0.23069876,-0.22506146,-0.14702314,-0.17329329,0.11813584,-0.31589165,0.44715816,-0.26980904,0.20087856,-0.10436356,-0.10553688,0.10321411,0.0048081647,-0.1639176,-0.11293491,0.19105823,-0.5465645,-0.20387986,0.011167772,0.09699628,0.16344216,0.14256682,0.087033205,-0.23918563,0.0056964634,0.2631478,-0.066024244,-0.18153553,-0.38411438,0.062506214,0.063509464,0.038988743,0.28222775,-0.004259439,-0.054212186,-0.2674041,0.48378575,0.5238706,0.080460615,0.37569448,0.32331645,-0.0200734},{-0.4003236,0.02564142,0.18015204,0.20683944,0.115339674,0.33192047,-0.19812028,0.20970508,0.08220349,-0.11271256,0.28897098,0.22138269,-0.06393139,0.15501979,-0.26297662,-0.042635217,0.03505129,-0.25409782,0.24526598,0.32651854,0.07778621,0.027441803,0.023334851,-0.2790353,0.041723758,-0.113695584,-0.119084775,-0.3935243,0.040150315,0.103999674,-0.4053335,0.24806689,-0.065550976,-0.03969364,-0.104630984,0.026339395,0.32280442,0.06565944,0.22340223,-0.037742626,-0.22008465,-0.04538203,-0.0017112108,0.075099416,0.07458205,0.20249474,0.43287235,0.03191417},{0.4431014,0.49317822,-0.06518141,-0.49607927,-0.26355225,0.09008753,0.21136227,0.19556504,0.3106797,-0.12684025,-0.0040247384,0.2153283,0.19175047,0.7582588,0.022737421,0.13682811,-0.032951966,-0.19436252,-0.4018488,0.039939996,-0.032778054,0.54582596,0.4870672,-0.42286935,0.31799573,-0.2669039,0.011731232,0.165169,0.94955647,-0.32583392,-0.047205664,0.016045714,-0.17718752,-0.16633295,0.24835129,0.040917903,-0.43496343,0.46916515,-0.13690017,0.5703679,0.20582984,-0.068291046,-0.109818846,0.38578194,-0.0487198,-0.06536309,-0.086487286,0.915219},{-0.0715359,-0.0597388,0.11337906,0.66134447,-0.026279297,0.07985656,-0.23014969,0.25848907,-0.13378116,0.13628523,0.0020955848,0.09889329,-0.31527036,-0.3921347,0.289182,0.17058684,0.055831447,0.1900421,-0.2973334,-0.109638944,-0.21063425,-0.5796293,-0.24553078,-0.045391936,-0.056650106,0.49881405,0.29896325,-0.15324251,0.09325132,0.1109942,0.1432086,-0.17765747,0.24935693,0.04087059,-0.15118396,-0.12269366,0.14389771,0.13692188,-0.24398792,0.103112504,-0.14216721,-0.32918558,-0.18585192,-0.07114557,-0.2420541,0.13788696,0.11893228,0.117822476},{0.19300891,-0.006636369,-0.04133165,0.28108743,0.050165363,-0.26287228,-0.07798511,-0.09067297,-0.26963344,-0.11427335,0.11015501,0.18889375,0.079077914,-0.33249593,-0.22367911,0.1276386,0.18866101,0.20015669,0.1997589,-0.25634083,0.109348,-0.08938143,0.10417601,-0.07462428,-0.26055202,-0.123983026,0.04463646,-0.067748725,0.03942824,-0.2091628,0.18861775,0.22532779,0.21459939,-0.11414903,0.03857822,-0.1465576,-0.15323478,0.17383574,0.30052584,-0.1502483,-0.084716134,0.07687992,0.009644879,0.13910569,0.14001125,-0.11169287,-0.44662124,-0.13672489},{0.77417934,0.1125149,-0.09131316,-0.53758806,0.33116975,-0.405113,0.15312923,-0.53949004,0.08075499,-0.24909723,-0.04268415,-0.1908646,0.1422504,0.24609888,0.36467487,-0.20252146,0.020227822,0.05373574,-0.112697855,-0.15327047,-0.17255807,-0.0060780207,-0.1204213,-0.23088835,0.01684592,-0.027077619,0.10636434,0.5530513,-0.16805439,-0.2029314,0.2699125,-0.09371377,0.06523477,-0.12472643,0.5418152,-0.10187879,-0.028668502,-0.2177185,-0.0002142547,-0.012988852,-0.13455473,-0.020639399,-0.23078108,0.33561853,-0.13951144,-0.0632257,-0.35266417,-0.27088737},{-0.024917845,0.08626748,-0.062153075,-0.27754316,-0.07704848,-0.11533636,0.13748196,-0.0021693085,0.14017121,0.0024359182,-0.13911098,0.56837714,-0.47215766,0.28106895,-0.39792508,-0.08606624,-0.3060292,-0.34510615,-0.07132417,-0.079059124,0.2239549,0.47304934,0.23754829,0.30046204,-0.11892853,-0.34697536,0.3293996,0.08241873,0.3385082,-0.22236641,-0.41050845,-0.17549875,0.007454085,0.00955847,-0.109058484,-0.19267665,-0.47220144,-0.038010377,-0.012378681,-0.13924928,-0.07808833,0.21103524,0.067229584,-0.08039104,0.010526844,-0.099868335,-0.36739272,0.27367687},{-0.055548806,0.21315841,0.25280395,0.09215638,0.2323759,-0.22649711,0.03620621,-0.0003544856,-0.33771163,0.22638927,0.048711207,-0.07733853,-0.1976274,0.12532705,-0.034229536,0.11991541,-0.10688969,-0.18808903,0.16968003,-0.2387917,-0.13572048,0.09385176,0.122744896,-0.038278617,0.06437348,-0.28132334,-0.24693404,0.08879407,-0.03615267,0.2359452,-0.08019013,-0.07100098,-0.082385115,0.05419446,0.2036589,0.17536919,-0.19470052,0.06249697,0.24743776,0.13691287,0.1495004,0.06719689,-0.0897293,-0.06357198,-0.2460465,-0.025954174,-0.13770223,0.0066804946},{0.07905251,0.004676403,0.29214862,-0.33539665,-0.013056491,0.10690774,-0.07049412,0.13297164,-0.116596445,-0.18751805,0.32995972,-0.2970318,0.7342103,0.39912307,0.37951526,0.009569509,0.08135907,0.33603662,0.0061394516,-0.21848632,-0.117340766,-0.0040461477,-0.046700764,-0.0029086596,0.2506503,0.102768034,-0.7151628,0.09465018,0.028006524,-0.012507912,0.22598985,0.48685077,-0.10539517,-0.30426487,0.032152507,0.17712569,0.5752118,0.27706873,0.20672366,0.16177247,0.19866373,-0.47692528,-0.1272816,0.8188933,-0.2733931,-0.09340658,0.07074567,-0.086687095},{-0.08762292,0.048111543,-0.11047654,-0.2729069,0.06287894,-0.025628626,-0.13263497,0.12110824,-0.19513807,0.28927302,-0.25014064,-0.3761075,0.13037905,-0.15907522,0.068750195,-0.19620097,-0.012134531,-0.11203169,0.016901784,0.10762029,0.012492376,0.15091456,-0.30416614,0.026623571,-0.01271134,0.18843979,0.047463506,-0.40461648,-0.03513802,0.17474909,-0.0018015045,0.18991974,0.18023089,0.26234865,-0.071165234,-0.019325944,0.19021615,-0.11572378,-0.1440538,-0.049072005,-0.07056079,-0.36507174,0.04159537,-0.16967912,0.1887588,-0.06679719,0.7066062,0.048574906},{0.27510002,-0.16652775,0.2619311,-0.64018846,0.23282827,0.022039473,-0.29987153,-0.25233036,-0.27533364,-0.11050395,-0.03159533,0.33611313,-0.019235559,0.17691913,-0.15833504,0.09161566,-0.25357816,0.093201846,0.128488,-0.26704732,-0.04400027,0.5797193,0.14743863,-0.3339295,-0.3111715,-0.14251599,0.33987582,0.22342275,-0.18684661,-0.23992391,-0.19406176,0.3674149,0.192783,-0.16849868,0.60807407,-0.12766322,-0.41815087,-0.23547804,0.33116105,0.037967104,-0.18870382,0.21413827,-0.2352787,-0.116466984,-0.031505115,0.021409422,-0.038947564,0.16887985},{0.3483651,-0.09059399,0.078548335,1.0396746,0.31247956,0.22788829,-0.44736654,-0.14824547,-0.024870371,-0.104838915,-0.29490155,0.27649927,-0.9231327,-0.551883,0.028784242,-0.3106081,0.041124295,-0.15486135,0.051342774,0.01264656,0.06015641,-0.4685322,-0.20576897,-0.095385715,-0.13879135,0.14054948,0.27600458,0.47081533,-0.032791182,0.02015737,0.2185304,-0.6249576,0.14438473,-0.17920339,0.20861496,0.07835472,-0.15686674,-0.16704361,0.180939,-0.07778209,0.0060256524,0.11124559,0.5452626,-0.6266959,-0.1338229,-0.063488334,-0.31748256,0.09538645},{0.37490925,0.23492843,0.16277365,0.34489337,-0.028764548,-0.073542856,-0.13221484,-0.23957674,-0.10694691,-0.017357107,0.18684508,-0.037660643,-0.09153997,-0.5110667,-0.07186666,-0.4321447,-0.11977131,0.24882673,0.07404664,0.17064002,0.008088358,-0.81314546,-0.57407653,-0.022181977,-0.061116375,0.17846991,-0.11120229,0.06404588,0.37669054,-0.33527514,-0.024981938,0.2823419,0.11456562,-0.17886701,-0.1623857,-0.026195409,0.40767953,0.077598765,-0.0034121552,-0.116894014,-0.03591867,0.002981552,0.12119138,-0.21643469,-0.07857932,0.1620283,-0.33775976,-0.4413939},{0.13763396,-0.15161641,0.15458569,0.08892309,-0.30569297,0.07668435,-0.3896433,-0.05130779,-0.25519574,0.09664363,-0.32951352,-0.04738598,0.04476283,-0.3713258,-0.113988325,0.09997447,-0.1677664,0.16458416,0.22092862,0.30481473,0.08198112,-0.17039068,-0.12314267,0.0069145085,-0.15036489,0.17222664,-0.21814403,0.047294337,0.20886846,-0.066015676,0.3269222,0.40403688,0.027128924,0.10684185,0.09446151,0.23558739,0.08203338,-0.09792989,0.14609104,-0.34597558,0.24114276,-0.14851543,-0.1820534,0.07965917,0.03770414,-0.0678722,0.15342292,-0.34895536},{-0.58929396,-0.2982102,-0.029689973,0.37616056,-0.45900938,0.40128738,0.07815977,0.48704734,0.1403921,-0.25320572,0.20047534,-0.03282576,-0.06846495,-0.094470836,-0.16963723,-0.058802124,-0.35880014,0.2800216,0.025569191,0.6366009,-0.0050264737,-0.26590407,-0.20442636,0.16109522,-0.37651986,-0.023794193,-0.29796332,-0.40518773,0.5103785,0.51991856,0.024468917,-0.0014635638,0.13574247,0.17079808,-0.041636284,-0.105447814,0.23287171,0.09233555,-0.07720765,-0.31557786,-0.29713905,-0.075010456,0.39953262,-0.24298611,0.3032881,-0.30975148,0.12468923,-0.18830329},{0.2103015,-0.22810063,-0.2197807,0.23831014,-0.31030795,-0.114985384,-0.20710264,-0.014259218,-0.17214659,0.23480326,-0.2504125,-0.07623896,0.032041334,-0.315566,-0.12446482,0.18644702,-0.074031584,0.08173108,0.23117714,-0.1347338,0.023647904,-0.6216001,-0.14629574,0.022703242,-0.15831788,0.037417583,-0.023145746,-0.18480407,-0.34678596,0.24738525,-0.08131833,-0.102695785,0.539587,-0.3492063,-0.25028804,0.09104642,0.14646538,0.20298845,0.27985916,-0.056606308,0.077289335,0.06212756,0.19323824,0.25288403,-0.21455437,-0.030187842,-0.21696185,-0.2682798},{-0.11849989,-0.1729832,0.07185922,0.27013713,-0.0705688,-0.20108825,-0.29644984,-0.39293402,-0.2914186,-0.31143448,0.3161551,0.3983631,0.31380078,-0.0014094904,0.0050122375,-0.051048104,0.16397841,0.6425626,-0.12411862,-0.043975726,-0.057028033,-0.2698066,-0.13704878,-0.33451033,0.011302926,0.30951136,-0.08651976,0.17348382,-0.35795385,-0.043362357,-0.26067662,0.018444644,0.10392338,-0.19613011,0.27072847,-0.059272233,0.3933903,0.1540875,0.29175523,0.17880687,0.12378621,0.033814322,-0.05476997,0.4543123,-0.26135153,-0.029545493,-0.022932986,-0.019086676},{-0.016406797,-0.09982841,0.10595165,-0.31858402,-0.03489248,-0.18764915,0.16705967,-0.10175129,0.009796046,-0.05257321,0.09303428,-0.2589532,0.26641586,-0.10969965,-0.108931676,0.29612154,0.11831297,0.10617607,0.13633475,-0.09040543,0.1281202,0.12290039,0.09049919,0.07554832,0.1936628,0.13803974,0.17169066,-0.21070582,0.10228124,-0.2984522,0.007599957,0.15912117,-0.0021057285,-0.043484706,0.058638502,-0.07344207,0.18133537,0.09904537,0.33114415,-0.029754965,-0.38946375,-0.030463286,0.03489579,-0.040134113,0.0986507,-0.021433618,0.12832272,0.01977195},{-0.22550955,-0.18865635,0.22205076,0.0015660217,-0.38096127,0.012301148,0.25478044,0.30789676,0.13308932,-0.18564932,0.05890999,0.23675431,0.04965379,0.23673014,-0.02300781,-0.02869733,-0.29487753,-0.17324454,-0.4595655,-0.19769223,-0.10006926,0.10645898,0.21782427,0.18421437,-0.0887577,0.2540201,-0.19664823,-0.13636859,0.14376222,0.33213663,0.22696924,0.12371561,-0.29788098,0.2491012,-0.27153307,0.25906593,-0.051671434,-0.23013012,0.0821324,0.29684705,0.10720737,-0.13533846,-0.0831905,-0.0076636197,-0.0066656503,-0.058747437,0.06506775,0.0031624432},{-0.2222012,-0.060071997,0.033807848,-0.20413399,0.20341845,-0.26172906,0.2594963,0.41812262,0.19158837,0.17656174,-0.028261486,-0.09315288,0.24292293,0.043766912,0.008753668,0.096135944,0.13389157,0.21415552,-0.09394922,0.052710112,-0.34479728,0.23727022,0.13377559,0.022060294,0.07548938,0.19283713,0.1096286,-0.19231895,-0.09522206,-0.1421424,-0.004734135,0.12324483,0.023872966,-0.20068343,0.17802626,-0.076460674,-0.2840442,-0.14773285,0.15541363,-0.44450897,0.011629832,0.22474924,0.059163652,-0.40202224,0.44637766,-0.14391378,0.1500308,-0.13318886},{0.1783931,0.34141,0.36718675,-0.28478482,0.10347625,0.023540298,0.036976486,0.21715207,0.07756141,0.047915302,-0.20262276,-0.039191063,0.45202178,-0.332578,0.15122518,-0.062747516,-0.03737196,-0.34044743,-0.09385271,-0.22990052,0.059177287,-0.22250111,-0.22848853,-0.13852783,0.24678631,0.017172158,0.17949513,-0.21732803,0.2899407,-0.0984997,0.11232497,0.1763022,-0.2715357,0.2517867,0.11892778,-0.012843247,0.10301123,-0.028820701,-0.028896594,-0.05588901,0.11552822,0.026287714,-0.2576254,-0.27381018,-0.18012318,0.24370225,0.12306095,-0.05797309},{-0.19087918,0.33116034,0.16592059,0.12000943,-0.45007664,-0.11134499,0.36303705,0.1648757,0.35472938,0.068855286,0.012723521,-0.19976167,-0.3891642,0.006371148,-0.21353254,0.0966688,0.008316506,0.0975013,0.064398885,0.28673327,0.05446464,-0.032120287,0.0034826002,-0.0084625995,0.22742096,0.051638532,0.21114387,-0.6191388,0.051293466,-0.06614128,-0.02647851,0.17117605,-0.16262029,0.15208668,-0.021465922,-0.17715031,0.40641043,-0.14651357,-0.024220528,-0.32586604,-0.20180117,-0.16200514,-0.010364485,-0.086983316,0.25283468,-0.178257,0.3127679,-0.04944614}};
static const float linear_2_bias[48] = {-0.15621734,-0.109078646,0.33350363,0.19815266,0.11055512,0.19101992,0.11997672,0.17185545,0.16848376,0.14492726,-0.15055545,0.059784938,0.15487914,-0.09310785,-0.19279782,-0.11497994,0.07137845,0.08787905,0.08361557,-0.3896974,0.18815373,0.3328604,0.14305744,0.005604677,0.037138414,0.2093339,-0.0075243115,0.10768894,-0.32415187,-0.009345833,0.15683205,-0.05863445,0.12440943,0.13404685,-0.110914685,0.06079322,0.06348991,-0.07492521,0.08020975,0.1197367,0.01108465,0.22766387,0.23745008,0.22812544,-0.29136455,0.20367354,0.059594642,0.18672492};
static const float linear_3_weight[48][2] = {{-0.4357551,0.03776476,-0.2084173,-0.07281923,-0.06773105,0.359771,0.045273434,-0.16078869,0.0694188,0.19245745,-0.037063144,0.18715926,0.3699065,0.32928017,0.33808503,0.36537996,-0.24889778,0.13410816,-0.21866402,-0.027661072,0.22325735,0.07337317,0.08160259,-0.07088163,0.11276246,-0.32647094,-0.14227405,0.18112728,0.20473762,-0.113519825,-0.30681768,-0.37725332,-0.035428442,0.09486201,0.23533046,0.47014076,-0.36847612,-0.6704226,-1.1152195,-0.25501248,0.10473088,0.017768813,-0.09915253,-0.12559353,0.03899165,-0.010692569,-0.46548223,-0.028821172},{-0.17896266,0.48468202,-0.1445104,0.0145713845,0.47584745,0.20649683,0.10753424,-0.025463788,-0.11102494,-0.05875612,-0.09767358,-0.16133592,-0.110423885,0.2673039,-0.016422236,0.009541994,0.26870263,-0.14472745,0.034592804,-0.26790354,0.23947284,0.23322973,0.29405677,-0.01680988,-0.062152695,0.27691868,-0.12236267,0.19930044,0.1837176,0.2897826,0.015268912,-0.26097077,0.22243673,0.045312706,0.2869597,0.11443845,0.09454654,-0.29405093,-0.0124337515,-0.13769193,-0.12790158,0.10576038,-0.04103494,-0.23534194,-0.29234433,0.13581043,0.15942673,0.38426378},{0.035171017,0.4122973,-0.0004839895,-0.61605704,-0.21993424,0.20128429,-0.04602179,0.115106255,0.24524918,0.16222556,0.022142716,-0.28595117,-0.07669062,-0.16675086,0.20511721,0.0066653714,-0.03165211,-0.38534647,0.16060011,0.057743613,-0.051480856,0.09324639,0.020510312,-0.053636402,-0.05051709,0.0058193556,0.30897143,-0.004374413,-0.6848159,-0.22891144,0.04256047,-0.103677735,-0.2352619,-0.31017703,0.4451362,0.45310566,0.25267363,-0.63937324,-0.32574937,0.17569356,0.17152835,0.30522066,-0.08785528,0.102825396,0.112537086,0.12294939,0.327799,0.23695286},{-0.5421219,-0.14572245,-0.10335449,-0.38220036,-0.15648489,-0.1284439,-0.04673707,-0.23734397,0.18697886,0.13306424,0.4064728,-0.3444626,0.019656552,-0.0077749086,-0.09188806,-0.17748104,0.1716646,0.12178334,0.04115876,0.032030024,-0.01010468,-0.51517594,0.22751972,-0.051512886,-0.3596988,-0.22997098,0.4153392,0.21535735,-0.18784116,0.21726024,-0.10180962,-0.04284879,-0.5061178,-0.3206672,0.1885653,0.26975495,-0.5021275,-0.09933615,0.6086354,0.25398207,-0.013025517,0.069389015,0.21494141,0.060019698,-0.13085485,-0.1436802,0.38082197,0.20630677},{-0.0018198461,0.053536527,0.27368927,0.33733281,-0.056600068,0.2579012,-0.24269098,0.22747508,0.26744637,0.3276008,-0.043387495,0.18400155,0.112615645,-0.08288253,-0.045319736,0.055690475,0.092387736,-0.2659182,0.0939566,-0.37583956,0.33633003,0.22393586,0.13726667,-0.002620498,0.22112925,-0.05327649,-0.14689809,0.2826907,0.1484973,-0.23773833,0.041490797,-0.37896407,0.051595893,0.06931396,-0.25800756,0.48452112,-0.020082442,-0.2129591,-0.28656194,-0.1836097,0.24507515,0.05381652,-0.07419203,0.14942084,-0.13122067,0.071302876,-0.0116126,0.053965658},{0.5288733,-0.037110228,-0.29486406,-0.118892856,-0.19282638,-0.17758125,-0.442471,-0.26467103,-0.24232541,-0.35773358,-0.25493455,0.013946355,-0.4339044,-0.11005176,-0.11948052,0.33496976,0.6995272,-0.2993476,0.39379057,0.004090213,-0.114078954,-0.6392607,0.23930809,0.055338815,0.09486407,-0.05128119,-0.017134475,-0.021961957,0.2194635,0.14647426,-0.20926186,-0.09891231,0.20879996,-0.15576321,-0.34977806,0.1022412,0.07238546,-0.15605865,0.18387331,0.22038026,-0.47302005,0.20182978,-0.15640709,-0.11221404,0.29909104,0.16180892,0.12149086,0.23935519},{0.12332903,-0.036786795,0.12303582,-0.060013473,0.2892831,0.5363031,-0.016081244,0.048304804,-0.17588301,-0.20723386,-0.48272368,0.111306064,-0.3984375,-0.20020102,0.0116362395,-0.34102637,0.13466552,0.022469262,0.14291716,-0.11317834,0.04084291,-0.32153058,0.24090946,-0.4603359,-0.0041061267,-0.051793355,-0.10365441,-0.3912615,0.117703706,0.33756447,-0.022994503,0.1264384,-0.4998246,0.112220116,0.124173515,0.54747665,-0.22225037,0.25317398,-0.0065659853,-0.0305815,0.4977869,0.24115384,-0.09619753,-0.36665124,0.13118602,0.056493007,0.021985857,-0.1381746},{-0.1246116,0.08753015,0.018126216,-0.16229756,-0.22521754,-0.0015457683,0.11175237,0.01439045,0.23970962,-0.116564915,0.4450436,0.00544632,0.31434056,-0.040750023,0.3462198,0.3910079,-0.102935955,0.045361206,-0.23926625,0.012233438,-0.32922018,0.13209325,-0.21272348,-0.112169355,0.39905706,-0.015396444,-0.03298635,-0.14980227,-0.05597824,-0.1850438,0.006342532,0.3335906,0.034578197,-0.08057625,-0.34789184,0.13075003,0.04999747,0.41888604,-0.25084153,-0.114574805,-0.33149698,0.008197099,0.120487526,0.0728966,-0.3016137,-0.26315153,-0.03506248,-0.18080218},{0.23552077,0.04676958,0.0029050296,-0.16727091,0.16893043,-0.0107710995,-0.11032117,0.015747424,-0.21648519,0.52599424,-0.35671553,-0.15017906,-0.39590764,0.042805225,-0.27483657,-0.1301203,-0.003740731,0.19771749,0.022354966,0.065432996,0.104759164,0.4943653,-0.11099052,-0.124268934,-0.027448503,0.22722596,-0.024433384,-0.0408267,0.11306937,0.00031594868,0.08503053,-0.22509187,-0.072463706,0.53537697,0.1843457,-0.17934112,0.13065128,0.117699794,0.24624157,0.28665265,-0.1708569,0.011512448,-0.21999367,-0.09879426,0.13769081,-0.17454906,0.17927016,0.091357596},{0.29439482,-0.7117153,-0.15922588,-0.21499756,-0.010122204,-0.21419394,0.16940688,-0.24919954,-0.26889634,0.3222593,-0.29524606,0.25089234,0.2873704,0.32316494,0.13084464,0.014365353,-0.05139611,-0.09736235,0.11201129,-0.035662405,0.07868808,0.2515264,0.32564119,-0.0019240032,-0.27492484,-0.17756338,-0.026474694,-0.029273778,-0.016872702,-0.30225715,-0.20254765,-0.06407393,-0.07859777,-0.1859086,0.011524754,0.03691344,-0.102755405,0.33008114,0.27565625,-0.27792823,0.03609353,-0.5394642,-0.13295792,0.1392048,-0.35221198,-0.18525125,0.19882503,0.19446546},{0.20750311,0.11498756,0.004500585,0.3455285,-0.14160147,-0.24579813,-0.075001284,0.17886025,0.09862033,-0.20479733,0.35832593,-0.15489417,0.3517083,-0.17867906,0.31164715,0.18845215,-0.08251229,-0.2891014,-0.14815907,0.09074346,-0.14958201,-0.19187792,-0.31500867,-0.08965963,-0.32160762,0.026964247,-0.12229784,0.35829955,-0.49379665,-0.31697264,-0.049024943,-0.41722876,0.049829766,0.22026591,-0.10153723,0.15794212,-0.014442405,0.0043197167,-0.24014674,-0.053673327,0.27576512,0.20326616,-0.011696724,-0.19580257,0.1907451,-0.15372638,0.13764702,0.041547377},{0.4741969,-0.2973086,-0.16651644,0.15294442,0.009260563,0.03942667,0.03249584,-0.13180134,-0.17531824,-0.06320037,0.14649047,0.3009578,0.20107257,-1.3372911,0.37570888,0.03742763,0.11173742,-0.17401464,-0.04726622,0.14012869,0.10599856,-0.1127441,0.008137861,-0.055462778,-0.281282,0.0035807202,0.23851718,-0.1556231,-0.4064261,-0.10666914,-0.030835694,0.17844793,0.12269106,0.33171397,0.18627389,0.08045056,0.0178534,0.20889631,0.117141105,-0.03075697,-0.62401867,-0.20852645,-0.22562657,-0.19180207,0.021773923,-0.30555964,0.24689922,-0.35047194},{-0.2862766,0.10202073,-0.16693328,-0.12206756,0.10498114,0.1335249,-0.066830896,-0.13032325,-0.045805883,0.0013553153,-0.010517705,0.36212277,-0.19141659,-0.3045118,0.3730223,0.21719484,0.21217868,0.019144224,0.08502558,0.025096921,0.13310367,0.24666758,0.42173237,0.08212094,-0.030461295,-0.015815292,-0.21496157,0.01971779,-0.34944156,-0.368529,0.02736651,0.07191955,-0.25664485,0.13411473,-0.18993534,0.14273739,-0.09322866,0.431887,0.027192147,0.19330631,-0.13090618,-0.09052383,0.19663934,-0.15030968,-0.048016436,0.15107249,-0.05279195,-0.34629396},{0.21731958,-0.006216518,0.074405126,0.44167903,-0.30296046,0.338342,0.44369096,0.16971385,-0.08901245,-0.055462647,0.16837174,-0.7237348,0.073246665,-0.34400913,0.13127474,0.40510055,-0.04944733,-0.024727223,-0.18523556,-0.15836687,-0.12046813,0.020118842,0.061734162,0.016972106,0.13547082,-2.0746121,-1.2385131,-0.18297744,-0.21446471,0.36250114,0.4850997,0.25367483,-0.42221484,0.4676439,0.74086165,-0.1375922,-0.54895186,-0.32370174,0.2425769,-0.210007,-0.1765253,0.15034643,0.26845756,0.18735498,0.18573324,-0.08362106,0.54321444,0.048318677},{-0.22766633,0.07507252,0.18062899,0.020524723,0.1788135,0.06562629,0.29503942,-0.0011502327,0.28861752,0.117795765,-0.03052624,0.028029427,0.15873617,-0.18881994,0.10072031,-0.063171804,0.14957158,0.24352008,-0.040226433,0.42834547,-0.25383058,-0.08332523,-0.21718967,0.08912044,-0.060402278,-0.08314167,-0.4030342,-0.21020313,0.32069826,0.14122556,-0.015920779,0.2947508,0.28575844,-0.107145086,0.031675335,-0.15550815,0.09839546,0.06337179,-0.20078164,0.17520618,-0.49789402,0.19209313,0.2681266,-0.04141222,0.04780593,0.0839718,-0.037792943,0.10703978},{0.47872072,-0.27109227,-0.22133689,0.2087707,-0.084653094,-0.11916163,-0.18451038,-0.1993963,-0.3037308,-0.2625145,-0.29595143,0.515154,-0.0120972665,-0.8222685,0.32301432,0.31932914,0.25037754,0.032534882,0.14849561,0.06786669,0.1265254,-0.33602127,-0.07621465,-0.19467345,-0.17629102,-0.050567392,0.037862375,-0.23123962,0.013298503,-0.359395,-0.13210097,0.31017882,0.076064736,0.02431692,-0.01215325,0.1339084,-0.18827966,0.23196964,-0.008490296,0.1771158,-0.61152756,-0.3191263,0.19901614,0.0047670957,0.23388633,0.14470522,0.096573256,-0.55283576},{0.03426833,0.11184741,-0.20128663,-0.18401697,0.304244,0.06541572,0.060080227,-0.038172577,-0.31012607,0.32551485,-0.06951117,-0.13120341,-0.31034037,-0.18630666,-0.11160453,-0.05124287,0.062061954,-0.63186634,-0.01599681,-0.16888691,-0.096106604,-0.15859614,-0.14145166,-0.36620048,0.18199918,-0.30510977,0.10579133,-0.1999245,-0.2278356,0.17332956,0.012858924,-0.08357775,0.0486503,-0.059235826,0.09177193,0.06669857,-0.14189553,-0.081873536,-0.03935148,0.014797874,-0.23289582,-0.015831647,0.046678808,-0.2627722,0.17569658,-0.35220143,0.042666614,-0.42207655},{-0.36369288,0.26569396,-0.098476104,-0.037071165,-0.0016806673,0.044229236,-0.09065311,0.0028426098,0.054706212,-0.04197176,-0.012981522,-0.013034933,-0.3126419,0.13830686,0.05887468,-0.078504756,0.006956846,-0.119982086,0.2526999,0.379681,-0.12199905,-0.16015142,0.29828897,0.33906293,-0.06979563,-0.27455774,0.044271793,0.14624904,0.43324378,0.11367865,0.0970002,0.3735117,-0.34097332,-0.4029499,-0.2886198,0.29810268,0.20075046,-0.3064653,-0.29600227,-0.22393632,0.39987007,0.0638065,0.24601705,0.2864868,-0.17529523,0.0425028,0.16077998,0.3596362},{0.32405007,0.16612421,0.02506699,-0.348579,0.17829402,0.2309535,0.05844679,0.2405428,0.14003871,0.40522993,0.18931054,0.31610686,0.076667815,0.023108222,0.027289378,0.2838445,0.1749845,0.11890604,-0.17421973,-0.4895873,-0.32863486,-0.3966278,-0.1632338,0.0092186555,-0.04474422,-0.010810718,0.35087308,-0.14377718,-0.3290867,0.007199762,-0.21622337,0.42677766,-0.27148002,0.01772343,-0.03562282,0.27332494,0.039667327,0.4088914,0.42679387,-0.4190419,-0.5176258,-0.250848,-0.10412039,0.059546053,0.5955017,0.17058335,0.05735834,-0.20256042},{0.11545068,0.27439874,0.33301482,-0.6637249,-0.40403056,-0.15701574,-0.30588707,0.1933854,-0.27239,-0.3805965,0.38308096,-0.12333417,0.085890815,0.247322,-0.15316834,-0.0849051,0.047756813,0.0809848,0.33823332,0.34718955,-0.23744248,0.08120986,-0.3681662,-0.13138211,-0.075820744,0.01942035,0.104609296,-0.07441251,0.32134473,-0.24291213,-0.08294866,0.17401315,-0.52250904,0.013540692,0.1486546,-0.009620458,-0.156668,-0.12244631,-0.08627479,-0.15321094,0.010348861,0.28173748,0.15282199,0.04547933,0.18740271,0.36125252,0.061173785,-0.34186825},{-0.13266502,-0.32307598,-0.061137132,0.17230533,-0.5599401,-0.3366179,0.012260029,-0.30146703,0.101971805,-0.021140197,0.2990085,-0.06327691,-0.38879454,0.11876367,0.108887106,-0.10747125,-0.19272946,0.26104835,-0.03678197,0.076229334,-0.043732744,-0.055819243,0.25216904,-0.006993903,-0.23104477,0.035675503,-0.21390791,0.3240213,0.26768565,0.10746633,0.10077256,0.0036972896,-0.37303388,0.027761683,0.7366401,0.010522949,-0.309143,-0.08470298,0.21710318,-0.17761287,-0.08140498,-0.11876588,0.1196428,0.32676148,0.08375066,0.052558687,-0.020805249,0.048851486},{0.14834076,-0.23782331,-0.05722653,-0.2905163,0.0774341,-0.016677825,0.2393903,-0.26457945,0.10353229,0.08539542,-0.15344936,-0.2421362,-0.17876925,0.02380596,0.3802358,0.007845482,-0.24188061,-0.21770239,0.31201193,-0.09543934,-0.23898973,-0.045183484,0.013301639,0.24434443,0.21458562,-0.17675455,0.27519664,0.19724748,-0.31663597,-0.15821283,-0.357537,0.030810993,-0.020393442,-0.13896462,0.4629907,0.2907179,-0.012437379,-0.9005988,0.2727844,0.13361141,-0.06857071,0.24990995,0.16190986,-0.11725516,-0.22231732,0.13233858,0.116145745,0.16814418},{-0.5182331,0.1715925,-0.23434907,0.23867616,0.23050502,-0.042910434,0.017495101,0.114216685,0.13892052,0.3725719,0.29575264,-0.7072102,0.17795373,-0.09228858,0.31509674,-0.01627294,-0.28302574,0.2798043,0.0067732725,-0.0008256366,-0.06351079,-0.045335814,-0.14892852,-0.2398893,0.21761169,0.065389365,-0.085461825,0.26521182,-0.17777084,0.24722609,0.10148882,0.09920337,0.28531292,-0.01743223,0.24990006,0.044324044,0.056661267,0.09458394,0.38172662,0.5711089,0.012142084,0.032441583,-0.33515045,0.13206086,-0.3065271,-0.086187564,-0.24299437,0.058032453},{-0.19345734,0.14383298,-0.45818606,0.23145239,-0.046766575,-0.03871143,0.036629196,-0.103421696,-0.2211074,-0.1581338,-0.44359943,-0.10942584,-0.22081086,0.1931133,0.09195562,0.39698216,-0.014240249,-0.09516877,0.084502034,0.37864745,0.14985059,0.16764276,0.039024763,0.044497516,-0.22479053,0.2574926,0.10822785,0.13242717,-0.36121407,0.17514423,0.3223792,0.079737246,0.1570234,-0.06337577,0.40483105,0.15385598,-0.17998947,-0.32485718,0.074560866,-0.38882974,0.38204294,-0.07727224,0.18994483,0.03163112,0.009452675,0.61955535,0.1951459,-0.120248795},{0.1303376,-0.037290122,-0.03458419,-0.068851426,0.07600799,0.1488109,0.11289553,-0.012869602,0.11439089,-1.0738226,-0.20384829,0.41682968,0.00908211,0.08063674,0.101509936,-0.1753519,-0.1462834,0.16001378,-0.056894418,-0.3541528,0.03595185,-0.01701989,0.32285368,0.008611054,0.16036758,0.17696692,-0.04516415,-0.26011077,0.0014958644,-0.13200192,-0.11288365,0.35813037,-0.10203937,0.061555315,-0.051571827,0.19007565,0.060395245,0.14825223,0.20158975,-0.031820863,-0.0100285085,-0.15257153,0.25823715,0.09949495,-0.07109158,-0.011789026,0.040763423,0.1601358},{0.18779849,-0.2391324,0.30901322,0.22399534,-0.3249493,-0.22665727,0.19748075,0.21722203,0.099614196,-0.079635255,0.0745562,-0.17302188,-0.21464959,-0.013347988,0.12488602,-0.25172845,0.10562101,-0.28091848,-0.001384705,0.34620142,-0.009744184,-0.072513536,-0.009619749,-0.054902524,0.33424056,-0.08561249,0.21700983,-0.2023388,0.38747245,-0.27786943,0.34043387,-0.10570202,-0.083177656,0.29170197,0.16333611,-0.12623449,-0.0657989,0.0030728094,0.09703006,0.114955716,-0.026682345,0.2105616,0.028893141,0.27782255,-0.16925254,-0.20440538,-0.105337165,0.06474056},{0.085379586,-0.12296257,-0.026856568,0.10196444,0.4696937,-0.10282736,0.041460015,0.0655408,0.15625237,-0.18223794,0.20036247,-0.3000675,0.012912359,-0.14553227,0.26160237,0.14269352,-0.03368577,-0.13381182,0.09999707,-0.46031502,-0.19528444,-0.18145223,0.0083737355,-0.20835562,0.21648298,-0.09943932,0.27340278,-0.20772949,0.014206372,-0.17648971,-0.16349733,-0.07640656,-0.19003002,-0.2085809,0.26553905,-0.2895651,-0.11675736,-0.31911027,0.35865885,-0.05244984,-0.07040833,0.2084264,0.19662358,0.049941428,-0.47144437,-0.3590928,-0.034612905,0.19715156},{-0.18159506,0.26914483,0.68846554,0.21330355,-0.31998128,0.39295098,0.09540514,0.27742067,0.19198476,0.020745303,0.035138037,0.06560655,0.11308776,-0.06537774,-0.3490596,0.07388827,-0.15827616,0.025476523,-0.089879245,0.19636053,0.45088986,0.17361651,0.001751354,-0.12861611,-0.25181654,-0.063819736,-0.22360581,0.5265873,0.40453023,0.4185917,0.47677523,-0.30766776,0.055703454,0.115908876,-0.20594425,0.2862409,0.05220117,-0.22104387,-0.07277688,0.043731812,0.155585,0.2663316,0.064731844,0.27527028,-0.23751548,0.22158203,-0.13306022,0.14320517},{0.37645918,-0.52141374,-0.26587746,-0.09570429,0.10453058,-0.41746882,0.2246472,-0.15186311,-0.16372247,0.13077208,-0.083970405,0.22239846,-0.2897491,0.0025269538,0.23471543,-0.15863447,0.122921064,-0.38817373,0.2043429,-0.2444141,-0.019373145,0.1473418,-0.24622451,-0.07051459,-0.28261,0.2579474,-0.03899863,-0.00873814,-0.19047138,-0.09471282,-0.13792264,-0.08203007,0.0845787,-0.08798424,0.5441106,-0.29260933,-0.0463887,-0.04529585,0.36860114,-0.020747602,-0.36301446,0.05548504,0.36333236,-0.2417931,-0.12288484,-0.22383347,0.11103579,-0.09523404},{0.16257748,0.53371763,-0.15752149,-0.3424782,0.28649163,-0.42768613,-0.09528254,-0.06363581,-0.30757764,-0.11930585,0.0813994,-0.2724649,-0.35304496,-0.16632143,0.08978376,0.22654226,-0.15292758,-0.058225367,-0.3828522,0.0260471,0.116181366,0.015752792,0.0034289467,-0.036674857,0.47660747,0.18710539,-0.031033203,-0.1927281,-0.5575289,0.1788026,-0.24108593,-0.2347251,0.25623778,-0.043081757,0.043328788,0.11015325,-0.07543725,-0.09327691,0.032020282,0.10456245,-0.015283209,-0.23875774,0.012501881,0.049207225,-0.28002036,0.053178985,-0.01158558,0.06034502},{-0.003909381,0.31496307,-0.2896099,-0.21961781,0.19107488,-0.19357009,-0.3588071,0.25722224,0.035044864,-0.057176773,0.14436597,-0.4019759,-0.16584627,0.092469916,-0.08181954,0.2057374,0.6090943,-0.115882635,0.08427515,0.039013334,0.08335137,-0.54543686,-0.024128633,-0.050178774,0.24147914,-0.08645516,-0.00923084,-0.2837595,-0.30515626,-0.17184204,-0.27730536,0.058698438,0.013625174,0.021084381,0.1332074,0.11154112,0.09538095,-0.045968883,-0.19929184,0.25484493,-0.8657577,0.39125928,-0.21561208,0.003919854,0.27450994,-0.37748522,-0.07999592,-0.3497657},{0.18729994,-0.008081838,0.044484578,0.16583034,-0.22375955,-0.12431488,-0.22333518,0.33047295,0.0088451095,0.09048202,0.038183074,0.19701773,-0.08138596,0.0034835509,-0.08759109,-0.41512552,0.20939223,0.219392,0.36972198,0.2077242,-0.02637549,-0.29642463,0.01762134,0.1258468,0.20317672,0.19223815,-0.12146118,0.40691456,-0.2382152,-0.14399095,-0.101035334,-0.2517153,-0.15724996,0.0856446,0.033093967,-0.034839943,0.21302412,-0.57455695,-0.037741754,0.38872924,-0.52912873,0.018269118,-0.10925317,0.22680676,0.1787747,-0.045964103,-0.008514197,0.18268134},{0.1460892,0.09833243,-0.17291236,0.088368945,-0.10186479,0.10627875,-0.4046461,0.14209837,0.026024433,-0.16188924,0.025219558,0.021716662,-0.23992172,-0.1981855,-0.06593121,0.31389472,0.16872533,0.49801418,-0.31560853,0.062841594,0.051580094,0.40043712,-0.7930953,0.16743088,-0.20187272,-0.119351305,-0.080300495,0.2099613,0.41917822,-0.23189999,0.19112945,0.16813853,0.1041822,-0.035478678,-0.042588677,-0.045732483,-0.3011114,-0.048585314,0.09231088,-0.21176977,0.33677325,0.024908507,-0.032899935,-0.016247246,0.16847186,0.19648659,0.2011222,-0.06911543},{-0.2846119,0.17645371,0.02731951,-0.28567678,0.115926266,0.13155259,-0.26488158,-0.13583288,0.053287636,-0.1277705,0.08805406,-0.19723928,-0.12132607,-0.10405086,-0.061174475,0.054718994,0.012177092,0.34118003,-0.3452278,0.061096072,-0.05894276,-0.29016358,0.23233889,0.16723427,0.22048032,-0.25988734,-0.052898973,-0.22204657,-0.35905424,0.1919289,0.17359449,-0.18668525,0.32001838,-0.08907668,-0.48772615,0.13509597,-0.20814383,0.23183225,0.14657575,-0.24630374,0.06542632,-0.072406225,-0.2134327,-0.22727017,-0.109405674,-0.32868993,-0.065476984,0.29778007},{0.2800618,-0.014837994,0.19566879,-0.027697891,-0.0050574346,-0.08562756,-0.38864842,0.06469003,-0.27574623,-0.5442567,-0.3460776,-0.25129506,-0.051396012,0.14819548,-0.21678814,0.17020564,-0.0766518,0.4349525,-0.0790309,-0.16796261,0.14379491,-0.07587967,-0.20186092,1.4903761,0.14064597,-0.18720916,-0.0031264548,0.11540309,-0.17584299,0.051189672,-0.18663947,-0.2892869,0.038460787,0.034355626,-0.5427762,0.3019828,0.56319004,-0.12376392,0.19435932,0.26186025,-0.00798673,0.013375309,0.16295189,-0.06909106,-0.20389354,0.0060681035,0.9332587,-0.096864},{-0.19250278,-0.119461894,0.2892809,0.17596257,-0.0138656655,0.046095364,0.22535878,0.072233185,-0.052282356,0.14812186,-0.3924992,-0.081953324,0.32764933,-0.18425643,0.52979755,-0.03064197,-0.19522178,0.024555633,0.17154746,0.34852526,0.045321837,0.4429147,-0.085631736,-0.026158823,-0.34063014,0.33939683,-0.15003094,0.15323201,-0.0783762,-0.056665312,0.1958457,0.13413945,0.0197715,0.03746796,0.33962443,0.061792955,0.37397408,0.38532174,-0.10329393,0.17658907,0.036739804,0.30959895,0.16294745,0.11637436,0.20492508,0.3004357,-0.3073756,0.15420298},{0.615604,0.36337978,-0.20106967,0.034961183,0.0065905945,0.05507996,-0.17688026,0.10282747,-0.09153426,-0.055708032,0.4141465,0.24361067,0.02189949,-0.25531855,0.014735204,-0.2620316,0.34677026,0.06322955,-0.118039064,-0.026441442,0.012706638,-0.38095802,0.02180183,0.40358144,0.42178077,-0.07226539,0.23866552,0.13944007,-0.22957309,-0.17053106,-0.15740822,0.28610963,-0.024651116,-0.08148532,0.088340834,-0.14898916,0.25746188,0.27775556,-0.33461538,-0.20645119,-0.43099347,-0.09249097,0.19731988,-0.12131721,-0.1502554,-0.23608921,0.2429467,-0.11395839},{0.15986244,0.12058399,-0.06381394,0.31179115,0.10041836,-0.19314092,-0.13876353,0.29740223,0.03711197,0.2532326,0.11081081,0.044733882,-0.145314,-0.20222731,0.15036531,0.46586218,0.26374832,-0.099639416,-0.11478708,-0.101694934,-0.018620642,-0.1246156,-0.34195358,0.035869766,-0.22793755,-0.008534968,0.43534315,0.0639748,0.08222792,0.12873909,0.1698128,-0.16132616,0.011405734,0.30053535,0.056822084,-0.12066711,0.2919131,0.062509246,0.23233828,0.21427943,-0.17184779,0.45295882,-0.10895052,-0.004296672,-0.059970994,-0.13568813,-0.017577877,-0.22968364},{0.2369558,-0.45135105,0.09513855,0.28882477,0.038608037,-0.07788386,0.007487728,-0.14635493,-0.31597665,0.0804732,0.040364135,0.0296993,-0.1773003,0.15061574,0.041309204,0.17441621,-0.3838497,0.36017558,-0.14222205,-0.0895694,0.25162065,0.22245654,0.1248954,-0.12803103,-0.38538614,-0.11928292,0.033227473,0.19526468,0.4047136,0.07635298,-0.04757979,-0.16258872,0.2755102,0.23461094,0.21648568,-0.1030124,0.25693935,0.14085424,0.016493628,0.0185797,0.014541099,0.026032465,-0.23826969,-0.060446482,-0.35856926,-0.20528191,-0.08298259,-0.13401861},{0.48190945,0.11905214,0.36503294,0.18847659,-0.41752526,-0.11254922,0.08432606,-0.014822501,-0.116287276,-0.17072731,-0.50147545,0.17368227,-0.16478169,-0.2226361,0.0014206746,0.08049925,0.06764442,-0.007821763,-0.14613095,-0.034304433,-0.101561606,0.1552402,0.02489059,0.53393024,0.33013973,-0.30838057,0.22229344,-0.5291757,-0.034262553,-0.25507754,0.052010827,0.36071855,0.26596218,-0.022728581,0.24073677,0.19740663,0.54651433,-0.13023502,-0.48023298,-0.16640684,-0.03536471,-0.1828051,0.07980672,0.22040178,0.009991565,-0.22856495,-0.035074692,-0.14471547},{-0.21041739,-0.24173222,0.14893171,0.22513166,0.095858686,0.24681151,-0.053740237,0.117990434,0.009746742,0.13419266,0.24416229,-0.12700173,0.35567737,0.116338894,-0.16219603,0.11932497,0.21594085,0.07879295,-0.0029000998,-0.820103,0.22816677,0.17152491,-0.020881787,-0.20122786,-0.056561105,0.23209098,-0.12397996,-0.044276692,-0.12594318,-0.46188933,-0.04780228,-0.14142688,-0.29640037,-0.11555865,0.21603118,0.23854402,-0.12316838,-0.16568103,0.27246267,0.53921574,-0.05698333,0.06525534,-0.065628886,0.15897785,0.10685355,0.31753755,0.044207484,-0.17338936},{-0.05719905,0.35386583,0.096982926,0.055515368,0.37427852,-0.27604064,-0.015577154,-0.099672765,0.026662229,-0.07741812,0.04690433,-0.0039582145,-0.45179296,0.14123803,0.081892304,-0.23119245,-0.31457964,-0.12131715,-0.46428373,0.044015445,-0.11323188,-0.006105398,-0.10862906,-0.087258905,-0.035042223,0.03752228,0.04226513,0.2040358,-0.23979186,0.19685799,0.10916754,0.09311875,0.1944502,-0.12165523,-0.19727497,-0.009774215,-0.064120665,-0.11664765,0.04196379,-0.031012384,0.40338314,0.03649464,0.14447296,0.25659683,-0.54508144,-0.0837614,-0.2533919,0.20673522},{-0.13750191,-0.2644874,0.25380015,-0.20387666,-0.1470414,0.2771991,-0.16255295,0.03254768,0.08918814,-0.11244694,-0.04784178,-0.16493258,-0.13692518,-0.1441658,-0.0024841665,0.13222831,0.06758284,0.24826089,0.35054868,0.079279795,-0.062312342,-0.18925859,0.036770698,-0.08262999,-0.004995894,-0.10733323,0.06587809,0.5797838,0.14074987,0.058941644,-0.1344807,-0.41968453,0.26990104,0.08480733,-0.528352,0.24224347,0.14651246,-0.44397187,-0.30911148,0.2838796,-0.041853208,0.11297796,-0.37114808,0.15542841,-0.086069345,0.17584357,0.3117761,0.34269008},{-0.098851286,-0.05800696,0.25310984,-0.038923647,0.19892326,0.20019753,0.27552983,0.17577106,0.050366785,0.11395119,-0.11005724,-0.22929567,0.16496603,-0.0523081,-0.2750349,0.07533151,-0.020074656,-0.3302433,0.050720904,-0.18506075,-0.31200185,0.07480934,-0.636029,-0.08383691,-0.16455743,-0.077274024,-0.20231731,-0.08775699,-0.2414744,0.19552888,-0.12410405,0.011038408,-0.17182414,0.106991045,-0.24610321,-0.28502816,0.29798046,-0.16160522,-0.13530803,0.1068539,-0.07648373,0.033072446,0.23318318,-0.24285115,0.19564337,0.12935199,-0.1880567,-0.1579714},{-0.14242014,0.2663306,0.23644131,0.099451624,-0.38477764,0.09182587,0.1362929,0.088743456,0.16479588,0.33162105,-0.31346342,0.24847756,-0.34907228,0.37321594,-0.048982427,0.10067892,0.22660084,0.292,-0.51739204,0.21624187,-0.04835617,-0.3559563,-0.061918195,-0.004979048,0.36588886,-0.074564055,-0.016635165,0.26342562,0.04368604,-0.1418084,-0.10164192,-0.34465247,0.103404045,0.018005917,-0.37639996,0.0019153705,0.2407309,-0.19490951,-0.14069483,-0.39680514,-0.15719536,0.090965495,-0.5081571,-0.30007163,-0.047679447,0.06939836,-0.007400536,0.07027948},{-0.011342668,0.41225374,0.1729982,0.123503014,-0.000724385,-0.07450888,-0.09112349,-0.06960275,0.10853591,-0.07482101,0.101342544,0.06829976,-0.2848145,-0.044859886,-0.4175988,-0.17064548,-0.0026665442,-0.45235854,0.010256344,0.09989808,0.1583912,-0.3350414,0.1756621,-0.1484361,-0.11519653,-0.7263143,0.71998954,0.3222328,0.15036872,0.10314275,-0.057738975,0.12760006,-0.32992226,0.03358062,0.41750902,-0.28106475,0.39355123,-0.0059606736,0.02764811,0.011189858,0.18990704,0.3065191,1.2993538,0.21520095,-0.26614237,-0.24079403,-0.79307365,-0.7422381},{0.023563802,0.19182041,0.41386524,-0.071640246,0.164293,-0.065962434,0.01669519,0.04443874,0.33655924,0.14670208,0.17314576,0.2135836,-0.23489758,0.27153793,-0.4199177,-0.21310444,0.08791405,0.4178268,0.013686933,0.19514342,-0.062045433,-0.37780493,-0.08176189,0.08257832,-0.12717207,0.05454595,0.21186195,-0.07097324,0.09722827,0.21291976,0.20209633,-0.104453444,0.07206446,0.036229376,0.359886,-0.21075857,-0.066437535,-0.37001285,-0.10265568,-0.10146073,-0.014720391,0.24813408,0.19542478,0.063982636,0.013878686,0.4211063,-0.1172962,0.06638632},{-0.16187055,0.006889363,0.29715684,-0.043088123,0.28814235,0.44236696,0.42558652,0.20055665,0.19467232,0.5226745,-0.18246317,0.2105248,-0.06814644,-0.32121742,-0.18195397,0.13231187,-0.03810779,0.18476935,-0.09700356,-0.074447654,0.22442138,-0.012628297,0.34571463,0.11561867,0.21789527,-0.08317693,0.008696919,-0.23588473,-0.11386394,0.15710767,-0.39806712,-0.21956123,0.22337377,0.067058496,0.022246914,-0.23273927,0.081989296,0.24098043,-0.04883426,0.09635636,0.0006961775,0.10583331,0.40823534,-0.08486619,-0.22065255,0.23498926,0.017325874,-0.22096767}};
static const float linear_3_bias[48] = {-0.14381267,0.18970886,-0.023683595,-0.064185776,0.11988197,-0.27123237,0.0016268028,-0.1649666,0.002054389,-0.08888056,-0.1375323,-0.06407314,-0.008524249,0.008171279,-0.068206996,-0.09412417,-0.18758255,-0.028945647,-0.10862236,-0.0496456,0.07972286,0.017648205,0.038502958,0.0617801,0.058428682,-0.07380609,0.017446209,0.23534784,-0.057879888,-0.06146781,0.040418737,0.093922116,0.08120286,-0.0802835,0.087241225,0.12285677,-0.10990363,-0.018369058,0.104254365,-0.042981043,0.1222186,-0.012645935,0.12847133,-0.008294719,-0.25757614,0.04647104,0.14858335,0.19937006};
static const float linear_4_weight[48][48] = {{0.07569081,-0.02832029,-0.74752086,-0.24693319,-0.31274796,-0.08201896,0.038888197,-0.122607246,0.101700425,-0.06950213,-0.7295708,0.079705,-0.35046515,0.14687672,0.33640113,-0.2997246,-0.3133603,0.53907216,-0.41480237,0.40158132,0.21401434,-0.35576728,-0.10084112,-0.098565295,0.12631844,-0.005843288,-0.3851111,0.28363898,0.02366209,-0.422695,-0.1955948,-0.093935646,0.028356098,-0.23575811,-0.0056847795,0.21017621,0.39852828,-0.17632604,0.32170844,-0.3365713,-0.05895166,0.040801793,0.2590068,-0.020055963,-0.11985235,0.10174094,0.44053552,-0.2662067},{0.23556368,0.063221864,0.54386747,-0.06680294,-0.3376649,-0.049469635,0.14050184,0.45154613,-0.27386624,-0.27586532,0.00075722235,-0.06319943,0.29028696,-0.10837905,0.30362478,-0.2803845,0.104769744,0.18798873,-0.07863583,0.53915125,-0.031433,-0.106297046,-0.22110191,0.12809238,0.15980886,0.014501895,-0.32736427,0.37506375,-0.310673,0.19233176,-0.06864601,0.1784626,-0.0685721,0.35806075,0.0030319612,0.20332724,0.0030743037,-0.1497545,-0.124571376,-0.13316698,0.006400279,-0.10636499,0.06808724,-0.06545384,-0.31420183,-0.09829585,0.32655287,-0.10042042},{0.14042501,-0.051612087,0.05587236,-0.046534326,0.2748895,0.15185732,-0.12716483,-0.006398478,0.11268449,0.28179768,0.2041225,0.07448305,-0.02336338,0.009426535,-0.4703143,0.24461173,-0.11008447,0.06789342,-0.30745983,-0.4546778,-0.1410007,0.053158008,0.06764528,0.11283347,0.19660424,-0.0684488,0.10319058,-0.17342602,0.0037777899,0.14934261,-0.007932949,0.24872804,0.23482962,0.07241616,0.17426248,-0.2659519,-0.48139843,0.174228,0.03315579,-0.036553435,-0.14828654,0.20753647,0.07955931,-0.346238,0.3776216,0.2885826,-0.39944336,0.0647975},{-0.025360173,0.20036711,0.08398683,0.4707997,0.40486485,-0.41967633,-0.04831616,0.315612,-0.23811962,0.26127946,0.27341527,-0.09939504,0.15641072,0.112158395,0.089714006,-0.2593576,-0.023368025,0.014579986,0.027347226,0.11818855,0.4496848,0.2051873,0.26424798,0.3399001,-0.022445945,0.13196485,-0.06582401,0.10118272,-0.29112655,0.02087436,0.00059150497,0.14154343,-0.034471788,0.066342264,-0.14125402,0.113737844,0.39829206,-0.009028095,0.040376205,-0.20209736,-0.34099364,-0.035435777,0.08035197,-0.095708214,0.4929532,0.14402625,0.011930118,-0.11594042},{0.060090616,0.046202857,0.44395548,0.17901343,0.10589232,0.2713761,0.15192632,-0.08709011,0.08166123,0.00790788,-0.067938186,0.29941905,-0.3353847,-0.2149186,0.146255,0.24800766,0.028198378,0.00013760569,-0.09623735,-0.07800032,0.3542461,0.49349946,-0.1823378,-0.14755549,0.23173174,0.21094024,0.118074685,0.017947996,0.5916129,0.10862301,0.007710936,0.13898921,-0.25676745,-0.49940965,0.2486103,0.13326222,0.058542453,0.030716171,0.04103954,0.28776348,-0.19553898,0.52154654,0.19299547,-0.33604968,-0.4025766,-0.2263294,-0.19636478,0.29718217},{0.061865892,-0.1698833,0.0008511502,-0.33122486,-0.37004286,-0.046533428,-0.18580948,0.13230115,0.11224973,-0.46658626,-0.06271327,-0.35192034,-0.22827075,-0.020814478,0.06700117,-0.34087205,-0.2969176,0.18519306,0.022868194,0.26947644,0.1445572,-0.28929192,-0.018554505,0.030208139,0.14286813,0.49873945,0.019581834,0.55277425,0.055213675,-0.24097453,-0.075762786,0.12387817,-0.063510984,0.11352586,0.017508898,0.28543642,0.00861096,0.12996244,0.17417027,0.1039095,-0.16341226,0.2958407,0.57470584,0.06554957,0.4993096,0.17381905,0.630597,-0.044578463},{-0.06468225,-0.039975416,0.0004937787,-0.05289607,-0.17406026,0.33497304,-0.07322114,0.0022131132,0.3557112,-0.4249972,0.58633196,-0.102183364,0.15648901,-0.07996124,0.15713455,-0.01928524,-0.34743246,-0.20780143,-0.62009746,0.09679642,0.19561723,-0.009957041,0.47127414,-0.63685095,-0.19810116,0.66826457,0.39397523,-0.31627265,0.08535994,-0.10133221,0.45167845,0.27514684,-0.031041905,0.080736585,-0.026944797,0.09185575,0.0014378983,0.4652175,0.12776752,-0.058161944,0.2914923,0.21152101,-0.243374,-0.15273227,0.27324858,0.00805664,0.16591541,-0.30961666},{-0.027205499,0.21669112,0.30800426,0.29199064,-0.11091655,0.17044483,-0.059564773,-0.020973362,0.54373133,-0.6800305,0.2839342,-0.077286005,0.076582365,-0.106755726,0.12314474,-0.03801459,0.26360786,-0.28291985,-0.27425957,-0.08990395,-0.191246,-0.094455495,-0.0071560685,0.106963664,-0.55825865,-0.036249436,0.023621865,-0.08987604,-0.03585212,0.21164224,0.014430608,0.044066757,0.08904072,-0.35187265,-0.049362376,0.078411594,-0.13169912,0.4229567,-0.1367599,-0.18784127,0.26733893,0.08357176,-0.20779598,0.124330156,0.10558339,-0.13077566,-0.25698787,-0.043849345},{0.3009563,0.31130636,-0.10657111,0.27967843,-0.014005612,-0.15409845,-0.41821948,-0.0843395,0.37662923,0.27563015,-0.25777358,0.23454426,0.11415007,-0.100476965,0.047343142,-0.32300013,0.4000002,-0.4142524,0.048071157,-0.16678247,-0.35250032,0.0894008,0.4309728,0.18488868,0.08683758,-0.15536042,0.14301014,-0.36896148,0.28961292,0.40993357,0.13325864,0.028042294,-0.10725884,-0.11389687,-0.22687486,-0.3155997,0.24537566,-0.018445106,-0.10669746,-0.13921453,0.14867301,-0.045282606,-0.18251614,-0.13396138,-0.03041255,0.21158428,-0.1866996,-0.096088685},{0.34967405,0.14414556,0.312621,0.09741294,-0.0437966,0.07500673,0.16350563,-0.0845621,-0.066067204,0.2559717,0.3563888,0.3096704,0.15868865,-0.19874117,-0.10207251,0.19140524,-0.23147474,-0.4621546,-0.23596291,-0.25179404,-0.12500094,0.218528,0.04644223,0.14061877,-0.33124945,-0.29116255,0.104341805,-0.42282802,0.003044959,0.12855475,-0.3652056,-0.42120937,-0.1232238,-0.24708186,-0.0145940995,0.13689406,0.020047761,0.17857097,0.62706584,0.19754998,-0.24618363,-0.015150728,0.010700105,0.083770595,-0.91608596,-0.1678725,-0.40009856,0.064107955},{-0.17711063,0.164619,0.27343938,-0.042870358,-0.19435056,0.37818587,0.3599578,-0.3871572,0.11563835,-0.34805992,-0.092003606,0.23468897,-0.06431586,0.40735087,-0.23101433,0.3182663,0.27912873,-0.1577,-0.21384175,-0.025529046,-0.35833997,-0.098193735,-0.61738473,-0.09267066,0.07780597,-0.20727922,0.13604689,-0.05298991,0.27263483,-0.32197028,-0.09472994,-0.21935195,0.12367675,-0.41492152,0.27861407,-0.19557478,-0.29618385,-0.0028025785,-0.13721593,-0.23755571,0.31775388,-0.51377076,-0.056276232,0.44173744,0.13138403,-0.03805046,-0.10914228,0.23645613},{0.1363294,0.12889463,0.07152827,-0.096747614,-0.08279456,0.3228132,0.28024313,0.0722535,0.13563193,-0.30901217,-0.25643453,-0.031862427,0.32512045,0.1354342,-0.09263043,0.25163102,0.15554783,-0.25845936,-0.07772249,-0.033075497,-0.0025506467,-0.14503716,-0.04223034,-0.5205088,-0.26443428,0.22367433,0.071765125,-0.13869321,-0.022275899,-0.3548851,0.57261133,0.1822034,0.055238612,-0.18449137,0.11574227,-0.2789165,0.18961254,0.12878333,0.28563628,-0.23041008,0.36828592,-0.34026122,0.31260514,0.014244083,-0.41559651,0.07676868,-0.038940355,-0.0630246},{-0.10226461,-0.024458239,0.2779377,0.19432661,-0.13072415,0.06792887,0.36140242,0.05239117,0.0812786,-0.2658984,0.043585014,0.013758682,0.19070387,0.007988216,0.3036054,-0.2850605,-0.17232846,0.14359026,0.25961477,0.43455482,-0.22884862,-0.05644752,-0.11412032,-0.15776642,0.029141901,-0.31233752,-0.13957834,0.1485691,-0.1773679,0.12532274,0.18348089,0.53107303,-0.1910841,0.16376115,-0.07506892,0.09763898,0.29649875,-0.18419103,-0.28876135,0.031990405,0.14278233,-0.02884081,0.36894974,0.057895347,-0.039614405,0.053606503,0.3303736,-0.041054603},{0.0017696342,-0.06810354,-0.2250075,0.06540463,-0.069394626,-0.09173971,0.39291245,0.06658759,-0.16003957,0.11919167,-0.47680417,-0.0764402,-0.35094026,-0.154584,0.08994185,-0.00042905862,0.06430581,0.12078267,0.65378517,-0.08525732,0.27239057,0.21758677,-0.06321864,0.088378474,0.5567349,-0.00033067874,0.19251631,0.024011899,0.095840335,0.020018991,-0.16725835,-0.09030796,-0.22924128,-0.034351517,-0.1504988,-0.4215678,0.1055754,-0.332529,0.02306843,0.2345246,-0.24333966,-0.016947962,0.2589629,-0.14471692,0.20403919,-0.13994244,0.057324238,0.43605408},{0.072421856,-0.31427202,-0.024392033,0.18594709,0.09406604,0.13131928,-0.017906725,0.26702833,0.006760499,-0.03360246,0.11000363,-0.25336272,0.09013325,0.044336755,0.21839912,0.08752333,-0.25136212,0.3174253,0.15211299,0.2074275,0.22986147,0.10944437,0.21289699,-0.32834437,-0.1661444,0.31754157,-0.045752272,0.2946324,0.10580072,-0.4099363,0.041535817,0.42580047,0.020094575,-0.04498263,-0.19669802,0.0982487,0.17264575,0.05280819,0.23121618,-0.07170929,-0.040509935,0.14199848,0.0075963647,-0.20172042,-0.21721503,-0.07064451,0.12292332,-0.09310587},{0.17957078,-0.15045998,0.08061053,0.32441702,-0.1486538,-0.010124347,-0.012069051,-0.06892873,-0.1709864,0.07880582,0.23299102,-1.0238388,-0.33974725,-0.23644505,0.017179567,-0.31701118,0.06648322,0.22448224,-0.23396465,0.29084873,0.08230546,-0.090675406,-0.12563841,-0.030847244,0.08559002,-0.06429376,-0.006871577,0.122958496,-0.27515897,0.31526873,-0.17633046,-0.2041985,-0.12644394,0.12422178,-0.26280195,-0.04425774,-0.30123824,-0.19332053,-0.22831157,-0.05171273,-0.16059594,0.18630874,0.11339507,0.038231477,0.19338205,-0.52473915,0.20321545,-0.35066158},{0.013500453,0.44885924,-0.07114333,0.18955415,-0.08072817,0.04585669,0.07604168,-0.2962232,0.017880196,-0.10883045,0.016185958,-0.3127411,-0.064742,0.12084396,-0.031700827,-0.534587,0.34737012,0.09493037,-0.23549968,-0.124772884,0.0018453546,0.025349915,-0.09074196,0.41334856,-0.13257396,-0.020117259,-0.005093674,0.054186612,-0.15188879,0.50097156,0.03192447,0.23348625,-0.14668596,0.2364399,-0.06667911,-0.05717339,-0.02797334,0.14529862,-0.48710856,0.16335903,0.035692107,0.119538896,0.022805525,-0.06759078,0.7653793,0.007870928,0.06264037,0.11256894},{-0.3315605,-0.2942904,-0.0880573,-0.13731667,0.31462747,0.16924372,-0.22963887,0.2159299,-0.31518134,0.027669905,0.17197725,0.30049574,0.19440587,0.007707337,-0.061352573,0.05490917,0.020090556,-0.38674966,-0.036545027,0.027398724,0.3692036,0.31859165,0.24834998,-0.13266881,-0.12037572,0.24366,0.13437797,-0.056379903,-0.12536864,0.17942557,0.5674617,0.40249875,0.3937484,0.17009915,0.16444041,-0.16950624,-0.19291365,0.3250232,0.09286169,-0.19718708,0.062315352,0.0051955385,0.1848972,-0.06386831,0.45268813,0.16801952,-0.011985881,-0.3355681},{-0.24362339,0.39457005,-0.058032118,0.19279364,-0.28712893,-0.03289869,0.35182083,-0.120346464,-0.55444926,-0.18558526,-0.09122031,0.12140079,0.17216432,-0.09379174,-0.29299876,0.42884552,0.16461374,-0.16410443,-0.03295461,0.29718426,-0.1679987,-0.101524316,-0.48643827,0.2998091,0.195979,-0.14076118,-0.16049866,-0.1541938,0.054300882,0.15441583,-0.061820548,-0.31128064,0.016806103,0.1339882,-0.16868033,0.14125,0.038792923,-0.09208641,-0.2309829,-0.21052378,0.2580962,-0.26446667,-0.25875625,-0.14862868,-0.2141527,-0.037532363,-0.32981262,0.07469129},{-0.07213689,-0.34240514,0.13503501,0.350911,-0.35998324,0.45063394,-0.18155628,0.08392946,0.3794065,-0.22321297,-0.02996842,0.08806103,0.117392585,0.004643299,-0.17964686,0.08535791,0.2289038,-0.13522924,0.11005206,0.32224843,-0.17620514,-0.26310033,0.09188515,-0.3917005,-0.28985474,0.17205223,-0.18928608,-0.09850294,0.17482957,0.075151816,0.3961341,0.0030467266,0.045529682,0.029294271,0.36031055,0.01281597,0.18531488,-0.070261136,-0.18045254,-0.15878499,0.019448612,-0.17567493,0.036284525,0.037484195,-0.17970085,0.07552112,0.3019763,-0.14014542},{0.19797939,-0.08745997,0.37321228,-0.17984761,-0.14126286,0.39167044,0.15448318,-0.15583076,0.25316763,0.12697068,0.22486444,-0.33853164,0.12855269,-0.09277808,-0.09515294,0.12292172,-0.22405449,-0.27779695,0.01327662,0.22684452,-0.23037063,-0.22665218,-0.45319644,0.15119117,0.02775537,0.08285668,-0.12032712,0.19652073,-0.037435893,-0.30494964,0.12931901,0.47692615,-0.1480192,-0.30636212,0.23863603,0.26052034,-0.0538433,0.27053958,-0.18188721,-0.08527065,0.16881055,-0.50746524,0.21602912,-0.029287064,-0.5500357,-0.087235585,-0.051899508,-0.048445348},{0.5648554,0.28410572,-0.10901279,-0.038327392,0.10452115,-0.4227711,0.03834254,0.17753826,0.09567922,0.24704844,-0.089029096,0.06290414,0.534488,-0.03942887,0.06710037,-0.06615071,0.0399275,-0.07793184,-0.14773852,-0.2412014,-0.38396588,0.23400688,0.568193,-0.08186159,0.10675144,-0.22671838,0.22163393,-0.4272564,0.23277172,0.14520682,0.12579435,-0.22726968,-0.13566916,0.23400699,0.021395233,-0.38800043,0.17607424,-0.015546979,0.06398457,0.037250064,-0.094487496,-0.051795173,0.10549703,-0.29746777,0.2670305,0.15037012,-0.29604468,0.21824186},{0.20529205,0.3639626,-0.1902118,0.21389256,-0.12683715,-0.24297982,0.3301042,-0.13668707,0.013297212,0.14637518,-0.51887983,0.29354805,0.059557993,0.04423944,0.03138219,-0.055062916,0.20213625,-0.024012137,0.00614519,-0.1168108,-0.124866776,-0.039506666,-0.016022472,0.2115203,0.17433377,-0.20746803,0.011750563,-0.21822424,-0.0376093,0.40023383,0.034922738,-0.20115156,-0.05917941,0.27333763,-0.077587955,-0.17858498,0.34328374,-0.1790857,-0.013627245,-0.20853467,-0.013655472,-0.012321411,0.16781974,-0.14577179,-0.015387881,0.19286317,-0.11159326,-0.061811954},{-0.07519453,-0.28866696,-0.51252574,0.50662565,-0.24503522,-0.14493747,0.19271109,0.33393267,0.087440275,-0.057393774,0.31426027,0.15565197,0.2735752,0.090546966,0.22254384,0.22129339,0.13760947,0.09572464,0.21688318,0.15004398,-0.039375473,-0.30073327,-0.10391086,0.065896206,-0.024514334,0.10458567,0.103451215,0.12766013,0.06290967,0.28515056,-0.1590657,-0.21388598,-0.038555928,0.35971227,-0.08247956,0.13854556,-0.15994811,0.024980413,0.33985442,-0.48231575,0.017512273,0.23908885,-0.073892124,0.29288596,-0.29419065,-0.21350497,-0.12359962,-0.030884322},{-0.023895333,0.02317172,0.13460599,-0.07422491,-0.29717752,-0.014450222,0.15070829,0.052754194,-0.10382895,-0.23877151,-0.074196234,0.2951425,-0.021290809,0.085102,0.28792727,-0.3564641,0.012617971,0.291241,0.46734962,0.47498348,-0.10927147,-0.25902253,-0.06700676,-0.04276334,-0.279827,0.019859752,-0.22643852,0.24485238,-0.40652484,-0.47017875,-0.00086823484,-0.23467138,-0.0025560404,0.01114882,-0.4387347,-0.18021306,0.41638324,-0.24812986,-0.1098838,0.05865328,0.09923181,-0.20850754,0.33851856,0.3776876,-0.246132,-0.16011883,0.32087302,-0.023048015},{0.10909784,0.008863745,-0.18188415,0.15185393,0.0074795815,-0.16298889,0.22454229,-0.011087729,0.04694014,0.069647565,-0.24012633,-0.295302,-0.2942285,-0.23055327,0.010622436,-0.34604347,0.10883351,0.20249061,0.056485478,-0.1368108,0.06665467,0.36919707,-0.023582038,-0.06942571,0.1512536,0.04146978,0.20126167,0.08264317,0.22527826,-0.3510677,-0.44360396,-0.16903663,-0.30235988,0.022881,-0.13204482,-0.3794113,-0.13387856,-0.31821793,0.096761934,0.029168027,-0.20635065,0.032980204,0.16742516,0.11358607,0.08254516,-0.37019563,0.029134179,0.45266166},{0.50132895,0.29204774,-0.04183493,-0.38814196,-0.05463394,-0.04851004,0.162285,0.00416737,0.18901962,-0.025336089,-0.2692059,0.109657705,-0.009836132,0.22108582,-0.012376506,-0.02931804,0.1405747,-0.107739456,-0.14555168,0.06408287,0.107253,0.16375175,-0.105731465,-0.069755666,0.18626381,0.016186664,0.07654654,-0.019883823,0.023770422,0.30916125,-0.1827096,-0.2749743,-0.20162857,0.2755924,-0.03027802,0.05361453,0.08900311,0.060004335,0.1173902,0.18544818,0.009265458,0.26263237,-0.11557959,-0.18425395,-0.07439023,0.22777134,-0.17198814,0.32473046},{0.0075722663,-0.02063908,-0.25140783,-0.1672753,-0.0037639192,0.16665901,-0.12729359,-0.17396635,0.13673504,-0.09583557,-0.07423106,-0.1584426,0.21196885,0.23710719,-0.17462127,0.19822423,0.060604386,-0.15931858,-0.36213726,0.09801235,0.07524509,-0.26579973,0.029773124,0.05060947,-0.29652804,0.10586293,-0.1594773,-0.0667431,-0.19861467,0.11294501,0.40346506,0.20432195,0.25685406,0.0964103,0.042576853,0.13616958,0.028418057,0.3302982,-0.015741728,-0.12616608,0.26338124,-0.015577965,-0.14201444,-0.240678,0.0792391,0.32017383,-0.052232046,-0.41650063},{-0.11216544,0.32172832,-0.10665342,-0.09766121,0.00021055472,-0.40008372,0.52032447,0.0016670537,0.10622685,0.13085948,-0.18368542,0.11009818,0.16190195,0.23225312,0.14479528,-0.11882346,0.07788218,-0.06618517,-0.020483868,-0.20564646,-0.11759168,0.04021799,0.123851925,0.36792153,0.2763434,-0.137781,0.14940871,-0.18102159,-0.13534962,0.34111673,0.110065795,-0.23324344,-0.09640952,0.26680905,-0.20568606,-0.29922146,-0.2866213,-0.020881983,-0.102722324,0.051743153,-0.05167084,0.06146325,-0.21596478,-0.17877816,0.09979779,-0.060011957,-0.18698873,0.123758055},{-0.079180606,-0.017972177,-0.2507433,-0.17798735,-0.015722957,0.1900114,0.013647794,-0.20918263,0.02259965,-0.04350316,0.13066784,0.020450084,0.19710861,0.28550357,-0.22732553,0.32570854,-0.23902501,-0.07364827,-0.21124554,0.1459692,-0.03304101,-0.37374315,-0.047434103,0.061692256,-0.14851236,0.035409935,-0.311244,-0.075495385,-0.16521372,0.07645092,0.11736424,0.013265946,0.41420513,0.20721371,0.16920738,0.24727106,-0.055482436,0.21493968,-0.056418266,-0.27799007,0.25106192,0.03853234,-0.033133417,-0.19328147,-0.20826451,0.35032436,-0.08901777,-0.47046256},{-0.058345318,0.08715855,0.4203808,-0.40059116,-0.20013994,0.2402043,0.52642655,0.015631784,-0.23765583,-0.17898744,0.35814098,-0.29003164,0.20837274,0.0066795726,-0.07981071,0.122635394,0.053381387,0.08286789,0.13839415,0.6015564,0.058615357,-0.09447801,-0.2845564,-0.14935024,-0.2386968,0.19263919,-0.22668758,0.13600959,-0.41406655,-0.12155162,-0.050411623,0.4071304,0.26283693,-0.18288419,-0.057240304,0.16893202,-0.55650234,0.113018245,-0.31129068,-0.1972526,0.13218674,-0.17260124,-0.16439441,0.09135479,-0.40433192,0.0625817,-0.0049948795,-0.28757906},{0.3457171,0.08298306,0.12949517,-0.47009647,-0.152663,-0.21112245,0.101375066,0.0048765945,0.25781897,-0.1907162,-0.2148319,-0.25623447,-0.45577124,0.083997466,0.18956096,-0.18743205,-0.20689632,0.28216666,-0.10150827,0.4307948,0.0602486,-0.23749849,-0.15783025,0.19520198,-0.011053389,-0.037188992,-0.17965548,0.5081321,-0.25806585,0.27137938,-0.0773174,0.018461218,-0.09110608,0.12900645,0.062074676,0.18793172,0.28330418,-0.025084617,0.11443653,0.2770362,0.085932955,-0.07068944,0.10870409,-0.13290033,-0.011993733,0.1945114,0.36021477,-0.17007025},{0.21689372,-0.12780002,0.32910028,-0.08184073,0.17736498,-0.4028265,-0.2686121,0.4730168,-0.04072479,0.32575348,0.06001243,-0.25097513,0.04191917,0.10601381,0.21063772,-0.25730082,-0.16215031,0.05646908,0.23282133,-0.072265536,0.361953,0.2658051,0.52912873,-0.09245803,-0.06666882,0.123563476,-0.2253177,0.08286974,0.035380967,0.3000684,0.11714518,0.33337572,-0.048101574,-0.09340234,-0.23937427,0.13213255,0.1941178,-0.09767932,0.05410657,0.20546646,-0.21495053,0.34514052,-0.4214216,-0.13433313,0.05554122,-0.08736776,0.1604468,-0.19828576},{0.06428518,0.20211849,0.20478687,-0.30457482,-0.14495274,0.42296624,0.40046993,-0.30441085,0.23771967,-0.4381612,-0.1275519,0.45082217,-0.10404388,-0.18905285,-0.25950822,0.31922048,0.20081402,-0.36217508,-0.20831867,0.01039178,-0.4293585,-0.051869173,-0.34710947,0.027057689,0.12094198,-0.11494767,0.17370546,-0.113608316,0.07842104,-0.28697526,0.14198586,-0.06702636,0.10632347,-0.28660545,0.113603845,-0.10070823,-0.25455987,0.20730595,0.034754608,-0.2527944,0.3003291,-0.47695184,-0.08438044,0.29098052,-0.012389904,0.14907683,-0.16087553,0.21251193},{-0.2711104,-0.010973013,-0.1537952,-0.22514065,-0.21608362,0.083269626,0.26671976,0.09612385,0.23851709,0.05064673,0.02033713,0.14876805,0.022802718,0.4376294,-0.042494755,0.07881655,-0.05633844,-0.3483219,0.04778161,-0.06052763,-0.09095283,-0.3229349,0.08918057,0.072884075,0.21283194,-0.15550518,-0.16497144,-0.09125636,-0.048584633,0.050893243,0.106387876,-0.1072082,0.19589405,0.036842264,-0.41618815,0.22725466,0.3191657,0.12875804,0.37274352,-0.16501501,0.014142544,-0.0066538346,-0.22017385,-0.08203828,0.25701237,0.3880121,-0.06957933,-0.2653333},{0.09123166,0.21147867,-0.13623141,-0.036729548,-0.026128737,0.22525568,0.33554605,-0.39411494,0.29875597,-0.32050195,-0.37855622,0.23584715,0.12354345,0.005409473,-0.21097487,0.1960598,-7.962934e-05,-0.099128604,-0.022328664,-0.02357245,-0.10692905,0.0077349306,-0.46050656,-0.27983415,-0.114931755,-0.23994653,0.10756893,-0.07736507,-0.11222945,-0.4027229,0.07492478,-0.08625659,0.09641882,-0.07447945,0.30302933,-0.19088474,-0.08242841,0.07583167,0.18731622,-0.08883476,0.3059198,-0.4795969,0.17110242,-0.057159334,-0.09927614,0.27125517,-0.008766347,0.13986333},{0.011216122,-0.119736955,0.02216993,0.0692915,0.25549975,0.08924258,-0.20148726,0.081176236,-0.008233742,0.13714471,0.3728129,-0.008428599,-0.019513888,0.032964773,-0.013971856,-0.07131069,0.06986353,-0.28132933,-0.080151334,-0.46062467,-0.18842363,0.473084,0.2767933,-0.18790998,0.10194745,0.27342895,0.57630944,-0.15109332,0.033462,-0.14790802,0.51341367,0.13523287,-0.0119086085,-0.13692406,0.22367688,-0.29402462,0.12486603,0.29369968,0.5377526,-0.003984857,0.038306963,0.08798049,0.350382,-0.1704819,0.3592021,0.4100757,-0.32096764,0.15940775},{0.40176085,0.07601089,-0.18582419,-0.14952071,0.47623876,0.025019668,-0.034410328,-0.12139509,-0.04416294,0.36342904,0.3439385,0.017068982,-0.20214453,-0.04636198,-0.24554193,0.30864978,-0.09754344,-0.13829973,-0.6042628,-0.29711804,0.26565146,-0.074603386,-0.07258299,0.25612804,0.0296892,0.16146196,0.077367425,-0.20371039,0.37019068,0.23515718,0.0197312,-0.12364719,0.2504815,0.1946648,-0.044044048,0.3308071,-0.074983366,0.3234295,0.44593757,0.053412825,-0.40780425,0.11973783,-0.16675153,-0.27011633,0.38069528,0.3013779,-0.5386375,-0.06408655},{-0.26653236,-0.098612405,-0.18828084,0.3027023,0.02351552,-0.21494243,0.038274784,0.36181277,0.05572069,0.24546672,0.1983596,-0.42827347,-0.03344396,0.0077425367,0.010399785,-0.12605786,0.121214986,0.19966584,0.28037587,-0.060675737,-0.06995123,0.14908227,0.07933637,-0.0856397,-0.008046628,-0.17696688,-0.13330439,0.015875565,0.5545435,0.108421564,-0.35783222,-0.49873853,-0.33819562,-0.09576433,-0.27032316,0.12056014,-0.0040896437,-0.25665563,0.22939035,-0.19858791,-0.10084572,-0.002661738,0.2265429,0.053110667,-0.40704638,-0.44680673,0.003961621,0.18495396},{-0.57102025,-0.0480918,-0.12206293,-0.3472799,0.052863095,0.26133463,0.0054825093,-0.061794486,-0.10062351,-0.16211222,-0.07454269,0.2152886,0.12583272,0.11052431,-0.056406263,0.20007257,0.20967525,-0.10808406,-0.34533253,0.11874045,-0.024563976,0.061460868,-0.076313004,-0.23600465,-0.17996103,0.2604011,-0.050093655,-0.06673322,-0.16067357,0.12317835,0.4849405,0.3388985,0.36590782,0.31058833,0.15920432,-0.13057584,-0.079718426,0.32329082,-0.17402035,-0.261585,0.44441116,-0.3264507,0.23503757,-0.13382658,0.17779866,0.2962428,0.10085305,-0.20869477},{-0.0056058667,0.05249837,0.18563087,0.23303382,0.03627921,-0.45573178,-0.36359695,0.34786832,-0.01347797,0.31734166,-0.24250107,-0.3140274,0.04691834,-0.4153588,0.6137875,-0.49805355,0.148573,0.06866631,0.4254793,-0.11347862,0.052997526,0.15034096,0.30052,0.13890617,-0.017146738,-0.05242726,0.041106835,0.07092396,0.040262714,0.22367978,-0.08193546,-0.27178022,-0.55992395,-0.09433415,-0.013291722,-0.06765777,0.40456972,-0.31140417,-0.07525253,0.34885946,-0.26385728,0.11356851,-0.18553436,-0.05233843,0.06738442,-0.3508182,0.066502884,0.2634838},{0.34734306,0.09493007,-0.18674403,-0.27456576,-0.025990447,0.05915602,0.15753688,-0.33248,0.075738624,0.228629,-0.034615308,0.22837165,-0.10958324,-0.18450814,-0.24990079,0.2484482,-0.19925775,0.18866731,-0.5807387,-0.13913907,0.16991906,0.35348338,0.040609755,0.51958936,0.18481977,0.12801738,-0.17336573,-0.24970937,0.101301186,0.3597666,-0.29131246,-0.21330245,0.07478212,-0.066170044,0.04865939,0.025020426,-0.09609517,-0.14372723,0.30858445,0.13874002,-0.42807835,0.1432806,0.3125827,-0.26702622,-0.25986707,-0.14187399,-0.3192235,0.020859243},{0.056581255,0.25781098,0.5357193,-0.08455552,-0.26583382,0.40419418,0.28215152,0.00845789,-0.06659401,-0.430775,0.37939182,0.23035803,0.21286659,0.03347458,-0.20758876,-0.10124375,0.3614439,-0.09242024,-0.2893537,-0.11131841,-0.63802207,0.03300973,0.12172034,-0.1710441,0.28007877,0.046107132,0.4415936,-0.26474878,-0.083325095,0.24695548,0.42360845,-0.1332855,-0.16107656,0.19265419,-0.24912286,-0.2982989,-0.038148247,0.25930956,-0.4738497,-0.0887262,0.33812767,0.050126087,-0.23466659,0.07124155,0.55243677,-0.09474799,-0.08563831,0.3400824},{-0.32720304,0.011436017,0.2536868,0.09538111,0.021618044,0.1851846,0.32830185,-0.20309749,0.1650239,-0.12612182,-0.071902625,0.021711443,-0.02230011,-0.13795881,-0.16278431,-0.13609694,0.18516213,0.11787144,-0.010342905,0.20390794,-0.015300285,0.53328836,-0.19090547,-0.026793147,-0.33320248,-0.03197219,0.06127676,0.24432923,0.15533,-0.18369475,-0.107027754,0.12105528,-0.0355607,-0.2284352,0.33062997,0.04877693,0.14975208,0.12213553,0.21905604,-0.12131534,0.3125278,-0.21085261,0.28989437,0.20266658,-0.3313745,0.0054512224,0.0018551041,-0.0046573738},{-0.409001,0.42428982,-0.28282988,0.28226694,0.030020142,-0.19992004,0.17525655,-0.27495214,0.4664547,0.08071879,-0.3488707,0.34689152,-0.029762626,-0.12210861,0.0195642,-0.030369602,0.21742845,-0.29350746,0.07237591,-0.1882982,-0.092962936,0.0013680573,0.03977086,-0.05351847,0.16681622,-0.06313316,0.22215617,-0.19928305,0.08943036,0.59084255,0.080218494,-0.37532848,-0.15172252,0.143669,-0.18572165,-0.16769233,0.25473818,-0.060369782,-0.18554506,-0.08644045,0.01739376,0.25793433,-0.24533693,-0.046343014,0.41808802,-0.028267212,-0.14858276,0.07571488},{-0.18835807,-0.2045442,0.14242949,-0.3092227,0.017303545,0.15786783,0.24593884,0.22956902,0.10231903,-0.107478924,0.2216605,-0.023107123,-0.18771951,-0.047225334,0.15757127,0.0121724885,-0.122189425,0.09277431,-0.025856515,0.18292546,0.0024325443,-0.23592806,0.1814259,-0.21040958,-0.25759026,0.32522586,-0.16331834,0.1620008,0.13454212,-0.25175947,-0.078633554,0.060834378,0.04449439,-0.39087662,-0.008896375,0.43238682,-0.22022696,0.15252094,-0.14958459,0.09043606,0.010354321,0.4736771,-0.44975367,0.1740786,-0.24073929,-0.07637428,0.07389939,-0.05246775},{0.4370979,-0.13807568,0.26655492,0.5103161,-0.08360318,-0.09167072,-0.31551635,-0.080243595,-0.17563832,0.0014527835,-0.026878186,-0.2344661,0.27275667,-0.22343817,-0.008007853,-0.06249467,-0.03867432,-0.050146796,-0.14637351,-0.025770476,0.3283408,0.19936511,0.30778745,0.083729364,-0.11352791,-0.063870445,0.25458845,-0.012355161,0.36620507,-0.097619556,-0.3452935,0.18637624,-0.21144319,-0.30390197,-0.012665374,-0.25328064,-0.28372294,0.10923988,-0.07055323,0.37529027,0.10115797,-0.33789584,0.1766186,-0.068446696,-0.18152332,-0.24873215,0.029426496,0.1879316},{-0.30027306,-0.24661823,-0.10858791,-0.07594136,0.046829958,0.37316343,-0.16552295,-0.08030434,-0.12840968,0.16732721,0.2914491,0.11206388,0.22786064,0.4690307,-0.38586342,0.46201894,-0.17433177,-0.3967864,-0.20578669,0.09467912,0.042517163,-0.19990496,-0.13503163,-0.16661912,0.28786448,-0.11273991,-0.280355,-0.12582108,0.14146887,-0.10683913,0.12969245,0.14229344,0.34164324,0.35087043,0.06386198,0.25283393,-0.1261476,0.096776515,-0.050882027,-0.18350652,0.23783696,-0.32370588,-0.1484446,-0.011186548,-0.27676213,0.04759559,-0.27895123,-0.33389392}};
static const float linear_4_bias[48] = {0.03787348,0.021566907,-0.08217352,0.13105719,0.07735777,0.09283911,-0.12614162,-0.18395701,-0.056147676,-0.023050448,0.017906375,0.13425086,0.016167985,-0.021830345,-0.03714569,-0.2213277,0.2501569,-0.09282626,0.11149182,-0.2027266,0.08914443,-0.044510636,-0.005102454,-0.031439297,0.03239967,-0.00068826263,0.20068665,0.045211677,0.03729533,0.042784754,0.030353038,0.18218209,-0.008140596,0.040399037,-0.119458765,0.114930294,-0.1482732,-0.2066088,-0.033263687,0.05366484,-0.036118433,0.011108355,-0.0710391,0.17802839,0.08027798,-0.015053034,0.06562106,-0.03824208};
static const float linear_mean_weight[4][48] = {{-0.20239641,-0.42285737,0.16230044,0.20493393,-0.7116208,-1.47777,-0.69726646,-0.21350008,1.402037,1.3008914,-0.0027162957,-0.38223347,-0.5730547,0.16376905,-1.0503031,-0.28759485,1.0228447,-0.538147,0.85677934,-1.0200527,-0.93214333,1.2457886,0.9983011,-0.25687522,-0.47387743,-0.23327981,1.2581666,0.12010609,1.1015882,0.31301856,-0.95909214,-0.55287665,-0.24240641,0.29145274,0.6794604,0.20090966,-0.41025338,0.6785018,0.210118,-0.20209123,0.23532483,1.0414901,-0.11205663,-0.84232163,1.2742972,-1.0281678,-0.6232772,-0.11159567},{-0.006067309,0.75979173,0.15265305,1.1549486,-0.2515489,-0.0031950604,-0.46792117,-1.2923722,-0.07230422,0.4363217,-1.6248182,-1.1423043,-0.48588464,0.3046938,0.5149365,0.6548942,-0.023947837,0.15272138,-0.77380246,-0.53272545,-0.8454583,-0.5034666,-0.13229078,1.0282605,0.15080084,-0.14262144,0.12502463,-0.1806211,0.15355006,-0.24571408,-0.5126478,0.026307913,1.4513247,-1.7124169,0.35631478,-1.4469657,-0.6586013,0.5588632,0.85344815,-0.9325102,0.83108,0.6069135,-1.5381972,-0.8229911,-0.12354209,0.037327275,0.0074393107,-0.53050816},{1.7076564,1.2363487,-1.3854616,-0.7888204,-0.59753686,0.83931774,-0.34071633,0.1626415,-0.26995838,-1.1251469,-0.04340331,-0.22405156,1.1884756,0.06556262,0.21883847,1.3213819,0.4328915,-0.9057004,0.7778078,0.30244204,0.41507876,-0.8162522,0.64276654,0.5989783,1.7326901,0.253243,-0.10133803,-0.13149734,0.108040385,-0.06493777,0.85481304,1.3301225,0.13162194,-0.25605956,0.52738285,-0.06929439,-1.2864317,-1.5097338,0.49037525,-0.17651017,0.43245703,-0.7861397,-0.39562136,0.27182168,0.18872444,0.14905737,-1.0035058,-0.17395361},{0.5682734,-0.04019762,0.25115886,-0.36561832,-1.1608717,-0.35408297,1.4527187,0.33740792,-0.17921749,-0.36504555,-0.073163606,0.7733788,-0.3306968,-1.2590423,0.25970986,-0.48645505,0.15670596,0.9708208,0.07951041,0.78135544,0.6259377,-0.8016266,-0.16190132,0.4106278,-0.24708486,-1.4539361,-0.16535947,1.2171564,-0.57799655,1.3403153,0.56865287,-0.18661523,-0.009434533,0.083277695,0.9922697,0.083319165,-0.43062094,0.41653758,-1.0556736,1.1709274,-1.2889358,0.53633696,-0.3089059,0.0535596,-0.42682424,0.81580323,-0.75186616,1.3648995}};
static const float linear_mean_bias[4] = {-0.046327427,-0.17155913,0.13012542,0.0703368};

static float linear_input[22];
static float output_linear1[48];
static float output_linear2[48];
static float output_linear3[48];
static float output_linear4[48];
static float output_action[4]={0,0,0,0};


	void networkEvaluate(struct control_t_n *control_n, const float *state_array, float *action, float *hidden) {
	
		for (int i = 0; i < state_dim; i++) {
			linear_input[i] = state_array[i];
		}

	
		for (int i = 0; i < 48; i++) {
			output_linear1[i] = 0;
			for (int j = 0; j < 22; j++) {
				output_linear1[i] += linear_input[j] * linear_1_weight[i][j];
			}
			output_linear1[i] += linear_1_bias[i];
			output_linear1[i] = tanhf(output_linear1[i]);
		}
	

		for (int i = 0; i < 48; i++) {
			output_linear2[i] = 0;
			for (int j = 0; j < 48; j++) {
				output_linear2[i] += output_linear1[j] * linear_2_weight[i][j];
			}
			output_linear2[i] += linear_2_bias[i];
			output_linear2[i] = tanhf(output_linear2[i]);
		}
	

		for (int i = 0; i < 48; i++) {
			output_linear3[i] = 0;
			for (int j = 0; j < 96; j++) {
				output_linear3[i] += output_linear2[j] * linear_3_weight[i][j];
			}
			output_linear3[i] += linear_3_bias[i];
			output_linear3[i] = tanhf(output_linear3[i]);
		}
	

		for (int i = 0; i < 48; i++) {
			output_linear4[i] = 0;
			for (int j = 0; j < 48; j++) {
				output_linear4[i] += output_linear3[j] * linear_4_weight[i][j];
			}
			output_linear4[i] += linear_4_bias[i];
			output_linear4[i] = tanhf(output_linear4[i]);
		}
	

		for (int i = 0; i < 4; i++) {
			output_action[i] = 0;
			for (int j = 0; j < 48; j++) {
				output_action[i] += output_linear4[j] * linear_mean_weight[i][j];
			}
			output_action[i] += linear_mean_bias[i];
			output_action[i] = tanhf(output_action[i]);
		}
	

		control_n->thrust_0 = output_action[0];
		control_n->thrust_1 = output_action[1];
		control_n->thrust_2 = output_action[2];
		control_n->thrust_3 = output_action[3];	

		for (int i=0; i<4; i++) {
			action[i] = output_action[i];
		}
		for (int i=0; i<96; i++) {
			hidden[i] = output_hidden[i];
		}
	
	}
	