
#include "network_evaluate.h"



float linear(float num) {
	return num;
}



float sigmoid(float num) {
	return 1 / (1 + exp(-num));
}



float relu(float num) {
	if (num > 0) {
		return num;
	} else {
		return 0;
	}
}

static int state_dim = 18;
static const float linear_1_weight[48][18] = {{0.4690234,-0.59081906,2.1498497,-0.14213318,0.033213276,0.07613518,0.13079977,0.011524943,0.09834561,-0.28754115,0.4205614,-0.31849766,0.19199604,-0.3906397,-0.82701224,-0.045196217,-0.118148275,0.15114596},{0.7545128,0.84809005,0.04094498,0.0055290684,0.12620999,-0.44040057,0.2549168,-0.08640918,-0.06583358,0.7949146,0.38384226,-0.5085064,-0.3880635,-0.21687767,0.13770586,0.07458517,-0.7139744,0.13973542},{-0.17794444,0.101626016,-0.37037233,0.08492082,0.19319355,-0.071300894,-0.04077802,-0.12212456,-0.45295003,0.23307951,0.075623624,-0.13548735,-0.28160533,0.16781734,0.41696566,0.7918481,0.10585823,0.3403645},{-1.0272514,0.07044225,-0.09638811,0.0759849,-0.006277749,0.076763675,0.03666437,0.0017575448,-0.1746876,1.2822373,0.2309726,0.056013994,-1.7309561,-0.038808376,-0.0035670057,-0.10993267,-0.2652989,-0.2623345},{-0.21391888,-0.88315797,-0.1258513,0.09002164,-0.3114767,0.28970876,0.21039107,-0.115660004,-0.15649305,-0.013453417,-0.07089938,-0.03923715,0.44294074,-0.10904027,-0.050166,0.055148195,0.41079727,-0.32757357},{-0.15321994,-0.89283127,-0.07062704,-0.11445854,0.098485366,0.14522499,-0.24797283,-0.16591111,-0.15916727,-0.28041273,-0.16169837,-0.021605175,-0.107604384,-0.14174648,-0.13336228,0.090851575,-0.4375267,-0.18593916},{-2.3735325,1.2473314,-0.3186139,-0.01366983,-0.07515782,-0.058859542,-0.11730317,-0.14758758,-0.14160627,0.43273163,-0.38014224,-0.24589555,-0.5265904,0.35004878,-0.19046906,-0.24277884,-0.5761467,-0.40884838},{1.2181584,0.5265167,-0.39202857,-0.1434149,0.15485579,0.4280396,-0.27273843,0.21095808,0.2900364,0.12470386,0.53220034,-0.16031864,0.035860885,-0.13374309,0.044259936,0.13310602,-0.4949912,-0.1622939},{-1.1173046,-2.9585307,0.1919109,-0.015963534,0.21652195,0.039222416,-0.017239336,-0.068842314,0.05797374,0.23950116,0.65349424,-0.29338387,-0.30394095,-0.6042479,0.476261,0.6326618,-0.4714404,0.023853378},{-0.086365916,-0.36688995,-0.17836705,0.055135004,-0.07263372,-0.07934896,-0.029073948,-0.06354904,0.3663954,0.49305442,0.08117537,0.22019741,0.59206545,0.51508695,0.2615872,0.7658933,-0.5449369,-0.010887385},{0.65689117,-0.17367032,-0.71893615,-0.20135443,-0.16866569,-0.092279114,-0.10419356,-0.12697132,0.091058336,-0.42628917,-0.27251443,0.23515834,0.27956727,0.15009005,-0.2289814,0.08055821,0.06810669,1.3583862},{-0.47562295,-0.3569089,-0.009218104,0.16241483,0.12258005,-0.31990966,-0.22052379,0.11836223,0.10089374,0.43238467,0.030530198,0.03088196,-0.29950026,0.44053578,0.24167022,-0.06864317,0.96431035,-0.04197326},{-0.34490076,-0.09083218,-0.09737699,0.07629776,0.007926912,-0.05779015,-0.2833068,0.18285818,-0.24166116,0.5945315,-0.553529,-0.11735433,0.022893094,0.39346662,0.54867506,-0.2478833,-0.7399576,0.31652182},{2.608835,1.0209001,0.7069328,0.042770397,0.09042761,0.10304846,-0.07991291,0.07228431,0.13337222,-0.5333035,-0.35719892,-0.35921824,0.22980095,0.12617671,-0.053252622,-0.3151194,0.937159,-0.17861785},{-0.20731333,-0.8993288,-0.43019205,-0.10221872,0.029300498,0.09819117,0.22102436,0.036735658,0.25297678,-0.079191454,0.79289836,0.5411353,-0.45659533,-0.3348538,-0.0076631033,0.6288719,-0.22134294,-0.4402378},{-0.5684188,0.014935408,-0.316157,0.28816333,-0.09013112,0.6492323,0.24767005,0.10126714,0.26871666,-0.63796914,0.13869919,-0.46457955,-0.24729855,0.2406473,-0.41483808,0.2138425,0.26117033,-0.24609399},{0.554107,-0.14330743,-0.41244146,0.0068412055,-0.015816025,0.103738286,0.0078113843,0.033122256,0.33201995,-1.1428599,-0.37560594,-0.022185648,-0.16464399,0.15527926,-0.046699736,-0.21648759,-1.0809289,0.039970193},{-0.1474205,0.5085009,-0.21761946,-0.19204,-0.17389701,0.4405989,-0.15154207,0.07297681,-0.4597015,0.50139785,-0.20404151,0.2477519,-0.44049066,-0.08037969,0.18830161,0.09095299,0.2243762,0.33846837},{-0.4636695,0.71901613,0.5783601,-0.005254577,-0.07287663,-0.046257775,0.06994049,0.16661863,0.05327129,0.6382475,-0.13920559,-0.018305058,-0.3492192,0.22642055,0.0014056605,-0.40481865,-0.14793375,-1.510331},{0.42416868,-0.43980438,-0.44449466,0.04940513,-0.10729774,0.55693555,-0.11651411,0.037007716,-0.5626737,-0.16734736,0.33319986,0.07738159,-0.041807506,0.32444346,-0.21466969,-0.8717829,-0.07692851,-0.98285824},{-0.42066464,1.4066072,0.30926687,0.033038225,-0.0073139523,0.069008335,0.06271649,-0.02562963,-0.040020086,-0.015586151,0.7761814,0.12526232,-0.33699664,0.23244126,0.43632367,-0.011712896,-0.054724526,0.5180019},{-1.0014709,2.0398505,-0.6785841,-0.015231611,0.06932852,0.29144102,0.08247468,-0.0119866785,0.36647138,0.5089537,-0.78590673,0.24169824,-0.22302325,0.39976773,0.32242256,-0.64109045,-0.3202958,0.14449202},{0.045914177,0.35876232,0.108585306,-0.12195072,-0.057888526,0.10838961,0.033192366,-0.14866865,0.3329134,-0.25289953,0.26234818,-0.0870807,0.033899095,0.1879087,-0.0147628235,0.41166487,-1.0232807,1.243606},{-0.10556957,0.4117147,0.25678438,0.35806555,0.00031081823,0.47399116,0.12482397,0.4605826,0.23457704,-0.3605728,0.14060414,0.32161665,0.14920853,0.20255283,0.33449224,0.35048157,-0.09641512,0.0276064},{0.17880155,-0.05240018,-0.54180026,0.11945962,-0.0820386,-0.1442095,0.08639797,0.08306878,0.09939205,0.63838375,-1.1319056,-0.07407148,-0.19480494,0.676661,-0.70548874,-0.35540602,-0.03777423,-0.29191008},{-1.0650283,-0.4898969,2.5908313,-0.073265195,-0.0661206,-0.02073563,-0.06339997,0.061004,-0.07639865,-0.26053095,0.07151045,-0.00040464877,0.039945576,-0.0880127,0.44327208,-0.3366107,-0.37473616,0.31616366},{-0.103497416,0.16001621,-0.20296484,0.011624797,-0.004792068,0.041391313,-0.48544332,0.07754504,-0.11143773,-0.24630661,0.7966945,0.3635089,0.03246093,-0.07236399,0.07101249,-0.9030769,0.4722558,0.3799612},{0.6885344,0.060651224,-0.19443403,0.12517649,-0.119866036,-0.088808976,0.0237818,0.13725238,-0.059186123,0.34565604,-0.10044996,-0.11357615,0.42670354,-0.23202942,0.051488012,0.12501903,-0.03537681,0.41171432},{-0.36731863,0.67744046,0.36305562,-0.06860899,0.22625582,-0.17211126,0.0909199,0.2840197,-0.14281155,-0.46197432,-0.2553236,0.09638002,0.03235268,0.046128504,-0.069972515,0.00047371414,-0.17682561,0.09411967},{-1.0049108,0.081327006,-2.2963068,-0.070543565,-0.078346364,0.07901382,-0.003527452,-0.015967317,0.010347367,-0.102578506,0.20769317,0.27473983,0.04282419,-0.19728252,-1.2971826,-0.30403456,-0.28874704,0.115790725},{-0.46222708,-0.07382725,-0.31042653,-0.010759072,-0.10267275,-0.25073177,-0.08293214,0.12254869,-0.36978593,-0.6804978,0.26035756,-0.5567632,0.1995251,-0.41197678,0.220995,-0.25438508,0.22313525,0.81472194},{0.5874594,-0.3709577,-0.22194126,0.25450954,0.14514443,0.6175235,0.16391963,-0.20162767,-0.2323998,-0.11015025,-0.4968334,0.158836,-0.40376145,0.286334,0.34274164,-0.8777909,-0.040051427,0.49142724},{-0.21124509,-0.8644449,-0.028480818,-0.058638535,-0.07503304,0.0665575,0.021764273,0.17085996,-0.046610497,-0.17608295,0.550585,0.28376168,-0.1336882,0.37535384,0.5715788,-0.3277809,-0.17044608,-0.18938401},{-0.41008914,-0.41895634,-0.07080832,0.30946952,0.41854367,-0.21281157,-0.16166076,0.4386966,-0.06281626,-0.34251046,0.17771494,0.60403466,0.2157893,-0.7140191,0.2938921,-0.20495398,0.26091352,0.40444547},{-0.4063,-0.25946635,0.26410535,0.065268986,-0.085663594,0.3513182,0.27605048,0.040328003,0.2498539,0.10736823,0.047346655,-0.34146643,-0.18575348,-0.3213346,0.02409979,-0.23118573,-0.02800241,-0.7859633},{-0.25719345,0.63379043,0.6525938,-0.17596291,-0.16628626,0.037431944,-0.13450259,-0.023939405,-0.4398117,0.16794953,0.03455429,0.048093725,0.34023815,0.30305147,-0.75153583,0.21319154,-0.139869,-0.32505426},{-0.6587897,0.023918903,0.015051291,0.015837584,-0.08161277,0.025229033,-0.002784214,0.02892244,0.21742098,0.056582995,0.18354377,-0.36111093,0.18918763,0.07081658,-0.08198209,-0.29210976,0.09935885,1.6190158},{-0.3604921,-0.18473977,-0.13771622,0.45785916,0.3036136,0.33603886,-0.1504167,0.24660154,0.080511235,-0.19614191,-0.11630548,-0.23251876,-0.036777154,-0.18720828,-0.088833466,-0.32314494,-0.55262303,0.13991062},{-0.41972744,-0.18415578,0.37650505,-0.47277835,0.39346755,0.21210077,-0.2756711,-0.5600013,-0.14419857,-0.22003835,-0.17604114,0.26514584,-0.23038454,0.0483752,-0.23655161,-0.029089231,0.42384154,0.17215653},{-0.28155226,0.24586745,-0.504061,0.2662437,0.32183412,0.47575873,-0.32971853,0.119159795,0.1298452,-0.28485784,-0.6733128,0.17713688,-0.18619429,0.31209266,-0.68833053,-0.07159697,-0.2705985,0.1591519},{-0.36342442,0.009278077,0.014511348,-0.025101846,-0.36325186,0.02247293,-0.010739953,-0.12426931,0.3056902,0.3525218,-0.45492235,0.20035906,0.2430445,-0.1945864,0.17503294,-0.391655,-0.4879398,0.24099143},{0.4849804,-0.20617463,0.035414606,-0.01309699,0.09311051,0.19688083,0.08912888,0.07728674,0.70181847,0.5600169,0.42472264,0.13268745,0.7338322,-0.022257874,-0.16929929,-0.45291886,-0.49502498,0.6510485},{-0.092082046,-0.40389094,-0.5368992,0.10684164,-0.07012324,-0.12147214,-0.015314483,-0.055792864,0.10305245,0.8102597,0.29136524,0.16017723,-0.06431098,-0.03436873,-0.615172,-0.07292925,-0.0622293,0.3672343},{-0.09897397,-0.072655365,-0.8435372,0.28964025,0.06704355,-0.0769297,0.30487213,-0.20336656,0.26943633,-0.40335616,0.16903889,-0.6607078,-0.021125339,-0.0069918116,-0.4284491,0.017050944,0.16055973,-0.13279963},{-0.09173803,-0.051711775,0.20853001,0.17280321,0.21424367,0.42541036,0.20505933,0.011738458,0.41139895,0.6034735,0.89631605,0.3051751,-0.4772344,-0.8921704,-0.71536505,0.01320716,-0.19376305,-0.02370082},{-0.12321462,0.69424856,-0.18781082,-0.005240562,-0.0920674,-0.08474504,-0.04465018,0.028510654,-0.10113451,-0.533811,-0.20947264,0.43127325,0.22715798,0.14130245,0.21841747,-0.44737118,-0.04462797,-0.73060006},{-0.13835937,0.35115495,0.16575783,0.28731194,-0.24657732,-0.12637125,-0.1161126,-0.07676163,-0.032536574,-0.27062267,0.5458556,0.39911354,-0.28165418,0.01649319,-0.15219824,0.57751554,0.022449376,0.5042447},{-0.9803584,0.011285063,0.026860943,-0.17882782,-0.13600488,0.11562843,0.15391056,0.1001333,0.33609477,0.5087552,-0.34084675,-0.51457214,-0.0706213,0.1306171,-0.069660395,0.15805751,0.7133047,-0.65600646}};
static const float linear_1_bias[48] = {0.3757576,0.42401877,0.15853643,0.10349536,-0.20476684,-0.2266498,0.28662342,0.2349565,0.35332522,-0.19604856,-0.5216762,0.15689836,0.24900389,0.4419078,-0.57070374,0.26841813,-0.0029104783,-0.25107315,0.24476992,-0.103164196,-0.1338172,-0.20658982,-0.029894637,-0.12285029,0.14060758,0.009427128,-0.36176178,0.119635604,0.025329579,-0.347546,0.47519362,-0.16041309,-0.19713448,-0.28288808,0.31361645,-0.046540547,0.35674444,-0.14320335,-0.37944964,-0.012149803,-0.11708523,-0.112756446,-0.4503394,0.29254434,-0.29746124,-0.3559451,-0.3766797,0.5157834};
static const float linear_2_weight[48][48] = {{-0.17136045,0.264182,0.1751384,0.25176784,0.15759481,0.063364394,0.1151056,0.22700734,0.092878394,0.10854552,-0.21947095,0.3431737,0.16620596,-0.2372764,-0.12491166,0.2366963,-0.47633463,0.10063595,0.32271796,-0.4328498,-0.040278167,0.35442698,-0.041716468,0.40855694,0.10340884,0.004942633,0.2140675,0.19337367,0.104450405,-0.10670941,-0.27829272,-0.41615537,-0.36161,0.092406325,0.24030405,0.27846217,0.15254924,0.35567838,-0.53515524,0.15049224,-0.16905792,0.1357663,0.12109608,0.13124745,0.35898566,0.06425714,0.0047600153,0.101028785},{0.19205399,0.2333051,0.13377114,-0.05713217,0.39912617,0.4864952,-0.19457747,-0.05783314,-0.19340958,-0.047001045,-0.08036252,-0.024948997,-0.2094197,-0.06809055,0.2329841,0.035362776,-0.117982395,-0.07955425,-0.10765616,0.073157236,0.18527524,-0.0061630905,-0.23588416,-0.4379458,0.19041003,0.19857588,-0.03809117,0.005323049,-0.5182337,-0.088808544,-0.045834616,0.26753536,0.09151326,-0.056848653,0.0028826394,-0.20428164,-0.23294152,0.38343593,0.032840405,-0.18829066,-0.31386468,-0.036171332,0.5528592,0.6243994,0.2007935,-0.2925518,-0.034855302,-0.18518645},{-0.27925774,-0.038751367,0.16765174,-0.2510799,-0.035828877,-0.05297729,-0.024171937,-0.25946733,0.37804484,0.037994463,0.35903925,0.45373425,-0.081340484,-0.11403517,-0.25643325,0.4278411,-0.28974658,-0.080341466,-0.07337263,-0.2709528,-0.18298984,-0.30536738,-0.16259496,-0.06933568,0.104995675,0.18469918,-0.05750206,-0.17534238,0.013833574,-0.12256267,0.29159015,0.08344986,-0.28729424,0.028550051,-0.3857999,0.029503977,0.35921308,-0.33405557,-0.12839068,0.16999342,-0.19116785,-0.17239256,-0.13219073,0.41885036,-0.3344876,-0.18156822,0.17866978,0.062938765},{0.46789965,0.08269738,-0.050331414,-0.257477,0.3040873,-0.28208926,0.13675678,-0.28452668,0.17341538,0.45237285,-0.20620018,0.09118938,-0.061771423,-0.28605962,-0.09532457,0.20292069,-0.15467276,-0.14057022,0.21044987,0.028907074,0.41924095,-0.110441595,0.20244901,0.32930586,-0.04127281,-0.088754885,-0.19416793,-0.3100002,0.10253233,0.3068048,-0.08450067,-0.14445026,0.25942376,-0.36689052,0.17652074,0.17346084,0.1280918,-0.24248265,0.027403038,0.074760035,0.056461126,0.20878781,0.094685815,-0.06786541,0.14552043,0.12330565,0.22868884,0.0105200345},{0.18143801,0.028757403,0.031964086,-0.23048475,-0.13941604,0.060999613,0.087853424,0.42129543,-0.12495252,0.049723193,0.033293024,-0.20123027,0.34674966,0.4307406,-0.3732109,-0.33705333,0.2558938,-0.27270058,-0.12618029,-0.014577043,-0.12117233,0.07304663,0.053425994,-0.14763942,-0.1119618,0.23850669,0.13906588,0.22916247,-0.12843671,-0.46398002,0.28310424,-0.0070314314,-0.28481573,0.044279613,-0.22428738,-0.033434704,0.16715246,0.46022546,-0.2437765,0.077174485,-0.22896667,0.23724209,0.058354426,-0.014112429,-0.08733302,-0.22072293,-0.20781073,-0.29613033},{0.17469099,0.19450937,-0.16187291,-0.0899097,0.26197034,0.05952315,-0.22828029,-0.024282515,-0.36750513,-0.050366085,0.022166569,-0.17224492,-0.28207824,0.15870982,-0.16995105,0.046184327,-0.24488968,-0.19830087,0.024652272,-0.23094486,-0.049962822,-0.21395306,-0.1882819,-0.30910867,-0.10189621,-0.17906539,0.035965346,0.012202186,-0.10337631,0.09103166,0.111194514,-0.3408977,-0.38176662,0.120575055,0.18174902,0.10389746,0.11346193,-0.2847457,-0.34479037,-0.19672787,-0.11914132,0.2679794,0.095620535,0.24213785,0.0077696843,-0.11948831,-0.40493006,0.054755893},{-0.26099035,-0.5866549,0.12673448,0.03419454,0.3117884,0.37009025,0.96637917,-0.679219,0.5111082,0.14039761,-0.09227745,0.27636752,0.19120461,-1.0114582,-0.008065392,0.35742977,-0.19228627,0.07822136,0.08882836,0.125723,-0.09234111,0.23188457,-0.20207131,-0.027069902,0.04396697,0.5507807,0.054571055,-0.25895673,0.17129587,0.037964195,0.14267904,-0.28591943,0.20621932,0.20623885,0.097484976,0.21275859,0.06604405,0.34466138,0.119822174,0.099201985,-0.0872352,-0.3860748,-0.1962717,0.16125853,-0.38132116,0.4427742,0.08473087,0.096421205},{0.32729027,-0.41064975,-0.04140528,0.084438294,0.28120714,0.0005159255,-0.25710103,-0.4706288,0.9280465,-0.046349235,-0.040460188,0.26241377,0.049558196,-0.21711108,0.2674733,-0.035856925,-0.3187813,0.21260554,-0.14161775,0.015988557,-0.06097733,-0.5614759,-0.07780566,-0.039082,-0.39977226,0.73324966,0.2974444,-0.080852725,-0.19375654,-0.48766074,0.07600946,-0.041094642,0.25905824,0.29726464,0.065223865,-0.07327751,0.25908238,-0.1619527,-0.002170373,-0.03155973,-0.0819953,0.1815112,-0.01991092,-0.23556864,0.19293444,-0.2050988,0.15097286,0.111437},{-0.06436933,-0.55207294,-0.196735,-0.96261036,0.35436666,0.029584626,-0.2297799,-0.31670508,-0.20925634,0.42356902,-0.10066205,0.24498485,0.06719268,0.3212254,-0.10076038,0.3824085,-0.015986621,-0.24467306,-0.078817494,-0.21872656,-0.0664414,0.09672781,-0.08472081,0.110495195,0.053924922,-0.03910474,0.04742861,-0.13191096,0.03344615,-0.07796878,0.11967037,0.1926373,0.4716022,0.10618929,0.20438655,-0.21505944,0.276321,0.049556725,-0.07904641,0.0749341,0.098984964,0.19802299,-0.4018109,-0.029070798,-0.2656595,0.25332117,-0.0017195179,0.22908852},{-1.0973604,-0.048379865,-0.035439525,-0.16763763,0.07071934,-0.12460083,0.006595228,-0.46481758,0.36640856,-0.30221072,0.07604408,0.21479765,0.015323381,0.012157645,-0.4132113,0.12197119,0.2385008,-0.07077181,-0.09233517,0.1694901,-0.5540992,-0.036036465,-0.37611955,-0.28206933,0.46125865,-0.94152284,0.16698743,0.021082794,-0.14371343,0.9251727,0.20623915,0.4091641,-0.19787064,-0.019298432,0.13450782,-0.50035256,0.3505232,-0.011032392,0.02937128,0.41857824,0.0033799196,-0.08770102,-0.09137745,0.43467128,-0.30229214,0.11240853,-0.3118365,0.042052858},{0.01222475,0.10631604,-0.17886405,0.48600578,0.07600681,0.048963476,0.003781987,-0.054963566,-0.023008812,-0.06939634,0.2566288,0.08142723,0.30270618,-0.558609,0.026195591,-0.42900202,0.06669019,-0.027165478,-0.032969333,0.34696627,-0.063160725,0.13586834,0.053770892,-0.2519154,0.09774428,-0.20032327,0.15041457,0.2738699,-0.18834308,0.23412195,0.0664682,0.27711868,0.4019518,-0.024242805,0.106689185,0.012876734,0.22868645,-0.33658916,0.12649159,0.15468036,0.093876034,0.083604045,0.3676457,-0.17810386,-0.07424541,-0.22268777,-0.279052,-0.032626975},{0.34962448,-0.0008138815,0.26432592,-0.45745742,-0.10521051,0.13726042,-0.32583314,-0.066161335,0.11168592,0.20356232,0.6745356,-0.14611027,-0.083511956,-0.13439003,-0.038768645,-0.21756698,0.46995425,0.052203316,-0.98699236,-0.6865878,0.1588187,-0.0658994,1.0074761,-0.07262472,-0.16361617,0.13537806,0.107537344,0.2324824,0.19043736,0.294957,0.29754066,0.0857622,0.02475881,0.09775197,-0.2826743,-0.19805534,0.8417421,-0.009084606,-0.060696837,0.44095263,0.14373043,0.408466,0.03665941,-0.051555768,0.22473896,-0.18972668,0.100138344,-0.7692608},{0.3183216,-0.25855115,-0.061266843,-0.118587956,-0.0030965176,0.17196727,0.24437489,-0.23831403,0.21156986,0.081050545,-0.013126452,-0.36126903,0.15665404,0.38695532,0.2769507,0.18761295,0.82439196,-0.45857996,-0.016056133,0.043453366,0.08593657,-0.26380372,0.18795508,-0.18220738,-0.41173297,0.31862527,-0.6469635,0.0073188753,0.22270247,-0.10244338,0.32477817,0.040043257,0.34346107,-0.13214923,0.12321889,0.05512484,-0.1338214,0.15859412,-0.24143852,-0.28034613,0.026923038,-0.436472,-0.5033215,-0.06606285,-0.22252554,0.2097821,-0.035947546,-0.503741},{-0.37299344,0.1995018,-0.23142907,0.51027584,0.39894044,0.023464799,-0.25489125,0.36688423,0.10888423,-0.3575041,-0.123043224,-0.03411136,0.063337885,-0.046400383,0.26980954,-0.22274819,-0.010145704,0.24559902,0.07607627,0.47081923,0.22127908,0.13108262,-0.068698645,-0.14709479,-0.22860005,-0.4290063,0.36638445,0.07184071,-0.4075114,0.4837161,0.10568242,0.3632385,0.42837533,-0.32215598,0.3227755,-0.3763867,0.08120131,-0.20087038,-0.03723496,-0.18652906,0.22631535,0.13750182,0.268979,-0.08814947,0.28372133,0.07421873,-0.11624087,0.097957216},{-0.5410401,0.26103252,0.33717972,-0.26689485,0.26282713,0.03964839,0.06616972,-0.14723875,0.12543061,0.31115344,0.12174599,-0.01655375,0.39538527,-0.2830886,-0.16194417,-0.32105622,-0.18513739,0.38826326,-0.22297509,-0.4105662,0.4307424,0.43303558,0.24849676,-0.063930094,-0.20532842,-0.29029512,-0.39270464,0.18738717,-0.052469138,0.11120233,0.27968505,-0.005174679,0.21953854,0.06855806,-0.1983119,-0.17720033,0.23220734,-0.17404369,0.00080620457,-0.29163244,0.30827507,-0.09470825,0.07598248,-0.23239459,-0.16300137,0.017823976,0.25439668,0.034666047},{-0.21504003,0.037288863,0.06689231,0.18820222,0.2864002,-0.060748786,-0.034911476,-0.04317924,-0.16355513,0.12832266,0.12932765,0.199903,0.10854486,0.36079854,0.014623365,0.297165,-0.032319725,-0.13712367,0.03284928,0.12773283,0.12406599,0.19681229,-0.1473202,0.35885927,0.0875775,0.25608933,0.15025726,0.383369,-0.26243442,-0.1490051,0.01834351,-0.07106615,0.3343507,0.05478189,-0.027644923,-0.4425934,-0.20797221,0.4899988,-0.952094,0.1567093,-0.3195128,-0.007103072,0.08805726,0.29788026,-0.1301748,-0.12393117,0.21163791,-0.110322624},{-0.35229242,0.46253392,0.289525,0.04017475,-0.58968556,-0.17480278,0.6740189,0.19014996,-0.87167686,-0.011532571,0.4163724,0.125669,-0.4044369,0.3462098,0.24883182,0.37189844,-0.046332616,0.14095922,-0.015557844,-0.09171061,0.82626253,0.8037607,0.30569762,0.15074557,-0.26185632,-0.044671554,0.063775875,-0.26919952,0.10737608,0.13693023,-0.14096545,-0.04428414,-0.05381232,-0.10400376,-0.012327046,-0.09786804,-0.0533342,-0.14927445,0.06565153,0.09781121,-0.18836476,-0.43737236,-0.20986058,0.3649588,0.102114424,0.20811151,0.2888085,0.090372},{-0.28416485,-0.058913384,0.06630799,0.47478607,0.03259622,-0.05712752,0.5546038,-0.24203208,0.27030513,-0.46718428,-0.31457588,0.18157737,0.3246577,-0.66814893,-0.041984137,0.26643372,-0.27516693,0.017598938,0.19131094,0.014276324,0.11649424,0.12971458,0.027006863,-0.23768021,-0.117290884,-0.21614571,0.016273843,-0.3426487,0.022931874,0.5775702,0.40078592,-0.36161482,-0.062411103,-0.0032726338,0.1177695,-0.11840739,0.12629399,0.19718704,-0.07983478,-0.1741115,-0.12810549,-0.32446924,0.23679425,0.24933273,0.3011486,-0.18826453,0.31519482,0.19134279},{-0.17696294,0.15806456,-0.24270014,-0.35503745,-0.029973056,0.27511227,-0.34475383,0.13586287,-0.4521688,0.17448941,0.51611316,-0.0494259,-0.18283385,0.47487202,-0.12781094,0.33640522,-0.19146997,0.10720254,-0.10986121,0.015410352,-0.24040788,-0.44222286,-0.10049769,0.15459281,0.01703339,-0.16280438,0.40330228,0.03715337,-0.03610599,0.037347596,-0.4106895,-0.08823232,-0.46594083,-0.48846877,-0.31242946,0.5536243,-0.16044885,0.24680284,0.1268858,0.47215965,-0.15056278,-0.04280199,0.27286783,0.41567934,0.018380271,0.194045,-0.117386736,-0.24705958},{-0.10100048,-0.22519875,0.19266023,-0.32429546,-0.10680092,-0.12171489,0.41189867,-0.1529253,-0.6775286,0.38408643,0.24293053,0.13721593,-0.05072767,0.2797766,-0.27638844,0.12626,-0.004540394,-0.010955065,0.11244931,-0.44347087,-0.20274387,0.5375049,0.1139161,0.004676674,0.41459602,-0.51826054,-0.11929937,-0.014775885,-0.08933133,0.20512468,-0.17749308,0.044698175,-0.31242552,-0.23023969,-0.089322716,0.113022715,0.033136554,-0.2740432,0.112088,0.28066576,0.12009878,0.0058514816,0.021726232,0.051455807,-0.1816684,0.16333573,-0.1197044,0.025700424},{-0.17560598,-0.55733967,0.0083537055,-0.2202209,0.091515444,-0.025936896,0.8339294,-0.47935638,-0.35062125,-0.16014604,0.049408466,0.13542473,-0.2855598,-0.8107221,0.13910523,0.085149154,-0.27243647,-0.36192027,-0.10382231,-0.14185318,0.12996893,0.38066941,-0.12297822,-0.31087574,0.14415613,-0.06256557,-0.069804244,-0.08623596,0.1144248,0.99957556,0.15983357,-0.5006012,-0.10078728,0.1827422,-0.27033406,0.25703785,0.08440595,0.08176572,0.10831837,0.2325239,0.113245845,-0.27244493,0.22143579,0.11916968,-0.22476605,0.18306595,0.19682741,0.18033661},{0.047238216,-0.11731861,-0.35779044,-0.0053596646,0.20312756,0.03896036,0.011299117,0.116178796,0.33335257,0.25278947,-0.17261547,-0.42755166,-0.15281111,-0.17414016,0.21548979,0.0006045022,0.18887678,0.026369791,0.16635089,-0.16812338,-0.39241692,-0.1243002,0.10414074,-0.057626523,0.1543512,0.2126547,-0.1801667,0.05922256,0.0832538,0.031307116,-0.19276778,-0.08666263,-0.004075478,-0.032030344,0.078368515,0.43735653,-0.11756086,-0.37596124,-0.3902345,-0.2786406,0.4276805,0.35999298,-0.23422731,-0.43714908,0.008084205,0.105963126,-0.36786968,-0.017584037},{-0.2214175,-0.10295659,0.15961382,-0.041540578,-0.20762517,0.44313776,0.056203887,0.14755428,-0.23701248,-0.07275881,-0.0606935,0.22138412,0.18372126,-0.40874037,0.19013238,-0.21429504,-0.06516688,-0.10168643,-0.041647118,0.1589184,-0.11891252,0.20921937,-0.08563951,-0.38161948,0.1380549,0.20488136,0.65623385,-0.21193513,0.072495066,-0.2891545,-0.07031016,0.1420661,0.10541738,0.1543135,-0.2397815,0.18428631,0.2172732,0.16225256,0.30528256,0.44182408,-0.20454341,0.23269719,-0.0803837,-0.19103289,0.115623884,0.23479396,-0.41446063,-0.30347204},{0.096069165,-0.008803986,0.046438202,0.3775374,0.004743453,0.07758552,0.24153213,-0.12483029,1.1188108,-0.36370173,-0.24372712,-0.11481027,-0.047787264,-0.41230446,0.11423981,0.033405405,0.2020985,-0.05900136,-0.23250303,-0.20648561,0.2705442,-0.3066222,-0.0862042,-0.09607692,0.019485332,0.60587406,-0.2919097,-0.085474804,-0.10072177,-0.2812612,0.14078254,-0.02930642,-0.17902109,0.013904835,0.4568614,-0.32035825,0.20388293,0.02633802,0.53745085,-0.2347838,0.17095341,-0.23132625,-0.1769166,0.10030401,0.069238804,-0.35041693,0.013733815,0.37458235},{0.03413074,0.31731635,0.07830615,0.19527736,-0.6810097,-0.2718112,-0.06363206,0.24634199,0.034035347,-0.016529534,-0.13441719,0.5921424,0.31471717,-0.01846127,-0.2279599,0.0037966357,-0.1548465,0.07837689,0.12834208,0.23379791,0.36357498,0.16088597,0.019143457,0.2753998,0.2728822,-0.19263722,0.16328576,-0.36567074,0.4411797,0.21515001,-0.2765462,0.113560334,-0.13966638,0.022028651,-0.071090475,0.27961692,0.23560911,0.18483701,0.12206131,0.17155334,-0.34741583,-0.053031843,-0.003907371,-0.2772734,0.19012539,0.05904564,0.022847228,0.081897125},{0.4048264,0.23278871,-0.05798409,-0.18441658,-0.147575,0.11481098,-0.21289778,0.24300458,-0.16728884,-0.1323285,-0.21265067,0.12936124,0.20034273,0.32961854,-0.108738855,0.09125423,0.2559028,-0.01584033,-0.1546666,-0.2128574,0.10934556,-0.03792273,-0.047663398,0.40358588,-0.32090637,0.10880018,0.10585134,-0.16209778,0.16808671,0.1834601,0.09435273,0.24254619,0.0421229,0.39756802,0.09428184,-0.19547349,0.23499782,-0.14619012,-0.0247203,0.05441215,-0.12620501,0.11113093,-0.13038066,-0.0030683302,0.23061083,-0.43021965,0.11712252,-0.04130669},{0.65495807,-0.11860629,-0.044439808,0.09744592,-0.24348274,-0.20598935,-0.07163834,-0.34985897,-0.6602457,-0.34051654,-0.34488878,-0.030775025,0.07034297,0.37143514,-0.31127283,-0.2982945,-0.51318854,-0.2109896,0.28196478,-0.43069798,0.18825291,-0.05443581,0.089004874,-0.24700706,-0.3841159,0.28423527,-0.13054727,-0.17602701,0.12645607,-0.26654488,-0.060802378,-0.5232164,-0.17372745,-0.045833707,-0.006408147,0.44632912,0.07216481,0.13046941,0.015434353,-0.15806912,0.15197995,0.053662445,0.03793975,-0.20809448,0.47193214,0.03809415,0.19566457,0.2468873},{0.23649685,0.05385122,-0.0759235,0.12209678,0.16847648,-0.079805456,0.30674425,0.11018448,-0.48989603,-0.22937177,-0.3566334,0.13087292,0.35224807,0.24006782,-0.4003278,0.056375045,-0.17058872,-0.110051416,0.31400263,0.19283764,-0.041809972,0.15548633,-0.23093526,-0.45346528,-0.014179066,0.31960285,0.20191275,-0.131267,-0.13771455,-0.2392783,0.14889705,-0.033449978,-0.08456845,-0.17769468,0.24750555,0.05254215,-0.035553798,0.1692404,-0.16858502,-0.061246686,-0.09775902,0.02202934,-0.0493485,0.23915619,-0.114400834,0.15115818,-0.5446985,0.12376848},{-0.03413735,0.05646141,-0.47382978,-0.15005909,0.0511087,0.35752973,0.041716237,-0.21638729,0.13476337,-0.12117771,0.42451617,-0.46463364,-0.27899456,-0.008750086,0.14891398,0.33587456,0.6472021,-0.20893663,-0.21998142,-0.057404254,-0.073517725,-0.2500865,0.13428374,-0.22553146,-0.13925813,0.30682307,-0.043319784,0.18525805,0.14697619,0.20615412,0.11060408,-0.11516767,-0.21682002,-0.017939901,-0.078565754,-0.039873347,-0.20467064,0.13868836,-0.19274884,0.27294225,0.092128955,-0.2590209,0.06486728,0.52244717,-0.20344944,0.35338557,-0.049776595,-0.6025704},{0.015138054,-0.1236462,-0.2344334,0.53029865,0.100442715,0.07818902,-0.080122955,0.50603676,0.10348271,0.46630195,0.19392887,-0.24294418,0.057681598,-0.566005,0.33212012,-0.45110166,-0.13773751,-0.14119309,-0.028542113,-0.099722885,-0.20260032,-0.0588927,0.32102257,0.033892177,-0.154834,-0.44334355,0.12521157,0.315507,-0.07396235,0.48428592,-0.60968673,-0.2607984,-0.09485404,0.028079305,-0.22611721,0.1895119,-0.2289455,-0.0879206,-0.053746637,-0.07076695,-0.056971423,0.54795766,0.25532553,-0.38694623,0.3925586,0.0065899324,-0.033519056,-0.16413791},{0.022148356,-0.37182492,0.12212954,-0.16519614,-0.07482214,0.10834983,-0.30008784,-0.2554457,0.051397048,-0.08041034,-0.048989367,0.23541178,-0.122953296,0.37089267,-0.08895102,-0.013999714,0.066098124,0.20537125,0.18493685,0.05522622,0.19166976,-0.16763963,-0.12640868,0.14716393,-0.29266068,0.03428849,0.15108672,-0.18151012,0.25263384,-0.21487752,-0.2637079,0.11674765,0.14446793,0.4113954,-0.08897369,0.17229418,0.008896568,-0.10088293,0.54699796,-0.009143801,-0.080876075,-0.2799585,-0.08892873,-0.28062618,0.19679806,0.21160406,0.2548755,0.13539591},{-0.2348642,0.14108671,0.2553538,0.18631841,-0.34208745,0.10498773,0.33933172,0.46535772,0.3140163,0.07478656,-0.124079555,-0.020547003,0.26421392,-0.50446314,-0.25236583,-0.24421231,0.07103842,0.22086845,-0.10396807,0.052749556,0.14755517,0.29601973,0.3238983,0.18597442,-0.34282404,0.0009913732,0.1726808,-0.11523661,0.29078707,0.004994771,0.0832771,0.37425146,0.17297511,-0.088135,-0.22872303,0.3268756,0.056041982,-0.09673628,0.4817884,0.16278575,0.14688583,-0.05069479,-0.40564352,-0.27678797,-0.37052968,0.014061571,-0.46556276,0.14307618},{0.015993478,0.29209882,0.45379645,0.013069205,-0.56683606,-0.40974584,0.5244644,0.03064136,-0.85682905,0.09327515,-0.15124677,0.036272116,0.16491956,0.66598797,-0.44467735,-0.41094995,-0.116007514,0.27359045,0.43821964,-0.23426573,0.49493638,0.67550206,0.12836269,0.29891866,-0.044446934,0.35568264,-0.19199055,-0.063114196,0.17390294,-0.76508886,-0.08763587,-0.14315103,-0.021218613,-0.21209937,-0.3299987,-0.0014558918,-0.18754597,-0.18978786,0.12790611,-0.01786804,0.14911371,-0.33416766,-0.35379326,-0.35864002,-0.26588896,0.41438738,0.23893356,-0.090520106},{-0.023528349,0.21620055,0.103387356,-0.03994882,-0.28668496,-0.049092837,-0.18251145,0.19653179,0.21241894,0.41820526,0.06745694,-0.24881172,-0.18342488,-0.1981329,0.31238657,0.13459212,-0.105460584,-0.39144218,-0.1228119,-0.19800901,-0.020087777,-0.22440392,0.17032808,0.0021369378,-0.34467074,-0.45565072,0.08355506,-0.26039392,0.03170618,0.22055312,-0.011579451,-0.49545422,-0.06249561,-0.21062745,0.016339082,0.14606965,-0.070396386,0.16982944,0.1647653,-0.25499964,0.06727822,-0.02067077,0.29426283,0.39733848,0.4086967,-0.017130936,-0.018110454,0.0063503725},{-0.362752,0.053781807,-0.03819071,-0.22374101,0.17571986,-0.35651696,-0.13000438,0.2263673,0.10923519,0.10892022,-0.1560586,-0.09509559,0.18091273,0.0039948933,0.17857412,0.0385577,-0.05149636,-0.13338123,-0.13759796,-0.14053154,0.29921538,0.016291892,0.02626838,-0.06906467,-0.5313442,-0.029328344,0.055818293,-0.07036485,-0.010527008,-0.003373594,0.4570494,-0.052629877,0.29844108,-0.06929421,0.27769172,-0.05465321,0.22770865,0.26776728,-0.03260682,-0.27025062,0.045144245,-0.046033524,-0.3255963,0.04392682,-0.038381543,0.17488532,-0.27883852,0.1806233},{-0.8182079,0.067245066,0.24330196,-0.28511807,0.13098226,-0.030365739,-0.7147647,0.2865828,0.6963575,0.24778321,-0.15047921,0.27644697,0.21779421,-0.22915563,0.66456926,-0.106451154,0.20078926,-0.17101534,-0.084849544,-0.04222573,-0.03752785,-0.14262356,-0.22538392,-0.17503281,-0.42170078,-0.497039,0.054693818,-0.042199988,-0.48837343,-0.050275378,-0.11939438,0.06452793,0.14116816,0.5532912,0.21657263,-0.7050148,-0.35625356,0.013473004,0.07162083,-0.20666116,0.11270495,0.084849685,-0.08455573,-0.025453145,0.1727262,0.119849965,-0.0021059322,-0.2778438},{0.11246045,-0.37866354,0.14667979,0.33047011,-0.032736674,-0.0014041344,-0.20740849,-0.03896035,0.1297487,0.089552954,-0.16843128,0.26784736,0.10470258,0.3430387,0.00064087386,-0.06688695,0.17574064,-0.2769709,-0.0052719167,0.09009725,-0.13891006,-0.44570965,-0.08266802,-0.007967179,-0.0010705933,0.41995996,-0.24333903,-0.046155125,-0.049124066,-0.7642991,0.050179098,0.038344033,0.103211306,-0.13958824,-0.022151265,-0.17441534,-0.39329097,0.2708727,0.13782507,-0.24550122,-0.21130306,-0.378924,-0.06785255,0.26293045,-0.46127117,-0.029030437,-0.11658216,-0.0014191524},{0.47974274,-0.4196895,-0.086782515,-0.31977946,-0.03558124,-0.030993031,0.03477026,-0.011731127,0.41768628,0.23863117,-0.05246038,-0.18867147,-0.123918675,-0.1668289,-0.12384574,0.07659534,0.4757426,0.08925739,-0.018091187,-0.018059593,-0.16157497,-0.13429846,0.23460379,0.45588785,-0.05218888,0.29932374,-0.07294326,-0.08074097,0.2404289,0.14470859,-0.09441128,0.16029988,-0.20529616,0.1168195,-0.055455346,0.19081388,0.14465946,0.07410223,-0.015454595,0.062511146,-0.089912295,0.11995402,-0.24224968,-0.06850713,0.08325847,0.22916375,-0.1173577,-0.12108748},{-0.122438475,-0.25906712,-0.011973085,-0.3359196,0.1236679,0.2957931,-0.08028786,0.048629206,0.3223278,0.01287134,-0.13419722,0.17913036,-0.28622982,-0.21741171,0.21975961,0.28368032,-0.12283695,-0.12813078,-0.18507278,0.36485377,-0.10409108,-0.63691545,-0.22200085,-0.16714941,-0.46155092,-0.18186268,0.23691805,0.12459404,0.09222459,0.39047262,0.01774921,-0.24954082,-0.16395038,0.21918558,0.036185227,0.20840426,0.016511176,-0.015526919,-0.05681823,-0.14706114,-0.4563797,-0.07016232,-0.04208771,0.21106812,0.30772507,0.099493355,-0.059632927,-0.07236534},{0.08782894,-0.033313315,-0.056750346,0.37008125,-0.063651845,-0.2829238,0.95195884,-0.46267292,0.35439062,0.12382439,-0.2043594,0.10414789,0.26643777,-0.45802897,-0.39768383,-0.049031515,-0.38637626,-0.0011305973,0.3374355,-0.43935984,0.36506307,0.47975498,0.14179501,-0.0631472,-0.05452562,0.8541352,-0.22124764,-0.07374733,0.18357623,-0.53276664,0.054230932,-0.26084006,-0.008825284,-0.29400188,0.19094384,0.035303783,0.38622746,0.31932718,0.058378212,-0.044712696,0.60170704,0.035692044,-0.030227868,-0.08616416,0.011303119,-0.1689999,-0.052144848,0.42866766},{-0.45605382,0.6377293,0.15098158,0.42721888,-0.18820035,0.12875633,0.4645732,0.20138589,-0.18103653,-0.44326228,-0.034660902,-0.1710478,0.22610176,-0.0437573,-0.03524735,0.42724127,0.071866,0.19160129,0.04983257,-0.104067765,0.25407335,0.5692119,-0.12701592,0.065634325,-0.09218561,-0.22842394,0.12328161,0.11698003,0.16617745,-0.021494873,0.2596003,0.11694584,-0.28082323,-0.058042344,0.079309486,-0.09447346,0.32501957,0.18106881,-0.60411346,0.26608506,-0.025017036,-0.21411695,0.038658556,0.27358058,0.07651343,-0.2839088,0.15485875,-0.058833368},{0.23146302,-0.22837692,-0.17108755,-0.45275214,-0.09118527,-0.29256308,0.07780477,0.11044944,-0.9272422,-0.11952272,-0.009989445,-0.23936844,-0.33751845,0.80333275,-0.16822052,-0.19257253,-0.03520067,-0.040360957,0.06764558,0.107389756,0.5303502,0.24889876,-0.042570442,0.29004973,-0.51211184,-0.09731669,0.08549786,-0.0690783,0.40732226,-0.116799325,0.04060586,-0.047057185,0.010046104,-0.07767447,-0.10021153,0.37749398,-0.23682438,0.20545647,0.16124076,-0.15733793,0.017103804,0.09073053,-0.48323956,-0.19740313,-0.1733635,0.476923,0.0853599,-0.17360024},{0.38762903,0.104727924,-0.48447636,-0.30988634,0.07461043,0.3434022,-0.33127502,0.20825009,-0.055875912,0.12483286,0.25254136,-0.13107823,-0.24747625,0.22066715,-0.03709253,-0.17666069,0.4741984,-0.1575455,0.07284141,0.0427599,-0.43677112,-0.12507184,0.097053416,0.0665388,0.4682178,0.38431215,0.093158565,0.1153961,-0.10802502,-0.46285304,-0.25413296,0.34938666,-0.11841788,-0.0009586624,-0.03765834,0.02624342,-0.26621023,-0.36309877,0.036396187,0.5263165,0.01845312,0.3901989,0.041102923,0.058508128,0.103256404,0.21975438,-0.049657084,-0.5370528},{0.051574852,0.12952997,0.010103258,0.049798653,-0.19923346,-0.40299255,-0.22065906,-0.029927751,-0.20159304,-0.28823233,-1.0972463,0.04338183,-0.31764796,-0.03611165,0.08389744,-0.13404842,-0.20870167,-0.18213584,0.6616872,-0.27003577,-0.06857322,-0.3560963,-0.22794381,0.31165442,0.074309394,-0.1717366,-0.1576664,0.3447907,0.06787287,0.08937718,-0.17695841,-0.5488192,-0.2825596,0.2049222,0.22627719,-0.0388237,-0.6834634,-0.14203517,0.021120325,0.05066717,-0.41655526,-0.021012198,-0.104142636,-0.030638563,0.051146682,0.17534566,0.3344174,0.12923937},{-0.094816506,0.17966889,0.13185586,0.46824434,-0.036401253,0.17720085,0.7701432,-0.19612743,0.11634898,0.07292918,-0.2657532,0.016144799,0.1615869,-0.07436655,0.048200537,0.033740193,-0.16457053,0.34267876,0.76398724,0.40882716,0.041759264,0.3921907,-0.17236528,-0.019036664,0.26159444,-0.07520638,-0.18430272,-0.28375003,-0.10305109,-0.35047242,-0.33934328,0.03209316,0.15294126,-0.2570709,0.27220333,-0.089735836,-0.3937886,-0.14597802,0.06135349,-0.046104386,0.08667343,-0.030687569,-0.20332222,0.004571238,-0.08922301,0.23695152,0.072881825,0.3614317},{-0.27521706,-0.41898572,-0.12804243,0.3844718,-0.09296745,-0.043353338,0.05641255,0.02481295,0.048300315,-0.09041865,-0.26350152,-0.053829033,0.520657,-0.035047363,0.20412703,-0.28904805,0.30876076,0.10727238,0.056098256,0.3529864,-0.17322986,0.341278,-0.16862336,-0.033353914,0.08864778,-0.19995864,0.0055815177,-0.24703526,0.048387945,0.37234807,-0.26360753,0.40261522,0.11277941,0.27875376,-0.09011095,-0.035457123,-0.18839094,0.25001806,0.0054209856,0.18067175,0.55953026,-0.03161021,-0.094933026,-0.51955354,-0.21995592,0.09445598,-0.1557159,-0.20293695},{-0.11669516,0.3811512,-0.0019525734,-0.045862697,-0.29796407,-0.08214483,-0.7386061,0.41878304,-0.13927995,-0.09854818,0.20697074,-0.41878098,0.25876647,1.1599154,-0.1021669,0.005847678,0.19129223,0.041696824,-0.012703203,0.3034382,-0.15036774,-0.5927484,0.019526951,-0.11060992,-0.13978514,-0.29651242,-0.37908414,0.13439353,0.027043182,-0.1453072,0.13962492,0.078017786,0.0431737,-0.43114015,-0.17107628,0.35594752,-0.2170313,-0.029266367,-0.42423725,-0.27463782,0.057940643,0.11097516,-0.08515951,-0.0518927,-0.3612858,-0.0143551,-0.24756287,-0.083239846},{-0.19246563,-0.29034448,-0.24314848,-0.57757604,0.3527904,-0.11055642,-0.009420545,-0.23226842,-0.17829075,-0.23004068,0.09999026,-0.045204066,-0.19851664,-0.16663334,-0.099870965,0.108676136,0.021355288,0.09576626,0.047322743,0.16543692,0.0014804433,0.034801356,-0.410878,0.07184962,-0.06617463,-0.18070967,0.1534476,0.06139772,-0.042996734,0.45843968,0.46185064,0.025743943,-0.11194593,0.32120043,0.2736903,-0.2657993,0.32264867,-0.11016079,0.2958774,0.017259061,0.13964234,0.10243212,0.09864105,0.22628029,-0.033265956,0.30051115,0.03102048,0.3241483}};
static const float linear_2_bias[48] = {-0.06672849,-1.0449196,0.14790666,-0.3951687,0.26538527,-0.0026739796,0.14076829,-0.3499653,0.17220339,0.66317743,-0.06498923,-0.080779076,0.108889274,-0.18839175,-0.22680877,-0.30835107,-0.11477787,0.062154416,-0.6290329,0.1050716,0.16251497,0.14663348,-0.037339017,-0.21340536,-0.17387068,0.8176381,-0.119986385,0.05799274,-0.059163295,0.38348892,0.15799014,0.17377156,-0.34429628,-0.13287847,0.34610733,-0.18304065,0.20277663,0.17478673,-0.009308889,-0.21129285,0.06701051,-0.22539067,-0.31368428,0.94052947,-0.055283763,0.10919187,-0.09906937,0.008392857};
static const float linear_3_weight[48][48] = {{-0.3132302,-0.791618,-0.27278438,-0.33122244,0.22783951,0.1009908,-0.1568336,0.042430405,0.28439003,-0.11318264,0.42959115,0.18751103,-0.121028624,0.4505295,-0.025472727,0.15969431,-0.29815271,-0.069039114,-0.31875867,0.20051153,-0.17100544,0.62763244,-0.5224502,-0.30708864,-0.10845424,0.3229681,-0.1563774,-0.21532628,-0.09878525,0.26996917,-0.18307891,-0.039948586,-0.28810558,-0.57173175,0.41035312,-0.72997135,0.014270442,-0.11787126,-0.095341004,0.20351449,0.031601567,0.1594099,-0.24545698,-0.003105389,0.09497861,0.6420961,0.26948613,0.20690002},{-0.18801227,-0.20397879,-0.22452947,-0.26345313,0.27756572,-0.22540915,0.006565226,0.3531635,-0.07760028,-0.24878283,-0.03804559,0.23266543,-0.2541946,-0.16484575,-0.28583315,0.29294118,-0.25762233,-0.10862886,-0.12331901,-0.18657902,-0.0630546,-0.066997245,0.52290815,0.23394758,0.10991954,0.19090843,-0.09837638,0.091666386,-0.41729918,-0.012590572,0.5325035,-0.39387545,0.063026905,-0.09859966,-0.25844163,0.1591676,0.19329013,0.23406646,-0.118514165,0.0004049156,-0.36207208,0.005672943,0.19520606,0.1079905,-0.23556653,0.3356489,-0.38487822,-0.101416074},{0.37155357,-0.121142216,-0.04484415,0.4786741,-0.5038102,0.10960837,0.47939175,-0.15203379,-0.2265477,-0.21782583,-0.24248487,-0.09063337,-0.10752612,-0.08479895,-0.6141403,-0.34404767,-0.3234478,-0.26612094,0.15892975,-0.12461201,0.24262518,-0.010009545,-0.16394411,0.0319591,0.30613455,-0.32790142,-0.11122258,-0.2069863,-0.13438539,-0.053182572,0.043627463,-0.47184104,-0.5430806,-0.24342142,-0.30507937,-0.15030201,-0.055526737,-0.0010132926,0.16912375,-0.08225838,-0.30403936,-0.2121598,0.20089725,0.33213896,0.08297313,-0.13036503,-0.24715228,0.30849776},{0.1059219,-0.10828438,-0.018514695,0.29632574,-0.49743724,-0.14522296,-0.004432491,-0.62261266,-0.13847157,0.09952604,-0.012976144,0.0056384746,-0.13223496,-0.35903686,0.39597908,0.011663337,0.33245522,-0.63813496,-0.18303531,0.60811657,0.7197939,-0.12327149,0.015757076,-0.5474162,-0.07557238,-0.43557733,-0.10371896,-0.34339333,0.06640225,-0.18479288,-0.02194368,0.29915065,0.59582573,0.091198064,-0.20694107,0.29647884,-0.32858285,0.011050753,-0.14777134,-0.5278882,0.39520508,0.15518855,-0.6925434,0.07890235,0.1338687,0.26656628,0.34476238,-0.45844743},{0.33572105,-0.059656203,0.037358243,-0.0074117663,0.30569732,-0.21613039,0.50396526,-0.20058425,0.5276962,-0.09123018,-0.06259955,-0.032372035,0.068468034,-0.082949705,0.14528471,0.24914941,-0.1308563,0.39820564,0.04633413,0.33506894,0.38936794,-0.026003959,0.24030806,-0.6262015,0.21545915,0.03586026,-0.057417545,0.3385048,0.22284831,-0.08529448,0.10312077,-0.32505646,0.4002059,-0.41213167,-0.16056317,0.26815948,-0.2297955,0.002917814,-0.122305624,0.3852634,0.7028655,-0.21435612,-0.11627614,-0.10631039,0.22054268,0.16199103,-0.2661417,-0.07141091},{-0.25161967,0.25427938,-0.18390177,-0.13864638,0.13151485,0.14489263,0.1813464,-0.40392396,0.46595123,-0.012067706,0.31684443,0.045799233,-0.17203812,0.3084596,-0.023108657,-0.114874065,0.4587122,0.08089474,0.015020934,0.022526866,0.48268905,0.2298381,0.17736569,-0.39746273,-0.086665906,0.17766778,-0.3984016,0.2245701,0.13100088,0.2807851,-0.6523185,0.37748256,0.13311626,0.52764535,0.06968686,-0.1810344,-0.2250448,-0.16091144,0.13255239,-0.16356176,0.25038555,0.13223942,-0.029430706,-0.051117074,-0.024562245,0.112935185,-0.377666,0.21692365},{0.061080467,0.23036355,-0.33536184,0.32434875,0.32918197,-0.0066460124,-0.31055227,-0.12495308,0.10553711,0.34129804,-0.3208768,-0.061046265,0.043799866,-0.0047823866,0.18791947,-0.19939406,-0.13817848,-0.56424576,0.09498691,-0.1403833,-0.65301055,0.14600112,-0.05607477,-0.30443278,-0.14258593,0.15807757,-0.037703827,0.20122878,-0.67576,-0.2766359,-0.36361802,0.2669574,-0.54409444,0.17046909,-0.11243275,0.2663745,-0.3651263,-0.15350434,0.12755606,-0.31944022,-0.12263467,0.51064295,-0.19468427,-0.2805458,-0.084386945,-0.39382032,0.5304353,-0.35881004},{0.0597555,0.1112451,-0.08108332,-0.22308208,-0.03120818,0.10524095,-0.8710138,-0.31870598,-0.10893441,-0.23712368,-0.1725926,0.10852176,0.24316278,-0.093376085,-0.48233032,-0.18279883,0.3184888,-0.33370277,0.3030951,0.20290117,-0.446803,0.13470156,0.050712127,-0.22191761,0.12226501,0.4867375,0.562585,-0.04646442,0.110305965,-0.006642866,0.39113313,-0.29101947,0.049177505,0.112899065,-0.26736152,-0.500379,-0.069688365,-0.014433159,-0.054916814,-0.6088727,-0.15054867,0.60563,0.037623975,0.21231067,-0.09680719,-0.043470666,0.4361434,-0.04237345},{-0.19348513,-0.23905714,0.13536239,-0.32991317,0.04662676,-0.0847372,0.02080562,-0.17139095,0.023522884,0.021741474,0.22486243,0.15918395,-0.12327401,0.14812578,0.36430743,-0.1380544,-0.19897857,-0.13308,-0.03677672,-0.5456142,0.31302464,0.19284149,-0.3968003,-0.15770988,0.33551666,0.7187415,-0.180501,-0.7579079,0.1176441,0.34698662,0.22533469,0.039651096,0.09256368,-0.3112586,-0.29484823,-0.31784853,-0.41730556,-0.36475793,-0.04013442,0.41459125,0.094731644,-0.24055056,-0.094569296,0.010867816,0.052346762,-0.017444346,0.031629983,0.22517084},{-0.13584052,-0.14956501,0.08008209,-0.12142781,-0.37011078,0.029280143,-0.57210106,-0.08835297,-0.2381447,-0.10437448,-0.43196672,-0.17439285,0.24439965,0.23302737,-0.071225956,-0.15424311,-0.0051850677,0.014291256,-0.13915117,-0.3479018,-0.12102698,0.0339099,-0.785384,0.7244991,-0.3367231,-0.06814304,0.016811894,-0.07863115,0.030621426,0.2585816,0.056028713,-0.065287136,-0.11940563,0.24946971,0.13379037,0.22718082,0.3693955,-0.054685403,0.25759006,0.040834446,-0.47328034,0.19003317,-0.23521572,0.09617037,-0.3600039,-0.22001682,-0.0943638,0.15445822},{0.3999209,-0.5743847,-0.26621628,0.06061036,0.13677567,-0.47953144,0.155987,0.121966995,0.22024755,0.43883985,0.17721152,-0.08079645,0.052506845,0.17041935,0.3418001,0.22179496,-0.25087395,0.1888029,-0.39889753,0.2425694,0.032963693,-0.20739412,0.022997746,0.16363677,-0.1810063,0.73225933,-0.064033784,-0.16255063,0.12537299,0.29791772,0.17229603,0.0069821244,-0.047917116,0.04290423,0.22954994,0.12781419,0.2061529,0.15480313,0.24757257,-0.34375352,0.20515068,0.1079226,-0.18835549,0.20642705,0.1650074,0.5903152,-0.065317035,0.114388786},{-0.021207163,-0.036226332,0.009618534,-0.40538126,-0.28518388,0.080223545,0.072234,-0.3561097,-0.1468827,1.2473043,0.055985052,0.29754686,0.04134807,0.22573641,0.19650485,-0.10569987,-0.22805674,0.48029518,0.10301174,0.15009032,0.42113993,0.21224265,0.013672235,-0.28880367,-0.13872834,0.09577642,-0.34491387,-0.04591959,0.032372985,0.4936921,-0.2632055,-0.05330854,-0.47019503,0.054381862,0.12330903,-0.019580195,-0.015029892,-0.0086865155,0.59721214,-0.6261646,0.15282291,-0.39111894,-0.26071885,0.28619853,0.021881307,0.063929506,0.06507209,-0.12231099},{0.5601555,0.06611693,0.015308465,0.32789096,-0.09344468,0.4864684,0.35961625,0.22940187,-0.06413186,0.21837392,-0.17016491,-0.013874624,-0.21549208,-0.20484076,0.06722858,-0.04299869,0.21037927,0.53435445,0.45411626,0.10641581,0.33916807,0.030786958,0.17902014,0.0008442748,0.39423224,-0.4272682,-0.40562385,-0.15587354,0.19479242,0.13570152,-0.484653,-0.10619723,-0.43866292,0.94639224,-0.025289275,0.43099,0.032150503,0.13282937,0.40521944,-0.017746989,0.047651947,-0.42599294,0.26429504,-0.13692638,-0.13616884,-0.117059685,-0.15824416,-0.04942867},{0.03398278,0.3557125,0.05934487,-0.16422486,0.41853812,0.14278038,-0.030326001,-0.34772363,-0.3160618,-0.4005413,0.014051673,0.35868266,-0.0888295,-0.470228,0.20040248,0.08624536,0.16870874,0.22248349,-0.034741126,0.10513518,0.22744972,-0.31666338,-0.1867125,-0.06668855,0.0068351356,-0.007154797,0.17302907,0.06415878,0.008081436,0.021653252,-0.2984406,0.12631331,0.21010911,0.45599595,-0.21672581,-0.4309412,0.33653417,-0.29587644,-0.39922068,0.5870336,-0.014515113,-0.13101472,-0.034982268,-0.3010341,0.07898836,-0.27939984,0.28781182,-0.46726158},{0.6559039,0.283195,0.1331836,0.6335674,-0.3462495,0.14202975,0.27838224,-0.015147554,0.44925314,-0.10601831,-0.3433133,0.13683148,0.0035118056,0.022856154,0.6625635,0.74706763,0.31032953,-0.09869447,-0.048418116,-0.092299335,-0.2907086,-0.0021131835,-0.28879952,-0.017047402,-0.08135541,-0.010233437,-0.014186603,0.20837413,-0.031743247,-0.21526814,-0.039904587,-0.10199629,0.2717449,-0.3720674,-0.11321146,0.0967607,-0.6475124,0.15099038,-0.21892749,-0.12210112,0.31212842,0.26249397,0.094416045,-0.20195583,0.49228212,-0.4018927,-0.34911498,0.5349405},{0.1678291,0.05312205,-0.37974423,0.42873368,0.040846415,-0.085768856,-0.3425202,-0.39563933,-0.18811321,-0.8564442,-0.013716327,-0.24261366,0.09548088,-0.06027259,0.31262067,-0.13025221,1.2243727,-0.08920769,0.14342165,0.66263086,0.28607002,-0.50797784,0.09507736,-0.34082302,0.6027639,0.16676895,0.6093834,0.059492026,0.20572668,-0.11588164,0.17733353,-0.09392465,1.0733062,0.097896144,-0.46697116,0.0955113,-0.31087026,-0.174967,-0.40420341,0.0484049,0.42009726,0.18014012,0.058889717,-0.12266105,0.10410186,-0.15337123,0.0010552915,0.13918868},{-0.022859018,0.4332945,0.2588851,0.13623965,0.18993585,0.12762964,0.3680394,0.37907606,-0.21065848,-0.28427354,0.18801329,0.036294352,0.26378328,-0.21218346,-0.022826308,0.8904972,0.00847603,-0.306249,0.093030386,0.16281965,-0.007905656,0.51337,0.048259743,0.24649899,0.16717389,-0.2741294,-0.5401753,-0.46791455,0.4050995,-0.11640928,-0.02266963,0.7697194,-0.31638804,0.27128407,0.26051635,-0.050193053,-0.43510693,-0.13066067,0.30276003,0.26634687,0.07086725,-0.13445532,0.12611006,-0.052978307,-0.32867116,-0.42838016,0.2189719,-0.11532687},{-0.16835818,-0.17541507,0.34625122,-0.24278364,0.25368825,0.2926706,0.13748759,0.21692799,-0.14579734,-0.2544291,-0.11527094,-0.33592314,-0.0784176,-0.05501707,0.16889906,-0.27393144,-0.14242905,-0.07001272,0.48053658,-0.2533777,-0.4226207,-0.10096529,-0.32769123,0.33628526,0.096261814,0.68047553,-0.39679012,-0.013530287,0.19607459,-0.18150626,-0.023065517,0.018095864,-0.23382652,0.08418061,0.15809846,0.18228275,0.17779206,-0.4777433,0.05018218,-0.07817584,0.018375792,-0.21852063,0.14894062,-0.26111594,-0.2282113,-0.09658147,0.10274553,0.47699133},{-0.25259343,-0.8400099,0.0010380563,0.1264413,-0.45602316,-0.19217727,0.3526057,0.13415833,0.19961485,-0.35771114,0.060343552,0.119764514,0.29829243,-0.38886297,-0.2969843,-0.58596843,-0.22574717,0.19386527,-0.40297812,-0.27027062,-0.067069285,0.116898075,-0.3346448,0.2461836,0.110649265,0.26930577,0.17299831,-0.29728708,0.11881254,-0.011318981,0.5249553,0.1864367,0.069382355,-0.11291271,-0.43591237,-0.04221448,0.26919997,0.23998968,-0.30562386,0.23637365,-0.43140242,-0.14850658,-0.3699627,0.28799266,-0.1509077,0.29801163,0.13872989,0.11959189},{0.3179422,0.12588723,0.013079148,0.3286756,-0.12875898,-0.117390044,0.083443105,-0.5422923,0.20361142,-0.17881311,0.074800186,0.09575394,0.118865386,0.17821497,-0.15372242,-0.09964191,0.591674,0.7764954,0.2468075,0.08240606,0.29628798,-0.21988402,0.09705313,0.31663972,0.5141163,-0.12639311,-0.4591563,-0.011016332,0.1270594,-0.010481733,-0.55659753,0.11042931,0.34537578,0.18241619,-0.03458102,-0.17378922,-0.15885852,-0.12589839,-0.30319637,0.3794936,0.3716319,-0.27925318,-0.38230664,-0.004251231,-0.036600813,0.078953676,-0.39541256,-0.21609873},{-0.2346982,-0.5468783,0.24785343,0.4965489,-0.20929772,-0.1795567,-0.034630585,-0.11277785,-0.31640354,-0.31133682,0.19971834,0.022807602,0.38136122,0.41418755,-0.036532972,-0.40202194,-0.3308656,0.05487856,-0.30038255,-0.024461336,-0.23399928,0.37922195,-0.22737642,0.3803785,0.01407007,-0.25822073,0.10133375,-0.14331672,0.020480065,0.4609747,0.36330563,0.3751845,-0.14623706,0.21676472,0.047272246,-0.011657459,0.04589592,0.044003405,-0.027281186,0.0219825,-0.3628566,-0.04800238,-0.21807128,0.1855077,0.02144254,0.10167584,-0.046581898,0.12540022},{-0.20387197,0.06292609,0.24629332,0.2415878,-0.3927971,-0.32661328,0.30371743,-0.08469202,-0.16233292,0.60841614,0.39703307,0.14076568,-0.16047809,0.13492602,0.0395377,0.025915788,-0.032139223,0.24273895,-0.3774154,-0.17760012,0.44415835,0.1505216,-0.13674445,0.123674355,-0.29385665,-0.190243,-0.55527544,-0.3830069,0.34241557,0.3813031,-0.21892756,-0.12510535,-0.42663047,0.111747704,0.15958683,0.48064768,-0.35779554,-0.20095193,0.19304623,-0.64815795,-0.29582885,-0.32186005,-0.19242802,-0.18749653,0.07414289,0.26705977,-0.29995954,0.33653367},{-0.11702615,0.33801913,0.29290608,-0.15504913,0.0037757254,0.15874434,-0.18341891,0.03825373,-0.22449152,-0.020873303,0.1570691,0.17767376,0.09065553,0.10461875,-0.5559325,0.13549286,-0.26822907,0.2777611,0.1861413,-0.27776325,-0.42896459,0.10685356,-0.015539747,0.4493984,0.22284682,0.11813958,0.032881208,0.22638533,0.12851614,0.14224474,-0.44263846,-0.21310866,0.22966087,-0.23416568,-0.46452817,-0.26814702,0.4181561,-0.13621171,-0.5594504,0.24580778,0.026087834,-0.4891585,0.5510923,-0.0061402298,0.16945714,-0.10318121,0.2416827,-0.08085253},{-0.044275355,-0.5039396,0.20435719,-0.46262342,0.14898847,0.20476696,0.26250738,-0.16763568,0.0689834,0.09282929,-0.3033097,0.09525561,0.16748817,-0.8418681,0.034391344,0.2555142,0.16587044,-0.012878389,-0.36031938,0.18072715,-0.13284,0.20052321,-0.26091623,0.39770374,-0.16768764,-0.057307307,0.11179976,-0.38678163,-0.050773703,0.08162188,-0.01587445,-0.3156224,-0.119815655,-0.17389683,-0.41483846,-0.057271518,0.057705984,-0.18874393,-0.11672812,0.120988,0.28450865,-0.01690275,0.03366446,0.47340512,0.3350262,-0.22964853,0.012561816,-0.19338296},{-0.24479385,-0.24610956,0.056724884,-0.010737281,-0.037927408,0.45358714,0.28259555,0.388315,0.21977052,-0.34808853,0.028467497,0.104608305,0.29316044,0.38901538,-0.56790894,0.1833557,0.45201305,0.14208436,0.08026817,-0.31705615,0.35676363,-0.17786162,0.13530391,0.28548878,0.1654829,0.22514614,0.08298403,0.59298253,0.40258545,0.14079951,0.17456216,0.025738822,-0.13609974,-0.07544659,0.32464197,-0.44916052,-0.0096767,0.2977406,0.2244666,0.7379782,-0.3221401,0.22300038,0.04569984,-0.11813719,-0.3410638,-0.14278473,-0.3933714,0.14572279},{0.103437476,0.6102363,0.0010594623,0.08480837,0.00648686,0.23597899,0.006225535,0.16432147,-0.18182838,0.24857067,0.091928326,-0.04529257,-0.008551358,0.054382786,0.24955381,-0.033915445,-0.20728761,-0.0072974623,0.19063957,-0.13049895,0.2393518,-0.26487783,-0.0167325,0.049721967,0.055888765,0.106932305,0.13181224,0.10859913,0.14554009,-0.17263117,-0.122977085,-0.4286423,-0.021266893,-0.12009148,0.09197498,0.22111358,-0.16646273,-0.2392238,-0.083777055,0.1135713,0.13166727,-0.13030712,0.075174116,-1.6842262,0.050919373,-0.34922624,-0.16519997,-0.03528661},{0.27603084,-0.17905797,-0.50749665,0.2678699,-0.0038397696,0.008453949,-1.0168514,-0.27029464,-0.531847,-0.4079798,-0.10895088,-0.06247618,-0.10382942,0.32712325,0.10200806,-0.10668676,0.39087027,0.064612724,0.19542596,-0.301748,-0.6081925,0.051343653,0.07896565,0.11468003,0.27777565,0.058703855,0.6360735,0.12142871,-0.17756736,0.51351357,0.20535871,0.21872704,0.10353916,0.39461142,-0.35847813,0.077806026,-0.0887552,-0.20547476,0.06106068,-0.031303067,0.41770566,0.2526289,-0.123389736,-0.11600388,0.26207238,-0.106931694,0.74401,-0.64836544},{0.12918502,-0.3224517,-0.27182227,0.40810886,-0.20942017,-0.7416795,0.35692453,0.24075618,-0.023871465,-0.40392762,-0.28704548,0.022415021,0.31693077,0.0871532,0.25793555,0.27531374,-0.042115502,0.03457604,-0.24864577,-0.08926914,0.120018266,-0.011011748,-0.27867445,0.06591402,0.13446389,-0.025144046,0.08823706,-0.28921714,0.004394833,0.19241017,0.042224247,0.0076261447,-0.06606265,0.041319523,0.2861532,0.4216959,-0.27392167,0.41264364,0.087094255,0.10257572,-0.21540026,0.31842488,-0.06941605,-0.063512035,-0.18411972,0.09796348,-0.21824126,-0.19687872},{-0.37425342,-0.061563715,0.017633256,-0.3877148,0.004565488,-0.050735302,-0.1111866,-0.48182946,-0.093854085,-0.15666422,0.39729688,-0.32151252,-0.31488907,0.39148772,0.35142702,-0.33573645,-0.14102893,0.12615655,0.02938493,0.09949991,0.60703003,-0.1060452,-0.3094747,-0.14158837,-0.019149134,0.14179108,-0.30486652,-0.34040147,-0.031472515,-0.04370246,-0.20789886,0.37551025,0.38513407,0.32577026,0.05425719,0.2156766,0.1968128,-0.4397266,-0.20659748,-0.07911504,-0.14276715,0.20662853,0.03966747,-0.010436747,-0.0032747379,0.543624,-0.22401631,0.07106684},{0.15623313,-0.47564846,0.06624631,-0.036462005,0.11963366,-0.104634315,-0.28825945,0.0184661,0.10520781,0.06922626,-0.16564958,0.071738414,0.1457914,-0.023158675,0.11663552,0.03777138,0.1789161,-0.056475114,-0.2822856,-0.56833726,-0.24585964,-0.23582658,0.016878894,0.07167653,0.15993689,0.12775582,0.057319358,-0.44008452,-0.4265916,0.6495105,0.4922949,0.117405005,0.12537491,0.048984427,0.041356876,-0.01970028,-0.09395866,0.52096117,0.06506094,0.11014409,-0.12979841,-0.14153145,-0.25145957,-0.06334552,-0.011951769,-0.22047469,0.23175211,-0.3216319},{-0.26872483,-0.0692146,0.21523142,0.2640235,-0.050628465,-0.27225077,0.29685396,-0.22475055,0.5265076,0.21082205,-0.32844985,-0.36598605,0.109620266,-0.20553681,0.03535667,-0.19148877,0.24278276,0.22007322,0.12493327,0.19860888,0.050419804,-0.33627778,-0.03246885,-0.33575532,0.020225668,0.38586602,-0.26315197,-0.0075383377,0.337876,-0.3399653,0.12370365,0.056016374,-0.25057185,0.12697218,0.49807692,0.3425128,-0.6031639,-0.014208828,0.18532778,-0.05176401,0.25961587,0.19685939,-0.41449744,0.08135477,0.19880414,-0.33783314,0.036782473,0.49023902},{0.039928928,0.5991763,-0.049863886,0.24269664,-0.20606786,-0.07677871,-0.23296942,-0.41949195,-0.0758965,0.13783395,0.3721801,0.19742328,-0.3720809,0.3873725,-0.008104798,0.21886878,0.1803865,-0.5396198,0.033272393,0.17579167,-0.44391915,-0.38498235,0.20416048,-0.7106002,-0.109831676,0.004598402,-0.004072893,-0.31408513,-0.23662339,0.13093705,0.31821102,0.012413387,0.40894058,-0.023049483,-0.08818915,-0.14464363,0.3900702,-0.36897293,-0.17323431,-0.2976966,-0.19945902,0.11662849,-0.10434039,0.09210886,0.34019357,-0.41252545,0.13519543,-0.16370511},{-0.3223104,-0.11622044,-0.31270456,-0.059427947,0.031547755,0.083841145,0.18998727,0.02845286,0.13068177,-0.41037002,0.014100424,-0.055592146,0.31161183,-0.23772284,0.12023793,0.100460246,1.2598143,0.18948543,0.1944153,-0.2872882,0.4443722,-0.80587184,-0.33942792,0.03812673,0.55417216,0.23046649,0.30981988,0.114778645,-0.13634357,0.27565315,0.16784376,-0.041455064,0.31172246,0.09901519,-0.038492255,0.16259632,-0.3672802,-0.17846505,0.5977564,0.2917455,-0.42519602,0.20417702,-0.58180124,-0.17061509,-0.24627621,-0.042915363,-0.31139854,0.30136508},{-0.33742282,0.52521616,-0.079181254,-0.37790936,-0.27670878,0.043682482,-0.21952683,-0.105899625,0.05866547,0.3176365,-0.1362425,-0.2557975,-0.05316846,0.3946245,-0.0016201377,0.111988746,0.16119005,-0.13285609,-0.06480057,-0.06794142,-0.4752489,0.24488506,0.054432724,-0.36533076,-0.25815004,-0.31946486,-0.33851317,0.04944029,-0.32680634,0.10177737,-0.17418967,-0.1415042,-0.295367,0.29470608,-0.074883886,0.4862635,0.074021585,-0.17186277,0.103055984,-0.44260392,0.0883783,0.14144595,0.030756611,-0.11660939,0.017407091,0.10317298,0.696718,-0.36309713},{-0.2319502,0.17502569,-0.048869293,0.22549166,0.1399338,-0.2957909,0.10406773,-0.16783907,0.13565059,0.0013698132,-0.024754409,-0.044837598,1.4251081,-0.05327617,0.11032195,-0.07829676,0.20868318,-0.5633722,0.07805381,0.13456336,0.4117761,0.2736136,0.037211604,-0.090606734,-0.1681473,-0.44586456,-0.3232725,-0.34669936,0.6756836,-0.16665281,0.0224626,0.016088754,0.14503174,-0.045696743,-0.24824913,0.1480492,-0.1851366,0.47299844,0.02381431,-0.39154622,-0.21518427,0.45812896,0.6887548,-0.19311565,0.19522952,0.26010168,0.381432,0.0058214227},{-0.070284106,-0.075380415,-0.2575244,-0.17221892,-0.062111586,0.17873506,0.119085446,0.3158769,-0.32998642,0.16664848,-0.27125666,-0.21006307,0.3245769,-0.02895232,-0.08241854,0.033261754,0.14943677,0.02655644,-0.08103028,-0.50010854,0.007574744,-0.35319903,-0.3423182,0.3919882,0.031802956,-0.48173556,0.10511001,0.36684242,0.22099885,-0.018303715,0.36099786,0.3023869,-0.2426067,0.39465368,0.3038069,0.23853709,0.39953595,-0.49087736,-0.023822397,0.31325322,0.2569686,0.32353887,-0.096168734,0.13215823,0.16231017,0.5600319,0.38214478,0.20646656},{0.057326477,0.4731671,-0.29631773,0.07369251,0.07889798,0.18953303,-0.35843384,-0.2848157,-0.23823236,-0.31103444,0.119650565,-0.012701723,0.31755796,-0.1490377,0.122922935,-0.03977361,0.13219829,0.23988605,0.021601014,-0.10543732,0.26518947,-0.23747286,0.25185812,-0.612083,0.077250645,0.26682773,0.9776599,0.11803439,0.07377177,0.23196253,0.13653943,-0.22775798,0.4048185,0.021121072,0.21766001,0.1144188,-0.11435587,0.15384308,0.22602774,0.19562095,-0.54659146,0.54510665,-0.26272973,0.078956805,-0.4608459,0.3031086,0.0852544,-0.09447629},{-0.18778418,-0.13179855,-0.19603844,0.37434116,-0.10772004,-0.6179184,-0.12296505,-0.14116086,0.42551312,-0.118992016,-0.3121476,-0.06128926,0.027609346,0.047526285,0.2225073,0.11345112,-0.0010136502,-0.23097138,-0.32048768,-0.032837477,-0.14576381,0.30261356,-0.055507746,0.091739245,-0.4468156,-0.28335974,0.103871666,-0.25213227,-0.38052627,0.18636172,0.3190781,0.23991433,0.054421846,-0.2797953,0.24818252,0.090078615,-0.026547728,0.27647334,0.15201704,0.024207486,-0.12853986,0.1730776,0.045173284,0.32230127,-0.017267283,0.12826179,-0.15610892,-0.25673774},{-0.024849642,0.5011449,-0.014066194,-0.05333161,-0.5456343,-0.42641714,0.46781942,0.052258,-0.03153907,-0.07166969,-0.050661936,-0.1300776,-0.17500788,0.3010736,0.26041862,0.3005483,0.56986856,0.3259451,0.042372145,0.023485448,0.3816961,-0.22483552,0.12234492,0.4285313,0.026975494,-0.21898215,0.033299442,-0.07834125,0.24900617,0.22785173,0.27445826,0.2164775,0.7142176,0.13868932,0.20775087,0.09252738,-0.12788191,-0.24196434,0.059457302,0.67790866,0.27091062,-0.046357755,-0.3527264,-0.13735783,0.19606137,-0.3017852,-0.57059073,0.34312838},{0.28898603,0.2212379,-0.517653,-0.020322824,0.20961362,-0.4711447,-0.020975517,-0.13964732,-0.20811607,-0.09265987,-0.0846939,0.21900447,-0.13943858,-0.12425856,0.25779134,0.16418642,0.15541972,0.26136935,-0.27014986,-0.40834746,-0.08578638,-0.32367313,0.034964405,-0.13167821,0.67710537,0.116523504,0.19423972,0.1376533,-0.4024794,-0.061418943,-0.09193623,0.17133594,0.06736666,-0.133848,0.4802092,0.6935957,-0.18151161,0.28057003,-0.59702307,-0.046893254,0.58993244,0.22738576,-0.08348713,0.16547701,-0.07599557,0.06832502,-0.28972685,-0.25062475},{0.27947035,-0.113092445,-0.14325476,0.15526237,0.23537537,0.031015126,0.059157554,0.011892794,-0.5309039,-0.40484995,-0.16821662,0.027912373,-0.04867237,-0.11597024,-0.36975306,0.292294,-0.17358972,0.36116138,-0.47761017,-0.5411907,-0.14069383,0.013090693,0.07134395,0.44825184,0.03337927,0.046090066,0.0346668,-0.050049596,-0.21616283,0.4228295,0.089078695,-0.14045234,0.05610999,0.3528559,0.14708701,-0.012545515,0.076184265,0.4024227,0.19776022,0.2283889,0.31032225,0.17688808,-0.17414023,0.054579217,0.047150213,0.06763876,-0.114703365,-0.46363634},{0.0143283205,0.5179855,0.99983585,0.19757032,-0.46879795,-0.13383104,0.41258958,0.046899177,0.048861124,-0.123989366,-0.056732,0.082328364,-0.17642705,-0.2886269,0.3436795,-0.018292796,-0.0027023153,0.23771593,-0.5182999,0.049546402,0.09585581,-0.7978091,0.16708632,-0.03014429,0.06513811,-0.5234594,0.044315115,0.15221825,-0.9806171,-0.04769556,-0.15514705,0.05941912,-0.45059112,0.0043468825,-0.4879968,0.27269933,-0.04554541,-0.456263,-0.14777482,-0.120212995,-0.16558194,-0.1971389,-0.23060456,-0.17504783,0.15927747,-0.34004065,0.015796637,0.16120942},{0.12329899,0.09108704,0.28381848,0.0604074,-0.21386339,-0.09165864,0.5731067,0.49051225,-0.38234076,0.5199322,0.5011958,-0.05475648,-0.40738758,0.32443336,-0.029798642,0.103368185,-0.28703582,0.04618586,0.07374531,-0.48914573,-0.23335506,0.15243325,0.32655293,0.24735299,-0.2289876,-0.07122647,-0.57472706,0.075410165,-0.047262713,0.37734163,-0.08514762,-0.22980367,-0.7826084,0.15618436,-0.09860055,0.58528453,0.25111786,-0.0547434,0.3143979,-0.19398351,-0.10542161,-0.6424288,0.46189594,-0.014913558,0.044258185,0.061202142,-0.22826451,0.09353497},{0.32086214,-0.39702716,-0.03142148,-0.6861126,0.16004992,0.41295433,0.020127838,-0.0038155236,0.02636223,0.1880506,0.19602478,0.13828559,-0.17920128,0.21730249,-0.49115884,0.09053785,0.028757263,-0.05761123,-0.49254254,-0.23722082,-0.5698268,0.14839034,-0.031179838,-0.08834321,-0.25317824,0.34606108,-0.23270248,-0.035624128,0.020085651,1.0435436,0.33214238,-0.04667518,-0.18270501,0.07120319,0.035628576,-0.45139685,0.24685942,0.43163982,0.35885376,-0.55425745,-0.24523506,0.01664314,-0.08964342,0.27833635,-0.079575144,0.19652754,-0.41979042,0.34798658},{-0.13297936,-0.25421232,0.048649695,0.13318503,-0.31919855,-0.13409007,0.26901937,-0.08886427,0.006061067,-0.059426107,0.09782648,-1.8400805,-0.122406535,0.05878375,-0.43876907,-0.07451499,-0.33793002,0.13508843,-0.15338041,-0.11399124,0.11202665,0.3693512,0.011489844,-0.023315974,0.08908802,-0.23129958,0.115199305,0.32830912,-0.24090345,0.08362595,0.15551169,0.009327315,0.096422635,-0.046650525,-0.2171265,-0.28672755,0.22177519,0.09062705,0.3911755,0.22910024,-0.19619125,-0.092284314,-0.3444295,0.30875933,1.1479837,0.37874106,-0.23875305,0.13886492},{-0.35421202,-0.60874593,-0.52327365,-0.234838,-0.02355911,-0.27753994,0.03849138,-0.25534883,-0.30430245,-0.13408822,0.25853106,-0.049891178,-0.039492335,0.20275302,0.6355977,0.030330654,0.1931225,0.52299356,-1.9723057,0.023815094,-0.13733558,0.26629463,0.071885645,0.24324477,0.09337848,0.3206727,-0.047221873,-0.1509602,-0.6102764,0.18440148,0.11125984,0.54230386,0.061532952,-0.2606037,0.25256795,0.22005661,0.2557151,0.08493958,-0.5054964,-0.19410343,-0.24574469,-0.13605113,-0.32677704,0.082093254,0.40764302,0.23986687,-0.29853073,-0.39942762},{0.46019942,-0.2918397,-0.555773,0.5380679,-0.11011152,-0.054500595,-0.44676277,-0.71042264,0.109402575,0.47156894,0.32188714,0.2682169,-0.17388757,0.4036689,0.29723975,0.065855004,-0.00336303,0.094240725,-0.31825498,0.24748303,0.20005836,0.26593962,0.05743029,-0.21212983,0.24839826,-0.16777276,0.34458217,0.008558482,0.117347255,0.6755895,-0.1886269,0.37783372,0.11600473,-0.0028938348,-0.16256008,0.08473352,-0.478123,0.027461004,-0.21974672,-0.56113714,0.01400161,-0.24010932,-0.31296128,-0.16074933,0.0037028354,-0.09515617,-0.15204947,-0.04193724},{-0.47600308,-0.67492914,-0.12527002,0.2964276,-0.43660116,-0.1572682,-0.20207459,-0.4630331,-0.08396263,0.020882249,0.0673629,0.012912564,0.22885266,0.07057967,0.34104505,-0.38634127,0.33675113,0.6419144,0.2623944,-0.008341739,0.0018104299,-0.11047294,-0.034854613,0.11792405,0.6216028,-0.04180837,0.0022223415,-0.21658069,0.21186031,-0.08593674,0.12481053,0.0091533195,-0.45202783,-0.17240588,-0.1511349,0.15472977,-0.48952875,0.08332769,0.4043089,-0.5046601,0.21411145,-0.2105494,-0.5848322,0.069533505,-0.2619109,-0.19304359,0.23418221,0.094822876}};
static const float linear_3_bias[48] = {0.20802955,-0.18827128,-0.25929454,-0.055901606,0.13921723,0.1532591,0.10470159,0.29007095,0.16384305,-0.13871293,0.3741262,0.30772057,-0.5613657,0.015555647,-0.3607148,-0.07953535,-0.24524167,0.050792813,0.35137594,-0.14207101,-0.05743687,0.035473637,-0.33192787,0.2299195,0.10453967,-0.3002067,-0.15295604,0.003263233,0.043545388,-0.04547219,0.42916754,0.02538269,0.30985132,0.042792946,-0.8501914,0.09486684,-0.21828018,0.0016893849,0.16615818,-0.011598667,-0.21877863,-0.58791906,-0.049365327,0.5030983,-0.14727841,0.15820688,-0.076915234,0.17727937};
static const float linear_4_weight[48][48] = {{-0.15729657,-0.12142735,-0.26392406,-0.18424398,-0.29151762,-0.30115598,0.26747072,0.4801383,-0.10860226,0.55296695,0.1032807,-0.056203786,-0.10864547,-0.7620556,0.12733243,0.23099719,-0.24892478,0.13711458,-0.21400023,-0.6047854,0.21700993,-0.513253,0.36541855,-0.12965594,0.1084661,0.0901697,-0.7185082,-0.27639383,0.20253204,0.01585329,-0.1565647,0.30482325,-0.18794978,-0.17915353,-0.14034481,0.19751671,0.4298329,0.09628683,-0.058439072,-0.18043496,-0.18263319,-0.14053582,-0.36460185,0.15848829,0.2312764,0.1167857,-0.08022248,-0.15385441},{0.19555141,0.014447567,-0.19450167,0.0074871145,-0.11859689,-0.14969799,0.0022654384,0.39238703,0.4226262,-0.007896762,0.058848064,-0.12096938,-0.0016864163,-0.06090464,-0.005714698,-0.06306323,-0.09616856,0.3632682,0.07065718,-0.1450196,0.35981083,-0.25540057,0.08632072,0.18993914,0.15624976,0.19749367,0.43691888,-0.082075216,-0.20127639,-0.07772478,0.20984492,0.17013824,-0.30297795,-0.23453969,-0.27272895,-0.046154603,-0.109570906,0.10653227,-0.1999459,-0.08505959,-0.20139705,0.05498931,-0.07357534,0.19832793,-1.2702099,-0.0195667,-0.037308805,-0.40443292},{0.26913744,0.33938783,0.19955672,0.412084,-0.45982775,-0.091537565,0.4267726,0.14321217,0.34329936,-0.415422,-0.10105972,0.8153196,-0.46301666,0.11225986,0.113519214,-0.40922657,-0.3102344,0.21956892,-0.1974716,-0.12507284,-0.24868003,0.7365429,-0.1310292,-0.019675491,-0.16930218,-0.12661666,-0.01637435,0.076292336,0.012427181,0.04397291,0.33662438,0.21001962,-0.059188444,0.79656655,-0.051587004,0.17486167,0.30164123,-0.10700158,-0.48375002,-0.115583114,-0.05319255,0.006198427,-0.24672581,0.084407076,-0.02168198,-0.4627431,0.5511713,0.46034378},{0.5916916,-0.1543151,-0.088227786,-0.5482045,0.43071985,0.33267495,0.05802749,-0.16468243,-0.0598006,0.19856058,-0.26681814,0.3556836,-0.2614001,-0.028330028,-0.38654873,0.56976825,-0.038551807,0.067629635,-0.2324694,0.6291548,0.074260555,-0.031499583,0.26996097,-0.3659837,0.42470443,-0.09021894,0.37377957,-0.22889441,-0.23256025,-0.07348911,0.15229835,-0.29691303,0.21352766,-0.4448632,0.29146,0.27766073,0.2918288,-0.36757836,0.34677786,-0.26746473,0.18982238,-0.3924979,-0.04622713,-0.2824979,0.13926603,0.26582798,0.16736273,-0.042987775},{-0.5412876,0.13541967,0.45295274,-0.037785396,0.13777736,-0.2760526,0.028326109,0.078435,-0.113908134,0.22330363,-0.30933338,-0.0012169293,-0.044017956,0.20803791,-0.07910463,-0.5650084,0.2826997,0.45936057,0.14744541,-0.09976507,0.0456479,-0.19299553,-0.010457488,0.20273936,-0.19485754,-0.031108182,0.23313484,-0.092159554,0.2722328,-0.08560187,0.18376923,0.011947563,0.0048035444,0.25151435,-0.32615277,0.4410089,0.4709461,-0.15296516,-0.5957622,0.5489061,-0.021167243,0.4401761,0.39437753,0.03406209,0.121261306,-0.2697543,-0.2574019,0.63379},{0.13379127,-0.1293659,-0.14023812,0.50298,-0.03907153,0.34228736,0.4075322,0.4840268,0.10550561,-0.21016729,0.07699693,0.29073963,0.15373175,-0.033070765,-0.032970876,0.1133619,-0.013164768,-0.14966321,-0.13170612,0.114473164,-0.115957454,-0.0652613,-0.08433068,-0.38910142,0.20187528,0.0529791,0.3309409,-0.085469335,-0.1688269,0.03772669,0.23873274,0.4653032,-0.080642544,0.0041910214,-0.18532024,0.1820838,0.5915094,-0.23874374,0.13233125,0.22395515,-0.39352283,0.18241021,-0.6172354,-0.5339154,0.1309892,-0.054706626,-0.014165429,0.22106081},{-0.08298573,0.2617624,0.649167,0.0030221723,-0.40702745,-0.081579074,0.021335455,0.34921342,-0.07670542,0.28072095,-0.39701876,0.055256497,0.16684933,0.23918255,-0.14693591,-0.089988485,-0.030222362,0.10264694,0.03565306,-0.0050597573,0.0051701334,0.40007627,0.00081712764,-0.00603959,-0.40354693,-0.39358976,0.14644828,-0.60474145,0.40591502,-0.10286942,0.22523029,-0.2852036,0.035737675,-0.1370564,0.09850545,0.3060587,-0.34680286,0.35481137,-0.29409134,-0.26450124,-0.07178069,0.21070604,-0.196285,0.28558272,0.28896913,-0.28611854,0.0954745,0.45558152},{0.4099584,0.14408419,-0.07624322,0.29660392,0.073227346,0.0499048,-0.15027216,0.31815204,0.1564628,0.024023985,0.15254074,-0.054981485,0.067361124,-0.67313397,0.36459073,0.07611976,-0.25580767,-0.22825353,-0.101970024,-0.24160285,-0.17375308,0.3917492,-0.738071,0.06723638,-0.10653989,0.010609579,-0.08429198,-0.2713269,0.07381501,-0.26017717,0.33583954,-0.009703006,-0.3794299,-0.040738493,-0.16536245,0.11687285,0.080436766,0.35647863,-0.115283154,-0.35504946,-0.38053095,-0.18886997,0.059416976,0.4662466,-0.10861841,0.05272799,0.3267444,-0.18182692},{-0.15168813,0.27656204,-0.28764346,0.11326419,-0.2139304,-0.57899207,-0.29200163,0.0036844881,-0.21276619,0.12869208,-0.2859617,-0.10561032,0.27422637,-0.1617451,0.10456941,-0.31392238,0.123481184,-0.04568701,0.15869798,0.09152874,0.14122073,-0.083924234,-0.3940501,0.16154516,0.03747857,-0.4389442,-0.33776963,-0.14914848,-0.41952336,-0.06964087,0.28771457,-0.49967822,0.33887374,-0.089221016,0.14268315,0.083674416,0.102561824,-0.014201718,0.21884562,-0.69408154,-0.25696886,0.23828049,0.0014186915,-0.0872386,0.053921275,-0.48094013,-0.44288695,0.4369445},{-0.26944706,0.038646217,0.06936762,0.029893164,-0.41362098,0.08356305,-0.03418839,-0.10281141,-0.32766533,0.37040648,-0.5598303,-0.17927684,0.12554252,-0.065769404,0.1544963,-0.03217348,0.08585031,0.18760037,0.20785175,-0.31204697,0.41911882,-0.059715908,-0.13073139,-0.27383384,0.5230562,-0.02078621,-0.36149943,-0.28694677,-0.36887616,0.14331801,-0.36803943,-0.07322286,0.21907046,-0.12179792,0.3451331,0.4359164,-0.115745805,0.1558273,0.46822378,-0.43802068,-0.010147047,0.18458052,0.15547879,-0.073007755,-0.03376732,-0.25419274,-0.5254115,-0.24314237},{0.5347379,0.2882486,0.20674434,-0.038075328,-0.024972733,-0.056141403,-0.64826065,-0.075610854,0.10513646,-0.08379893,-0.38168594,0.5675009,-0.058494315,0.24206816,-0.01595226,0.30109096,-0.054167915,0.15487343,0.36291474,0.09407471,0.2803287,0.014697319,-0.10136873,0.13168612,0.55726093,-0.28308192,0.08052406,0.5322098,-0.33709177,-0.17722508,-0.07215091,-0.15597908,0.40213555,-0.14405052,0.1854682,0.24468534,0.08792011,0.048399873,0.55644274,0.31253576,0.36851546,-0.25086266,-0.069182575,0.020630172,0.20284191,0.12737869,0.3125686,0.21648525},{-0.37967739,0.0055540106,0.1429148,-0.07882146,0.14649974,0.22761106,0.3275682,-0.32234794,-0.4880625,0.098078616,-0.44229555,0.1408961,0.12248504,-0.041121047,0.20646888,-0.072647125,-0.04927343,-0.37967795,-0.4827453,0.015537529,0.038628474,0.18971206,-0.026989799,-0.14955492,-0.080905244,0.03304264,0.04532577,-0.43860433,0.11863514,-0.15490882,0.15944825,0.7008036,-0.32188955,0.28525406,-0.1417038,-0.19297867,0.02902383,0.086337335,0.047016047,0.13642372,-0.22280379,0.7446623,0.35131997,-0.36960673,0.12323118,-0.028718477,-0.09137921,0.026055953},{0.0948111,0.28355154,0.29969132,-0.40863758,0.4446099,0.1150861,-0.20794566,-0.013486454,-0.21497062,-0.42788523,-0.14991528,0.54472053,-0.0022570752,-0.1469927,-0.40110633,0.11018909,-0.13805135,-0.3035471,0.02188371,0.229741,-0.2778774,0.66599965,0.25775284,-0.153249,0.1525142,-0.5902219,-0.12671542,-0.019308621,-0.08759781,-0.1437243,-0.5330093,-0.0955172,-0.5730203,0.263934,0.37228858,-0.33563185,-0.17632149,0.09463821,0.07219563,-0.12073847,0.3390351,-0.27141204,0.21860403,-0.0055604405,0.6083339,0.016943268,0.21194133,0.17821187},{-0.49714702,0.24053578,0.27476782,0.041708607,-0.0043845363,0.14707991,0.034664404,0.49690413,0.087685876,-0.08611731,-0.62320435,-0.20744649,0.27797267,0.48421133,0.12468682,0.31382003,-0.0962517,-0.27521026,0.14006023,0.09547547,0.03570127,-0.22971047,0.016304854,-0.095240556,-0.28387114,-0.14639315,-0.31354985,-0.21946791,-0.2710657,0.1395492,0.115991056,0.093761794,0.42352793,0.051742256,0.077895805,0.06954698,0.1558212,-0.6062262,-0.42276838,0.25620985,-0.086034946,0.06464924,-0.30203837,-0.121246286,0.18506508,-0.5586027,-0.032677736,0.064185135},{0.21749948,0.27284053,-0.60164255,-0.119747885,-0.069781534,0.11770559,-0.067639895,-0.14685649,0.06556368,-0.49339283,0.12197066,0.23602119,-0.17716074,0.26112452,-0.29360628,-0.03369737,-0.04219573,-0.1107696,-0.14852254,0.091813624,-0.22994101,0.049949378,0.3551908,-0.3665358,0.22378181,0.17685142,-0.37347376,-0.153297,0.27511474,-0.2993312,0.1953381,-0.30811536,-0.20619415,0.29083994,0.39938718,0.5269941,0.055445004,-0.06052169,0.55810636,0.013449763,-0.11273732,-0.056880113,0.1602391,-0.66957545,-0.05202397,-0.1213344,-0.3157601,-0.5354713},{0.39795774,-0.024877947,-0.3386354,-0.69942987,0.37379777,0.065973364,-0.7207621,-0.17162107,0.01824215,-0.2941004,0.3174878,0.07358544,-0.21050407,-0.04049151,-0.031749777,0.7007478,-0.11530378,0.027458264,-0.26792455,0.00642625,-0.6244151,0.020645102,0.1740533,-0.18167377,0.4308877,0.0058590886,-0.07416916,-0.034833215,0.07083657,-0.17172766,-0.05558427,-0.07039801,0.61819136,-0.45172462,-0.023084888,0.23091528,-0.14973578,0.25182202,0.37853125,0.0061908686,-0.07856014,-0.40527147,0.05337474,-0.18593617,0.022711422,0.35747817,0.12380199,-0.045808744},{-0.5866265,-0.6465404,-0.28286335,-0.0036975122,-0.059922762,0.1930806,0.6631701,0.0813523,-0.00082118274,-0.30002072,-0.1730591,-0.24819547,0.15170133,0.51980877,0.024558598,-0.31310812,0.14124319,-0.20281777,0.009627507,-0.33044973,0.37246612,-0.3773059,0.17199063,-0.4191951,-0.10824037,0.16337644,0.34012705,-0.0045175045,-0.08923004,0.015943564,0.06922547,0.24917561,0.9426537,0.5148111,0.38314015,0.28763977,-0.16748483,0.047481593,0.2661633,0.7162188,-0.29785255,-0.064152695,0.2293389,0.058228124,-0.11153859,0.27924216,-0.03077101,-0.29132184},{-0.05202354,0.2749685,0.22758466,0.21328594,-0.19246201,0.0690352,0.17372867,0.13219857,-0.018557105,0.13005081,0.07927566,0.07109112,-0.16160986,0.03674856,0.36086348,-0.23687923,-0.27198905,-0.13116698,0.2262019,-0.53000325,-0.4372321,-0.412561,0.032441538,0.35624358,0.06820409,-0.3347127,0.4279365,-0.3242806,-0.29564863,0.46809742,-0.27703893,-0.052756425,0.21624978,0.31180483,-0.03462045,-0.005622138,0.67268676,-0.25836164,-0.22580719,-0.10409953,0.18209137,0.4770098,-0.24184017,0.12893324,0.27620846,-0.07450355,-0.24484394,0.14799249},{0.006888894,-0.25513294,0.10378731,0.39853704,0.021287322,-0.25911608,-0.09039545,-0.04297223,0.4782557,0.0933308,0.2669569,-0.25264335,-0.1092078,-0.15006799,0.15927579,-0.06940498,-0.24100514,0.06801456,0.203195,0.1225883,0.36233133,0.08769638,-0.19241054,0.2006283,-0.28088737,-0.35051864,-0.15681213,0.36023095,0.14365846,0.63524526,-0.013008621,0.36264387,-0.097016744,-0.18329081,-0.27180922,-0.573597,-0.019054126,-0.00993899,-0.037903566,0.114288814,-0.05076708,-0.3932003,0.0021645392,0.17747773,0.124104634,0.31858703,0.37147126,0.37881523},{0.26366174,-0.23991802,0.16083327,0.20838967,-0.160749,0.37035996,-0.20500533,0.11326678,-0.15238592,0.22300862,0.15308875,0.024636028,0.3069272,-0.16801207,-0.2991398,0.41194293,0.15702748,0.3247367,0.11016959,0.3050598,0.18427847,0.13832891,-0.090028934,-0.14834459,0.15363583,0.14465256,0.102578774,0.2306321,-0.124346286,-0.113707475,-0.27033302,-0.2749025,0.2005325,0.3673681,0.4682723,0.46012503,0.08927568,-0.22042389,0.16908519,-0.107135184,-0.10370579,-0.121675596,-0.03767776,-0.1098083,-0.065047845,0.5643083,0.40292493,0.00782794},{0.49095896,-0.1239513,-0.25865072,0.07116074,0.19656347,0.35197148,0.04536343,0.6722988,-0.033299573,-0.49160248,-0.016802657,0.1818579,0.15780595,0.17124316,-0.16684912,-0.035716258,-0.33957475,-0.0049337465,0.08049171,-0.14847982,0.09277398,-0.076651186,0.3024782,-0.022268936,-0.29046482,-0.30619773,0.24091329,-0.24439617,0.5341608,-0.014435836,0.010448478,-0.041862424,0.025522076,0.47424516,-0.033237357,0.1458314,-0.11063462,-0.33385134,-0.27059302,0.36093637,-0.5035958,-0.24513303,-0.66758764,0.1723372,0.32850316,0.011215894,0.65857446,-0.22707364},{-0.11407009,-0.058842015,-0.3205775,-0.41042665,0.06709441,0.50704736,0.5580787,0.1695665,-0.54566294,0.39192346,0.23823196,0.23875535,-0.13926443,-0.10676884,-0.057293244,0.27960205,-0.100209236,0.17682411,-0.23011105,-0.11029981,0.17285529,0.32165116,0.13031691,-0.31440446,-0.06789823,-0.11606954,0.08927801,-0.2800832,0.1361464,-0.09989623,0.32769686,-0.33814862,0.20575383,0.4895976,-0.18872318,0.14534652,0.0031670223,-0.13633204,-0.46882886,0.043158535,0.05215267,0.17328227,0.14869867,-0.27780208,0.61089635,-0.19527037,-0.09671976,0.11427841},{0.10505024,-0.12939022,-0.039304703,-0.11650819,0.21258089,0.22546162,0.024627008,-0.10016026,-0.080154605,-0.42423552,-0.16500172,0.1380497,-0.06916416,-0.08149291,-0.027077928,0.17022799,0.21680248,0.01124725,-0.07682933,0.29218912,-0.18771721,-0.07918981,0.22858214,-0.04734166,-0.00910213,-0.8797156,0.2876318,-0.069333956,-0.25589398,-0.23172544,-0.10556298,0.23666637,0.4773651,0.019804846,0.15262792,0.1311365,-0.39167267,-0.06209899,0.061335094,0.03850317,-0.17903593,-0.14274839,0.32848886,0.16979104,0.9092919,-0.16282564,0.04321853,0.38150644},{-0.09525571,0.2767321,-0.07870791,-0.029092316,0.5162391,0.49085766,0.057481237,0.037653245,-0.2477999,-0.10973372,-0.2613761,0.01539011,0.079590656,-0.42596027,0.25877127,0.079703934,0.028121002,-0.21875843,-0.79048693,0.35452133,-0.15923056,-0.015241956,-0.2784391,-0.7052187,0.49207556,0.3599639,0.05752025,0.012087938,-0.16868402,-0.096496105,0.023753209,-0.0678698,0.10493601,0.019624677,-0.24663366,-0.16209202,-0.009117563,-0.028765231,0.16331184,0.06294842,0.34334287,0.34609348,0.4280895,0.5051032,0.1426997,-0.5264548,0.04142567,-0.20721856},{0.08696552,0.118414216,0.04824716,0.34328952,0.34200057,-0.07241185,0.064017504,0.4391445,-0.20191495,-0.19101125,-0.026002161,0.1793672,-0.41022375,0.023795355,-0.10205376,0.38894242,-0.01746551,-0.22635384,-0.28067073,-0.115291655,0.025857424,0.353274,-0.19678888,-0.27964818,0.019812236,-0.008238589,-0.75527936,0.21089034,0.13571133,-0.4461422,0.3438002,0.07986154,0.11687266,-0.11228134,-0.240605,-0.4405023,0.069617465,0.47356296,0.10051178,-0.0589968,0.10740944,0.12031325,-0.4133821,-0.23363066,0.13477725,-0.21280669,-0.5190114,-0.58576804},{0.02666829,-0.090426326,-0.13314335,-0.54514134,0.32750568,0.27681723,-0.10638643,0.20809774,-0.3183643,-0.068110704,0.075172074,-0.32095632,-0.22093111,-0.019636823,-0.13085125,0.54594535,-0.021457782,0.59174645,-0.19607554,-0.11535848,-0.26322314,0.16160062,0.50004804,-0.04339822,-0.09315906,0.045600075,-0.27152598,-0.33442467,0.40481275,-0.3331524,0.4603024,0.05058182,-0.375976,-0.12317058,-0.21209481,0.07416633,0.15208682,-0.037593633,-0.09009325,-0.083424434,0.0058744126,-0.10152877,-0.18216395,-0.6657948,0.20055115,0.113675036,-0.35795614,-0.16421354},{0.31903702,0.12375835,-0.36656028,0.44775245,0.1030388,-0.31250414,-0.36395293,0.10799221,-0.08421056,0.09283315,0.31438437,0.17902488,-0.00011823124,0.25595075,-0.32049283,0.3627163,0.00656758,-0.050215825,-0.07681246,0.17048433,0.11088192,-0.33462837,-0.04416507,0.11107192,0.11380053,0.104613476,-0.14186126,-0.4041156,0.2780768,-0.19261879,-0.41011226,0.20496419,-0.38381734,-0.17420252,0.16475013,0.1756205,-0.019687632,0.2340639,0.46004593,0.2509849,0.34968463,-0.45089263,-0.24568409,-0.03337467,0.09164423,0.7429588,0.6428052,-0.4327818},{0.14550069,-0.13687252,-0.43455392,0.16406435,0.20009856,-0.13439848,0.54401344,-0.3532371,-0.096293114,-0.09555396,0.6660708,0.08671177,0.1251196,-0.4311374,-0.38804123,-0.16465433,-0.05045512,-0.20865513,0.23547013,0.18903115,-0.20169686,0.015912047,0.46989405,0.02325123,-0.7329163,-0.16368796,0.6573595,-0.04724338,0.29926682,0.6316971,-0.17000434,0.39374208,-0.14907165,0.37063268,-0.048149515,0.04136044,-0.39464405,0.19310309,-0.15227069,-0.06197244,0.23526165,-0.21632515,0.2498881,0.3113504,0.23989178,0.28711098,0.3413516,0.31844646},{0.08813401,-0.0991773,-0.5291784,-0.1466946,-0.22545822,0.03665748,0.34496894,-0.49526256,0.28722945,-0.08626957,0.3491453,-0.6344371,-0.021409683,0.1574987,-0.09939696,0.12142258,0.27578712,0.5690028,-0.22022495,0.3797136,-0.23590966,-0.41685146,-0.0790476,0.013262861,0.2876453,0.47511536,-0.013121721,0.100334786,0.34657484,-0.18216246,0.059984874,-0.35506675,0.22988938,-0.45843136,0.19501755,-0.013744688,0.12282955,0.021509262,0.42938843,0.09467356,-0.0629705,-0.040601883,-0.24526742,-0.82637495,-0.39372033,0.48110133,-0.29532996,-0.24202575},{0.5073998,-0.040407483,-0.153264,-0.054150335,0.37762398,0.26079863,-0.36023998,-0.2784524,0.15241528,-0.28236523,-0.43867698,-0.2171975,-0.42349598,-0.16784808,0.027630597,-0.082633734,-0.028805738,-0.117311396,0.39740536,-0.116040096,0.16439033,-0.37318742,0.2766334,-0.007472719,0.38559818,-0.5369915,0.026182143,-0.084050246,0.33366528,-0.23538676,-0.56055784,-0.11789423,0.06345683,-0.20613723,0.2823531,-0.11199238,-0.1098133,0.06793965,0.44809294,-0.24459423,-0.09001709,-0.24152042,-0.5943903,-0.13018021,0.70080376,0.809796,0.03573266,-0.4517094},{0.25589195,-0.3685349,0.64021087,-0.5056094,-0.015298135,-0.18588604,0.21378997,0.0005474224,0.30049935,-0.045780487,0.25428864,0.7246757,-0.722452,-0.421692,0.4127146,0.5693602,-0.5082503,-0.027315045,-0.5163351,-0.19660978,-0.35471845,0.27550226,0.13360289,-0.4815264,0.06098993,0.70448935,-0.21447155,-0.1141462,0.3186593,-0.1695352,0.14166546,0.49405548,0.046577897,0.32226047,-0.047911067,-0.31461495,0.06181252,0.112543605,-0.40797368,-0.28915024,-0.20298927,0.26833642,-0.29174593,-0.26121914,-0.4710044,0.0815236,0.0890505,-0.11727402},{-0.07835855,0.31508273,0.26325417,-0.43289366,-0.17729492,-0.06466775,-0.0464778,0.10787941,-0.27292317,-0.4670351,-0.020489382,-0.049978275,0.3887064,0.012991011,0.21040817,-0.3722351,-0.1086033,-0.27539113,-0.3123569,-0.3141512,-0.21296746,-0.65727454,0.35006148,-0.15577783,0.16167621,0.27060825,-0.3063486,-0.22353055,-0.16985033,0.10217408,-0.42022833,0.17822435,-0.28994197,-0.19409439,0.18125038,0.2079072,0.22317502,-0.10160156,-0.29532242,-0.03247714,0.16015618,0.12878951,0.26235703,-0.022422573,0.08716269,-0.22396022,-0.054943975,-0.2550904},{0.39501816,0.38625085,-0.063854806,-0.1328832,0.530628,0.19568875,-0.36289373,0.22148645,0.031444617,-0.16770694,0.1374541,0.01329988,-0.13524613,-0.17821041,-0.09945444,0.23757382,-0.26965418,-0.2405807,0.1503494,-0.10474765,0.13121769,0.16001293,-0.010080333,-0.21103351,0.09344852,-0.04378344,-0.21448046,0.20546152,0.19874237,0.20567808,-0.10232383,-0.13788834,-0.6596081,-0.276312,-0.01151918,-0.044850852,-0.10193165,0.7059271,-0.18150446,0.73120135,0.1101745,-0.3324811,-0.10394387,-0.39663696,0.20558234,0.5797608,0.049973622,-0.110872656},{0.078612424,-0.6168022,0.030781329,-0.46540865,-0.11258829,0.31109318,0.43970275,-0.24822327,-0.1798169,-0.3742367,-0.004287022,-0.11811858,-0.040716365,0.21908969,0.06938292,0.1991024,-0.06698032,0.043055106,-0.36209485,-0.04221616,-0.36791196,-0.24087979,0.22412388,-0.52650416,-0.12262803,-0.06766484,0.27578166,-0.17850032,0.29561174,-0.3909211,0.10781797,0.4051018,-0.37425527,0.1458778,0.2827559,0.15631245,-0.03930417,-0.4887986,-0.26256636,-0.18499935,-0.40832922,0.07286926,0.051599506,-0.519799,0.01034257,0.21808659,-0.18822639,-0.4546329},{0.1885556,-0.10370541,0.12486834,-0.39023185,0.14163518,-0.45859352,0.088399656,0.22072172,-0.06858973,0.03681518,0.3401964,0.06509633,-0.48448703,-0.16246746,0.03629088,-0.0012434347,-0.3859899,-0.3532858,-0.010134454,-0.3335557,-0.018587878,-0.30524603,0.23183426,0.3082795,0.0063369297,-0.4811866,0.29869545,-0.12995447,-0.24425577,0.049017735,0.27374431,0.14969443,-0.29250875,-0.087993525,-0.45341462,-0.41458875,0.15173452,0.5141752,-0.40960684,-0.04885819,-0.11233701,0.14113769,0.049993686,-0.12644602,0.5432669,-0.22246385,-0.14012963,-0.26549625},{0.43247622,0.15827464,-0.3416455,0.0064420756,-0.14224862,-0.12234176,0.030834587,-0.083786234,0.5237791,0.024131438,0.22021584,-0.008205924,-0.17816328,0.068499945,-0.15082078,-0.17001635,-0.23261718,-0.08571964,0.26629522,0.02936179,0.20994155,0.010554686,-0.1770112,0.28392175,-0.20734519,-0.08408872,-0.31715086,0.36356622,0.05192459,0.1967373,-0.3249141,0.008525537,-0.029950062,-0.18198149,0.4309462,0.1968855,-0.47111306,0.48644862,-0.21317671,0.11052976,0.5653967,-0.6142012,-0.2632906,0.4744213,0.25864092,0.396227,0.1778607,0.035615582},{-0.021046434,0.1214335,-0.60092604,-0.36502254,-0.084527284,0.07936287,-0.005998389,0.083405286,0.03659826,0.017834466,0.18612705,0.12478202,-0.7475543,-0.44178048,0.18218549,0.06430021,-0.42766142,-0.3237448,0.45332193,-0.27123225,0.5047101,0.095199,-0.015438327,0.04577487,0.46793857,0.19185239,-0.07765964,0.08146399,0.05394953,0.22364394,0.06747145,-0.14004298,-0.23911552,0.030504571,-0.28053933,0.09501204,-0.06684871,0.4714511,0.07526435,-0.08747172,0.0029565257,0.23933338,0.01219863,-0.7057418,0.06439434,0.0030490577,0.25553444,0.014544102},{-0.4536849,0.25460166,0.59249663,0.12124899,-0.2331687,0.14575662,0.3369933,-0.298817,-0.24099132,0.44217455,-0.16968554,0.037173294,0.514928,0.109685056,-0.112722054,-0.33282176,0.21304247,0.13817866,0.13755706,0.0016423437,0.024321942,-0.23818602,-0.071559735,-0.029357173,-0.383698,-0.23121132,0.22326675,0.18826242,0.0060042753,-0.18868011,-0.20117694,-0.4256963,-0.27507478,0.33143002,-0.056265198,-0.16572775,-0.078319415,0.15261114,-0.1598835,0.14581041,0.019962646,0.1106753,0.2479055,-0.27690575,0.27837864,0.037504934,0.36344177,-0.05820075},{-0.13034058,-0.14686221,-0.09468491,-0.003857493,-0.12033359,0.28894174,0.24056567,0.12587203,-0.2509132,-0.56509113,-0.17006151,0.017733632,0.5019475,-0.15611397,0.09604016,0.16898002,0.030315328,-0.2520678,-0.29161373,-0.2054372,-0.38011327,0.12655067,0.06453295,-0.43120196,-0.007147668,0.19934514,-0.1540308,-0.028928045,-0.46345788,-0.010885361,-0.37163955,-0.19922689,-0.21187533,0.044186924,0.79470754,0.20643103,0.19674568,-0.3098284,0.16223702,-0.15012261,-0.010709356,0.3351329,-0.48064202,-0.11092311,-0.2396744,-0.24623914,0.069932766,-0.37317213},{0.32459867,0.036618594,-0.010468448,-0.15721299,-0.22498302,-0.38016886,0.1956103,-0.016438242,0.80274177,-0.24490327,0.38998565,0.057084512,0.03211748,-0.28691125,0.07433121,0.1105033,-0.019240389,0.37825105,-0.1609927,-0.043079756,-0.0118171815,0.3074593,0.007994362,0.015671646,-0.29607847,0.31813008,0.13952087,0.006256818,-0.13692997,0.15376279,0.49878135,-0.115629226,-0.18462585,0.14584076,0.15634365,-0.009688608,-0.11150536,-0.4259203,-0.3155941,-0.07215734,-0.21797651,-0.34908336,-0.02964488,0.092191085,-0.14366983,0.007477672,0.31174308,0.37334475},{-0.1392022,-0.13721724,-0.43085584,-0.113066874,0.07254176,0.2760016,-0.07866404,-0.045883264,-0.0016734626,0.09199555,-0.14333013,0.05437934,0.1955661,0.22917204,-0.0063136835,0.074537344,0.14089495,-0.04538843,-0.21563694,0.17017522,-0.17845419,0.16497867,0.2914271,-0.35325646,0.18018095,0.9303836,-0.020795316,-0.0067880256,-0.093090296,-0.0935716,-0.10424917,-0.25358754,-0.12360837,0.08274705,-0.12073415,0.38126984,0.095551714,-0.3355133,0.13165827,0.17659806,0.16095291,-0.007662678,0.15361385,-0.6042453,-0.44077644,-0.011157817,-0.18885118,-0.21036075},{0.11019005,-0.29661515,0.10988394,-0.077636674,0.27188435,0.016596805,-0.39515248,0.14561203,0.35944772,-0.13561466,-0.42240012,0.5920889,0.59409785,0.26621333,-0.4691902,0.055165593,-0.01756742,0.37860325,0.0030656478,0.20296244,-0.1482971,-0.4196572,0.522551,-0.08785912,0.18405841,-0.04636765,0.15799922,-0.32663816,-0.3066866,-0.12643392,-0.50755155,0.18756087,0.3615306,-0.28964218,0.21954308,-0.1586604,-0.100050755,-0.3038005,-0.03213499,0.14550886,-0.048444685,-0.20333578,0.5059903,-0.055305626,0.046511263,0.029510949,0.44960296,-0.13080665},{-0.39323923,-0.5042469,0.13154565,-0.26587054,0.041130025,-0.15943827,0.025506578,0.15709491,-0.1699584,0.2799091,-0.060100473,-0.21118788,0.1319831,0.06250709,0.44502267,-0.42338952,0.06911948,-0.10963163,0.13047971,0.0903908,-0.15713665,-0.099675216,-0.34515834,-0.055473827,-0.5091105,0.07136537,0.06577023,-0.097312115,-0.04580238,-0.08048479,-0.021410327,0.23283419,0.14391069,0.05575429,-0.47575602,0.013441069,-0.052517958,-0.30059415,-0.27025825,-0.33085182,-0.1598635,0.30276713,-0.14605299,-0.16332288,0.22978395,-0.68573207,-0.43266946,-0.21133582},{-0.10174077,0.57088286,0.17326698,-0.28643513,0.14557791,0.08540382,-0.09362382,-0.18850623,0.19988701,-0.42666408,-0.11110393,0.0077482327,-0.114537045,0.03610566,0.19212751,0.20399043,0.00019738774,0.52898216,-0.39608502,-0.26739207,-0.24642709,-0.28787246,0.30093244,0.40753487,0.2856489,0.57690376,-0.48294976,-0.20778482,0.24236125,-0.23623209,0.008211037,0.35696113,0.24525726,-0.10344274,0.054080304,-0.30959162,0.05288265,-0.61929625,0.2583351,-0.28606772,-0.17217231,0.7640422,0.293011,-0.18266173,0.00014227933,0.11113462,-0.31831956,-0.16131866},{-0.0043474776,-0.22681391,0.033130385,0.1566658,0.4263521,0.13451837,-0.072217695,0.6463123,0.10548946,-0.33048427,0.06662954,0.13342868,-0.5889395,-0.09623486,-0.06535485,0.24218324,-0.37385517,-0.2487304,-0.07041663,-0.028062852,-0.085241154,-0.024296876,-0.21824472,0.0823865,-0.20252548,0.32026315,-0.5943628,-0.0012963865,0.35400265,-0.06555226,-0.017866673,0.3124504,0.13047129,0.058466114,-0.13538975,0.315271,0.57249016,-0.1770257,0.42297184,-0.0469356,-0.22267531,0.13128567,-0.64607733,0.0010310877,0.07891472,-0.06744267,0.47804585,0.52662617},{-0.20992903,-0.37981415,-0.070557036,0.36463863,-0.28188485,0.067190796,0.13591425,-0.6650398,0.28843328,0.1758421,-0.104803704,0.2713851,0.19795284,0.16607367,-0.37682906,-0.37208924,0.26295123,0.13147543,-0.28031948,0.32082322,0.012742435,0.077528015,-0.2927771,-0.060687378,-0.018166859,0.40986878,-0.16549343,0.09007796,-0.06425931,0.10487494,0.21918048,-0.039776202,-0.08361664,-0.121006496,0.13424191,0.49460825,-0.24347396,-0.104098365,-0.17613542,-0.10518946,0.0527036,0.07953313,0.5602258,-0.024720035,-0.41811198,0.2145852,0.17461307,0.037948415},{-0.10628462,-0.14981508,0.1189857,-0.3361821,-0.012993497,0.045523517,-0.05326472,0.38936692,-0.35748386,-0.26806036,-0.014595868,-0.053459328,-0.0026036848,-0.3197944,0.026895119,0.12388278,-0.43195042,-0.12553743,0.10644446,-0.35459742,-0.18067601,-0.16432124,-0.016096767,0.09550857,0.05902202,-0.57872415,-0.21210892,-0.008731921,-0.097274624,-0.30302483,0.12325635,-0.33556554,0.11688284,0.083151735,-0.00039652493,0.06985542,-0.27303517,0.07843369,-0.4818924,-0.2917951,-0.17022178,0.042780485,-0.18858576,0.037779,0.85239416,0.28019163,-0.41484857,0.061508264},{-0.0069695334,0.15269695,-0.018092338,-0.054995544,-0.0626958,0.36662605,-0.37578794,0.10187097,-0.3358109,0.14787047,-0.3402999,-0.00842747,-0.29126596,-0.58068424,-0.069599934,0.21884626,-0.41765335,-0.15946788,-0.2818842,-0.31029856,-0.36025974,0.24178483,-0.53093976,-0.24776478,-0.052478712,-0.5115122,-0.4042839,0.19261254,0.22604164,-0.29709622,-0.26751134,0.17258357,0.1134596,0.14606436,-0.093740836,0.09851712,0.5108436,0.40649337,-0.17760845,0.03517588,-0.53197455,-0.07801034,0.122161746,-0.010236378,0.25576788,0.058147416,-0.24954495,-0.13795866}};
static const float linear_4_bias[48] = {0.036222383,0.27890104,-0.07588277,-0.18739966,0.33098787,0.079060435,0.05723816,0.3965881,-0.011025079,-0.3127275,0.06947126,-0.06778732,-0.3904913,0.023631956,-0.1793311,0.04967532,-0.10951717,0.27918616,0.38872936,-0.37521276,0.1330021,0.095782734,-0.113505855,0.018831627,0.20423217,0.04778929,-0.29821637,0.14152715,0.17041887,-0.099230066,-0.11547253,-0.4312764,-0.059478708,-0.039220735,0.2686345,-0.05021188,0.030842211,-0.25317645,-0.38537803,0.29168174,-0.1408962,0.18276569,0.11866862,-0.11740132,0.17126079,-0.1975222,0.049459126,0.38572255};
static const float linear_mean_weight[4][48] = {{0.6284992,0.34036857,1.3247517,0.38357675,-0.71467423,1.1473391,0.11362743,0.7540157,-0.25974065,-0.76851046,-0.37992215,0.5811772,-0.13433515,-0.38530576,0.7817556,0.46881363,-1.192921,-0.12836437,0.23046972,-0.45242006,0.671205,0.17338482,-0.6549506,1.3786505,0.7247437,0.49564403,-0.14185655,-1.581589,-0.2031367,0.075048536,1.7259291,-0.009230866,0.020349756,0.8442157,0.37906304,-0.58321494,1.0488863,-1.08386,-0.5689379,0.87426335,0.8885832,-0.54025126,-0.1289672,1.8493693,1.2040769,-0.6186012,-0.18471707,0.47506553},{-0.4403858,-0.9572221,0.33382127,1.3664168,-0.61372435,0.29195255,0.42945734,0.5796238,-0.5614457,0.17788889,0.4388739,-0.12262233,1.4228054,-0.7105824,0.9583686,0.76215607,-1.2168683,-0.7013466,-1.7097089,0.6923399,1.2645088,0.39322686,0.78329897,0.19642825,-0.34920505,0.01595277,0.8633873,0.1738702,-0.8469452,1.7080283,0.14732985,1.1244935,1.0472579,1.0232582,-0.0802393,0.4046067,-0.3109209,-0.19337927,1.2616,-0.32174358,-0.10771155,1.1658478,-1.0895953,-0.27716708,0.030801,-0.05694492,0.22677393,0.26815775},{-1.2526339,0.62419593,0.38789818,0.08720729,-0.055671167,-0.28819937,0.25363266,-1.6470652,-0.21235916,-0.2658789,0.8076844,-1.1916133,0.20934418,0.35905963,-0.11181069,0.12824519,-0.14113235,-0.6327291,0.03265684,0.27901486,-0.48203763,-1.1956089,-0.33064324,-0.5565866,-0.8774238,-0.98173296,0.41227546,0.96066195,-0.6193348,0.07570621,-0.014698262,0.056069907,-0.14487107,-0.7564596,-1.033332,1.3488611,-0.4964178,-0.55654854,0.827579,0.8850718,0.47560027,0.79453355,-0.2758627,-0.478617,-0.08012927,1.0644073,-0.9586333,-1.3935118},{-0.28341287,-0.52457315,1.1611673,-0.3863446,1.0501559,-0.21318322,1.3192488,-0.22471291,0.86673534,1.0794189,0.459863,0.5582294,0.3474558,1.2246205,-0.9198455,-1.3041576,0.55001044,0.9631938,0.5519671,-0.8703088,-0.19776613,0.6445446,0.3911614,-0.16691893,-0.18356375,-0.85302436,-1.0122343,-0.6972528,-1.2636182,-0.07539917,-0.092484415,-0.7870856,-0.73722726,-0.75905496,0.2861967,0.36728877,-0.27723038,-0.39359134,-0.6416515,0.08023548,-0.9922015,-0.29410797,0.5105008,0.13097113,0.556224,-0.31483105,0.17362325,0.22117905}};
static const float linear_mean_bias[4] = {-0.15072201,-0.3944368,-0.33841473,-0.04279391};

static float linear_input[18];
static float output_linear1[48];
static float output_linear2[48];
static float output_linear3[48];
static float output_linear4[48];
static float output_hidden[48]={0.0};static float output_action[4]={0,0,0,0};


	void networkEvaluate(struct control_t_n *control_n, const float *state_array, float *action, float *hidden) {
	
		for (int i = 0; i < state_dim; i++) {
			linear_input[i] = state_array[i];
		}

	
		for (int i = 0; i < 48; i++) {
			output_linear1[i] = 0;
			for (int j = 0; j < 18; j++) {
				output_linear1[i] += linear_input[j] * linear_1_weight[i][j];
			}
			output_linear1[i] += linear_1_bias[i];
			output_linear1[i] = tanhf(output_linear1[i]);
		}
	

		for (int i = 0; i < 48; i++) {
			output_linear2[i] = 0;
			for (int j = 0; j < 48; j++) {
				output_linear2[i] += output_linear1[j] * linear_2_weight[i][j];
			}
			output_linear2[i] += linear_2_bias[i];
			output_linear2[i] = tanhf(output_linear2[i]);
		}
	

		for (int i = 0; i < 48; i++) {
			output_linear3[i] = 0;
			for (int j = 0; j < 48; j++) {
				output_linear3[i] += output_linear2[j] * linear_3_weight[i][j];
			}
			output_linear3[i] += linear_3_bias[i];
			output_linear3[i] = tanhf(output_linear3[i]);
		}
	

		for (int i = 0; i < 48; i++) {
			output_linear4[i] = 0;
			for (int j = 0; j < 48; j++) {
				output_linear4[i] += output_linear3[j] * linear_4_weight[i][j];
			}
			output_linear4[i] += linear_4_bias[i];
			output_linear4[i] = tanhf(output_linear4[i]);
		}
	

		for (int i = 0; i < 4; i++) {
			output_action[i] = 0;
			for (int j = 0; j < 48; j++) {
				output_action[i] += output_linear4[j] * linear_mean_weight[i][j];
			}
			output_action[i] += linear_mean_bias[i];
			output_action[i] = tanhf(output_action[i]);
		}
	

		// control_n->thrust_0 = output_action[0];
		// control_n->thrust_1 = output_action[1];
		// control_n->thrust_2 = output_action[2];
		// control_n->thrust_3 = output_action[3];

		control_n->thrust_0 = 4 * (1.0f / 200.0f) / 0.15f * (output_action[0]-action[0]) + action[0];
		control_n->thrust_1 = 4 * (1.0f / 200.0f) / 0.15f * (output_action[1]-action[1]) + action[1];
		control_n->thrust_2 = 4 * (1.0f / 200.0f) / 0.15f * (output_action[2]-action[2]) + action[2];
		control_n->thrust_3 = 4 * (1.0f / 200.0f) / 0.15f * (output_action[3]-action[3]) + action[3];

		for (int i=0; i<4; i++) {
			action[i] = output_action[i];
		}
		for (int i=0; i<48; i++) {
			hidden[i] = output_hidden[i];
		}
	
	}
	