
#include "network_evaluate.h"



float linear(float num) {
	return num;
}



float sigmoid(float num) {
	return 1 / (1 + exp(-num));
}



float relu(float num) {
	if (num > 0) {
		return num;
	} else {
		return 0;
	}
}

static int state_dim = 22;
static int action_dim = 4;
static int hidden_dim = 48;
static const float linear_1_weight[48][22] = {{0.018489435,-0.13489465,0.16037191,0.03586007,0.017967314,0.02976969,-0.0017662168,-0.0065920795,-0.06055089,0.36274102,-0.048552554,-0.103314765,-0.13555327,0.025081294,0.19116943,0.084295884,0.040423337,0.15390266,-0.070783205,0.10030624,-0.026297405,-0.008348535},{-0.01215906,0.031808406,0.0034923845,0.027612204,0.17825618,-0.00554917,-0.13875856,0.026877096,-0.040514596,-0.027470443,-0.014772002,-0.13857497,-0.17623492,-0.07175263,-0.06879995,-0.058233652,-0.032547034,0.15488815,-0.14580889,-0.043602407,0.014863941,0.0337691},{0.009902955,0.09209789,-0.050929755,0.030849759,-0.013052447,0.036394175,-0.052680504,-0.005171868,-0.037361123,-0.18950434,0.19454059,-0.041737426,0.13103539,-0.02198075,0.05340115,-0.14239284,-0.079442486,-0.052043486,0.038054794,-0.012486273,0.029939251,0.04502902},{-0.033707157,-0.1040715,-0.045253124,-0.02762364,-0.052321017,-0.013499243,0.08150375,0.009873492,-0.03404172,0.07608763,-0.48324704,-0.14523813,-0.07640869,-0.08789794,-0.11120168,0.3283667,-0.021082986,-0.11839916,-0.008896553,-0.051524892,-0.121618584,-0.12069801},{-0.11964946,0.0063436083,0.019036833,-0.049323317,-0.057961076,0.05105561,0.053931303,-0.010550178,-0.050548416,0.17638026,-0.07904445,0.10215732,-0.11506326,0.21166426,0.035762206,-0.009411733,-0.064154066,0.087537326,-0.019682841,0.04576959,0.039417345,0.080698006},{-0.13164848,-0.07986883,0.018093197,0.0023478447,-0.06284628,-0.046889,0.066184394,-0.037022714,0.012482428,-0.30661008,-0.17402583,0.18292691,0.0018621691,0.058069963,0.08107223,-0.1431396,0.023107164,0.39481112,0.07009898,0.14052103,0.1624827,0.15138558},{-0.039469402,-0.058537796,0.052048508,0.00063180685,0.099269904,-0.03788159,-0.094572686,0.036839228,-0.024017302,0.18598527,-0.00031292698,0.21193366,0.06402848,0.20641808,-0.016654044,-0.012289956,0.15387979,0.07981457,0.03412748,0.06751087,0.1135882,0.12980245},{0.025894796,0.111593224,-0.08994568,-0.081040554,-0.0193048,0.030562803,-0.0021620682,-0.026691165,0.050427053,0.11329532,0.032106236,0.07347091,-0.09453382,0.20534922,-0.33561552,0.15416533,-0.2114667,-0.056135543,-0.029128095,-0.029867025,-0.18851827,-0.11494482},{-0.015188456,-0.05603897,0.046038464,0.029806847,0.03940658,0.004058473,-0.0051141917,0.038950827,0.08757434,0.13243595,0.15298308,-0.16656068,-0.1842849,-0.07969662,0.29118478,-0.30545872,-0.12327833,-0.1798412,-0.04358603,0.01014901,0.019880809,0.13688259},{-0.044671107,0.017313456,-0.011673832,0.02480419,-0.01418955,-0.06734495,-0.030815786,-0.027062865,0.0036570702,-0.10788349,-0.2066238,0.13980088,-0.06291665,0.30908197,0.07431233,-0.30395114,-0.2358009,0.0033268617,0.043399714,0.1128252,0.1360655,0.053586103},{-0.109615944,-0.088972956,-0.00075234886,-0.030537842,0.0015227639,-0.020272577,-0.059309166,0.0028165756,-0.04683434,-0.15134789,0.18346235,0.045766562,-0.1601754,-0.013819628,-0.079726495,-0.058861844,0.031011408,0.07403602,-0.0783164,0.12698634,0.0063966815,0.10182706},{-0.06438,0.106639646,0.149323,-0.03777833,-0.004221947,-0.050131388,-0.031929847,0.003789963,-0.06577989,-0.6894923,-0.0074449084,0.06023832,0.58286554,-0.12878169,0.11350462,0.08826775,-0.15558773,-0.31551686,-0.069919914,0.009474782,-0.028310468,-0.13005835},{-0.046472933,-0.02133808,0.051955428,-0.043668956,0.06169568,0.01594916,-0.060525,0.038177766,0.06927045,-0.054794382,-0.14663564,0.1965311,0.19024909,0.009618948,0.19206262,0.03626584,-0.00494507,0.04032618,0.07384318,0.08252035,-0.005390548,0.044640664},{0.07087582,0.08320089,-0.09735194,-0.03780284,-0.0049860687,0.029028237,0.015076992,-0.033098597,0.0878,-0.048552793,0.15818696,-0.042079266,0.06738468,-0.28295568,-0.16747001,-0.04828762,-0.012003958,-0.010967759,-0.05918211,-0.095802315,-0.07040097,-0.026093258},{-0.1114227,-0.051311735,-0.003746548,0.008609461,-0.029363202,0.056884274,0.018941687,-0.0035463937,0.051806424,-0.29404813,0.08674324,0.24919115,-0.15676394,-0.13989212,0.018075548,-0.028099805,0.18298092,0.01583186,-0.04884957,-0.057039585,0.03393421,0.06224739},{0.07233296,-0.054294907,-0.0019351548,-0.050516464,-0.11646641,-0.015343618,0.03354142,0.023920989,-0.0005047427,0.35159725,0.047146298,0.12408958,0.18628637,-0.04548523,-0.0932223,0.1727964,-0.11856281,-0.15168776,0.015394041,-0.030065065,-0.0969447,0.011326766},{0.05290939,0.0646266,-0.02123274,0.041245747,-0.05835136,0.047205772,0.06962817,-0.00997981,0.0436687,0.32459602,-0.21555166,0.12623838,-0.004594809,-0.20280108,-0.13387813,-0.111077026,0.075550355,0.04419439,-0.048936054,-0.039790727,0.049860865,-0.006186469},{0.09626434,0.065260366,-0.049814988,-0.07249336,-0.026843421,0.019015957,0.04998116,-0.06197108,0.06189175,0.29997674,0.00013973213,0.033953067,0.13144627,-0.28151616,-0.18690129,-0.059354756,-0.037846368,0.012597861,-0.039911542,-0.047322195,-0.025806028,0.12540458},{0.020370968,-0.010914683,-0.06880382,0.018319424,0.097728275,0.10472218,-0.11929979,-0.010909032,0.048434474,-0.07171659,0.4895776,0.06596366,0.012801284,-0.13681705,-0.40281075,-0.1854965,-0.16500132,0.06700668,0.10712861,0.10195838,0.040267266,0.07486546},{0.042074576,0.042636022,0.053669166,-0.018548869,-0.037871037,0.050451074,0.09096456,0.019821437,-0.074470125,-0.19906431,0.28644013,0.0061415564,-0.09620157,-0.30539745,0.098510325,0.062527515,-0.030777989,-0.104638286,0.030862935,-0.0357812,0.104163356,-0.0018703948},{0.026630849,-0.05048118,-0.0018895696,0.009676465,-0.0058675497,0.046120416,0.002420725,0.02693801,-0.019530954,0.14558376,-0.32766855,0.09588723,-0.09695853,-0.22792569,-0.18111457,0.0052624387,0.22338061,-0.001830679,0.049480565,-0.10477444,0.059507992,-0.055246647},{0.06266792,-0.098371536,0.09136662,0.03152451,0.032544084,0.019415673,0.0035986777,-0.03801752,0.047429506,0.29739,0.09689872,-0.12307469,-0.10633956,-0.22978239,-0.04376638,-0.21841066,-0.24071403,0.21588375,-0.18842581,-0.011216929,-0.14609015,-0.061799224},{-0.077304915,0.16930582,-0.1541601,-0.0011918908,-0.016058888,-0.037182048,-0.023357851,0.021057574,-0.041330036,-0.099378385,-0.30055556,-0.20520148,0.25852454,0.2578864,-0.05500383,-0.3722639,0.2495972,0.016099764,-0.040334053,-0.12928954,0.05209406,0.0051807077},{0.14050674,-0.13483933,0.054912075,0.025864748,0.026326101,-0.023091884,0.027619421,-0.079780914,-0.016787296,0.49870217,-0.07588173,0.1400879,-0.20679817,-0.024637643,-0.33345914,0.0809492,0.03860421,-0.1922812,0.1142779,0.028462578,-0.03308826,-0.07113413},{0.002402722,0.0728477,-0.020983962,-0.014403977,-0.07319375,0.05035102,0.02896941,-0.079783715,0.05403347,0.07284253,-0.26481938,0.15857282,-0.14612411,0.05861959,-0.041371282,0.03326127,-0.15545486,0.03489143,0.010929897,-0.0010766102,0.01430307,-0.006463487},{-0.0777082,0.11615307,-0.054220535,0.033661827,0.08697802,-0.03540072,-0.04939294,-0.009447534,-0.019585734,-0.3356134,-0.37360755,-0.08557416,-0.110457055,-0.06684558,0.091704786,0.14189285,-0.44152504,0.21591294,0.022518406,-0.05921896,0.09911193,0.029337013},{-0.017614394,0.018872086,0.08230314,-0.036730006,0.018899398,0.004718155,-0.08274415,-0.010186918,0.03231105,-0.36532697,-0.19924629,0.19818176,-0.2040983,0.2726057,0.17945236,0.1828689,0.0881385,-0.13121745,0.23310655,0.1357314,0.17106172,0.11775345},{0.060882285,-0.1500958,0.21922605,0.024975572,-0.013433161,-0.019925639,-0.055280868,-0.030304646,0.022639805,0.34897935,0.34565735,0.45085514,-0.05063088,-0.30567294,-0.04330764,-0.2873575,0.047261253,0.150288,-0.008344536,-0.04734411,-0.09619349,-0.1123083},{-0.053288605,-0.029502522,0.10546417,-0.02490078,0.008163769,0.061014947,0.012259307,0.008238759,0.0050148126,0.2273747,-0.32673135,-0.054093555,-0.20676802,-0.033960335,0.5427876,0.14547104,-0.1164982,-0.22840536,-0.022079492,-0.22627482,-0.09315989,-0.02110549},{-0.0016332926,0.19427377,-0.03855689,-0.034688033,-0.015860273,0.0056611137,-0.029810471,-0.045975048,0.031362787,-0.23870948,-0.30661377,0.25895497,-0.04243419,0.20448545,0.030980237,-0.044349175,-0.38035962,-0.1797728,0.121003546,-0.029949643,0.07455021,-0.04991725},{-0.09571271,-0.08779593,0.1058889,-0.042108595,-0.051196836,-0.009562039,0.0386979,0.0007992462,0.018353416,-0.21711716,0.016054142,0.13801236,-0.23057368,0.011336576,0.50388885,-0.13156727,0.25256482,-0.121455334,0.01397156,0.09686358,0.099455394,0.13440238},{0.046582878,0.13164915,-0.049905837,0.018017784,-0.013958885,-0.008763837,0.048290584,-0.05166077,0.01885362,-0.15686633,-0.21649519,-0.23785472,0.19566126,0.15870194,0.29499507,-0.1631904,0.0516613,0.34799016,-0.21902767,-0.06604338,-0.0686492,-0.07727227},{0.022775479,-0.0012158393,-0.005679414,-0.014828253,0.05153473,0.032961845,0.0050120144,-0.037597682,-0.043703213,-0.0846004,0.38624457,0.10708235,-0.028879741,-0.07202271,-0.32849646,-0.038910102,0.13233937,-0.068199165,-0.04643297,0.05392603,0.053722747,-0.05097035},{0.043159474,0.17551823,0.03658019,-0.0082826335,-0.0020435494,-0.009412603,0.027363176,0.07461065,-0.0051923003,0.13327649,-0.0462807,0.20653331,0.24319826,0.09351935,0.43397444,-0.24229915,-0.03032389,-0.5514747,0.05301105,-0.16747366,0.1311444,0.026579741},{0.029216025,0.03939481,-0.057997722,0.059674915,0.06776418,0.03144283,-0.09505667,-0.0065666046,-0.023618566,0.046453092,-0.28948474,0.1740169,0.07439139,0.030642243,-0.08493992,0.11909589,-0.09097223,-0.09350595,0.20431967,-0.009377652,0.17946747,0.1992969},{-0.04549359,-0.016286923,-0.04319919,-0.017720893,-0.0116067985,0.0052986867,0.034240987,-0.053532396,0.01689372,-0.20126386,0.1015422,0.0880971,0.042343806,0.030400284,-0.008296572,0.51198524,-0.37041774,-0.4033307,0.0731915,0.089950725,0.023612436,0.0108873015},{-0.06706246,0.045164615,0.020089692,-0.050460313,0.11218752,0.048157446,-0.03604781,-0.020055514,0.08550503,0.13335268,-0.11891473,0.08876964,-0.13486311,0.19625159,0.21943852,0.032052424,0.16402099,-0.19726738,0.04380728,-0.101303026,0.016641404,0.018179605},{0.0648047,0.073693156,0.016661147,0.07702631,-0.049658574,0.047342964,-0.0050768396,0.0037602803,-0.13608535,0.28561923,0.0145986965,0.09158345,-0.20437182,0.052262265,0.14955848,-0.2681366,-0.47947177,-0.0034070294,-0.0208087,0.059691347,-0.02778389,0.13419211},{-0.06843266,0.049764406,-0.09867995,-0.060101327,0.074662894,0.034244567,-0.03101667,-0.0533662,0.018340804,-0.046090763,-0.2665002,-0.05465442,0.071787104,-0.048115306,-0.09920871,-0.17866349,0.38181302,-0.059052337,-0.0006032962,-0.063541956,0.05632287,0.0758117},{0.05102086,0.13571072,-0.115313224,-0.05077445,-0.021626981,-0.01611905,0.013618815,-0.079771616,0.010567311,-0.11248295,0.14033951,-0.25890267,0.022718603,0.17826517,-0.044617243,-0.11984897,0.0076303687,-0.19758418,-0.08482355,-0.09803649,-0.19761781,-0.19504194},{0.033752248,-0.088921785,0.17896481,-0.05108233,0.0008879063,-0.036125768,0.09672348,-0.02468494,0.13177758,0.4132361,0.012352716,0.026469765,-0.13990694,0.22092856,0.1739629,-0.0757159,0.20635979,0.10577304,-0.008413053,0.060252182,0.019736528,-0.02065929},{-0.057806443,0.3470379,-0.23280461,0.033550832,-0.009468619,0.0013970511,-0.027757384,-0.011835337,-0.010250762,-0.01265554,-0.04845763,0.38591257,-0.14155698,0.24261312,-0.40689558,-0.6781569,-0.15640165,0.15099166,-0.055985834,0.0046121925,0.05468237,0.053761046},{-0.005880816,0.026358893,-0.10234159,-0.015080105,-0.13778836,-0.010199159,-0.015584902,-0.03610133,-0.051974095,-0.4156869,-0.055003252,-0.31536326,0.6086663,-0.16779466,0.07116651,-0.06739479,0.026039105,-0.010560382,-0.037599903,-0.018608514,-0.09796079,0.03876472},{-0.009557354,-0.20464799,0.24344544,-0.061917853,-0.025563939,-0.04510015,0.02212806,0.027056625,0.034681622,0.07078613,0.35619244,0.05191239,-0.10927815,0.14631231,0.22402434,0.15000045,-0.05911509,0.1154381,0.022540083,0.12451481,-0.054125927,-0.052051358},{0.029256862,0.22790954,-0.021912472,-0.01743755,-0.030337423,-0.14269012,0.07509968,0.04674718,0.025491768,-0.09168951,0.20890373,0.044225056,0.18850029,-0.47523135,-0.035541646,0.17359069,-0.19216777,-0.024607942,-0.041247964,-0.116399914,0.08610761,0.13255753},{0.01278569,0.081803456,0.0014398433,0.01385631,0.07952362,0.019316971,-0.091477655,0.019601827,0.02879193,-0.14825976,0.166811,0.38091686,0.13640994,-0.29945523,-0.3017245,-0.050198477,0.17243421,-0.136499,0.071340114,0.03846346,0.10432786,-0.06905005},{-0.0103253145,-0.069796234,0.0014793217,-0.011828529,-0.05899209,0.03807908,0.03891701,0.043604046,-0.05090137,0.080073245,-0.3753326,-0.27767053,0.007351496,-0.14043745,0.24920069,-0.0056600654,0.07612548,0.13708694,0.06447213,-0.09633625,-0.0659878,-0.040725622},{0.15687513,0.16222228,-0.103174254,-0.0033330356,-0.014774773,-0.0030700234,-0.013215498,0.06701047,-0.03753748,-0.17829573,0.6043289,-0.018861007,0.113307655,-0.14616989,-0.10749062,-0.056707647,-0.010763945,-0.07002756,0.012263443,-0.043350674,0.059964843,0.036267698}};
static const float linear_1_bias[48] = {0.08921705,-0.018594887,-0.012481597,-0.029091148,-0.021441825,0.035248034,0.028386464,-0.1459787,0.10554849,-0.025455596,0.025806373,0.11637752,-0.034596756,-0.02446516,-0.11451726,-0.028979376,-0.10564906,-0.012364694,0.024590928,-0.0601389,-0.018468047,-0.07220561,-0.18936457,-0.046411615,-0.09630854,0.029599454,0.03809248,0.21623573,-0.028340233,-0.111223176,0.0056531527,-0.00612975,-0.05303696,-0.0399913,0.12817466,0.036269072,0.02326227,-0.02370806,0.027201632,-0.08568408,0.020799704,-0.11543434,0.017874174,0.028863493,0.061512396,-0.2888076,0.045428544,-0.07580009};
static const float linear_rnn_weight[48][26] = {{-0.5115376,-0.16816235,-0.24370408,0.0003898344,0.010588659,0.019253077,-0.06770664,0.023861013,0.015124962,0.020823326,-0.018626947,-0.09583528,0.060377356,-0.06342897,-0.057039373,-0.058842797,0.20779681,-0.19981141,0.16249742,-0.020423066,0.28074753,-0.3077623,0.03949923,0.040292803,-0.028793098,0.059772238},{-0.83974284,-0.01574456,0.9235941,-0.016538499,0.0026826414,-0.004638563,0.003911831,-0.017499413,-0.0011502104,-0.020342834,0.15858561,-0.07775928,-0.19608521,-0.04553187,0.21700482,0.23542726,0.08812318,-0.16501467,0.12235254,-0.103898615,0.079796754,-0.13772999,-0.038910586,-0.040134452,-0.008590267,0.042006906},{0.12917306,0.11453012,-0.18816261,-0.005241865,-0.011371435,-0.030382127,-0.057568416,0.013679538,-0.0028855572,-0.47478333,0.052634325,0.22888741,0.32975358,0.044544652,0.028189324,0.09252526,-0.027790228,0.0984189,0.14357457,-0.09324569,-0.07773177,-0.025246682,-0.023619507,0.07123494,0.005933929,-0.09005404},{0.03138377,0.4660983,0.14675906,-0.0024863929,-0.011783754,-0.0280513,0.0027545386,0.047155533,0.04672282,0.052856967,0.07603429,-0.13865994,0.051570103,-0.05658176,-0.13661604,0.1511182,-0.14067541,-0.087263204,0.38358995,-0.113557056,0.016617302,-0.20835531,0.008088012,0.0027487394,-0.060784,0.04457642},{-0.26502353,-0.04098604,0.4747894,0.024360796,0.0040432406,0.026470168,-0.006597012,-0.013686219,-0.024639312,0.046469767,-0.030563047,-0.019480703,-0.047555666,0.046491377,-0.002981537,-0.67909247,-0.1870712,-0.055162042,0.083078004,0.13307633,-0.15554005,-0.10496961,-0.03167657,0.1038677,0.009253224,0.019289842},{-0.29136378,-0.15991946,0.2546312,0.018660434,0.048746444,-0.049945448,-0.012634085,-0.011951959,-0.01878922,-0.06492084,-0.12503998,-0.030323403,-0.07976528,-0.025423048,-0.03659242,-0.03388951,-0.058595486,0.2425152,0.06985426,0.18206376,-0.14722563,0.035345133,0.039213218,0.099966265,-0.008367837,-0.0038861374},{0.009442822,-0.2657898,-0.13538039,-0.029548477,0.01815832,0.028073074,-0.03261958,-0.021171793,0.012135082,-0.16504858,0.3462406,0.4001644,-0.0007882494,-0.28841612,-0.49804986,-0.21041569,0.046938416,0.16416144,-0.14811075,-0.033817027,-0.050128076,-0.018584039,-0.11881662,0.012171111,-0.07096974,0.048690517},{0.31383258,0.33249894,-0.19461827,0.008267989,-0.029230589,0.041332513,-0.03999625,0.0016616244,-0.010425711,0.13070165,-0.023244524,-0.13122432,0.13648278,0.15839228,0.020288805,0.098196715,0.16461514,0.42107958,-0.12790063,0.095258825,0.17346615,0.045901813,-0.043535363,0.087582126,-0.025797695,-0.057980374},{-0.19760732,0.059940066,0.09816625,-0.022530848,0.036186945,-0.03843733,0.017373146,-0.0046302844,0.033589046,0.07025095,0.19069916,0.2163616,-0.121683925,0.03291335,0.1661645,-0.20140828,-0.006841748,-0.060487576,0.13696824,0.09562329,-0.25693804,0.15502338,0.038135152,-0.067295946,0.007884501,-0.008056396},{-0.6832361,-0.27911144,0.20627807,-0.004845344,-0.0023450004,-0.019816963,-0.0128555205,-0.001541027,0.0076232343,-0.033271253,0.029961396,0.029322376,0.070439994,0.016759805,0.088154085,-0.13950875,0.17666522,-0.016587451,-0.3763647,-0.03294455,0.4192456,0.04623014,-0.05651769,-0.035999265,-0.02835978,-0.08865764},{0.07074482,0.14768401,0.0607445,0.017350709,-0.037634764,-0.038102437,-0.00018952767,-0.030088808,-0.0065788804,-0.03848562,0.02597774,-0.06223305,0.06158463,0.13906296,0.015578636,-0.116418734,0.023464287,0.273551,-0.33865058,0.12325673,-0.06996842,0.22954316,-0.020778764,-0.06775969,0.03703679,-0.05935009},{-0.018620363,-0.16627763,0.24928103,0.015293675,-0.06485962,0.019465093,0.0026853168,0.065603614,-0.007049165,0.0028527698,-0.101421006,0.06408591,0.076473266,0.1560267,0.0540886,-0.16692823,-0.021261713,-0.039825376,-0.1592191,-0.020970829,0.23512267,-0.09034602,0.0017788853,0.023019414,0.038501512,-0.012704072},{-0.2768869,1.1162188,-0.061078057,-0.01000173,-0.004498619,0.021430567,-0.016753271,-0.0067875558,0.010674517,-0.1005938,-0.22303377,-0.11722361,-0.051630158,0.38015077,0.070433535,0.16822356,0.040481817,0.054683536,0.038118664,0.054536924,-0.1436327,0.03735588,-0.04147833,-0.0015696797,-0.027941165,-0.0075943926},{0.24045755,0.019613681,-0.22581881,0.0007246893,0.027960338,-0.0045360625,-0.033694457,0.0005642065,-0.0092965495,-0.12051839,-0.020086696,0.06024412,-0.054984476,0.08578296,0.06931711,-0.017621335,0.022588933,0.053415157,-0.3777287,-0.09079294,0.21941443,0.48181364,-0.09008461,-0.1569437,0.041599203,0.03845434},{-0.0125866,-0.33944055,0.17697166,-0.02354195,-0.008092802,-0.034303986,0.013986289,0.0101437345,-0.041661933,0.12208428,0.3801739,-0.057813782,-0.037941113,-0.308932,-0.009466698,-0.21923284,0.014320495,0.20178731,0.1259378,0.20085682,0.07284542,-0.0817982,-0.105026096,-0.08414387,-0.011616332,0.012592544},{-0.18187544,0.8277326,0.10491607,0.02039541,0.083060205,-0.00035608586,-0.011292845,-0.023394495,0.033593055,0.13324171,0.011435133,-0.066698395,-0.1289464,0.0039879484,0.08386162,-0.3122125,-0.14318392,-0.18295443,-0.097776614,-0.3374304,0.15032195,0.18490905,-0.07221325,-0.031104347,-0.004929232,0.06745818},{0.638661,0.78616256,0.049976517,-0.062741525,0.0263623,-0.033479787,-0.011891305,-0.023965107,0.0040314286,-0.0569975,-0.056958154,0.072790615,0.111708604,0.19514312,-0.052758384,-0.29818213,-0.091342874,-0.18316896,0.0042010103,-0.16994439,0.018410616,0.024988407,-0.00984782,-0.04755358,-0.040130135,0.020685216},{0.5192738,-0.8554653,-0.48445722,-0.00075951125,0.027123287,0.010121013,0.0046766787,-0.013519692,0.049261373,-0.092501305,0.21336885,-0.14297034,0.08819652,-0.32481197,-0.033888467,-0.25696775,-0.0648897,-0.14443046,0.12447552,0.02030548,0.11318784,-0.10217175,-0.028292527,0.03914214,-0.04419693,-0.037307627},{-0.6896056,-0.6106179,-0.3524633,-0.01221626,0.016218489,0.002844117,0.013214329,-0.0018993678,0.002845866,-0.030254424,0.10122103,-0.113623984,0.0132889785,-0.06255184,-0.17812622,0.060334865,0.086520754,0.33794922,-0.022570318,-0.32945347,-0.03500543,0.17466827,-0.031228743,0.061646603,-0.011609244,0.014904082},{0.33561116,-0.097706676,0.089853816,0.007096997,0.030013205,-0.0010486026,-0.015469949,-0.054317426,-0.0015263943,0.102337904,0.01908922,0.123144515,-0.010927931,-0.048684023,0.14354552,-0.032630138,0.023319531,0.11093836,0.08577761,0.17136492,0.124599986,-0.2049075,-0.041736446,0.10527674,-0.033622317,0.035957277},{0.3503793,-0.43475682,-0.70608664,-0.0029636987,-0.011755796,0.007634345,0.02243613,-0.006500514,0.0017972668,-0.009043138,0.04996847,0.05619891,0.022717804,0.038400162,0.023944207,0.0976283,-0.13055919,-0.3494922,0.12632926,-0.42290527,-0.0327202,0.12767057,-0.047475275,0.008406725,-0.07825078,0.02379719},{-0.20658542,-0.11514585,0.3517916,-0.02111197,-0.007821247,-0.0034784733,-0.02197262,0.002745542,-0.012496729,-0.060753196,-0.18606006,-0.09666865,-0.09893242,-0.016951613,-0.06887684,-0.09396944,-0.0710306,0.15364319,0.034966346,-0.3123824,-0.44772726,0.37101838,0.027529422,-0.025428873,-0.058696534,0.03035529},{-0.120115235,0.022264669,0.0035691627,-9.173508e-06,-0.006175356,-0.027393622,0.004351732,-0.023328207,-0.02328897,0.04813545,0.26882613,-0.35983562,-0.0857657,-0.14201982,0.061757233,-0.15377104,0.102518804,-0.13022259,-0.04938687,-0.23090158,-0.01552284,0.018186739,-0.124538094,-0.0976889,-0.017648079,-0.029511768},{-0.14964186,-0.20971948,-0.100799106,-0.0024028467,0.04908808,0.041373163,-0.017292999,0.027850525,0.030086746,0.25376156,0.0025993653,-0.07960073,-0.08469418,-0.046547133,0.32717553,0.026279751,-0.13455121,0.11475036,0.039992478,0.06898476,-0.017899381,0.033334974,-0.059068114,0.030869437,-0.13008201,0.04346905},{-0.18060505,0.33210316,-0.054118607,0.003657951,-0.017414473,0.009326915,0.039506767,-0.009412792,0.029126214,-0.05802244,0.114782326,0.01871547,-0.09236458,0.08905137,-0.017800238,-0.22275004,-0.12368713,-0.4934937,0.4290939,-0.2782784,0.019909292,0.03440169,-0.015361607,-0.09543468,0.07644672,-0.04362089},{-0.012622365,0.20350209,-0.025413796,-0.0374451,0.006723636,-0.0055113104,0.010795934,-0.0146927405,0.037751645,0.019453391,0.17135417,-0.048571307,-0.09495297,0.099565834,-0.022221914,0.071670875,0.007752247,-0.053160943,-0.2951204,0.26503065,0.10343292,-0.094116434,0.089740165,-0.11244221,-0.07233015,-0.05399109},{0.24986397,-0.07992459,-0.0014415155,-0.021274082,0.041097756,-0.02348955,0.008775554,-0.0107905585,-0.049999125,-0.051817246,0.22400978,0.01595757,0.016435312,-0.001123546,-0.050303098,0.06728851,0.0030804374,-0.077423975,-0.35392976,0.0068806424,0.145467,-0.123181775,-0.07083328,0.023219982,0.09884834,0.011844986},{0.08923034,0.11124553,0.1822315,0.007156693,-0.02931943,-0.021768456,0.025680948,-0.00894923,0.023619128,0.057853002,0.027588742,0.11230093,0.056146722,-0.16057299,0.17314747,0.11513746,0.11147869,-0.036833365,-0.0065447027,0.31218165,-0.15789583,0.039116934,0.07136516,-0.12919101,0.1163051,0.005457541},{-0.268945,-0.22566879,0.032966208,-0.023448793,0.009328354,-0.026211197,0.020684358,-0.0347953,0.005067048,0.04678517,-0.2506577,0.07840084,-0.051917683,-0.16159411,-0.018748991,0.2673635,-0.23847422,-0.3528003,-0.11290781,0.15042162,-0.0072859325,-0.023697065,0.094055705,-0.057694163,-0.06830914,-0.095742494},{-0.019212322,0.062630475,-0.11736424,0.005802229,0.015389384,0.016038638,-0.007197831,-0.000660601,0.002574455,0.17884749,0.0005534178,-0.20581427,0.059699446,0.063435204,-0.11021127,0.0777548,0.07603761,-0.85876477,-0.2028566,0.2114076,-0.4788543,0.086245745,-0.17382674,0.23548517,-0.12296907,0.16310653},{-0.24263251,-0.18456125,-0.1010937,-0.026698519,0.011039842,0.020157903,-0.0037952429,0.019018611,0.07921805,0.030274855,-0.13318564,-0.046953604,0.020891672,-0.1525559,-0.028708858,-0.072168544,-0.00055840914,0.12657253,-0.28254968,0.37002528,0.028829483,-0.0014234303,0.025004169,-0.024144325,0.013459858,0.037998926},{-0.08229606,0.0046486366,0.090904884,-0.026168667,0.043656282,-0.017303167,-0.047515977,0.0048925197,0.01416034,0.08592479,-0.098180056,0.09604205,0.12190568,0.0034835387,-0.3293132,0.07878437,-0.06820473,0.03232056,0.13852824,0.1435036,-0.15532956,0.08499487,-0.049405247,-0.064860016,-0.10094899,-0.09631536},{-0.18764098,0.10287666,-1.4548984,0.0056859697,0.019090405,0.0059328694,-0.00787665,0.009672581,0.01775639,0.017916676,0.033050064,0.28748718,-0.11016589,-0.012436501,-0.37151343,-0.1873882,0.014080529,-0.07820601,-0.04445601,-0.04180947,-0.011971372,0.0066344985,0.07890801,-0.00604884,0.01965771,0.02809204},{0.27559158,0.31400022,0.4533419,-0.005118448,-0.01629728,0.028221525,0.013628845,0.015820155,0.04937173,0.0552858,-0.06701828,0.047911957,0.032510523,0.029039223,-0.03761266,-0.19364585,0.09296425,-0.014843949,-0.4196901,-0.12643503,0.4663917,0.093868464,-0.047704134,0.0041957167,0.0068454086,0.019239428},{-0.28340822,0.25126168,0.5732179,0.035279367,0.0269815,0.010093862,0.028883334,0.030249655,-0.031035203,0.0035027242,0.10793463,-0.051962145,-0.016788116,-0.0043151076,0.05296128,0.065270066,-0.0756658,-0.058426555,0.14697541,0.008063695,-0.18117236,0.32945293,0.11829438,0.03295787,-0.0731883,-0.001653248},{-0.5562084,0.05344007,-0.38971302,-0.009597425,-0.023185462,0.0017835586,0.031168457,0.03161833,0.015952775,0.24672163,0.13761513,0.19091666,-0.34211838,-0.095836475,-0.13133763,0.17696618,-0.33128443,0.11145128,-0.06702889,0.0070603206,-0.06481568,-7.1372397e-06,0.05369791,-0.092599064,0.08901029,-0.029721934},{-0.15128286,0.8439811,-0.53406,0.012407552,-0.010109628,-0.022924462,0.012674074,0.012472971,-0.080685504,0.110127784,-0.13495393,0.05722864,0.046365052,0.16818304,-0.07108981,-0.09618919,0.1272528,0.23874606,-0.13029979,0.10877969,0.021874104,0.008181933,-0.0052264803,0.09090803,-0.09363986,0.04840504},{-0.088045366,-0.19852512,-0.048404146,0.010501229,-0.055784874,0.0009190542,-0.023604939,-0.017016646,-0.014296075,0.29163238,0.43115407,0.08084161,0.107401714,0.07381827,0.07921339,-0.09368878,-0.013107281,0.009905446,0.06326102,-0.15714094,-0.21159904,0.27141708,0.036558464,-0.057877906,0.038348652,0.09521021},{0.6229199,-0.1912418,0.68563056,0.012347093,-0.004338259,-0.01179113,0.0041034147,0.0174019,0.015914887,0.1138131,-0.004865775,0.13505818,0.0060566026,-0.027515946,-0.029782988,0.010648519,0.06338237,-0.24925134,0.15053967,-0.33750963,0.16168308,-0.17485975,0.019727,0.0042297505,-0.035467982,0.023051865},{-0.3496509,-0.20451878,-0.21932413,0.00057499413,-0.0038609349,-0.047125548,0.023547685,-0.042085797,0.03445864,0.39783624,0.09161171,0.11587157,-0.35897058,0.11679982,-0.076160826,0.086210534,0.07251211,-0.1507926,-0.007718787,0.09839804,0.07263199,-0.2790354,0.06363449,-0.033594802,-0.023688622,-0.07730442},{-0.33380926,0.26987782,0.012867364,0.028778408,-0.025622629,0.014744668,0.01823775,0.0076431613,-0.03247998,0.29994887,-0.02492562,0.27821147,-0.04614035,-0.07579629,-0.010359107,0.08641124,0.07691838,0.027073512,-0.24615796,-0.10856085,0.18378046,-0.10171896,-0.07217857,-0.03296004,0.045856696,0.07755308},{0.31390488,-0.028136343,-0.28628248,-0.0008023195,0.01133809,0.02264794,-0.015309087,0.006378855,0.03417148,-0.22061856,0.17673895,0.12880532,-0.07414655,-0.0021657557,-0.014993738,0.12495594,0.058933992,-0.14001997,0.16533023,0.3524293,-0.09394322,-0.41733775,-0.012261238,-0.031174527,0.022793211,0.0322612},{0.15900047,-0.49307558,-0.18897308,0.01585948,0.024460055,-0.035938744,-0.003332664,-0.013189287,-0.022624463,-0.023697993,-0.08074424,-0.25111043,0.015730195,0.029500917,0.09515456,-0.012632751,0.13948795,-0.2567782,-0.16873151,-0.018098125,0.2949673,-0.15482983,0.05782097,-0.046277206,0.058894623,0.01995693},{-0.20760499,-0.059152517,-0.050960917,-0.029022042,-0.0031208757,0.029927704,-0.036051106,-0.032603066,-0.013804361,0.19364338,-0.24378978,-0.042270195,-0.14385818,0.09008944,-0.046388425,-0.11461077,-0.25335288,-0.1634166,0.069656976,-0.22591634,0.1345022,0.04071688,0.0059590363,0.13876815,-0.0011732671,0.005732368},{-0.03613431,0.047490627,0.05252977,0.0020795008,0.008727617,-0.012702259,-0.013526028,-0.014454519,-0.045374338,-0.10425958,0.07374268,0.036395352,0.031065678,-0.032027937,-0.010353522,-0.07130133,-0.83453363,-0.12709978,-0.1431477,0.13499908,0.08599044,-0.120010644,-0.1743675,0.044838164,0.03265178,-0.046619322},{-0.08215354,-0.05957747,0.16386089,-0.040195644,0.021054914,0.03300487,0.02156949,-0.000990856,0.0524173,0.058432426,0.23745185,0.0040265056,-0.07469732,-0.0066784737,-0.0001924727,-0.08283255,-0.058854785,-0.32551444,0.11937118,-0.15211092,0.04145927,-0.063185215,0.0061775683,-0.05479804,-0.070487976,-0.015739813},{0.39970598,0.035825543,0.3064957,-0.0003687152,0.039589282,-0.005404686,-0.021629965,0.024411485,0.014598623,-0.05061166,0.35580492,0.029722944,0.031927627,-0.19781959,0.06366793,-0.008734783,-0.18191633,0.13732156,-0.2845562,0.03113055,-0.113412805,0.2942073,0.06415822,0.04240357,-0.06125871,0.048318423},{-0.04648087,0.24890803,-0.08185142,-0.008881568,-0.003811967,0.036414705,0.029047169,-0.049222995,0.006266857,0.00798672,0.005435305,-0.111353055,0.061539937,0.055851173,-0.17045179,0.37223965,-0.2174057,0.19099657,-0.036450516,-0.100566104,0.012912415,-0.013865468,-0.028443914,-0.021595882,0.037282746,0.055065427}};
static const float linear_rnn_bias[48] = {0.15522769,-0.04691105,-0.17108515,0.18131065,0.055591226,0.13523158,0.015364183,0.17836411,-0.17253566,-0.16283797,-0.038641624,-0.009301644,-0.08962403,-0.102225736,0.07003751,-0.043384768,-0.13777684,-0.2852733,-0.08044472,0.04778575,-0.23112173,-0.15158756,0.06037524,0.008872883,0.06372375,-0.005313152,-0.124027975,0.020644221,-0.010580918,0.08071545,0.1265208,-0.032969635,-0.18437716,-0.040709954,0.21171968,-0.19840401,-0.0040041604,-0.089889154,-0.13244699,-0.15571202,-0.36433646,-0.048059676,0.20845945,0.08006531,0.0039886856,-0.08278156,-0.15642276,0.03789616};
static const float rnn_weight_ih[48][48] = {{-0.27597395,-0.21566993,0.29768252,0.17464216,-0.0024506405,-0.10752782,0.03438368,0.12671731,-0.18758397,-0.23926926,0.11384458,0.07754652,-0.051934104,0.07953389,-0.11022932,-0.049972776,0.4843102,0.13546479,-0.32161608,-0.012376695,0.20523052,-0.17748997,-0.13223073,-0.10726342,0.15481727,0.030587591,0.16434373,-0.031224063,-0.16373771,-0.04434199,-0.23909658,-0.0058263764,-0.24569452,0.14976324,0.09146589,-0.24747561,-0.012980672,-0.116580255,0.1489977,-0.3492221,-0.15517868,0.13569754,-0.0031159697,-0.14036329,0.07744985,-0.07740532,0.13320039,0.12803796},{-0.065263316,0.052214924,-0.03020164,0.015758997,0.13667473,0.08393744,-0.003252089,-0.007032166,0.13772364,-0.009207273,0.04210937,0.020581692,-0.08682641,-0.05199823,0.026997924,0.00917926,0.017545313,-0.07180455,0.073097326,0.031027455,-0.19171792,0.107766986,-0.10755078,0.017976897,-0.07411967,0.042888127,-0.0811393,-0.048683792,0.108344,0.047305062,-0.03752934,0.26120272,-0.0012105557,-0.109779686,0.045287855,0.09831566,0.031025754,0.018075353,-0.031129353,0.16672954,0.00041909455,-0.18156528,-0.09507318,0.0987544,0.02929054,-0.08396064,-0.11052864,-0.03998232},{0.20133656,0.20186454,-0.053022522,0.049238037,0.07026826,0.0035373918,-0.13234532,0.05639774,-0.035235994,0.10125679,-0.009353836,0.03677496,0.001770756,-0.07661341,-0.08329259,-0.04702579,-0.029210076,-0.15716508,-0.07682166,-0.04484264,-0.11256047,-0.13741839,0.18782929,0.07811586,0.11886129,0.03374105,-0.040073875,0.13035436,0.055638738,0.051836517,0.02375335,-0.13952444,-0.55345476,-0.13037415,0.087627396,-0.29346675,-0.26958254,-0.03891324,-0.1044804,-0.13594651,-0.18398046,-0.049791317,0.35231808,-0.07334938,-0.030648785,0.032308888,-0.059284825,-0.055008635},{-0.20223539,0.007627294,0.12143425,0.019441383,-0.18673615,0.06299045,0.10493247,0.23354138,-0.10257749,-0.13290805,0.12412341,-0.04040689,0.039752755,-0.030138973,0.023758454,-0.11209664,0.11523133,-0.12951437,-0.16047321,0.059774555,-0.17571662,-0.085349746,-0.094650514,-0.0931996,-0.18876967,0.045485,0.083582304,0.09518867,-0.122403726,-0.10060261,0.0068009184,0.08754213,-0.07465568,0.06573403,0.044595253,-0.08492421,0.06574779,-0.1208347,-0.06322559,-0.15978785,-0.041923642,0.11630087,-0.17969234,-0.13141346,-0.09130087,-0.17755263,0.14685911,0.19661897},{0.05329806,0.11498332,0.107829385,-0.057824075,-0.1197649,0.08104639,0.1989532,-0.10275605,0.038329117,0.050683368,-0.12025607,0.009684438,0.110732615,0.12569322,-0.068510234,-0.021817809,-0.04377809,0.08998906,0.036463995,0.032124955,0.028907541,0.03517757,0.041230023,-0.110260114,0.03078323,-0.1347244,-0.14144924,0.07674605,0.103197664,-0.017437365,-0.03585443,-0.0097603155,0.1370508,-0.002502417,0.083004616,-0.1008458,-0.08832016,-0.10501224,0.009575845,-0.09419389,-0.16819036,0.034616917,-0.006649686,-0.02890914,0.109953485,-0.04777332,-0.010590206,0.026198465},{0.11514837,-0.16914177,0.21829237,-0.018005861,-0.1296255,0.03806343,0.010857063,-0.018172478,0.017041173,0.05505989,-0.057181362,-0.011729491,0.11758359,-0.06777882,0.047783714,-0.068606906,-0.053015567,0.16571084,0.030706346,-0.022664262,-0.0016819565,-0.16959709,-0.16741547,0.043373644,-0.016104782,0.08120357,0.0012815747,0.16708717,-0.024537558,-0.02454184,0.14663947,0.046597674,0.2729367,-0.120878555,-0.044503562,0.15451153,0.15632944,-0.121310435,-0.23319666,-0.011935669,0.2657164,0.27119824,-0.10762864,-0.05898314,-0.1630466,-0.0374399,-0.18300666,0.05874437},{-0.13565311,-0.18004616,-0.011124329,0.16717248,-0.021773394,-0.09260113,-0.034291595,0.23526917,-0.080730304,-0.28524646,0.048594225,-0.15781793,-0.053603355,0.022866128,-0.12561963,0.17611311,0.35604593,0.014989863,-0.3059016,0.01616234,-0.10753356,-0.09321139,-0.10212564,-0.083329685,-0.07141294,0.05672782,0.0067183636,0.16937825,-0.00047985892,0.021454647,0.023840886,0.12308333,-0.21627182,0.23221304,0.17891891,-0.20504998,0.029816153,-0.052388076,0.16555247,-0.08346019,0.029530713,-0.040827487,-0.102823704,-0.013677113,-0.026745759,-0.05385316,0.1108008,0.07322608},{0.110069886,-0.24159008,0.08130342,-0.06293653,-0.023876674,0.11319878,-0.12423692,0.036409196,-0.052975338,0.052810635,0.13770223,0.08930277,0.17665054,0.040411305,-0.27357838,0.030831428,0.13903315,-0.31348538,0.01307766,-0.044047326,-0.14854848,0.0480331,0.07117935,-0.07406689,0.07131806,-0.030914446,-0.1687452,-0.053026505,-0.0053876205,-0.029446507,0.14996563,0.020114686,0.03448914,0.04843325,-0.052850213,-0.13366453,0.27087444,-0.09208121,-0.26855856,-0.17791262,-0.047777273,-0.093016215,-0.025918245,0.040786017,-0.055433087,-0.108793534,-0.12498163,0.10919804},{0.12594698,0.11288242,0.02823131,-0.03906935,-0.09893196,0.12679696,0.13375992,0.0066114175,0.009780436,0.13411205,-0.010328117,-0.09412761,0.1968573,0.06952239,-0.039558176,-0.009823747,-0.23366769,-0.08507613,0.18088482,-0.061197907,-0.16022545,-0.07931345,0.008178862,-0.03706348,-0.058335952,0.062472116,-0.040546704,0.07882327,0.08259235,0.047820177,0.16870405,-0.12026337,0.13160294,-0.08706806,0.12580332,0.1285041,0.23002024,0.054310646,-0.4209016,-0.026949251,0.13164309,-0.0212619,-0.028782152,-0.058929324,-0.00053510885,-0.12714857,0.13089605,0.0017159163},{-0.114449255,-0.029971687,-0.040155422,-0.030328976,-0.085843936,-0.11248986,-0.0014070156,0.0709144,0.07642654,-0.056172926,0.08461518,0.090597555,-0.03573557,0.2133536,0.004828342,0.1738976,0.09694312,0.048126016,-0.24317475,0.062625825,-0.016557833,-0.116898924,-0.13734686,0.024637546,0.07673286,-0.049436707,0.04609217,-0.03245416,-0.14248575,-0.05258045,-0.13686779,-0.063213326,0.25332028,0.20685862,-0.03184061,0.053244438,0.10214043,0.041390844,0.078921065,0.045548614,-0.03527723,-0.008326941,-0.010347477,0.072734565,0.022703446,0.013665563,0.1803322,-0.023064608},{-0.013540312,0.15038896,-0.14282253,-0.07002005,0.105888695,0.03934833,-0.061491236,-0.10940795,0.1052513,0.09828794,0.008859308,0.0313675,0.059319176,-0.062130418,0.23525953,0.011090464,-0.0032144713,0.13254362,0.055591166,0.023338718,-0.030544285,0.15434061,0.18203337,0.04810906,-0.0015331896,-0.12999372,-0.0470134,-0.012148949,-0.05598231,-0.10826991,-0.07899265,-0.14162773,-0.079496145,-0.03343067,-0.065800846,0.04103135,-0.034979537,-0.013598474,-0.00071401865,0.14144035,0.0016753225,-0.08442831,0.014299413,0.06824419,-0.007579547,0.033419054,-0.05059171,-0.08070512},{-0.06899326,0.01547643,0.15978695,0.008979957,-0.12942947,0.011225534,0.03770263,0.08228166,0.119953945,0.008703653,0.09040748,-0.10262756,0.15663704,0.1399551,0.052739102,0.12589967,-0.048907027,0.131028,0.0379227,-0.032840617,-0.09420148,0.038596895,0.010367236,0.122423805,0.06699791,0.095425025,-0.081806764,-0.02793174,-0.09535164,0.0035002555,-0.011827482,-0.015357697,0.29294577,-0.11093565,0.109150715,0.12945095,0.24508415,0.05552493,-0.35866043,-0.04377918,0.038856246,0.004830987,-0.19612145,-0.09160316,-0.010263376,-0.014512553,0.0019706711,0.116019405},{-0.11905351,-0.03724048,-0.046536278,-0.16850697,-0.06786856,-0.060659662,0.048823323,0.014569423,-0.035571057,0.28782436,0.13678187,0.11222517,0.06683893,0.40031144,-0.162056,0.2692714,0.098772846,0.11600462,0.058761533,-0.08520397,0.061187394,0.15019555,0.13181695,-0.030561706,-0.011729167,-0.011291464,0.031406313,-0.12859535,0.010982589,-0.09485502,0.018039495,-0.043568343,-0.0045890776,0.37553576,-0.029014349,0.038732067,0.06026596,-0.0020646555,-0.03723936,-0.112487055,0.1486237,-0.37617552,0.05520506,0.10317443,0.07927904,0.0034739338,0.1577804,0.02917909},{-0.07858332,-0.22575438,-0.09576935,-0.07752499,-0.28046095,-0.0013349887,0.08479552,0.14310725,-0.078725934,-0.06711462,0.056297258,-0.06583283,-0.15020849,0.16106948,-0.005310583,-0.0046965587,-0.09989446,-0.003610857,0.061492193,0.07057112,0.20433278,-0.00021974393,0.05903027,0.10966224,-0.1756031,-0.1236911,-0.08576311,0.05930637,0.05716139,-0.015542843,0.09325996,-0.09163124,0.06455638,-0.055771526,-0.0036480278,-0.031595767,0.08305762,0.0682892,-0.05043792,-0.12595125,-0.18419017,-0.124859445,0.1373596,-0.14123833,0.047205895,-0.05384502,0.039671883,-0.04451645},{-0.13054118,-0.06144495,-0.12664478,-0.055403925,-0.02397022,-0.08010439,0.07325801,0.2269415,0.006752297,0.116298445,0.20336498,0.106191225,-0.03592279,0.2205159,0.09925961,0.10472689,-0.09019814,-0.004068574,-0.06979925,0.0010839233,-0.085326806,-0.011577323,0.0028263335,0.11833256,-0.049813192,0.08959662,-0.051595815,-0.022916894,-0.112540305,0.09601478,-0.07532521,-0.033764377,-0.037467092,0.22966973,0.028369911,-0.066923216,0.14838926,0.073707566,-0.027949732,0.051986393,-0.074953176,-0.16210715,0.07558229,0.056251742,-0.039989274,-0.08828464,0.07792849,0.045106683},{-0.08223536,0.20358202,0.10987554,-0.04138317,-0.15222731,0.073586546,0.025946606,-0.054335408,0.08217899,0.10095358,-0.00908806,0.009701548,0.10474835,0.0005191029,-0.05257616,-0.018038504,-0.12215463,-0.036612783,0.04069871,0.022710662,-0.058469873,0.05533875,0.014456209,0.057616703,-0.006649191,-0.1146897,-0.120469585,0.011015588,0.17667174,-0.04304459,-0.046413083,0.18537979,0.24908046,-0.058400657,0.07267755,0.15590338,0.022593813,0.13743581,-0.020871053,0.027145443,0.02264538,-0.14424078,-0.08407481,0.021557774,-0.027666075,0.01807377,-0.008189878,0.007982466},{0.041530993,0.20737275,-0.045944694,0.0246208,-0.05157807,0.11679781,-0.08397273,0.13238242,-0.046535786,0.06915986,0.01767593,0.02185004,0.071971476,-0.057672333,-0.056583077,0.123251304,0.013583768,-0.13003841,-0.1283539,0.046054874,-0.17230228,0.013724467,-0.008633003,0.13646257,-0.037694898,-0.06218421,-0.13216427,0.06039896,0.016143216,-0.11931784,0.035480656,-0.16158332,-0.1393897,0.02420026,0.044406533,0.08500256,0.10458014,-0.13359255,-0.14669159,0.01845344,0.09302022,-0.0676234,-0.058915727,0.03010883,0.052812997,-0.11959242,-0.007184114,0.06697962},{0.04344503,0.5945194,-0.12864603,0.050332118,0.32772365,0.17106706,0.018037241,-0.15854748,0.26410475,0.28959563,-0.05855195,0.10930351,0.036173932,-0.2114569,0.12297142,0.27573255,-0.13508676,-0.46054423,-0.022399738,0.08831191,-0.4134555,0.12378263,0.070351996,0.21799234,0.14217006,-0.005371515,-0.098391086,-0.01092051,0.12458471,-0.0756706,0.07338667,-0.054959986,-0.46195048,0.09650995,0.35637993,0.18899187,-0.09821773,0.113257594,0.011945853,0.08077563,0.13447714,-0.2711608,-0.17600694,0.16318052,0.031832334,0.15430407,0.032170083,-0.08818425},{-0.15391468,-0.21065527,0.24201423,-0.09421904,-0.14371833,-0.17993891,0.31358895,0.032564003,-0.041450262,0.0014734805,0.1055078,0.0987124,-0.24727507,0.09282198,-0.029320475,-0.054943904,0.04412224,0.15905774,-0.0011462693,0.04098832,0.18398346,-0.12483649,-0.050796323,-0.021689216,-0.07127234,-0.016572025,0.16505803,-0.023466583,-0.094216175,-0.022097237,-0.0646597,-0.05123701,0.11566107,0.03894455,-0.22955719,0.034523796,0.056044884,0.032365188,0.061401933,-0.12854888,0.115413375,0.12522368,-0.07445367,-0.22428149,0.032364823,-0.06349753,0.082527615,-0.027324917},{-0.1991903,0.023751438,-0.028891282,-0.06551916,0.1664645,0.169436,0.042346675,0.030826196,0.07568509,-0.014454965,0.1717419,0.059456024,-0.07300894,0.08228982,0.04315526,-0.03574458,-0.0065503223,-0.091871984,-0.055091973,-0.031938568,-0.20889008,0.1773465,-0.09347849,-0.004914352,-0.118933596,0.059373505,-0.050576366,0.019787917,-0.055907372,-0.042381313,0.050557777,-0.0042416058,-0.1438391,0.07158789,0.19734292,-0.0038176402,0.015349292,-0.07315642,-0.14961681,-0.15897377,-0.044662513,-0.07426052,-0.047620438,-0.09721444,0.016505174,-0.09013351,0.1591789,-0.0012434209},{-0.095912084,0.040499855,0.049721774,0.14515197,0.15515375,-0.05008702,0.17580298,-0.10365102,-0.105172426,-0.19232108,-0.09377437,0.101404876,0.035518307,-0.10935651,-0.023928678,-0.061893325,0.15424575,-0.17793325,-0.23894563,0.011896384,-0.043010715,-0.01771618,-0.0609079,-0.07001575,-0.001514873,-0.12366411,0.03062913,0.028438516,0.088916644,-0.14245918,-0.007046174,0.08759309,-0.22971866,0.11823793,0.026189597,-0.17487282,-0.14438751,-0.09808453,0.2782694,-0.21388616,-0.050848443,0.06602541,-0.024887266,0.008947823,0.25992024,-0.049895905,0.03154222,0.052659307},{0.03176097,-0.09932897,-0.13808927,-0.15628526,0.15070017,-0.011864221,0.003036243,-0.09967286,0.1464919,0.03884633,-0.07764833,0.05394417,-0.2692641,0.04954569,0.09411613,-0.19841412,-0.279553,0.051615324,0.18431836,0.05331001,0.23248914,-0.09200997,-0.046098318,0.09768939,-0.12446448,0.0034762854,0.06266768,0.020764751,-0.012336252,0.12258474,0.105573595,-0.12931807,0.26397693,-0.1715111,-0.15321603,0.20140028,-0.14250262,0.19383912,-0.12128294,0.20050035,-0.027625967,0.16241503,0.1559588,-0.003990396,0.16649702,0.044098716,-0.016865306,-0.25880712},{-0.17474842,-0.18178988,0.11802576,0.0033547897,-0.043203797,-0.015986497,0.33439046,-0.02666906,0.103233926,-0.09382637,0.08952757,0.08490127,-0.12487161,-0.012193675,0.07199686,-0.01017925,0.085906655,0.08113474,-0.18224727,0.06822146,-0.14857657,0.023336617,-0.10261003,-0.15206066,-0.07030859,0.03480633,-0.05177951,0.006614014,0.056200195,0.020974156,-0.02154473,0.08149975,-0.022184134,0.07055898,0.07093713,-0.01436919,0.027915703,0.10046705,0.106915064,0.096263245,-0.029010495,0.033680752,-0.1032717,-0.042625904,0.024961801,0.077012755,0.18504582,0.043024402},{-0.1009727,-0.0888963,-0.028903695,0.06493443,-0.0362425,-0.11306016,0.004928159,-0.11567303,0.053426303,-0.16701415,-0.0472054,-0.048159026,-0.13903373,0.106276564,-0.091953635,0.27676782,-0.017470889,0.013821838,0.15025006,-0.19913623,0.30194005,0.30830142,0.012450533,0.041011106,0.2678338,-0.119716376,-0.017038643,-0.170731,0.0026920764,-0.08710175,-0.21252522,-0.05841129,-0.13308977,-0.010917223,0.119201645,0.122328244,-0.018079286,0.13311352,0.10046871,-0.029818296,0.05871879,-0.20603071,-0.09357421,0.18759799,-0.10843478,0.09703333,0.04575803,0.1011477},{0.23641688,0.22994904,-0.04327436,-0.14805208,0.2340691,0.080014646,-0.29159346,-0.079426415,0.07637134,0.09357542,-0.09254461,-0.006912194,0.29074463,-0.16817825,-0.074958675,0.016091596,-0.09770598,-0.4203535,0.11238909,-0.09505418,-0.053878512,-0.09699053,0.08350193,0.062258076,0.14360914,0.07991151,0.08259213,-0.0041544414,0.12526876,0.009380859,0.06660986,-0.034554068,0.23064055,-0.13129859,-0.01723526,0.34229845,0.09098454,-0.20380653,-0.14710467,0.07475329,0.17306602,0.016620694,0.09644608,0.19298436,-0.121713124,0.07745631,-0.27797905,-0.20734517},{0.2693798,-0.06145855,-0.12658186,-0.08916985,-0.03207985,0.059436236,0.01013931,-0.13047414,-0.040377595,0.27991405,-0.17280605,0.08159332,-0.10614395,-0.0046922923,0.18176866,0.03641909,-0.46653008,-0.069153525,0.43230283,0.013498892,0.23581518,-0.12644261,-0.03759674,0.13374318,0.16794796,-0.11988867,-0.08008188,-0.21726635,0.22207023,-0.07679987,0.17517725,-0.024324559,0.23098643,-0.05010866,-0.09123328,0.19475815,-0.1110409,0.13931456,-0.19438049,0.16207646,-0.0015576473,-0.15640421,0.11002465,0.27597567,0.15025671,0.048334952,-0.16012394,-0.00014634273},{-0.043555483,-0.2420897,0.20456001,-0.0031264785,0.05541307,-0.023090944,-0.10567924,-0.09234686,-0.011544346,-0.13055426,0.0020371806,0.061021928,0.16632552,0.03856327,-0.121748075,0.004835747,0.25682712,0.1803873,0.03403902,-0.0007373327,0.2136936,0.038711198,-0.09792718,-0.17706056,0.20606236,-0.12794204,-0.09011587,0.0068378528,-0.002499886,0.0254985,-0.12068415,0.04777501,0.28800365,-0.033617765,-0.11112204,-0.03518952,0.15542695,-0.025722196,0.03990078,-0.14682354,-0.08090148,0.07777277,-0.0884979,0.019066518,0.028951535,-0.07373634,-0.08893816,0.033073377},{-0.0883201,-0.1610507,0.070543855,-0.38243276,-0.07743205,0.12433377,0.13508044,-0.047807425,0.016772188,0.17106143,0.059986833,0.037083313,-0.14952329,0.17400731,-0.08947394,-0.42497796,-0.15635115,0.07421608,0.14450854,0.02475689,0.11921103,0.057730637,-0.13980642,0.0013481149,-0.26979828,0.02802017,0.052151438,-0.01866127,0.049070068,-0.049040616,0.09773571,0.07837572,0.10127778,-0.037574567,-0.19573884,-0.084261775,-0.08174444,-0.09310927,-0.026505867,0.08185781,0.047989257,0.1296636,-0.029616624,-0.089253776,-0.10075852,-0.08890689,-0.019666484,-0.08118462},{0.10596116,0.112536244,-0.04652758,-0.23888636,-0.03513343,0.04585614,0.045795918,0.013829481,-0.09701805,0.46538314,0.06665735,0.06283926,0.033727534,0.16509624,-0.03087655,-0.010659495,-0.057259846,0.013495587,0.13598144,-0.015452567,-0.02037567,-0.015905602,0.027418006,0.04234498,-0.17946602,0.09942139,0.2001089,-0.008777281,-0.033947725,-0.03443846,0.15159054,-0.043655455,0.017553672,0.2625367,-0.046464324,-0.0896287,-0.013733962,-0.0043610535,0.059666034,0.0011556388,0.29739723,-0.04803174,0.10774439,-0.10953685,-0.0045478265,0.06124928,0.08486098,-0.06207982},{0.104203634,0.022552509,-0.08836666,-0.025493495,-0.10690824,0.020182962,0.06336392,-0.0014315759,-0.029415697,0.24044544,0.1081773,0.11842091,-0.1857234,-0.024429867,0.122739,-0.11035585,-0.13683343,0.11833113,0.12921341,-0.08385718,-0.057195123,0.02339481,-0.0040352605,-0.054351024,-0.023074286,-0.032355096,-0.047307923,-0.05506568,-0.00315671,0.24202819,0.0060345884,0.21101302,0.014276286,0.082568265,0.00079464744,-0.040715188,-0.049792662,0.17864758,0.012174181,0.087882414,-0.015436745,-0.17644884,-0.06531955,0.00075196143,0.002665997,-0.039328124,-0.1399332,0.1253271},{0.029446287,-0.029471986,-0.14225924,-0.028054548,-0.17146228,-0.024109228,-0.14682277,0.20270681,-0.15750909,-0.078251295,-0.0973174,0.04807249,0.06271946,0.036956962,0.09208685,-0.18106942,-0.039013673,0.09984888,-0.24373583,0.21061155,0.004080284,-0.21805592,0.06196425,0.11476367,-0.1542944,-0.040103212,-0.026807228,-0.015626378,-0.09469866,-0.074739434,0.03434589,-0.06132415,-0.14742954,0.018814877,-0.05114079,-0.17321761,-0.12819807,-0.16333018,0.1744787,0.05673097,-0.16161606,0.075359054,0.22772773,0.0074242656,-0.13110937,-0.058418866,-0.08649202,-0.095795125},{-0.049914595,-0.039134018,-0.08198063,-0.11324299,0.11056258,0.11141101,0.0055228826,-0.021169204,-0.10474791,-0.021882907,-0.076411,-0.0111986175,-0.33743423,-0.051324353,0.20869483,-0.31487283,-0.24381264,0.024586398,-0.06085189,0.1763978,0.032678127,-0.043659057,-0.100927345,0.1775419,-0.27536443,-0.11629975,0.08254589,0.104582876,0.05530569,-0.05798498,0.16098265,0.0038112376,-0.26881278,-0.095769465,-0.031112498,-0.17198987,-0.3981135,-0.05112029,0.20125361,-0.07080654,-0.2051627,0.0296084,0.2412898,-0.056659102,0.023509892,-0.085428275,0.11956567,-0.13312441},{0.17869745,0.10075342,-0.11405976,0.11042518,0.09862368,-0.1186149,-0.20892006,0.16464049,-0.05463172,-0.016563002,0.019361023,0.07448751,0.27485222,-0.08191996,-0.1711568,0.11552347,0.14802776,-0.13767184,-0.13463674,-0.094928585,-0.24724148,-0.09547808,0.08078804,-0.04516217,-0.04711383,0.04396755,-0.04643634,0.0124132885,-0.09657887,0.022609055,0.012827547,0.080272816,-0.03961501,0.17771399,-0.006485768,-0.08919505,0.2705713,-0.1530197,0.005024165,0.04800197,0.10582455,-0.058091603,-0.07048755,0.036312368,-0.13355486,-0.029908119,-0.19734602,0.011856549},{-0.08700097,-0.006989013,-0.1287316,-0.0551341,-0.018639471,0.07022191,-0.10921314,-0.120718844,0.11434798,-0.053696528,-0.11253966,-0.09183168,-0.052079875,-0.05513148,0.20074183,-0.11916389,-0.0968697,0.08786622,-0.07926627,0.16928507,0.08745145,-0.030723175,-0.08447974,0.032284897,-0.01104863,-0.033347238,-0.13130426,0.21884426,0.04363346,-0.07115346,0.0150711695,-0.026089188,-0.12999362,0.012217511,0.014389373,0.15555091,-0.07019995,0.10855291,0.17646797,0.18530306,0.26156628,0.09857056,-0.18584806,-0.06432477,-0.063364804,0.06456703,0.063209094,-0.09713856},{-0.065433234,0.07380609,0.04030772,0.016069971,0.12967815,0.036249343,0.015821636,0.067041166,0.11296049,0.05316033,0.15445556,-0.1502174,-0.20028089,0.08783261,0.03504987,0.17020465,-0.03980851,-0.256521,0.04384558,-0.041243106,-0.1867954,-0.039457276,-0.04482236,-0.061071027,0.0495539,0.15518117,0.067915484,0.06934734,-0.17645785,0.10053299,0.05160485,-0.021696746,-0.07311927,0.029562209,0.10011868,0.09712611,0.08424711,0.008252623,-0.31993333,-0.05146349,-0.06017028,0.10702971,-0.19895695,-0.17854214,0.10789956,0.014530406,0.20480242,-0.0807103},{0.09890843,-0.20544808,-0.058115385,-0.048123963,0.050051827,0.15648715,-0.116382815,0.24506615,-0.22674316,-0.12553558,0.111273706,-0.00075719884,0.1679132,-0.01605517,-0.2153884,0.031181032,-0.020916304,-0.30342895,-0.019834684,-0.0005118483,-0.06426604,0.07913547,-0.17888747,0.065798834,-0.26384327,-0.058059126,-0.039563984,-0.18704453,-0.0099939285,0.013886485,0.114644326,0.11344886,0.073185965,-0.053013835,-0.13479607,-0.021767888,0.3543536,-0.13041165,-0.27859563,-0.08425358,-0.06412306,-0.1380758,0.034414165,0.19237337,-0.0014612133,-0.25544602,-0.2585665,0.16542275},{0.090380125,-0.012854333,0.073442765,0.0069910674,0.060838897,-0.056160323,0.05948914,-0.15870504,0.17428654,0.116716884,-0.009170786,0.07468428,-0.11528084,0.10670238,0.0032432824,0.23855993,0.18529081,-0.043722913,-0.1595044,0.028124245,-0.095580675,-0.09314684,0.013201862,-0.12153888,0.23355697,-0.046184167,0.04826314,0.0706815,-0.04760144,-0.015505787,-0.031192528,-0.028681776,0.121903956,0.24083477,-0.027135769,0.00484379,0.047146253,0.033564486,0.100072555,-0.0009548544,0.19147326,0.007864968,-0.05095584,-0.03442352,-0.12693796,0.10098464,0.005857709,-0.10704458},{0.10587341,-0.10090844,0.059787173,0.10528105,-0.0029478709,-0.045616303,0.3201106,-0.0369205,-0.07623384,-0.1439114,-0.16517739,-0.111173704,-0.5211189,-0.08104252,0.23891212,-0.20666179,-0.13603193,0.18949077,0.29648873,0.009840529,0.17879759,-0.12281725,-0.10153126,-0.103751324,-0.0062681944,0.01804416,0.04819073,0.0698062,0.07065219,-0.060888402,0.047434535,0.21968305,0.19953729,-0.22625029,-0.07074435,0.15654853,-0.1128985,0.17049262,-0.032934237,0.11201239,0.06546618,0.16095373,-0.074545525,-0.025484929,-0.07068042,-0.0014012122,-0.016621752,-0.05492064},{0.006517928,0.035313223,0.060284622,-0.07167061,0.04310351,0.13166884,0.12079751,-0.23344074,0.04914028,-0.016173484,-0.06070117,-0.04158147,-0.14632328,-0.07501327,0.009471295,-0.13525425,-0.18317518,-0.015467394,0.2802483,-0.01452039,0.09551878,0.2280135,-0.1209885,0.04562794,-0.041836813,-0.10935221,-0.08376938,-0.0031194303,0.020775242,-0.067102894,0.027549028,0.050372586,-0.056466337,-0.21781276,0.03301067,-0.020118631,-0.2198909,0.067297354,0.010536859,-0.030859005,-0.057567794,0.0064456603,-0.028370392,0.012663327,-0.0053521874,-0.004255388,0.11561756,0.065704055},{0.03131872,-0.15639673,-0.057885814,-0.071982585,0.101151206,-0.039473582,0.07829539,-0.04065277,-0.011970415,0.017191555,0.13387364,0.09285653,-0.11321721,-0.026496803,-0.0031782466,-0.21712783,-0.09088431,0.06234203,0.08457244,0.058420867,0.12431307,0.0057109124,0.19860366,-0.0100523885,-0.1144264,-0.1367431,-0.0041858493,0.075187474,-0.04366829,0.05987352,0.17786552,-0.1804264,-0.048572224,-0.035566434,-0.16914357,-0.15127707,-0.18888608,0.26896402,-0.13523199,-0.15690584,-0.35730454,-0.08596415,0.13482624,-0.0854899,0.109190814,0.022393128,0.07382676,-0.18234138},{-0.05977836,-0.09573858,-0.012059621,-0.049382407,0.051138587,0.1859216,0.05587192,0.060774706,0.115390144,-0.099806264,0.110875845,-0.10559035,0.049934212,-0.13488752,0.07081364,-0.073500305,-0.12526728,-0.19846477,0.054822292,0.06456228,-0.08933798,0.21967044,-0.05984987,0.26356506,-0.24418117,-0.13883352,-0.10589699,0.016614286,-0.06401715,-0.23349802,0.16110055,0.12127887,-0.0998288,-0.26185656,0.075798735,0.04910719,0.07856898,0.19686386,-0.25558788,-0.1357836,-0.14591643,-0.06797364,-0.1316509,-0.0848376,0.005398317,-0.11758834,0.1505912,0.07411973},{-0.06728384,-0.09875927,0.12516111,-0.18130171,0.013037097,-0.01592443,-0.023688957,-0.03820222,-0.034041926,0.078788534,0.010656067,0.06473761,-0.17087802,0.04907976,0.15922256,-0.1537134,0.018904451,0.30898434,-0.0022266954,0.08370516,0.08806936,-0.061423615,-0.086728156,-0.08206219,-0.1389386,-0.11355258,0.06196562,0.14010964,0.063200384,0.035244834,0.06609623,-0.040323135,-0.01776534,0.020199506,-0.015804969,-0.101364724,-0.055930946,0.109755576,0.020985981,-0.09450205,-0.04703412,0.035952058,-0.06401946,-0.05860289,0.114105545,-0.14288367,0.30219814,-0.035836454},{-0.054397773,-0.2689068,0.03187843,-0.12897633,0.046525165,-0.12585567,-0.05979993,0.13044365,0.021453364,-0.08081331,-0.0063378015,0.032770116,-0.22176348,-0.038282048,-0.004088316,-0.13844045,0.08431012,0.09427596,-0.15200636,0.24147326,0.08616885,-0.28202274,-0.09884777,0.041178647,-0.068700105,0.068234056,0.18595524,0.08862089,-0.18214908,-0.04854632,-0.006177904,-0.112410344,0.10857677,0.115367725,-0.20213063,-0.013867252,-0.028599447,0.09108513,0.14185785,0.15763187,0.071184866,0.16501284,0.035353154,-0.057588104,-0.06367506,0.028427519,0.070038885,-0.08238558},{-0.11746487,-0.117985494,-0.016518295,-0.16871546,0.0057928283,0.04293781,-0.105224915,0.02101567,0.20835638,-0.090076916,0.09524912,-0.034620423,0.117004,0.19530147,-0.12587154,-0.0060519874,0.11635427,0.092402406,-0.11454964,-0.05909651,-0.024834136,0.21406539,0.0801939,0.029976279,-0.021335697,-0.05612874,-0.1369979,0.07656198,-0.01258062,0.3905841,0.053078663,0.070964694,0.09625029,-0.098481365,0.15918042,0.060998045,-0.012806339,0.051983945,-0.14895982,-0.056896865,-0.18060826,-0.08483354,-0.0597049,-0.0011530764,-0.048510052,-0.0100676995,0.12377429,-0.10197469},{-0.017981477,0.07759235,-0.10765109,0.17264797,0.01373804,-0.15038647,-0.061390508,0.16756608,0.0019806363,-0.068946965,0.014288055,-0.1295155,-0.07261598,-0.058574665,0.118582405,0.1433923,0.04105447,0.12891866,0.14028186,-0.060538165,0.10059252,-0.056948896,0.024637341,0.12261462,-0.0587805,0.019385882,0.119046,0.07538737,-0.17117754,-0.0023432982,-0.13368136,-0.060541634,-0.08630686,-0.07514846,0.107445635,0.10151563,0.048935767,0.27701324,-0.009783775,0.11339176,0.21168233,-0.076377906,-0.14959334,-0.02512426,-0.018949706,0.004933407,0.17655577,0.101405},{-0.03376021,0.3880464,-0.031366892,-0.059721798,0.14327829,0.10654497,-0.03614863,-0.07166146,-0.14724316,0.25261846,0.086893015,0.051972084,-0.32514998,0.028862186,0.22184734,-0.1856974,-0.19028349,0.047187116,0.09668814,-0.018901328,-0.2033746,0.12120676,-0.08612374,-0.13669355,-0.11220159,-0.10101717,0.013471591,0.13850226,-0.04001829,0.004344229,0.11796798,0.059367318,-0.5152679,0.16061243,0.23042327,-0.16938384,-0.3587222,-0.015866017,0.07260693,-0.21125141,-0.18264782,-0.099895194,0.04479642,-0.07009907,-0.0006381265,-0.037812535,0.18840855,-0.07084427},{0.018305484,-0.025118815,0.22643822,0.04846611,-0.122494936,-0.019614164,-0.020741142,0.021956502,-0.06929747,0.13771169,-0.060690753,0.032774273,-0.011263374,0.04265726,0.034909528,-0.010974175,-0.03197867,0.05064578,-0.038270306,-0.07668156,0.08640637,-0.05481456,-0.22111224,0.06356952,-0.07588893,0.019350974,0.0013509172,0.0041329283,0.14128658,-0.1857754,-0.07979384,0.107589304,0.09567618,-0.07029955,-0.02128912,-0.060703866,0.061385587,-0.17463699,-0.031018304,-0.092569835,-0.037760556,0.03520488,-0.079672344,0.0026177869,0.22578539,-0.06151173,-0.13247614,0.18258008},{-0.10750718,-0.06909005,-0.11877932,-0.11227479,0.017006936,-0.079970196,-0.033119902,0.063510135,-0.10391458,0.032811377,0.14367367,-0.0078092045,-0.050838847,0.08204927,0.061216746,-0.1308575,-0.031839155,0.046336927,-0.14359254,-0.05999745,-0.100307904,-0.16021377,-0.117183805,0.021574797,-0.12904796,0.16010194,0.117711134,0.12777998,0.17752273,0.30797395,0.16450362,0.06608286,0.10579,0.062237628,-0.10462052,0.14180684,-0.015481037,-0.08910181,-0.2031965,0.11042475,0.060578953,0.1259236,0.06889643,-0.07638054,0.2341252,-0.03543678,0.023487749,0.09117597}};
static const float rnn_bias_ih[48] = {-0.018009348,0.23784904,0.15900756,-0.09132976,0.2066376,-0.020441312,0.060232863,-0.12134386,-0.051622555,0.023285152,-0.13822731,0.032112356,0.013195599,0.29682913,-0.0071210247,0.010870888,-0.16223036,0.13488346,0.041789368,0.08811624,0.102741756,-0.08987342,0.058387287,-0.08363964,-0.022918645,0.08861635,-0.066926025,-0.17423466,-0.09699457,0.13092309,0.2844311,-0.0108412765,0.122807965,-0.049667753,-0.18005152,0.1665139,-0.2550346,0.09339499,-0.23902516,0.15822361,-0.039728038,-0.13359058,-0.16818525,0.025452524,0.010011764,0.010805474,-0.15660307,-0.09016134};
static const float rnn_weight_hh[48][48] = {{0.38944954,-0.02045413,0.018715927,0.18888806,0.09199977,0.117992215,-0.04656963,0.055321984,-0.1024223,0.048968185,-0.070526876,0.09872881,0.20247464,-0.14917281,0.019589808,0.14984266,-0.012022486,0.010020153,0.008182634,0.12060169,0.0052874307,0.20420672,-0.09551694,-0.17802063,-0.044602104,-0.07232139,-0.03699883,0.080318466,-0.055208314,-0.06246197,0.27323034,0.06485092,-0.017681792,0.054027498,-0.0065738736,0.097777896,-0.11045201,0.0031807735,-0.052087214,0.13058062,-0.031114923,-0.042732045,0.010808928,-0.15251619,0.06716561,0.26343662,0.07205798,0.029888446},{-0.039825823,0.40506285,0.053180005,-0.07516875,0.12396966,-0.043771602,0.06411257,0.09857131,0.08707785,0.0803378,0.0335047,-0.061630394,-0.068633385,0.13551882,0.2591584,-0.039068967,0.07512068,0.19546117,0.07338937,0.10110541,0.056912336,-0.10775922,0.15437773,-0.06965099,-0.11370121,0.0143162515,-0.009014203,0.07375061,-0.07994104,0.1748829,-0.062146503,-0.13373691,-0.009765841,-0.0885587,0.09484785,-0.058368795,0.095249295,0.1660448,0.116426624,0.028812073,-0.089093626,-0.11786169,0.16040903,0.1705949,-0.041136984,0.08756279,-0.10491845,0.0682684},{0.06507882,0.07254371,0.18328449,-0.07230981,0.016678011,-0.08553321,0.16842523,0.08532571,-0.017750403,-0.008537813,-0.15018263,-0.19882119,0.14120783,0.04404502,-0.111493915,0.04824393,0.106233746,0.11211077,-0.059899535,-0.017655194,-0.045309428,-0.113155395,-0.028714368,-0.016522212,0.11190863,-0.18828723,-0.018213995,-0.10630971,0.15033638,-0.07639128,0.064366855,0.12860183,0.10631724,-0.08048639,0.010075825,-0.055679943,0.06292266,0.09080408,-0.15361883,0.1837917,-0.1424181,-0.06437443,0.016357806,0.031482298,0.16161756,-0.15244345,-0.08541849,-0.0067787175},{-0.06417227,-0.008691357,-0.14292301,0.43088555,0.012257457,-0.08891146,0.00937725,-0.04182404,-0.16868383,0.24979025,0.012195038,0.014865366,0.20811947,-0.15708447,-0.046920378,-0.0792028,0.116899915,0.20912656,-0.11800654,-0.041622687,0.06882867,0.035857864,0.0472016,0.108068004,0.038822085,-0.22726953,-0.076887205,-0.13239357,0.038871653,-0.021082666,-0.020336779,0.08538441,0.0882275,0.008187035,0.13034652,0.048484568,0.18038818,-0.014773344,-0.050308485,0.027735872,-0.056742202,-0.16960788,0.24710768,0.0089382585,-0.07350457,-0.011532255,-0.13638343,-0.1486576},{-0.061937008,0.1428799,-0.19098108,0.017741024,0.5730769,0.12707473,-0.11647501,-0.0066950526,0.059224844,0.14012372,0.084702164,-0.17413394,0.046283904,-0.13676406,0.105050914,0.08739585,0.11289877,0.047891118,-0.07959588,-0.12901236,0.06872114,0.17246982,0.017468326,-0.055711545,-0.2827839,-0.10510871,-0.12559387,0.15535897,-0.13815185,0.16522667,0.059939235,-0.026964687,0.036877196,-0.0035462205,-0.00091378373,-0.19686906,-0.19827743,-0.051376145,0.11204044,0.12033384,-0.0139496485,-0.12569281,-0.009549307,-0.0022335418,-0.22168577,0.04970253,0.212025,-0.098978356},{-0.12716416,-0.042340282,-0.07996679,0.08453155,-0.16956715,0.27667296,-0.056242496,0.12927826,-0.23663926,0.16046038,0.055452127,0.16388334,0.22703657,-0.08889755,-0.14829193,-0.15789093,0.21556166,-0.010322294,-0.025108626,-0.1135212,-0.07282853,0.04244097,-0.056639027,0.16375074,0.372324,0.20136525,0.007680461,-0.070880204,-0.021889303,-0.087437734,-0.16403468,-0.05544596,0.037753113,0.017433183,0.032345697,0.034679458,0.16625099,-0.097175404,0.15925229,-0.08784001,-0.16271973,-0.17715737,-0.18352084,-0.03179816,0.0018315209,-0.23436064,-0.00084664684,-0.03622762},{-0.04533483,0.004544518,-0.0023383463,0.022659926,-0.06777651,-0.15776171,0.42979512,-0.015106573,-0.06185263,0.012341988,-0.105707884,0.077684335,0.040635966,0.01906148,0.09038245,-0.09637712,-0.058668055,-0.13050437,-0.036504246,-0.049183853,0.08952515,-0.09144944,0.0140657,0.015661532,-0.114586085,-0.3023959,0.24424703,0.07047187,-0.0010299878,-0.1427661,-0.025243325,0.05040794,0.0052005714,0.034129094,-0.2353435,-0.06584756,0.023589574,0.018085442,-0.08940691,-0.057018645,-0.05708363,-0.02720579,0.091608904,0.00076341484,0.042671476,0.023226434,0.16668023,0.03461485},{0.0357823,-0.039146554,0.07204362,-0.088378444,-0.051937994,-0.2092415,-0.10430342,0.4157054,-0.09545034,-0.18023907,-0.103284776,-0.027406976,-0.012887937,0.06767213,-0.01771032,-0.051939186,0.012443334,-0.08252509,0.13629699,-0.04842625,0.12156485,0.07068624,0.07615587,0.11878641,-0.01639552,0.10505841,-0.08565338,0.07991603,-0.034062747,-0.08278346,-0.08009771,-0.013617915,-0.094676256,0.09052762,0.11158378,0.22102448,0.28274015,-0.09876996,0.0889717,-0.056067936,0.057853084,-0.07147284,0.08230902,-0.10258613,-0.2096925,-0.032122675,0.004824815,0.0007185713},{0.06675504,0.07821681,0.054190576,0.024462318,0.15072311,0.009910567,0.06915912,0.076539904,0.5228137,-0.030792302,-0.035555925,0.01575762,-0.028752659,-0.049096245,0.10911729,-0.0021584942,-0.0036292453,0.01083784,-0.012337838,-0.13743433,0.053142373,-0.24345367,0.06686705,-0.10695676,0.1685503,-0.010738449,-0.058071468,0.009999238,-0.007183326,-0.101691216,-0.02027404,-0.009307839,-0.124286935,-0.11108245,-0.11972145,-0.09591294,0.038242675,-0.061487325,-0.058389075,-0.08887813,0.033673923,0.24776116,-0.05026535,-0.019071406,0.1566987,0.0030031083,-0.027692107,0.023362592},{0.014475609,0.008297323,-0.13605915,-0.006040101,-0.07435405,0.03605431,0.11532583,-0.11390269,-0.25587407,0.40380195,0.0077162483,0.12591136,0.029560264,0.14126816,0.14052258,-0.05117421,0.12890147,0.024876066,0.030627932,-0.04799109,0.0067589707,0.08143294,-0.029454535,-0.14926656,-0.05958845,0.006522533,-0.14451182,0.010357437,0.021431206,0.127576,0.097329915,-0.08494478,0.010296075,-0.21974654,-0.01577905,0.020371469,-0.08610266,0.15202089,0.014081363,0.012701937,-0.22395764,0.023202086,0.14103639,-0.2747932,0.01563373,0.19155408,-0.00572225,0.12730072},{-0.03431825,-0.13335128,0.035071824,0.10659814,-0.12739742,-0.05382318,-0.037904322,-0.17023404,-0.05912226,0.033407647,0.32568938,0.037316285,0.019229509,-0.2428028,0.17615117,-0.08467276,0.05265182,0.12128872,-0.055031393,-0.03445278,0.07075171,-0.03893678,-0.024458412,-0.050995387,0.03512814,0.027289918,-0.032330673,0.046586808,0.044294808,0.008862635,0.15191415,0.13985045,0.010462641,0.07889582,0.089468144,-0.124735184,-0.06867972,-0.06425412,0.14523605,0.14316829,0.011157208,0.213228,-0.13655663,0.022390315,0.05696715,0.18990485,0.009163298,0.060852688},{-0.10511584,0.18362287,-0.18928541,0.030551428,0.043729536,-0.014515703,-0.034279652,-0.10878402,-0.023232274,0.10129727,0.12552874,0.5009184,0.08858074,0.041877784,-0.015467658,0.17508192,-0.072071,-0.007349882,0.09076221,0.027944278,-0.07828754,-0.029279621,-0.04393548,0.0050359857,0.09291548,-0.07939966,0.26873857,-0.13535492,0.0071788817,-0.024607839,0.029335264,-0.12197509,0.1430172,0.028891904,-0.2349093,-0.04013659,-0.11729347,-0.054270774,-0.23606601,0.1538235,-0.043260437,-0.009336834,-0.030129405,0.0020413613,-0.025913462,0.19721632,0.06132778,-0.12004915},{-0.016751565,-0.12751569,-0.1548763,-0.021563921,0.089929424,-0.054310884,-0.06477493,-0.004102861,-0.09051725,-0.039201662,-0.09278824,0.049792394,0.5273222,-0.04982824,0.07407167,0.08769016,-0.013228353,-0.028708955,-0.08654702,0.042853925,-0.0014571379,0.08454603,-0.108158045,-0.026374886,0.031591494,-0.095996805,-0.032876033,0.053016637,0.20619598,0.043388966,-0.056549262,0.04903219,-0.12103729,0.10574192,0.025593497,-0.021802932,-0.066344425,0.1287945,-0.014589527,-0.10707106,-0.12521972,0.024544323,-0.03133829,-0.116876006,-0.014871488,0.07679668,0.046926633,0.055094387},{0.05034189,0.039365,0.034022976,-0.017098457,-0.0013377212,-0.017748943,0.13043621,-0.005684701,-0.19707082,0.02419852,0.028504131,-0.101373985,0.06608676,0.5366472,0.057023507,0.0855929,0.050154112,-0.07074351,-0.020171767,0.047447946,0.019066691,0.054751676,-0.06719302,-0.062487856,-0.35328385,-0.05790827,0.08265927,0.0014482716,-0.051364623,-0.041700386,0.007338268,0.10458785,0.04881323,0.07272285,-0.24196489,-0.04027579,-0.12888825,0.09664337,-0.096558474,0.001856857,-0.035864253,0.097065516,0.049207088,0.02856688,-0.17935424,0.03177173,-0.023886736,-0.08611443},{-0.3984768,0.0048302547,-0.08504177,0.088244095,0.08500743,-0.030441483,0.01648804,-0.15415166,-0.076562546,0.19575326,-0.050519194,0.009991801,0.12603918,0.10067482,0.33836108,0.09387262,-0.048361525,0.0043842075,-0.044236977,-0.20694445,-0.11770028,0.092152074,0.13783628,0.120970026,-0.2957018,0.19660427,-0.15054038,0.06468431,-0.040582243,0.0032166273,0.17737627,0.0407148,0.035963353,-0.04981867,-0.24806121,-0.0019433063,-0.10580846,0.05468893,-0.05568275,-0.03141298,0.04103083,0.087443925,-0.08175281,0.0011831443,0.1903617,-0.0453804,0.053612955,0.054761596},{-0.2489819,-0.16555573,0.18467277,-0.04545619,0.1794905,0.059197318,-0.059318583,0.09504257,0.023060173,-0.005004804,0.012633351,0.014737544,0.14476222,-0.04770546,0.0099787135,0.75424147,0.099019416,-0.061595693,-0.10111439,-0.11201301,-0.24169217,0.06047156,0.11740004,-0.1102004,-0.09258586,-0.22529307,0.17025355,-0.056851313,0.05406297,0.025272178,0.1268881,-0.005205131,-0.10130423,-0.08300631,-0.21741466,-0.063102394,-0.05274558,0.13204922,-0.16855517,0.17524952,-0.12987718,0.07988537,-0.08321733,0.009364893,-0.026140954,-0.03701552,0.0869385,-0.18484113},{-0.2797896,0.012563274,-0.017498232,0.07758228,-0.016425151,-0.015720062,0.015565421,0.06278609,-0.17357773,0.040796075,0.06811673,-0.15400852,0.15334836,0.06309771,0.049220458,-0.0968339,0.54166144,0.08675789,-0.0637845,0.0052129105,-0.014225474,0.12651822,-0.092793204,0.06912455,0.08396211,-0.047825374,0.009152505,-0.035958223,0.07852227,-0.0043427,-0.0640493,0.024150029,-0.072306804,-0.082953684,0.19552916,0.18583976,0.18020009,0.107187316,0.20452562,-0.007846659,0.008320653,-0.18838567,0.08704255,-0.113097295,0.024157185,-0.1774445,0.054198097,0.090400085},{-0.030164218,-0.04195059,-0.117650494,-0.10147937,-0.08479328,-0.1803418,0.08118358,0.03218922,0.15763976,0.070802815,-0.15801853,0.012289665,0.10427917,-0.112664975,-0.187624,0.014727472,0.101201214,0.30909935,-0.054983687,-0.028907627,0.062282227,-0.103298046,-0.0558551,-0.0136131,0.16701594,-0.03281132,0.05369366,0.07845457,-0.033152062,-0.026152039,-0.17423281,-0.028977124,0.13999805,0.034929667,0.039155327,-0.021605382,-0.010969874,-0.10361659,-0.01301317,-0.13656843,0.11157603,0.045875736,-0.24523461,-0.110241115,0.06316993,0.16608672,-0.017632166,-0.11332944},{0.04461339,0.08512977,0.0885351,0.038053546,0.044991016,-0.045106947,-0.10813246,-0.0551055,0.010246567,-0.08189519,0.03258439,0.096960194,-0.1052632,0.15051277,0.20195824,-0.09384365,-0.08041406,-0.19823591,0.48619893,-0.08456126,0.06714685,-0.021431146,0.2267485,0.024486007,0.006956273,0.1512262,0.072592124,0.057059027,0.014330575,-0.016044468,0.02716042,0.10415121,-0.06674073,0.060247757,0.12862569,0.0978424,0.08546425,0.035287347,0.04444223,-0.08680091,-0.03374317,-0.025383363,0.19607793,-0.16123387,-0.034866907,0.09781952,0.07913436,-0.03667027},{0.15198787,0.08001826,0.19382305,-0.1463408,-0.11399971,0.21669024,-0.010153189,-0.054612193,-0.15459071,-0.22333486,-0.06810188,0.045322243,-0.014091046,0.022813601,-0.15709467,-0.0881112,-0.18400256,0.11480857,0.16146585,0.5609993,-0.11417643,0.011113265,0.09486722,-0.03610987,-0.07428024,-0.016034046,0.1694872,0.087630674,0.03295503,-0.05417377,-0.042628508,-0.045304887,0.113804705,0.24873039,-0.047184005,-0.15018082,-0.16579878,0.13080901,0.10380593,-0.064028256,0.019371312,-0.037932232,0.0026909006,0.010625166,-0.033280224,-0.039276507,0.011978986,0.15797399},{0.10010384,-0.108285606,-0.10531357,0.06999275,0.031662907,-0.20136222,0.10643173,-0.21868415,-0.058973797,0.1870445,-0.10019636,-0.046326198,0.046667155,-0.02825869,0.12649187,0.15040922,-0.11854801,0.16312857,-0.21138103,0.033125784,0.50519407,-0.017751513,0.047455907,-0.2341716,0.048589654,-0.28105956,0.032146607,-0.0025295361,-0.005763699,-0.07678413,0.123053096,-0.08720093,0.037170015,0.060425587,-0.16552243,0.1363616,0.02141595,-0.0071438975,-0.024258403,0.07287358,0.020111507,-0.046832096,0.017300582,-0.057673346,-0.008527403,0.011744846,-0.02191494,0.040848855},{-0.199443,0.019709893,-0.0065975175,-0.26884484,0.025461659,0.011305684,-0.13039722,-0.19517264,0.026928604,-0.06576341,-0.0037532763,-0.21362285,-0.013300596,-0.053284273,0.04622151,0.19376777,-0.08040425,-0.1540173,-0.060570937,-0.000186071,-0.09487991,0.39182124,-0.009664756,-0.096364416,0.1587611,0.08561528,-0.073241726,0.12752111,0.06462794,-0.15026589,-0.046789315,0.043318268,-0.20631291,0.025581159,0.07992359,0.017351415,-0.0009137322,0.32495108,0.11997981,0.15067872,0.01252531,-0.046824854,0.056321997,-0.09937513,0.05173286,-0.079383485,0.048183467,0.03906943},{0.028765636,0.16521442,0.28905335,-0.25283444,0.12612367,-0.02145527,0.078017324,-0.09366163,-0.035405077,-0.13575771,0.12915565,-0.11307067,0.021416465,0.08230816,0.07107832,0.058925558,-0.05761874,-0.25487077,0.049782716,0.07451626,0.091691315,-0.058714997,0.3288724,0.19677317,-0.29363766,0.04118561,0.18873802,-0.095103875,-0.029160203,0.023386888,0.1151704,-0.021721952,-0.24209034,-0.013504462,-0.024234725,-0.091959804,0.17832199,0.06373692,0.05745721,0.0876663,0.11817736,-0.20991577,-0.13721493,0.09165312,-0.28613564,-0.08464651,0.039652824,0.109676026},{0.056084085,0.045160737,0.04924528,0.017988557,-0.08014734,-0.07877437,0.020791521,0.0944879,-0.05976047,-0.10757951,-0.031315543,-0.02530877,0.09214483,0.10750878,0.043721624,-0.03998326,-0.02914534,0.031033082,0.1207976,-0.09245127,-0.04012806,-0.06139044,-0.057720285,0.6665913,-0.07973147,0.06754076,0.022478456,-0.030652093,-0.022201544,0.04588178,0.056420162,0.009197449,-0.11327308,-0.031507257,-0.038000792,-0.019147484,-0.13434353,0.032858588,0.024394356,0.00085600227,-0.02860825,0.017298104,-0.008832243,0.017222445,0.04189495,-0.11269023,0.029801605,-0.07813899},{-0.14956391,-0.024660809,-0.15887587,-0.13508415,-0.13035025,-0.047961663,-0.02531626,-0.13509338,0.02465031,-0.115221605,-0.24413674,0.036560975,-0.11420156,-0.006261824,-0.09427531,-0.11355608,-0.13920651,0.31554076,-0.0044456017,-0.05737068,-0.0940072,-0.3402008,-0.26506203,-0.031114534,0.5940274,0.052780725,0.17569657,-0.0063829045,0.013263485,-0.018842645,-0.1643059,0.037667144,0.21736275,-0.016060937,0.08292042,0.1416858,-0.008873408,-0.072381705,-0.030065713,0.09106084,-0.16665462,-0.09977046,0.05570963,0.039637394,0.02951693,-0.114207186,-0.124165416,0.0015604559},{-0.16325241,-0.11891853,-0.100426525,-0.006738927,-0.031650193,0.037466753,0.111190975,-0.03369657,0.1183554,0.10750469,0.10233237,0.0054562585,0.026596809,0.051180772,0.091963895,0.08322736,-0.067450725,-0.09531292,-0.04569928,-0.00958775,-0.052731156,0.11997978,-0.019325374,-0.033036392,0.074604906,0.5875205,-0.025796257,-0.0052967463,0.08256593,-0.112555355,0.018276151,-0.06105725,-0.26807034,-0.018059865,-0.12188721,0.0053716805,-0.08732357,-0.0018627871,0.008278956,-0.009987742,0.13690133,-0.0009249497,-0.1239601,-0.09967447,0.0051276693,-0.048366357,0.114534944,0.1306712},{0.23407811,-0.120181486,-0.17328265,0.17236772,0.10585099,-0.0028266858,-0.06607193,0.22264798,-0.052631296,-0.05318996,-0.038647417,-0.09479161,-0.05152352,0.13574927,-0.13484044,-0.13061269,-0.19997348,-0.2005309,-0.006931134,-0.10261706,0.10393473,-0.048308022,-0.022011334,-0.1091986,-0.05127411,-0.3594834,0.31601623,0.1791666,0.10992765,-0.24716166,0.030252002,-0.0018034861,0.13351962,-0.102292135,-0.012104396,-0.028581873,0.09148222,-0.059169084,-0.028847858,-0.033908155,0.063521564,-0.12174691,0.055092897,-0.15453658,0.0013843247,-0.10117106,0.04445087,0.082809284},{-0.07396259,-0.09504425,-0.16246517,0.085505866,-0.1328055,0.04182519,0.033174668,-0.05717987,-0.022790663,-0.08348146,-0.1729647,-0.037178203,0.09441591,0.010059743,0.018270064,0.029159112,-0.18265879,0.07895714,0.055665,-0.10811276,0.042742893,0.008959647,-0.010252363,0.054419152,0.14413126,-0.009105375,-0.04743806,0.47460037,-0.011953732,0.04166907,-0.049816597,0.055931605,0.16097048,0.17572777,-0.09165496,0.20645578,-0.010731395,0.092755415,0.27115533,0.025707705,0.069284156,-0.049048264,0.13117962,-0.034192085,-0.12279404,-0.08016812,0.08461215,0.0045865313},{-0.048374306,0.005182573,0.06858018,-0.009530975,-0.09960583,-0.00055362895,0.093701005,-0.039693713,0.05430882,0.022821855,-0.009841908,-0.23830831,0.19023062,-0.028693166,0.092731275,-0.023734834,-0.08854967,0.034353014,-0.042467955,0.011745973,0.038595986,-0.108306885,0.14797549,0.15403855,-0.06728474,-0.04284321,-0.027098503,-0.08644466,0.64686686,0.017746529,0.048361026,-0.07394877,-0.09342122,0.062024783,-0.11366207,-0.04774481,0.015814984,-0.079305895,0.10277647,-0.06261208,-0.099979125,0.012651758,0.013590808,-0.24065481,-0.050810684,-0.11229019,0.04917668,0.07934321},{0.06066551,0.07774446,0.021190383,0.16394186,0.012195226,0.00015963556,-0.035492815,-0.0030062837,-0.14581227,0.060006127,0.0053613675,0.14658706,0.34378526,0.054276086,-0.052590437,0.13229385,0.030609317,-0.04110417,0.12788507,-0.024945458,0.033645015,0.29331034,0.025495764,0.102778174,-0.08165362,-0.018550236,0.15184999,-0.052139055,0.04659572,0.40725473,0.07750575,0.16535784,0.0022148518,0.02011221,-0.008979185,0.015316256,-0.13283719,-0.019844024,-0.16512533,0.08672376,-0.21303427,0.07951088,-0.15632823,0.035766922,-0.06568971,0.03785951,-0.08118942,0.033499047},{-0.16194317,0.039393876,-0.24689834,0.113929935,0.03333078,0.17376134,-0.09360589,0.011269294,-0.01861305,0.06465207,0.07290765,0.09368856,0.05856792,-0.106425956,0.037541073,-0.1442331,0.04619936,0.05577593,-0.12066249,0.040558625,-0.01927852,0.001823027,-0.16374347,-0.11063583,0.222932,0.04115502,0.077110805,-0.13505624,-0.12803248,0.004432504,0.30510587,-0.024624012,0.0029404575,0.017087083,-0.15355083,0.23882785,-0.056047387,-0.20494223,-0.21956545,-0.09268352,0.14445345,0.10852499,-0.2637686,0.09637105,-0.030867705,-0.16876465,-0.10145938,0.002667996},{-0.06742074,0.015271996,-0.030753106,-0.011627595,0.011817248,-0.085220486,0.03830561,0.01567033,-0.21255851,0.0064768987,3.473209e-05,-0.041873183,0.031361796,0.06402625,-0.04462226,-0.021240877,-0.13671142,0.05215307,0.016242646,0.0378135,-0.15181305,-0.047320604,-0.04653445,0.07190985,-0.00758938,0.1733034,-0.116660014,0.28115404,-0.038471363,0.046512753,-0.07684359,0.57236487,0.15066515,0.032024745,0.04007356,0.023931725,-0.02755291,-0.12379457,0.026613489,0.022414973,0.04089269,0.00092382525,0.017991688,-0.02037152,-0.033524025,0.08645658,-0.02010064,-0.0526382},{-0.19274673,-0.07047217,-0.31029502,-0.19820374,-0.025659882,-0.074123256,-0.04486878,0.04854398,-0.059262015,0.03871131,-0.1852409,0.16925357,-0.07271451,0.151293,-0.024887292,0.047609963,-0.15116455,0.122573934,-0.045866687,-0.11643036,-0.04340467,0.064570144,-0.11245255,0.03208522,-0.15955007,0.10046632,-0.24852659,-0.20447315,-0.025900401,0.117137864,-0.005213515,0.042068776,0.6674171,0.021408346,-0.055320024,-0.059672184,-0.029370854,-0.12643926,-0.01122166,-0.16875122,-0.10072173,0.20019549,0.031969804,-0.09488678,0.085526235,0.051634472,0.05225261,0.095378004},{-0.18370281,0.056128148,-0.1828791,-0.032786425,-0.112592004,0.08553295,0.043988694,-0.2356975,-0.1286106,-0.08621926,0.047010526,-0.098905765,-0.07654332,0.050894063,0.07984908,-0.021123067,0.186425,0.20804918,-1.9448167e-05,-0.09270222,0.008086434,0.008608961,-0.081950106,0.1490614,0.0762399,0.07654843,0.08364975,0.08376507,-0.11410095,-0.013327347,-0.08854642,-0.05488109,-0.25144538,0.4740788,0.0054084947,-0.020954847,-0.083726786,-0.089871556,0.072133474,-0.15037607,0.0062715965,0.05413289,-0.0055829533,-0.004978962,0.12344738,0.20004925,-0.050328054,0.03934179},{0.09854668,-0.15499462,-0.008000342,-0.024280783,0.055798113,-0.0111828055,-0.040108997,-0.014403219,-0.034701776,0.11500312,-0.13209912,-0.04940067,-0.10643037,0.013161139,0.037982386,0.028032178,-0.025295168,-0.025697907,0.079758435,-0.15999396,-0.056940045,-0.015637852,0.13370477,-0.0880053,-0.0074414588,0.16176318,-0.12599705,-0.01323428,-0.036214665,0.097543456,-0.028076233,0.11719842,-0.005831809,0.002368056,0.5804117,-0.005151358,0.16763231,0.023708794,0.097595125,-0.105890825,0.033811104,-0.1933091,-0.014620924,-0.083117,0.06710335,0.11846354,-0.011452381,0.12136364},{0.053948943,-0.115795314,0.0070034675,0.060360458,-0.1493066,0.059943378,0.03003053,0.015738823,-0.07057068,-0.062237095,-0.051228102,-0.07972278,-0.017280703,0.1517516,-0.062583566,-0.11272982,0.23256531,-0.004425461,-0.046703935,-0.11028544,0.106548235,-0.17426214,-0.086344816,-0.25181016,0.22981092,-0.0054445937,0.1461182,-0.03440401,-0.1069879,0.08148097,-0.032627072,-0.122742146,0.09429735,-0.21608509,0.104247205,0.6349573,0.28443214,-0.06296276,-0.20635152,-0.15576847,0.20289497,-0.2754797,0.119939394,0.15420292,-0.12169307,-0.06775341,-0.07857426,0.14995067},{-0.0073752003,-0.06362464,-0.0032112189,-0.09162802,-0.044760387,-0.013180159,0.038440675,0.101529405,0.036671907,-0.06968511,-0.13543436,-0.072715074,-0.08133159,0.052159995,-0.09066503,0.03733527,-0.12017954,-0.0987717,0.090641566,0.1876907,-0.029744338,-0.041243963,0.124473035,-0.0674566,-0.06294331,-0.029000957,-0.005048543,0.12154669,0.07632497,-0.009873678,-0.27581832,-0.02477087,-0.10222171,-0.03359474,0.25915524,-0.14917621,0.2908061,0.19654554,0.05088013,-0.11036121,-0.03330856,-0.16538526,0.1532581,-0.09944084,0.058195528,0.024836957,-0.023448534,0.034265954},{-0.03016208,0.11393399,-0.0076072062,-0.17807993,-0.05932457,-0.015873162,-0.0110003725,-0.20444728,0.083304055,-0.032335002,0.03716456,0.17532577,0.026037795,0.007052175,-0.11933983,-0.09898706,-0.02968791,-0.029677672,0.054329686,0.021816911,0.0046414197,0.074036114,0.06444448,-0.025391227,0.0104733175,0.06774118,0.15103064,-0.123872936,0.02672419,0.036629416,-0.05183149,0.046903867,-0.026639601,0.024838494,-0.15096071,0.021901278,-0.10385852,0.43795434,-0.07930777,0.090220094,0.09379462,0.09213792,0.05824152,0.034947593,0.13553531,0.047220502,-0.12864873,-0.07224921},{-0.15362196,0.06373515,0.10327383,-0.05092423,0.014058777,-0.027701765,-0.2186833,0.07914276,-0.027240759,-0.06297407,-0.10366242,0.081598245,0.032425515,0.07570479,0.021070007,-0.14753442,0.15377986,0.035537507,0.10544475,0.061478265,0.03357249,-0.06477358,-0.018539712,-0.11844411,0.030040069,-0.12503769,-0.013603214,0.029580036,-0.011008164,-0.050652843,-0.040679503,-0.09920103,0.15660244,-0.057604272,0.15031497,-0.039770108,0.018896762,-0.04797731,0.6429785,0.27172473,-0.18831094,-0.209438,0.16615665,-0.005743388,-0.12893544,-0.28933084,0.22483921,-0.15263897},{0.044702202,-0.08429077,0.07133465,0.12022167,-0.019961221,-0.12729558,-0.15403315,-0.060768295,-0.0019833506,-0.031995434,-0.05060652,-0.06092768,-0.1786009,0.04113307,0.028606592,-0.08127792,-0.25117674,0.09529276,-0.13580234,0.009365642,-0.033770654,-0.015583302,-0.062798955,-0.13530271,0.012884021,-0.04996702,-0.0443611,-0.123860806,0.10148202,-0.18644552,-0.0019411106,0.146654,0.04049455,0.038351968,-0.033434547,0.067336,-0.24650043,-0.018102203,0.020169085,0.5268463,0.029301954,-0.0891112,0.043276004,-0.10470731,0.022449393,0.17730086,-0.08717364,0.097002074},{-0.04676055,-0.108059786,0.18663509,-0.15002662,0.14104953,0.079496816,0.18145779,-0.06808908,-0.18452682,0.05217646,0.007479692,-0.20392425,-0.16472523,-0.15373681,-0.12291209,0.094992496,-0.106103174,-0.2328937,-0.17987809,-0.23920768,0.073349155,-0.03227322,0.115335576,0.019283213,-0.052551888,0.10970894,0.037669785,-0.0028717387,-0.040667206,0.07556505,0.06122473,-0.010691966,0.02801949,0.0064540566,-0.017929036,-0.05188098,0.08011673,-0.106831804,-0.11627173,-0.097843766,0.5068709,-0.01541233,0.04390411,-0.2453143,-0.04248221,-0.08239059,-0.052449174,-0.14292704},{0.043302156,-0.04627216,0.1338796,-0.054795403,-0.13720265,-0.08865947,0.17929822,-0.038070064,-0.054988038,0.046813946,0.0705804,-0.05068583,0.02863411,0.023440747,0.11760931,-0.045357753,-0.10769337,-0.23435263,0.16219288,-0.009279932,-0.07321921,0.19339533,-0.028599525,-0.052984476,-0.040936336,-0.09147406,0.16854103,0.15002073,0.04840602,-0.021366294,-0.10632723,0.023106007,-0.20468667,0.12542473,-0.14773926,0.0542559,-0.03219711,0.0512975,0.060226686,0.0053264485,-0.042741686,0.34724712,0.004412772,-0.06635153,0.107449934,0.09617252,0.24684381,0.09383533},{-0.14536168,0.08568668,0.056863572,-0.0060971105,-0.0051885177,-0.0708865,-0.15397152,-0.0065350058,0.10725431,0.041362714,-0.045319892,-0.15524533,-0.050586075,0.077703014,0.10695932,-0.024529204,0.019871429,0.02171873,-0.036434248,-0.17418252,-0.040183775,-0.116611116,0.047058284,0.22266947,0.050547782,0.063039005,-0.07930016,0.022430874,-0.040575985,-0.06912186,0.07640397,-0.013106374,0.021483887,-0.046167593,0.066486955,0.013799353,0.026848318,0.07058913,0.13932233,0.009983379,0.014661195,-0.13893625,0.45256078,-0.06363726,0.1594868,-0.24294089,-0.10391537,0.07461799},{0.037319742,0.24611765,-0.0136148175,-0.025817858,-0.05527694,0.032132093,0.05716199,0.0023290522,0.14429821,0.027542628,-0.0872855,0.1197189,0.08233445,0.000175589,0.049239036,0.029079111,0.07285648,-0.11657346,-0.005704316,0.22353265,-0.15996018,0.043097183,0.033891827,0.016637972,-0.04324483,-0.039922707,0.04242178,0.08774501,-0.07019013,0.15423897,-0.10477396,-0.05399354,-0.09737635,0.11314436,0.023886357,-0.0050976966,0.073223464,-0.10132682,-0.03595854,-0.0062276963,0.0224624,0.15032539,-0.0719891,0.7063509,-0.013620219,0.061023522,-0.24105509,0.105791934},{-0.0829756,0.043325555,0.0013934898,-0.0021386999,-0.111302435,0.12321893,-0.083009146,0.0009729325,0.18626523,-0.107863694,0.09038745,0.16120635,-0.08317516,-0.05400768,0.059287325,-0.024920063,0.0011885111,-0.09376492,0.09038585,-0.11692231,-0.159278,0.04020202,0.06674074,-0.017345412,-0.09580091,-0.07234636,-0.1952277,-0.12151093,0.02659834,-0.17448904,0.07909857,0.0056180633,-0.014143714,-0.14960817,-0.042947907,-0.08642107,-0.032537997,0.08523911,0.08902223,-0.118241966,0.077764295,0.3243652,-0.13163638,-0.017239356,0.40518326,0.01678784,-0.14209539,-0.057060625},{-0.09507365,-0.0056215357,-0.014751457,-0.037993673,-0.01217737,-0.01922287,0.03668936,-0.10936901,-0.15346678,-0.07010813,-0.079818994,-0.2671907,0.14326593,-0.15565118,0.084726974,-0.0910649,-0.0502331,0.071459815,-0.08022755,0.0076325554,-0.16590253,0.12126508,-0.049848262,0.022913711,-0.08640503,0.08943099,-0.016998671,0.09771316,0.04645298,0.15625344,0.07638969,0.024789887,-0.12198952,0.030896448,0.037419155,-0.1367201,-0.16199426,0.12743048,0.19684932,0.11170005,-0.03724148,0.03770617,0.03173911,-0.040317733,-0.07495429,0.4800781,-0.041257136,0.054623608},{-0.08288648,0.028677644,0.040630624,-0.19750142,-0.13572092,0.10038794,-0.069981724,0.16781805,0.03091477,0.1830383,0.04336518,-0.057851613,0.17996342,0.057431083,-0.02301602,-0.1723809,-0.033459187,-0.05248407,0.04037046,-0.011192809,0.026560629,0.17421713,-0.07340735,-0.073660895,-0.079495884,-0.26776528,0.04232202,0.122946166,0.013979333,0.10446787,-0.04571635,-0.036413383,0.15634954,-0.16962878,0.12793648,0.106313504,0.14932866,-0.09404097,0.03150845,0.045907035,-0.2139071,0.03265829,-0.1075088,-0.016144004,-0.04208133,-0.010194281,0.52452546,-0.18331093},{-0.064989775,0.0839362,0.039726235,0.11262403,-0.10935527,-0.056432627,-0.10353254,0.009560951,0.04579901,-0.011730792,0.10370025,-0.023180822,-0.006489068,0.09154328,0.044272687,0.053044677,0.04909413,-0.0120919505,0.06493448,0.056044567,0.12639007,0.06373814,-0.075806834,-0.23899925,-0.07136301,-0.13312304,-0.054555148,0.18215168,0.08546062,-0.03429946,0.11677396,-0.07402431,0.003306452,-0.04489967,0.06662776,0.12566964,-0.07621681,-0.09618654,-0.09863586,0.11039227,-0.16281585,-0.020841463,0.044018835,0.044851985,0.009646497,0.065415055,0.06433391,0.5591001}};
static const float rnn_bias_hh[48] = {0.05441056,0.17793332,0.109218374,-0.061935797,0.17948121,-0.06645079,0.019019032,-0.058404874,-0.025021804,0.03514626,-0.20104644,0.08293176,0.092729375,0.18789648,0.10498379,0.079156704,-0.12666167,0.09403624,0.0785988,0.13631135,0.024230514,-0.15037072,-0.059240323,-0.12113697,0.10127134,0.12871645,-0.13669981,-0.07156098,-0.03990778,0.17389932,0.14950266,-0.08024522,0.033253364,-0.16015258,-0.2140767,0.11886336,-0.20663795,0.14124589,-0.2241328,0.063710555,-0.054407272,-0.1884727,-0.20448261,-0.07098345,-0.051777806,-0.016809987,-0.2158195,-0.062118065};
