
#include "network_evaluate.h"



float linear(float num) {
	return num;
}



float sigmoid(float num) {
	return 1 / (1 + exp(-num));
}



float relu(float num) {
	if (num > 0) {
		return num;
	} else {
		return 0;
	}
}

static int state_dim = 18;
static int action_dim = 4;
static int hidden_dim = 48;
static int goal_dim = 18;
static const float linear_1_weight[48][36] = {{0.4485098,0.49842027,-0.7485357,0.028312791,0.04856114,0.0127528785,-0.049742308,-0.020434763,-0.05375068,0.061597005,0.31594262,-0.20337479,-0.105543695,-0.40220225,0.3688351,-0.0013688253,0.02368344,-0.043446343,-6.67e-43,2.00488e-40,-3.8414e-41,0.043041892,0.011607444,0.09865198,0.001322988,0.057566695,0.014318347,0.060579177,0.16860634,0.09552873,-0.106056556,0.050943837,0.21566588,-0.016133072,-0.021610225,0.06147914},{-0.009122067,-0.039658375,-0.16250026,0.0034906613,-0.04468636,-0.14895283,0.03236583,0.032611176,-0.08609118,-0.29025507,0.040062334,-0.092379436,0.039532326,0.2029602,0.03233471,0.05853355,-0.036811717,-0.30044344,1.1269e-41,-5.4272e-41,-1.14748e-40,-0.078101024,0.030716954,0.025250452,0.026190905,-0.005852728,-0.01287917,0.116335936,-0.03128568,0.051549483,-0.097942,-0.063463904,0.07020545,-0.012819081,0.013307587,0.34330267},{-0.34832418,-0.0688272,-0.22253895,-0.1137313,-0.05510369,-0.12901329,0.17026483,0.020987572,-0.08441453,-0.10430201,0.15238567,-0.6225258,0.18148994,-0.45015144,0.4814706,-0.20786867,-0.085006244,0.23273209,-3.9753e-41,1.28744e-40,2.59698e-40,0.081650585,-0.04708072,-0.059658978,-0.009705222,0.042975932,0.015051546,0.15784852,0.13194774,-0.70963967,-0.00550784,0.07519651,-0.28772745,0.08872905,0.06418024,-0.023012524},{-0.22537918,-0.09588256,0.19206937,0.2045392,0.037535604,0.000208042,-0.009152756,0.043639507,0.015578125,-0.045205534,0.23423004,0.05559722,-0.088318355,-0.17711182,0.0978184,-0.14236073,-0.11105741,-0.09100577,3.0579e-41,3.271e-41,-1.50585e-40,-0.03892916,-0.047783747,0.0063436003,0.0074765654,-0.055799846,-0.08787889,0.044317722,0.094351836,0.16024731,-0.14184034,0.13085829,0.18601756,-0.19186614,-0.18717201,-0.09463279},{0.19273974,-0.43073633,0.42474484,-0.018356359,-0.04061718,0.13188377,-0.018130986,0.002149708,0.006290635,0.30985183,0.059120342,0.28767246,-0.06935147,-0.14919886,0.013798559,0.06643122,-0.054475754,-0.0007220989,6.3158e-41,7.474e-41,-6.0731e-41,0.012106821,-0.0939149,0.08900592,0.025517859,0.024776613,0.05531633,-0.20242168,-0.34889376,0.0072554704,0.14670394,0.3330946,0.08513617,-0.54971516,0.041593976,-0.055295322},{0.2166508,0.07995539,-0.06678629,-0.08893766,0.003923037,0.03204213,-0.023509463,-0.08889632,-0.06208463,0.22071604,-0.023305316,-0.1504173,-0.16186221,0.031785857,-0.2372834,0.017690392,0.104441285,0.115549624,-1.0607e-40,-1.66483e-40,-2.14417e-40,0.10134798,-0.057897117,0.07857064,0.04077187,0.083942495,0.02054093,0.08385609,-0.09371683,0.109134756,0.09995463,0.012284231,0.023179485,0.05717699,0.040212303,-0.017789345},{0.08801549,0.19755414,0.23687701,-0.065611884,-0.0073062447,-0.01217962,-0.023878472,0.040389303,-0.16319327,0.5601715,0.10770899,0.028333543,-0.56463075,-0.025685228,-0.07745444,0.058581058,-0.08214153,-0.027914561,-1.96441e-40,-2.23433e-40,-2.60798e-40,0.014207786,0.0033396734,0.07994358,-0.031298578,0.0054922937,0.16574006,0.042817477,-0.09148835,-0.053061586,-0.13163611,-0.06974091,-0.010588341,-0.025714394,0.0002568388,0.060430426},{0.112730354,0.16341133,0.4888048,-0.008790036,0.05168804,0.04470208,0.01037193,0.07712481,-0.13702711,0.47607175,0.5121123,-0.003119289,-0.5126148,-0.2984591,0.20622677,0.3189648,-0.07334526,0.14347488,-5.3352e-41,2.01438e-40,7.2428e-41,-0.012114369,-0.039294634,0.036354125,0.021444362,-0.065737024,0.027872365,-0.034256473,-0.33686498,0.025629822,-0.11752352,0.25486964,-0.15822579,0.20921536,0.010274872,-0.43333206},{0.10665877,0.30508342,-0.102565154,-0.04739217,0.029705351,-0.007177888,0.0065033487,-0.029671518,-0.03978133,0.07371437,0.12387979,0.09047666,-0.39840388,-0.14925233,-0.048423387,-0.14710978,-0.06598321,-0.025915794,2.8155e-41,4.981e-41,1.1286e-40,-0.05004509,0.08983729,-0.10052972,-0.006316855,-0.018147347,-0.0012793454,0.21652757,0.111674786,-0.09575459,-0.16868377,-0.04246845,0.19718906,-0.3953228,-0.20226508,0.23533626},{-0.27344468,0.004980195,-0.2638818,-0.061199907,-0.07405577,-0.0020921377,0.06294638,-0.10001122,0.03265091,-0.25893068,-0.17990835,-0.35402355,0.13425623,0.22925493,0.21884447,0.13309975,-0.111341365,0.21190998,-1.05837e-40,-2.33801e-40,1.49387e-40,0.023533804,-0.10178531,0.006705742,0.09522479,-0.01126709,-0.13667767,0.08574557,0.24480993,-0.10774644,-0.06350139,-0.36528686,0.3891404,-0.020774042,0.1299534,0.29839924},{0.16898386,0.05603215,-0.33714074,-0.06106766,-0.0010083322,0.13521384,-0.038324617,-0.053775936,-0.02748754,-0.056999687,0.08300647,-0.19235161,0.0296466,-0.073618114,-0.0045992867,0.08371179,0.01764996,0.0063679726,4e-43,1.35363e-40,-1.2201e-40,0.10312265,-0.0044969767,-0.0038940874,-0.024087163,0.11113521,-0.027711462,0.055505246,-0.041308,0.21231174,0.0444173,0.0917577,0.10437992,-0.058142804,-0.012289126,-0.032032236},{0.022398612,0.40198514,-0.34906217,0.084752254,0.0534875,0.11108275,-0.02723742,0.042339697,0.007615243,0.037143424,0.29148102,-0.092088036,0.1046096,-0.06814301,0.3174477,0.052513044,-0.06431339,-0.034672238,-1.47405e-40,1.11015e-40,-7.987e-42,0.04686065,0.0042609433,0.06417473,0.011864135,0.062088434,0.06963779,-0.15192461,-0.23708719,0.064564414,0.25130656,0.5202031,-1.0691547,0.13536529,-0.02974181,-0.2454838},{-0.82259876,-0.6290654,-0.18135256,-0.060629886,-0.014527236,-0.042478185,0.0428183,-0.033150252,0.1464021,-0.65295285,-0.40949106,-0.12056472,0.11182259,-0.01655572,-0.06294173,-0.19884305,0.12512127,0.0626694,-8.2534e-41,1.88997e-40,1.28457e-40,-0.06634687,0.03693574,0.0067595392,0.02919942,-0.03506083,0.06553398,0.2045778,0.032502756,0.099492505,-0.018657938,-0.30959013,0.60047704,0.29519573,-0.06589257,0.08962672},{0.33652657,0.3315853,-0.4972232,-0.010651753,0.05968289,0.0026180553,-0.114765316,-0.040619485,-0.0851501,-0.09489482,0.035563618,0.019171635,0.1237735,-0.0077420906,0.17665493,0.09854705,0.0251932,-0.15814021,1.0702e-40,-1.02274e-40,6.938e-42,-0.019048655,-0.062871285,-0.047317088,0.060553756,0.037608597,-0.040494885,0.13078459,0.12208905,-0.21364062,-0.16234317,0.13563964,-0.31308535,0.11247494,0.11477018,0.22359365},{-0.25680363,0.1676219,0.07548055,0.12545907,-0.24362221,0.016120676,0.13500403,0.06892275,-0.025312686,-0.10569481,0.106747024,0.1424974,-0.29271847,-0.22270669,-0.23655936,-0.13553357,-0.3122706,-0.26408848,2.83911e-40,-1.3914e-40,-2.305e-40,-0.06437704,0.14141771,0.1485736,-0.120174766,-0.022559538,0.022045346,-0.08693524,-0.14848311,-0.033673707,0.19086073,0.33094394,-0.5959656,0.08338792,0.21670693,0.14550772},{0.28056344,-0.022988714,-0.16793612,-0.028770907,0.02838078,-0.018700669,-0.052152466,-0.08797648,-0.026241297,-0.18376687,-0.077961415,0.12884207,-0.13856836,0.061726633,0.051873676,0.06391184,0.045292534,-0.2843918,-2.14495e-40,1.44592e-40,1.65506e-40,0.018236006,-0.01779579,-0.049520172,0.10396659,0.11949266,-0.02764915,0.20994115,-0.0341146,-0.2123698,-0.005511582,0.006518046,-0.19528332,0.024976296,0.00066423515,0.25226274},{-0.31452262,-0.20825528,0.22770979,0.086974815,0.027274437,-0.06673969,0.007272813,0.08880124,0.10633944,0.055144552,0.046040993,-0.007529904,-0.125272,-0.053589266,0.15156505,-0.035228148,-0.047020223,-0.043048225,-1.16231e-40,-2.7856e-41,-3.648e-42,-0.00017614872,-0.028788093,-0.017363941,0.02320442,-0.05202722,-0.035198536,-0.13459046,0.025645228,0.07802844,-0.0965014,-0.08875684,0.124669604,-0.055212025,-0.11584505,-0.21143198},{0.12926526,-0.22889398,0.16697578,-0.020444965,-0.075672254,0.03682554,0.14506607,0.106814355,-0.14170122,0.03211128,-0.33729404,0.27675965,0.15218833,0.49552533,-0.3688888,-0.02300134,0.14961289,0.1879172,-2.14329e-40,7.4323e-41,-3.0146e-41,-0.036776636,0.04274494,0.08759689,-0.07940436,-0.028082533,-0.07608718,-0.3235596,0.020568786,-0.00086528045,0.2534368,0.3205913,-0.87954485,0.7481037,0.035978515,-0.052442152},{0.26301813,0.029670145,-0.15901625,0.012209649,0.0001515148,0.08682305,-0.040639553,-0.025110232,0.0007630231,0.25978997,0.095295615,-0.20795304,-0.329733,-0.1793547,-0.0121310055,0.21954326,0.070190065,-0.054861348,-1.54189e-40,1.00247e-40,-1.4856e-40,-0.0155672915,-0.01314342,0.12034427,-0.004852182,-0.031116512,0.05955716,0.0900692,-0.085842125,0.24790435,-0.035617422,-0.0070525617,0.09181853,-0.054543994,0.004633264,0.0030581362},{-0.2951705,-0.09613945,-0.088518605,-0.018503057,-0.014757017,-0.15227367,0.08703545,-0.05767741,-0.05414526,-0.0898736,0.372081,-0.33841544,0.025019558,-0.41297236,0.4454855,-0.008025795,-0.05717915,0.12751758,-1.21613e-40,5.6147e-41,-9.4913e-41,-0.025205648,-0.062456846,-0.054490916,-0.014640056,-0.07633112,0.019771006,-0.06516988,0.029725624,0.2105974,-0.026759593,-0.06453427,0.19354832,-0.0024391196,-0.021758245,0.028579943},{-0.27253765,-0.28669533,-0.04845682,-0.10724474,0.033368967,0.25782958,0.01458586,-0.097643375,0.1075525,0.36092693,0.018328484,-0.104923666,-0.6118864,0.045171566,0.2887316,0.048477054,0.00370738,0.026687827,2.01466e-40,1.28344e-40,1.01119e-40,0.032677058,0.012366573,-0.10751205,0.039148707,0.064332224,-0.03697332,0.09845734,-0.22389229,-0.18024693,-0.04591283,0.037948962,-0.06465023,0.20150141,0.035456892,0.08518264},{-0.20529372,-0.0015673921,0.13428494,-0.024307786,0.03679527,0.011994198,-0.00354481,0.064250655,0.032600243,0.05511288,-0.054003716,-0.0210037,0.18701993,-0.037760034,0.023540415,0.0239376,-0.039389048,0.21592511,7.5899e-41,-2.33776e-40,1.12272e-40,0.011511298,0.0017635075,-0.00070269225,-0.009895209,-0.10509293,0.024491897,-0.13591346,0.14070287,-0.06594905,-0.15831406,-0.06299813,0.062107157,-0.018561658,-0.032048922,-0.12714948},{0.42235777,0.70118636,-0.6135041,0.11718327,-0.00014195341,-0.013856964,-0.034089547,0.02400459,-0.04749183,0.29093006,0.27152437,-0.11881247,0.07158997,-0.044660777,-0.11282833,0.23589203,0.021414923,-0.11856797,-1.1888e-40,9.8045e-41,4.7958e-41,-0.022572974,-0.026150867,-0.00069632026,0.027501257,-0.09678549,-0.095145755,-0.18654375,0.16685118,0.1820951,0.13663775,-0.0381924,0.24328567,0.43425983,0.14325863,0.21463878},{-0.12297863,-0.21792054,0.06253309,0.07065761,0.013526634,-0.07406084,0.029945785,-0.04786865,0.07470486,-0.041848145,0.030615294,-0.034143925,-0.082266904,-0.05354236,0.0012616114,-0.14457001,-0.06797249,-0.08835891,1.46283e-40,-1.24008e-40,-2.47193e-40,0.014468579,-0.026680922,-0.0066889646,0.031854503,0.047469433,0.019368503,0.034891766,-0.14558166,0.22393215,-0.036319584,-0.023307212,0.0036272106,0.04374763,-0.10330403,-0.114256084},{0.9069299,0.54032856,-0.20585264,0.010823169,0.0359953,-0.051251467,-0.010614161,-0.12969896,-0.12270892,0.34473965,0.15770957,-0.38718227,-0.17715393,-0.084824085,0.43329218,-0.052341253,-0.0011055614,-0.10183635,-1.20358e-40,1.69645e-40,-1.1953e-41,-0.111290224,0.10036483,0.0136564,-0.05026454,-0.027565202,0.017118605,0.05531504,-0.04058719,-0.40875736,0.056047596,0.019581992,-0.19545057,-0.07415329,-0.029646443,0.06625421},{0.24229804,0.06986947,-0.38647655,-0.0048533287,-0.01735365,0.09927637,-0.014890717,-0.028594201,0.0014314658,-0.014585978,0.03905404,-0.14549391,-0.06234027,-0.06325459,-0.063882984,0.053600885,0.13517682,-0.116552696,9.5528e-41,-2.06554e-40,2.1154e-41,-0.06597609,0.0077394564,0.033763263,-0.011641104,-0.052130945,-0.011965936,0.07001893,-0.11233932,0.12276743,0.06281583,0.06427302,0.03306341,-0.05107263,-0.0035175225,0.053658895},{-0.053724967,-0.06880526,0.023610286,0.17606181,-0.014803743,-0.25934583,0.15468763,0.085131034,0.19109012,-0.063134365,-0.23865384,0.22340265,0.021136409,0.3535856,0.16525237,0.2553731,0.21318015,-0.012658517,-2.9562e-41,2.37562e-40,1.88832e-40,-0.19779259,0.06274704,-0.008595096,-0.055914104,-0.14475365,-0.026382308,0.009979439,0.19334634,0.04742247,-0.043881573,-0.0195939,-0.03682404,-0.15528543,-0.15714061,-0.014960325},{-0.10981799,0.14109387,0.068302296,-0.0009394517,0.085408196,0.090260945,-0.09786852,0.049719494,0.05404232,0.060059275,-0.03228153,-0.073105894,0.21316035,-0.026206503,-0.017749298,0.038586915,0.07591343,0.3768978,3.617e-41,1.62069e-40,6.38e-42,-0.022413628,-0.035999574,-0.053603776,-0.011573431,-0.09518374,0.03781084,0.0028749735,0.14360023,0.04176857,-0.061908465,-0.09075001,0.19776763,-0.0689524,0.03505753,0.10523334},{-0.08830662,0.016944993,-0.072748624,-0.10179639,-0.019093214,-0.0406009,0.004810539,0.024247937,0.023573292,0.0546766,-0.08918769,-0.12770621,-0.04180579,0.16809872,-0.12186459,0.0120052975,0.0070093996,0.025244983,-1.06206e-40,1.88356e-40,3.8002e-41,0.0096391365,0.010810865,-0.04608228,-0.04014221,-0.004817453,0.08611791,-0.09617123,-0.12138328,0.07002075,0.055387057,-0.15468538,0.029166501,0.047516067,0.020894196,0.036986895},{-0.08328534,0.30590743,0.13467422,0.012214085,-0.025398564,-0.14259754,0.0652512,0.0162604,-0.044941388,-0.34044382,0.36919853,-0.07052484,0.30456877,-0.11776254,0.017859751,-0.12950806,-0.036151733,0.0573623,-5.2608e-41,7.0292e-41,1.40263e-40,-0.099021636,0.046752416,-0.018303892,-0.038651504,0.07277372,0.10057385,-0.11003835,-0.11301253,0.2764502,0.5630563,0.3214016,-0.0820797,-0.18707807,-0.08214766,-0.07504966},{-0.11319532,-0.15207353,0.2517982,0.12567545,0.05488584,-0.016403154,-0.046688434,0.048131946,0.096462436,0.038783006,-0.009230053,0.30860084,-0.13411056,0.226918,-0.34376973,-0.012295419,-0.055341136,0.0014088231,-7.384e-41,1.97158e-40,2.6405e-41,-0.08082427,-0.011097822,-0.094600976,0.07501989,-0.062372364,-0.045038886,0.4400879,-0.03882942,0.07683185,-0.7002253,0.1560663,-0.20574957,-0.1742846,0.085566394,-0.18825084},{-0.2764652,-0.29533035,0.012064865,0.048072193,0.119633056,0.08439767,-0.0787536,-0.08769571,0.060647782,-0.24899736,0.107599884,0.06582116,0.46722072,-0.2112697,-0.20110445,-0.044245396,0.045211587,0.10714779,-1.11783e-40,-2.21215e-40,2.15894e-40,-0.08261207,-0.044278033,0.018594317,0.0056871516,0.0029190273,0.09957802,-0.027397417,-0.17471175,0.06655713,0.0073043755,-0.10769042,0.09755505,0.18814687,0.0032771605,0.19564381},{0.080937974,0.07578337,0.27975848,-0.013024101,-0.013250089,-0.106947094,0.021429915,-0.0025568244,-0.086980484,0.09276549,-0.21184787,0.20238909,0.017029263,0.21039073,-0.085338034,-0.0376976,0.050397262,0.16047612,2.18213e-40,1.32807e-40,4.3349e-41,-0.020844238,0.0059737144,-0.028257601,0.009668454,-0.064204946,-0.016875727,-0.020632349,0.065446146,-0.34806252,-0.002117053,-0.028323803,-0.16414021,-0.014990969,-0.01469036,-0.045685753},{-0.23326167,-0.11120486,-0.4690539,-0.09920146,0.012759699,0.14109135,-0.0431299,-0.021856178,-0.040226996,0.0907308,-0.56323045,-0.15445936,-0.30686837,0.360529,-0.1610256,-0.7249069,-0.14995931,-0.053233504,-6.1273e-41,2.85208e-40,-1.42815e-40,-0.008368449,0.06382442,0.08026394,0.014036514,-0.036607694,0.006111266,0.031224009,0.07673313,0.052161306,-0.11007926,-0.11708003,0.2081386,-0.6616952,-0.021741303,-0.21157572},{0.13152994,0.11400431,0.13759527,-0.112143025,0.028249685,0.012216274,-0.03857062,-0.1352114,-0.036085296,0.14477517,0.32070526,0.23632577,-0.09453597,-0.5036833,-0.1378893,-0.21944438,0.06973095,-0.028856367,3.05549e-40,-1.52687e-40,7.8862e-41,0.13289972,0.0077506397,-0.012678276,0.036462948,0.14550789,0.042722113,0.0678516,-0.084731676,0.09134556,-0.009078872,0.109244175,0.03796262,-0.16994153,-0.015696386,-0.07471527},{-0.19877657,-0.16165648,-0.12924641,0.31263602,-0.103389084,-0.23497532,0.2786978,0.31221476,0.08930917,-0.29929513,-0.15934552,-0.041572362,0.09231006,0.17931153,0.11043974,0.1637511,0.24299046,0.040258337,-1.1617e-41,1.43518e-40,-1.82443e-40,-0.27701253,0.24821934,0.14030945,-0.20986801,-0.2635498,-0.13447177,0.12825583,0.20294775,-0.21309756,-0.07723555,-0.19808252,0.4453974,-0.07338951,-0.116678745,0.23516533},{-0.037564877,0.35784957,0.07676987,-0.14281951,-0.04901731,0.048695493,0.048245873,0.0040036663,-0.14716046,0.1341372,0.12935106,-0.41342998,-0.14489402,-0.30637115,0.041824546,-0.046794113,-0.016387193,0.14909902,7.1112e-41,-1.4554e-41,2.0921e-40,0.045079757,0.0064276676,0.2174683,-0.047249857,-0.05503883,-0.03730053,0.23238073,0.1605399,-0.061322745,-0.14610466,-0.38245136,0.5093175,0.29395723,-0.116570175,0.41742355},{-0.6368253,-0.3757258,-0.015318542,-0.17717977,0.004079305,0.03472348,-0.0051128543,-0.13177654,-0.07584199,-0.14931975,-0.019801395,0.2504926,-0.011769904,0.26601458,-0.30022717,-0.155219,0.04464966,-0.052309904,1.22153e-40,2.4513e-41,-1.30855e-40,-0.10638655,0.10584409,-0.14537546,-0.15080215,-0.07450269,0.040288296,-0.07553603,-0.2557317,0.26786417,0.20233998,-0.05958943,0.18819866,-0.046632417,0.087902986,0.08558348},{0.051390324,-0.025577568,0.01595278,0.047311377,-0.0037168188,-0.02907844,0.035254292,-0.08064062,0.006456178,-0.05296069,0.11463378,-0.029163303,0.025336431,-0.052158833,-0.1025513,-0.096344374,0.004843219,-0.08025155,-4.5932e-41,1.69578e-40,1.79701e-40,0.037618402,-0.006762023,0.045873597,-0.0022486115,0.05808666,-0.0075335656,0.083329365,-0.15132563,0.21577616,0.09331599,-0.009005751,-0.08013399,0.1317909,-0.021377234,-0.05069273},{0.37153724,-0.15587275,0.26482803,-0.0037760942,-0.004671615,0.01976321,-0.04289359,0.0042507704,-0.018034676,-0.047164664,0.052618675,0.23089157,0.17327034,-0.18854544,-0.15918536,0.0166971,0.058849614,-0.11708091,1.82853e-40,-1.83693e-40,1.19684e-40,0.0064838496,-0.0016284777,-0.03960678,0.0015229841,0.032204628,0.08549215,0.15099846,-0.06626701,-0.02455674,-0.044730093,-0.090201095,-0.4571572,-0.11652066,-0.07845715,0.020070488},{0.082838856,-0.10847033,-0.1320887,0.08289637,0.03029631,-0.035588514,-0.008720633,-0.05328282,0.015539972,-0.15086287,0.07630325,-0.051271386,-0.13457528,-0.048994195,0.112592384,-0.11873151,-0.015676893,-0.20652199,1.37854e-40,-2.08798e-40,4.6454e-41,-0.042412963,-0.04432542,-0.024911508,0.057935145,0.06316274,-0.054286536,0.18099804,-0.09665685,0.15783861,-0.04370202,0.10421503,-0.066389374,0.012984647,-0.037949793,0.04760204},{-0.22367346,-0.021297127,0.03222484,-0.031279247,0.048086956,0.012470234,-0.030287301,-0.037334476,0.08172435,-0.21367416,-0.010143614,-0.10438225,0.19815065,-0.090594545,-0.065851055,-0.06133279,-0.037983842,-0.060287688,1.23337e-40,-1.86462e-40,3.05278e-40,0.011768374,-0.10345975,0.027831843,0.03740141,0.0010657491,0.061359797,0.23966505,0.07922572,0.09475471,-0.44135156,-0.11199,0.19661298,0.07638812,-0.07429591,-0.022511257},{0.09823361,0.56221783,-0.22153437,-0.030525614,-0.0324801,-0.07130693,0.012796097,0.009272548,-0.07197426,0.33242175,0.1329252,-0.21051164,-0.036639646,-0.07322401,0.2369125,0.01567582,0.004147708,0.08402146,-7.574e-42,2.16219e-40,-1.42631e-40,-0.010074722,0.03392136,-0.019833451,-0.061064217,0.05078677,-0.06381821,-0.18035989,0.19453631,-0.010542546,0.17981066,0.06893224,-0.39845315,0.64453983,0.1249816,0.13848515},{0.042351197,0.13643496,0.19780411,0.005528937,-0.14806865,0.06963964,0.1046546,0.042146716,-0.05438255,-0.25347498,0.09902325,-0.5866176,0.35863644,-0.107874066,0.5711966,-0.21495496,0.017677134,-0.16172403,1.16262e-40,2.19743e-40,-8.449e-41,-0.045691494,0.05381693,-0.11404147,-0.0543499,-0.007129301,-0.059331693,0.04821932,-0.16725278,0.26773763,0.1267541,0.159107,-0.0972902,-0.45952642,0.0013683484,-0.18606003},{0.057895035,0.032048717,0.288238,-0.0030182598,-0.024365187,-0.044768758,0.0036286337,-0.038222466,-0.04736122,0.08156268,-0.05204208,0.20866783,-0.023469025,-0.007487033,-0.039184943,-0.03433043,0.04428305,0.0071697715,1.70849e-40,-3.348e-42,3.2451e-41,-0.009888918,0.019191522,0.029062226,-0.02881996,-7.125318e-05,-0.021560427,0.025357137,0.09595381,-0.28995213,0.0026009872,0.008563228,-0.109806575,0.0515397,0.0006447388,0.02404021},{0.27899563,0.35334754,-0.47448197,0.012770968,-0.017514927,0.13570808,0.024386793,0.022507526,-0.00015683651,0.09529643,0.30392417,-0.25769198,0.115231514,-0.10556564,0.12941474,0.123276465,0.029008863,0.062278375,-7.4182e-41,-1.05966e-40,-6.7306e-41,-0.0033627113,0.051894292,0.02072258,-0.09662049,-0.012905704,-0.009536031,-0.05776353,-0.14200392,0.42661723,0.046368238,0.037959937,0.20207006,-0.082405314,-0.025487393,-0.105171725},{0.17908858,-0.29633245,-0.004553957,0.11625039,0.056064136,0.044013333,-0.100869104,0.039537475,0.10569467,0.28642815,-0.14600521,0.06932317,-0.24723455,0.065959826,-0.06643345,-0.08386144,-0.12540881,-0.22050251,-1.34442e-40,1.88322e-40,1.82043e-40,0.036206402,-0.008565948,-0.09882483,-0.014788413,0.013724579,-0.05015703,-0.35789797,0.092308156,-0.016368292,0.24939537,-0.14506064,0.028672589,-0.24118145,-0.25012743,-0.26197293},{0.32208768,0.21806984,-0.2571916,-0.078388706,-0.009802646,0.042097505,-0.016165286,-0.02768911,-0.07649328,-0.044439692,-0.042840995,-0.04580033,0.042386875,0.13157676,-0.07453822,0.14524455,0.10320193,0.017009223,1.621e-41,4.3785e-41,-1.36866e-40,-0.0044319346,0.05014763,-0.023330245,-0.008003197,0.029833632,0.04031604,0.0689191,0.034621257,-0.12185542,0.05288295,-0.009350661,-0.11648715,0.052424736,0.14026338,0.13887791}};
static const float linear_1_bias[48] = {0.07189421,-0.21888344,-0.2608832,-0.035012122,-0.22127944,-0.06592218,0.06063547,0.018160127,-0.1460606,-0.34547603,0.006108036,0.16226996,0.03799261,0.10000491,0.38371646,-0.027031314,0.02967985,0.19228144,0.05928401,0.1271726,0.056917936,0.15089716,0.15102877,-0.17514989,-0.14496703,-0.01528768,0.06400663,0.10714789,0.006440603,-0.17184828,-0.044397052,0.13853267,0.07091866,-0.37914947,0.18711261,-0.16483706,0.006709434,0.060374722,-0.22911324,-0.34176984,-0.11427366,-0.013017092,0.10566797,-0.2871385,0.012869348,0.11776413,-0.09499386,0.08659361};
static const float linear_rnn_weight[48][22] = {{-0.02210454,-0.023196002,0.011710137,0.025776664,0.015885549,-0.018434525,0.007477939,0.0067317346,-0.0021672812,-0.036951885,0.004527181,0.05408428,0.00866819,-0.026758075,0.062437855,0.08144689,0.015991364,0.0017071404,-0.044542097,0.11916699,-0.004722333,-0.006600098},{-0.00763126,-0.014327983,-0.0085728485,-0.012441919,0.0043538744,0.0040338626,-0.014318614,-0.0063176746,-0.010337157,0.027522137,-0.012752385,-0.011194234,0.018018512,0.014634816,0.00950136,-0.0025728005,-0.02440173,0.0044826833,-0.0155161815,0.025302736,0.040897653,0.0006707174},{-0.033453763,0.003616904,-0.02924961,-0.021637758,-0.014923325,0.019946419,-0.00950517,-0.006670046,0.007433331,0.05388095,-0.021064578,-0.072805665,0.03151659,-0.0009757899,-0.052037675,-0.05282244,-0.030899342,-0.0042834072,0.032416873,-1.4054617e-05,0.079641886,-0.010974394},{0.011470253,-0.015187444,-0.009837764,-0.015762845,0.003574739,0.0023704807,-0.009869248,-0.006524021,-0.012501213,0.028389633,-0.003847614,-0.0063963006,0.008710733,0.011353553,0.016868362,-0.0015390461,-0.029098159,0.008081803,-0.014134938,0.019751588,0.029674979,0.00402777},{-0.006493743,0.018188147,0.015966361,0.024117535,-0.0023047505,-0.007711198,0.011764095,0.01628003,0.008194051,-0.027627937,0.014031207,0.033829033,-0.015328549,-0.011818018,0.010045467,0.023204835,0.030568937,-0.005164364,-0.0089193825,0.0056736935,-0.035250973,-0.0041896743},{0.06604262,-0.010214047,-0.004949555,-0.0033909963,-0.0008256826,-0.013464479,0.010977342,-0.00019203157,-0.0039415224,-0.008155442,0.006407309,0.031112935,-0.016519377,0.00755117,0.02503842,0.0012573589,-0.029364998,0.033635728,0.011492644,-0.05163889,-0.051807806,0.0008370405},{0.0789297,-0.019770397,-0.0035201749,0.0048547247,-0.0027679629,-0.012895542,0.019956715,-0.0040211384,-0.00096310204,-0.04173133,-0.016616212,0.026491778,-0.043850943,0.010052743,0.046732966,0.024474291,0.01489041,0.036053985,0.03974095,-0.08165035,-0.065699935,0.02377261},{0.05631244,-0.025634887,-0.032902285,-0.003674271,0.005710584,-1.43914685e-05,0.00017273908,-0.03864841,0.0010187442,-0.04011094,-0.050993055,0.0051792026,-0.06430463,0.019904677,0.060356405,0.039725274,0.052882057,0.034496766,0.07164674,-0.07443224,-0.03963545,0.0869479},{0.07416853,-0.018890647,-0.0012840092,0.008118712,-0.0021828373,-0.011776434,0.019765884,-0.0027086092,5.1513554e-05,-0.045041256,-0.017008312,0.028732691,-0.04887618,0.009043604,0.04843883,0.027602687,0.02389876,0.030799417,0.04001668,-0.0771359,-0.067445286,0.026346616},{0.063344724,0.020842029,0.08100702,-0.012713821,0.00029298457,0.0006226692,0.014192742,-0.0069144526,-0.025940195,-0.023070995,0.033701017,0.031621445,-0.030298121,0.010973092,-0.050104458,-0.010879935,0.0079892045,-0.014390444,-0.044735003,-0.0894233,-0.098546125,-0.027236354},{0.00783177,-0.0011300661,-0.03609053,-0.021495067,-0.00966294,0.020849237,-0.01111475,-0.021075333,0.01045707,0.033403054,-0.03724083,-0.050690416,-0.016042057,0.019385213,-0.019756328,-0.0532015,-0.0004102658,0.003999627,0.057126507,-0.084485,0.04379335,0.036516868},{-0.05176828,-0.017531212,-0.057216927,0.011578071,-0.0003280939,0.005378847,-0.0134367645,0.0053169075,0.019080088,0.024154663,-0.034165874,-0.029015081,0.021596627,-0.0061288304,0.045952458,0.008836152,-0.003708773,0.011928743,0.03376348,0.07127996,0.08096597,0.020248067},{-0.05740741,-0.01920746,-0.06882554,0.012626023,-0.0008984491,0.0026003849,-0.013461592,0.0067237075,0.022779033,0.023079492,-0.034492698,-0.030137103,0.02543177,-0.009436821,0.048596837,0.010954146,-0.005751635,0.013002683,0.03920233,0.08009866,0.088566005,0.023445165},{0.057934616,0.019763099,0.07068092,-0.012373769,0.00051579013,-0.0019034968,0.013738824,-0.0066539613,-0.02305847,-0.022471622,0.034766134,0.030073537,-0.025949975,0.0097480705,-0.05031496,-0.011077488,0.006103917,-0.013800413,-0.04109534,-0.08050822,-0.08931795,-0.023976885},{-0.021337716,-0.009747238,-0.0076809316,-0.008452271,0.0013731121,0.0014592723,-0.011569617,-0.0016737301,-0.012227168,0.022992844,-0.0021498823,-0.009400105,0.021067902,0.017520493,0.008016035,-0.004679441,-0.018966341,-0.005688631,-0.022410208,0.029770195,0.037271094,0.002223893},{0.07128597,-0.014696246,-0.009281637,-0.0124367345,0.00096424273,-0.009025201,0.0076408028,-0.009190039,-0.010272919,0.008197784,0.0096474495,0.030060492,-0.013478098,0.0057719206,0.027159648,-0.0037824719,-0.036800172,0.03219988,0.008414831,-0.036291417,-0.047866486,0.0019673898},{-0.01343109,0.0073752315,0.004069397,0.005260678,0.0042340923,0.0049717706,-0.008918948,-0.0025332298,0.0037959612,-6.302241e-05,0.0024491234,-0.011181759,0.009937044,-0.0032717036,-0.0137209045,0.004367353,0.021518841,0.0038805823,0.00460575,0.009279674,0.016024401,-0.0014771763},{-0.0011900957,-0.04993824,0.026304564,0.03518492,0.025435215,-0.03323802,0.008376096,0.0004887511,-0.014419372,-0.085345104,0.03150064,0.062060952,0.028234506,-0.04146245,0.08197092,0.14727142,0.007840093,0.010366477,-0.048004005,0.17456722,-0.038078263,-0.0027035968},{-0.06783032,0.01689863,0.012566443,0.022257064,0.0015291381,0.0023874312,-0.0043611,0.017233264,0.015463944,-0.026011527,-0.0059244,-0.02176376,0.010550416,-0.009180466,-0.03323803,8.793804e-05,0.038676918,-0.035402033,-0.0014034892,0.020390961,0.02407588,-0.0044668866},{0.050278157,0.012768879,0.044587042,-0.007935876,0.0015382414,-0.008242035,0.01431298,-0.0042572543,-0.015541543,-0.026693802,0.030505076,0.031561874,-0.021800544,0.011349168,-0.021149386,-0.0063777794,0.00894988,-0.004472723,-0.021009766,-0.07301607,-0.080111794,-0.01471959},{-0.014408909,0.02806343,0.04657106,-0.0117499,-0.009575814,-0.0006343298,0.008253688,0.03215072,-0.008010263,0.036691908,0.05570631,-0.005951221,0.056865115,-0.024566246,-0.08019048,-0.047356267,-0.06489962,-0.025889505,-0.062738895,0.016273497,0.011106691,-0.07974304},{0.008346047,-0.014947759,0.028001579,0.025787544,0.018488225,-0.023188654,0.008111001,0.0072065387,-0.008233417,-0.05245176,0.016902555,0.07446693,-0.01291235,-0.013882433,0.063413054,0.073912,0.023430683,0.0021897245,-0.04750082,0.07397136,-0.056336347,0.0020857018},{-0.0067583523,0.0029891955,-0.0155240465,-0.02272174,-0.008776063,0.015453113,-0.0073401355,-0.008990506,-0.002302103,0.032240346,-0.0016743684,-0.04541728,0.022491736,0.0070889704,-0.056264788,-0.050859623,-0.025423048,-0.007082687,0.02171973,-0.03823966,0.034938917,-0.006375545},{-0.06424289,-0.019842852,-0.080889225,0.013000882,-0.0026581895,0.0006732418,-0.015133261,0.006862764,0.026933184,0.025256604,-0.03551297,-0.031373315,0.028007818,-0.014014802,0.044198282,0.008156025,-0.008682582,0.010520932,0.047978017,0.086534746,0.10225414,0.025954569},{-0.066998124,-0.018088713,-0.080927074,0.013590407,-0.0051134694,-0.0004923465,-0.012222334,0.00923108,0.027710387,0.026086327,-0.03093202,-0.036413077,0.031557545,-0.01423069,0.037846684,0.008643538,-0.011561283,0.008766503,0.037746307,0.09630491,0.10433296,0.026195846},{0.018034816,0.014794966,0.01610081,-0.0034728597,-0.0052770865,-0.008515445,0.015736984,0.0019336134,-0.004263131,-0.020311065,0.031842187,0.016458318,-0.005842171,-0.008821185,-0.042101685,-0.00991171,-0.0047320793,-0.016116444,-0.019368486,-0.030537367,-0.043684095,-0.01137915},{0.021197185,-0.017441815,-0.0041604983,0.014162289,0.008485022,-0.008535448,-0.00082213635,-0.0046000793,0.0035100083,-0.021519711,-0.028764307,0.014180315,-0.030693214,0.006185952,0.07481164,0.03659764,0.029769445,0.02824215,0.018508988,0.0040484522,-0.016834881,0.019952876},{0.06327342,0.016723728,0.072886355,-0.013545556,0.004594938,-0.0015940181,0.011852517,-0.008758511,-0.025478115,-0.025256094,0.03148153,0.035080496,-0.028555619,0.014888212,-0.034182098,-0.009241055,0.010405193,-0.007864307,-0.0342021,-0.09135468,-0.09733996,-0.023530925},{0.0060129096,-0.0062790737,0.024776464,0.025258835,0.014537899,-0.019964088,0.0065120673,0.011465412,-0.0050758626,-0.042866778,0.014140497,0.066759214,-0.014634745,-0.010146518,0.05994306,0.058578447,0.023654945,0.000126911,-0.044725053,0.05152485,-0.050654884,0.0031804978},{0.04053856,0.002754706,0.008648995,0.009575274,-0.0038012008,-0.0074310903,0.020483628,0.001811911,0.005986024,-0.038903017,0.007329419,0.020585837,-0.036770504,-0.0070616477,0.013845325,0.012845778,0.026808886,0.010739269,0.025972918,-0.05268605,-0.06487679,0.0107029565},{-0.07892267,0.01609293,0.00459013,-0.0001030066,0.0030411824,0.0129057765,-0.020041637,0.0035487085,0.00019966034,0.037647475,0.0066208006,-0.021037828,0.034221757,-0.0065197567,-0.03201662,-0.014098401,0.0015644346,-0.03664662,-0.036182947,0.08772553,0.065027654,-0.01815913},{-0.058258366,-0.020184018,-0.071304105,0.012912306,0.00017050136,0.0026162097,-0.014765576,0.0066113845,0.023480045,0.023982273,-0.035395518,-0.02868827,0.026479056,-0.009496347,0.051197283,0.011568657,-0.004443841,0.012761909,0.041731227,0.081171915,0.08978747,0.024511473},{0.053205144,0.0180355,0.059908953,-0.012380762,0.0012121694,-0.0042004525,0.013374988,-0.0067158206,-0.020573143,-0.022500938,0.035456087,0.030290896,-0.021667399,0.010099096,-0.04551113,-0.012236117,0.0050892015,-0.011102306,-0.034660008,-0.07450393,-0.082488224,-0.02127864},{0.004669882,0.044810902,-0.026681192,-0.032284852,-0.022817547,0.031146357,-0.011273593,-0.001981753,0.012011475,0.07606113,-0.027330164,-0.068269104,-0.02331328,0.04091246,-0.07404382,-0.13981728,-0.009398415,-0.010997369,0.044512335,-0.16570881,0.032407667,0.012806059},{0.08155382,0.0067202733,0.007545441,0.016405636,0.022947282,-0.01652397,-0.012013557,0.02090349,0.019803723,-0.027239759,0.022382416,0.021353096,-0.030020531,-0.01287701,0.009195381,0.0268418,-0.028876536,0.03820198,0.017019631,-0.09166889,-0.06866443,-0.00552109},{0.05284691,0.018528027,0.058018435,-0.010416478,-0.0053185225,-0.0046716603,0.018373476,-0.0039713415,-0.015724864,-0.021223653,0.032129865,0.026269076,-0.024044152,-0.002613751,-0.05062407,-0.006969001,-0.0013905094,-0.01795798,-0.030153563,-0.08580339,-0.0751969,-0.020791646},{-0.061075978,-0.01757377,-0.0722951,0.013708824,-0.005179135,0.0025979958,-0.011881742,0.008013223,0.025508659,0.02455282,-0.034143806,-0.034960713,0.025148759,-0.014571856,0.03816319,0.011601526,-0.008553822,0.008064173,0.039023347,0.08546547,0.09591343,0.024835134},{0.07654889,-0.022808222,-0.0042355396,0.0053940224,0.0005587377,-0.01178621,0.014721211,-0.009534177,-0.0024232243,-0.042025328,-0.024272557,0.023650197,-0.049704712,0.014586069,0.059280112,0.026633598,0.026722254,0.03432175,0.04354084,-0.079502955,-0.062269766,0.03373739},{0.07855478,-0.022913018,-0.0046068006,0.0045674024,-0.00072869204,-0.012031563,0.016770538,-0.008611659,-0.0025988957,-0.042264123,-0.022798546,0.025510004,-0.048291527,0.013670338,0.05513933,0.025893355,0.023340814,0.034486763,0.043090478,-0.082310006,-0.06395027,0.032082457},{-0.046615798,-0.016858477,-0.045587942,0.009585959,0.004493944,0.00721462,-0.018251264,0.0026452409,0.0132168,0.023772854,-0.033435784,-0.022244884,0.01848319,0.0008307452,0.0454665,0.0074055116,0.0013098578,0.013646656,0.026906112,0.06691602,0.07259194,0.015511552},{-0.0036645583,-0.05858085,0.022837259,0.04242707,0.032465685,-0.035742592,0.0076309545,0.003116479,-0.017137049,-0.09892388,0.042870514,0.0771545,0.033099152,-0.052665617,0.07379516,0.208649,0.0029628905,0.024222983,-0.030695848,0.20412518,-0.038441528,-0.010394056},{-0.0706071,-0.01854429,-0.08616983,0.013204149,-0.0059207883,-0.0017639494,-0.011982694,0.0099164015,0.030117664,0.026836725,-0.030336484,-0.03664511,0.033748783,-0.018869191,0.03217898,0.010538858,-0.013867782,0.006927522,0.03974897,0.10352431,0.10903198,0.02731694},{0.06325895,-0.011622438,0.0033915667,0.009979181,-0.0027353636,-0.008854435,0.020521132,0.0007268564,0.0037893793,-0.044638153,-0.009884598,0.025074609,-0.047323696,1.5218422e-05,0.03435161,0.02389029,0.02618096,0.024877796,0.03989441,-0.06898601,-0.06789357,0.019868638},{0.01396936,0.015277198,0.013207013,-0.0019996492,-0.0041992925,-0.01058883,0.01576948,0.001950547,-0.004761387,-0.023749283,0.035549734,0.017543219,-0.0018888692,0.00053556205,-0.030903542,-0.010828956,0.00069573714,-0.0076242117,-0.02206023,-0.023649655,-0.04537652,-0.011886349},{0.009824298,0.04429278,-0.01614257,-0.030739328,-0.02116947,0.028311655,-0.010250801,0.0026101957,0.007256515,0.06727515,-0.010443803,-0.06199985,-0.014634588,0.0335964,-0.09368443,-0.107727274,-0.017433545,-0.009948575,0.054690495,-0.14409745,0.020005295,-0.012000421},{0.06315863,0.016032051,0.070629865,-0.012690321,0.00473755,-0.0020094384,0.011934236,-0.0085478,-0.024715435,-0.026065817,0.030736487,0.035849717,-0.029164117,0.014624115,-0.03255072,-0.0075585,0.010831642,-0.0065985546,-0.031599466,-0.0911598,-0.09688979,-0.022306807},{0.054420788,-0.014185722,-0.013047912,-0.02181009,-0.0023406204,-0.0023115876,0.00029900906,-0.017118147,-0.012081881,0.019316189,-0.00932167,0.009340804,-0.007654019,0.011274908,0.03397023,0.010113409,-0.023641413,0.037895992,0.0059770355,-0.023109326,0.005400598,0.0062565366},{-0.06419944,-0.019742021,-0.080430046,0.014528943,-0.0034181706,-0.00081529334,-0.01271518,0.008771627,0.027270077,0.02329228,-0.03384149,-0.033982933,0.028697828,-0.0145329535,0.04383995,0.012884398,-0.009264205,0.010920756,0.04291114,0.091069035,0.099707834,0.027286531}};
static const float linear_rnn_bias[48] = {-0.028912855,-0.0038607907,0.017395446,-0.0010130504,-0.010585653,0.009311515,-0.008314185,-0.06306608,-0.013345868,0.032954853,-0.015631432,-0.02962074,-0.03138578,0.031158747,-0.0029083167,0.010741253,-0.0025247112,-0.019665176,-0.0070247506,0.029509904,0.07047917,-0.02409925,0.021144578,-0.03687551,-0.03302832,0.019199733,-0.018050596,0.03292499,-0.019751169,0.0021487896,-0.0036483295,-0.033214785,0.029777912,0.025554571,0.021548774,0.028939385,-0.034292072,-0.0149867125,-0.014675031,-0.030343752,-0.03969693,-0.035850633,-0.008292297,0.02188094,0.025154809,0.031598646,-0.006418383,-0.034028865};
static const float rnn_weight_ih[48][48] = {{-0.0038631011,-0.0015951653,-0.0018953418,-0.0009876043,0.0006880662,0.0030161152,0.004977737,0.0051536923,0.005297887,0.0026022962,0.0022971418,-0.0018236694,-0.0022792341,0.0022724916,-0.0020205542,0.003744849,-0.0028705648,-0.004472421,-0.0046502384,0.002325726,-0.0040981253,-0.0006375722,-0.001323164,-0.0026014978,-0.0032660472,-0.00025223373,0.003278664,0.0031284823,0.000247998,0.0032160943,-0.0039917063,-0.0020907016,0.002116591,0.004881294,0.0039044544,0.0010881926,-0.0029555587,0.005349782,0.0052654315,-0.0009779128,-0.0054843216,-0.0035767471,0.0045473548,-0.00019577096,0.0043492178,0.0030667023,0.0022008466,-0.0030552358},{-0.00080183847,-0.006495373,-0.010771373,-0.0058523854,0.0065209535,0.0054699723,0.014840949,0.021691645,0.014916547,0.007259137,0.00026463583,-0.005531757,-0.0060828268,0.0058115143,-0.0040229233,0.0047925618,0.0005550144,-0.00014073202,-0.0022615655,0.008253787,-0.018599859,0.0064953747,-0.0072211004,-0.007520031,-0.0105108665,0.001994508,0.008142166,0.009692575,0.006093459,0.009467153,-0.012647133,-0.005937697,0.00551156,-0.00052806875,0.016338194,0.0068649068,-0.007881536,0.015665451,0.015594552,-0.0056644836,0.0024823367,-0.011585242,0.012646198,0.0015788546,0.00026147143,0.010281468,-9.702364e-05,-0.007985483},{0.0037226721,-0.010088718,-0.00998502,-0.008200568,0.005505796,0.0067413356,0.024352474,0.03533645,0.024355887,0.0028791996,0.00027861045,-0.0030305872,-0.0024358311,0.0020320571,-0.010127124,0.007592346,0.0013548535,0.011375451,-0.0037882018,0.0051878085,-0.02994866,0.009245646,-0.008746108,-0.0028300276,-0.00526956,0.0028967834,0.012951043,0.004647611,0.0058257575,0.015339889,-0.021790056,-0.002380253,0.0018637843,-0.011060449,0.018618444,0.005002407,-0.0027080763,0.025275325,0.025344418,-0.0052484614,0.014637459,-0.0050881314,0.022501096,0.0003060847,-0.008281959,0.005454506,0.00075988896,-0.0026025986},{-0.007480798,0.004896277,0.011799948,0.0058419746,-0.008339805,0.0010664162,-0.0028751395,-0.0038298839,-0.003575258,-0.0038884515,0.007212952,0.003775831,0.0037393104,-0.003653934,0.0026377917,0.0015853853,-0.005938786,-0.007050436,-0.0022010487,-0.0056494386,0.004973502,-0.011046046,0.00647741,0.004025521,0.004946146,-0.0032049902,0.00012068733,-0.0050266716,-0.010082947,-0.004461855,0.0019038141,0.0035421276,-0.0038159124,0.007863696,-0.005897461,-0.004259479,0.004459358,-0.0026995554,-0.002710037,0.0038098062,-0.006394072,0.005330974,-0.00385617,-0.0037138695,0.00893194,-0.0053476575,0.0044169114,0.0041177142},{-0.007552252,0.0062650023,0.0133553445,0.006951375,-0.0098455865,0.0013623142,-0.004772282,-0.0063294144,-0.0057712174,-0.004751557,0.006983072,0.004641089,0.0045728055,-0.004521146,0.0041116215,0.0026746164,-0.0063597234,-0.0068615554,-0.0037668026,-0.0065538976,0.00732821,-0.011743431,0.007350403,0.00480313,0.0056351093,-0.0042550145,-0.00028230646,-0.005717504,-0.010918182,-0.006361581,0.003371955,0.0043873317,-0.00460993,0.0077131833,-0.0073102326,-0.0054862523,0.005037701,-0.0045910124,-0.004632642,0.0048908303,-0.0067423354,0.0059560183,-0.006118426,-0.0046124803,0.008776301,-0.006086037,0.0052257,0.004771657},{0.0012124216,0.00355223,0.0075573907,0.0014713077,-0.0029773181,-0.006551457,-0.0120877,-0.015552006,-0.011934775,-0.0056047933,-4.7976013e-05,0.0039064707,0.0045282096,-0.004316271,0.0018924465,-0.0075222915,0.0021226052,-0.00010460443,0.0067361505,-0.0054726577,0.012928077,-0.0044254754,0.005840164,0.0057253847,0.008166799,-0.0005055279,-0.007955081,-0.0073059415,-0.0043230583,-0.0071953055,0.010530541,0.0044697793,-0.003861238,0.00028020894,-0.017140308,-0.004888259,0.006025934,-0.012491067,-0.012441422,0.0037850116,-0.0022891832,0.008958323,-0.009925388,-4.5546396e-05,-0.0007344108,-0.0076721716,-0.0035538482,0.0062130485},{-0.00045830515,0.0069581117,0.011400737,0.006411601,-0.0072496035,-0.0058265165,-0.016707653,-0.023266327,-0.016696643,-0.0066971905,0.0008773447,0.005559858,0.005836728,-0.005528528,0.004708728,-0.0052668517,-0.0018358211,-0.0004025893,0.0023081414,-0.008964757,0.01999931,-0.007942177,0.008051685,0.0071396464,0.009790267,-0.0027245146,-0.00851389,-0.009347987,-0.007103117,-0.010260049,0.014276359,0.0057120817,-0.0055538183,0.0014181728,-0.016060317,-0.006537929,0.0076135844,-0.017797882,-0.017718548,0.006077379,-0.0012532406,0.010779741,-0.014136764,-0.0027676253,0.0012441209,-0.009967398,-0.00023568273,0.0074621127},{0.10212189,0.0055034324,-0.04961933,0.007330388,0.0137129985,-0.004508481,-0.012054408,-0.027806515,-0.011399116,-0.022740029,-0.077324785,0.012936638,0.018071054,-0.018613102,0.01061604,-0.0053422996,0.0011965969,0.19325909,0.00540069,-0.009722604,-0.0002088772,0.08952987,-0.038872957,0.019456808,0.022215048,0.00031022835,0.013156552,-0.02006711,0.066412605,-0.008183972,0.013695833,0.019459622,-0.015332552,-0.17824936,-0.007096972,-0.020856472,0.017656041,-0.013147785,-0.0135582015,0.012245919,0.22699916,0.025682792,-0.012423406,0.0040938864,-0.15892276,-0.019136485,-0.0048782458,0.022622056},{-0.005680032,4.5657085e-05,-0.0064545013,0.0007512258,-0.00060971477,0.013644858,0.017898072,0.02240249,0.015963163,0.01539281,0.006568874,-0.009046446,-0.011728412,0.012071216,-0.0016587914,0.012114543,-0.003757666,-0.0013878156,-0.010405724,0.007864269,-0.014118504,0.0012680661,-0.002657495,-0.015549852,-0.016664134,0.00023604895,0.00794725,0.014107128,0.0011555066,0.004932487,-0.01793906,-0.012564538,0.00933104,0.00271949,0.019286925,0.01187033,-0.012984225,0.01762868,0.018086568,-0.00790585,0.001884169,-0.018596398,0.011536883,-0.0010285043,0.002929731,0.0140099125,0.010224227,-0.015101892},{-0.005898609,0.0032592467,0.015693428,-0.0015322691,-0.003197337,-0.01640057,-0.023827631,-0.021262323,-0.023922965,-0.0066682943,0.0038034036,0.0046707643,0.0054151267,-0.0050979736,0.00700719,-0.019867783,0.0011131923,-0.010242767,0.020866767,-0.008655086,0.017697982,-0.013621212,0.013400864,0.0077378307,0.010447102,0.0015601616,-0.0149329025,-0.009862974,-0.01254704,-0.012368988,0.020161856,0.005276769,-0.0049011284,0.010247882,-0.032698203,-0.004827783,0.008343046,-0.023587553,-0.02356596,0.0039049054,-0.013325839,0.011772859,-0.0206761,0.0002482484,0.010102027,-0.010391949,-0.013682052,0.007988763},{-0.005636744,0.0028707983,0.007122962,0.0020302935,-0.0045610815,-0.0020439075,-0.0076008327,-0.0042511364,-0.0071376553,-0.004778397,0.0077179098,0.003823078,0.0040140767,-0.0039271354,0.00086215796,-0.0035867211,-0.0049632345,-0.009093534,0.003460067,-0.0052244468,0.0035042244,-0.008111752,0.004665261,0.0053591314,0.0057554045,-0.0024802228,-0.0016313017,-0.0053448514,-0.0062434613,-0.0043836404,0.0068785865,0.0042976053,-0.0036083637,0.0094052,-0.0067752143,-0.0042480286,0.004741019,-0.0065669077,-0.0069193696,0.004351,-0.00998023,0.0062374417,-0.0062560905,-0.0032931832,0.0074354885,-0.0056099244,-0.0009179272,0.0047577163},{0.0060780062,-0.00012450764,-0.0045189005,-0.0011595652,0.002835954,-0.003637734,-0.0031390728,0.0015501265,-0.0029315604,-0.0013628781,-0.003911983,0.0007817488,0.0011664438,-0.0012268813,0.0024973087,-0.0032942628,0.004924254,0.0055508744,0.0035086765,-0.00028856413,-0.00392137,0.005721333,-0.0021090836,0.0015061401,0.0011404959,0.0006385589,-0.0014279906,-0.0010383768,0.004632632,-0.001602534,0.0031663445,0.0012473355,-0.0010938699,-0.006052748,0.0059333397,0.00016990873,0.0013687635,-0.0027624741,-0.0029318973,0.00011636071,0.0059217988,0.0012810697,-0.002825641,0.00026219297,-0.0068378206,-0.00078148406,-0.003631287,0.001602478},{-0.002426926,0.0071937954,0.017491007,0.0034895644,-0.00704168,-0.013698767,-0.025423426,-0.027632823,-0.025701083,-0.0076633967,0.0025577906,0.005878608,0.006487539,-0.006079092,0.0071458677,-0.0152412765,0.00089411566,-0.004289482,0.014479176,-0.010411006,0.024005841,-0.0125224395,0.013390481,0.008480808,0.012094048,-0.00025225006,-0.015345826,-0.011453337,-0.011992436,-0.015305936,0.021585004,0.0062045255,-0.0060258307,0.004902401,-0.030685956,-0.006377396,0.009442661,-0.025716687,-0.025654618,0.005506654,-0.0062668747,0.01348748,-0.0222229,-0.001137798,0.0045376425,-0.012171022,-0.008496098,0.009074372},{0.002084436,0.0024693832,0.0042936206,0.0015803815,-0.0015837412,-0.004385716,-0.006915047,-0.010067746,-0.0069050025,-0.0029255291,-0.0014369511,0.002059276,0.002433259,-0.0022815561,0.0016654499,-0.005628461,0.0023964988,0.001112532,0.005829691,-0.0029444494,0.008577008,-0.0019391071,0.003209736,0.0028238355,0.0045650094,0.00016458886,-0.005129798,-0.004118802,-0.0021600025,-0.004288078,0.006004026,0.0022407083,-0.0021095441,-0.0014456335,-0.009915537,-0.0022608957,0.0034073573,-0.007425633,-0.0073001655,0.0017000663,0.00040133603,0.0049130633,-0.0057544373,0.0006603413,-0.0015886478,-0.0042874403,-0.002055886,0.0034629097},{0.002228848,-0.0038307025,-0.013257862,-0.0005871039,0.004535679,0.012880622,0.019458462,0.017340425,0.019303633,0.0074390033,-0.00362177,-0.0053319945,-0.0061746915,0.0059315804,-0.0044997986,0.014950445,-0.0014432705,0.003820043,-0.015456603,0.008385505,-0.014598475,0.010061713,-0.010679322,-0.008180648,-0.010651819,-0.00022564696,0.011662702,0.009962381,0.009869216,0.010685451,-0.016868029,-0.006087332,0.005563934,-0.004071869,0.02758015,0.005371701,-0.00863337,0.01915347,0.019192964,-0.004547468,0.0047892975,-0.011865841,0.016330797,0.0008587318,-0.0036400373,0.0103492,0.009837731,-0.008555498},{-0.0029590803,-0.00524598,-0.010573748,-0.0039461865,0.0051237894,0.0053873444,0.014827272,0.028955868,0.015129712,0.0054522017,0.0048743756,-0.0055023874,-0.005389838,0.0050933203,-0.0038637458,0.005082947,-0.0004955028,-0.0052797874,-0.0027067682,0.008004777,-0.02721554,0.0049356516,-0.0061760945,-0.0051642125,-0.007993885,0.0035825954,0.008438267,0.007921653,0.004796444,0.008746948,-0.012173515,-0.0049605086,0.005343941,0.004412257,0.009735007,0.006472901,-0.0062245624,0.017242873,0.016922573,-0.005871896,-0.0039003107,-0.008268257,0.012167004,0.0024443686,0.0026705558,0.008585174,0.0018735568,-0.005932547},{-0.01989027,-0.017466636,-0.041802898,-0.011131109,0.010663413,0.033753,0.064340234,0.082481645,0.064585544,0.06337377,0.013978098,-0.046374764,-0.053948693,0.054476626,-0.015032176,0.028185144,-0.008340605,-0.002712182,-0.017293543,0.04568955,-0.053194102,0.014742957,-0.014854017,-0.0648228,-0.07033337,0.015694488,0.02581159,0.06381772,0.014245971,0.038026012,-0.05993102,-0.05537122,0.047864787,0.007814868,0.044919495,0.050004672,-0.05993534,0.06711488,0.06768524,-0.040446293,0.0050110747,-0.076667614,0.05456312,0.012965241,0.008706199,0.063797794,0.012880364,-0.064631075},{0.01005529,-0.009072106,-0.027875647,-0.003194936,0.0012220836,0.018689081,0.029805377,0.027482007,0.02852324,0.01714046,-0.0047814487,-0.014895812,-0.015615613,0.015172092,-0.004946312,0.01663291,-0.003319963,0.05820921,-0.009862303,0.01993653,-0.029225443,0.022657981,-0.006034619,-0.01713368,-0.021748904,0.0087722065,0.010353031,0.021233654,0.014558779,0.019290859,-0.031986985,-0.014717204,0.01453279,-0.048297357,0.022321092,0.015994867,-0.017726509,0.031262666,0.031933915,-0.014758018,0.08855935,-0.0240295,0.023463883,0.0059958613,-0.036126696,0.022119362,0.007731177,-0.018135259},{-0.010108708,0.006952388,0.0058250087,0.0051921397,-0.0045154225,0.0065622423,0.0030758413,-0.008015725,0.0004873941,0.02578951,0.0029166704,-0.014862252,-0.020094119,0.021130083,0.0042303884,0.0059584174,-5.6548794e-05,-0.019567473,-0.007997264,0.007579652,0.017462002,-0.008397712,0.004047104,-0.025576213,-0.023710253,-0.0003282666,-0.0020764507,0.019894982,-0.0058253407,-0.006995429,-0.004247952,-0.022006989,0.016150901,0.01747005,0.008981287,0.015782375,-0.020670263,0.00072633545,0.0014222291,-0.010226324,-0.024454702,-0.026192004,-0.0026619139,-0.00014992368,0.016760536,0.0185687,0.010278831,-0.024914715},{0.0057204897,-0.0030183005,-0.015110921,0.0014388998,0.002820834,0.014861747,0.022189766,0.02012197,0.022261579,0.0074977907,-0.004856141,-0.005321509,-0.006128155,0.0058204303,-0.0059126695,0.0187571,-0.00057063444,0.0107054915,-0.020566715,0.009085616,-0.016038263,0.013373541,-0.0123569975,-0.008628508,-0.011251106,-0.00089594314,0.013475214,0.010558597,0.011937617,0.0118496865,-0.018819667,-0.006077724,0.00557026,-0.010851423,0.032074433,0.0053919456,-0.00905481,0.022043103,0.02205175,-0.0046190107,0.013162918,-0.012635537,0.01915194,0.0005390363,-0.00982182,0.011053743,0.01417563,-0.008814886},{0.008202149,0.0069095893,0.019843364,0.0050148615,-0.006718483,-0.016372897,-0.020798303,0.014905247,-0.019000877,-0.071799405,0.020729588,0.049869433,0.059783753,-0.06150477,0.0056783897,-0.014344974,-0.0009876381,0.00088232406,0.007969798,-0.03970901,-0.032997273,-0.010274167,0.005259369,0.07198417,0.07186994,-0.01947277,0.0028760112,-0.06341757,-0.0096591525,-0.011591186,0.021378877,0.06285967,-0.05186606,-0.00031534286,-0.029913703,-0.054159652,0.06283275,-0.015946064,-0.017471751,0.042811327,0.004312697,0.07732464,-0.015987206,-0.01681376,-0.0105565125,-0.061683264,-0.0039417283,0.07065148},{0.0028034777,-0.008042434,-0.017783253,-0.0052844007,0.008141369,0.011912749,0.02403674,0.027110424,0.024497978,0.006838531,-0.0022857352,-0.005465109,-0.005876353,0.005512139,-0.007924968,0.012333251,-0.0002745073,0.0051483475,-0.011855202,0.009842282,-0.024475073,0.012650433,-0.013341053,-0.007476931,-0.010732576,0.00072461437,0.014509917,0.010266241,0.01220397,0.015164202,-0.02031874,-0.0055312417,0.005469126,-0.0053009917,0.026464153,0.0061123976,-0.008324947,0.02450085,0.024374086,-0.00531948,0.008105618,-0.011858575,0.02152924,0.0012492987,-0.005062969,0.010990878,0.005698713,-0.007908183},{0.013903132,0.015394769,0.042440612,0.009161584,-0.009735616,-0.035529442,-0.065380655,-0.08993285,-0.06489376,-0.053842362,-0.010406494,0.039173543,0.045503523,-0.045820072,0.014219893,-0.030188752,0.009958325,-0.0075205546,0.0192181,-0.040053274,0.06166478,-0.019277466,0.01751634,0.05601814,0.061405502,-0.011601366,-0.030767068,-0.055423923,-0.01644441,-0.03664259,0.060453665,0.046625976,-0.040260397,0.0022352764,-0.04785128,-0.041485935,0.051662996,-0.06853962,-0.06886145,0.03441694,-0.014475506,0.066919394,-0.054159313,-0.009547866,-0.0005637727,-0.05577284,-0.014350043,0.055249},{-0.0075851018,-0.0015425067,0.009743613,-0.0065525905,0.0024174266,-0.014649577,-0.018781103,-0.015071112,-0.018636232,-0.0050896597,0.0040707253,0.0030757466,0.0038398542,-0.0036627385,0.004490908,-0.019323517,-2.4992652e-05,-0.013673251,0.021104617,-0.0052306205,0.010406423,-0.011379824,0.010367376,0.006205812,0.007663236,0.002736182,-0.011963807,-0.006960087,-0.009414512,-0.0073377304,0.01591757,0.0039301566,-0.0032305305,0.013578502,-0.032101564,-0.002761875,0.0061199204,-0.018220944,-0.01827218,0.0021549633,-0.017281294,0.008589431,-0.01593758,0.0014080437,0.011827288,-0.00722997,-0.016828246,0.006018266},{-0.007188567,-0.0011261853,0.0016715807,0.00022953418,-0.0013372261,0.004647922,0.006456,0.0032171113,0.0063774474,0.0042224624,0.0041049174,-0.0032064554,-0.003778593,0.0038298948,-0.003286182,0.0042565065,-0.0051296093,-0.0069787744,-0.004089367,0.0031635829,-7.990939e-05,-0.0044590444,0.00059562066,-0.00437366,-0.0044352324,0.00075020903,0.0026723451,0.0042205504,-0.003187219,0.0037984084,-0.0058509544,-0.003808619,0.0035811793,0.0074915085,-0.0033665649,0.0022962869,-0.0042478433,0.0063321316,0.0064888904,-0.002397388,-0.006953484,-0.004777904,0.00569883,0.0010539751,0.008252499,0.004039936,0.0037729677,-0.0045527946},{-0.007827132,0.0018167992,0.015032523,-0.0034129499,-0.0015297736,-0.01745152,-0.02465038,-0.022532312,-0.024762737,-0.0051872605,0.003986967,0.0034603607,0.0040852926,-0.0037374697,0.0073405756,-0.02185904,0.0008297384,-0.01313781,0.023785233,-0.0074424194,0.01805071,-0.014496695,0.013816159,0.0064742793,0.009059302,0.0028331683,-0.016002906,-0.008559135,-0.012760749,-0.011962314,0.020835357,0.003939602,-0.0036786955,0.013299043,-0.035544742,-0.0032862502,0.0071215928,-0.024455013,-0.024416266,0.002676944,-0.015979985,0.010284407,-0.021503305,0.001300323,0.012760584,-0.009087742,-0.017227285,0.00663817},{0.0033409493,0.0047822124,0.008294039,0.0019108511,-0.0034804423,-0.0077884328,-0.015767839,-0.020141646,-0.015859168,-0.006108888,-0.0018140072,0.0044012945,0.005016621,-0.004776827,0.0031277156,-0.007922579,0.0026757333,0.0026528183,0.0060723326,-0.0064716693,0.017031282,-0.0034492915,0.0065097534,0.006308176,0.00900092,-0.0007184016,-0.009933423,-0.008159789,-0.0038715082,-0.0098426705,0.013672521,0.004902729,-0.004366203,-0.0024839016,-0.019533379,-0.005378926,0.0066423565,-0.016348056,-0.016279237,0.004380023,0.00074539776,0.009906437,-0.013507902,-0.00029297097,-0.0035427439,-0.008591133,-0.003904465,0.0068149795},{-0.008321998,0.008385727,0.007293245,0.0066028517,-0.0056097275,0.0047788443,-0.001221205,-0.012721761,-0.0037963258,0.021476716,0.0022347944,-0.011429243,-0.016212672,0.017272353,0.005985133,0.0045475787,-0.0006001802,-0.01688714,-0.007512056,0.004546479,0.020209733,-0.008381109,0.0051483,-0.021126693,-0.018964637,-0.0013510346,-0.0038380958,0.01550281,-0.0059646876,-0.009310208,-0.0005218106,-0.018021448,0.012658672,0.015065563,0.004555945,0.012407999,-0.016539283,-0.0035915182,-0.0029074783,-0.0073514464,-0.022273092,-0.021169817,-0.0064134407,-0.0009932168,0.013904922,0.014176262,0.010016182,-0.020509964},{0.0032231994,-0.0049404213,-0.012714247,-0.0031519472,0.005655439,0.008640904,0.014632825,0.015873937,0.014684011,0.0063865897,-0.0035510578,-0.004920814,-0.0054319915,0.005211273,-0.0041929944,0.009708605,-0.00021165883,0.0053953943,-0.009105815,0.0073091113,-0.014078356,0.009992409,-0.009332991,-0.0066931937,-0.009021629,0.0011624603,0.008722726,0.008417767,0.009403608,0.009032118,-0.012556013,-0.0052722762,0.004895157,-0.005478221,0.01983449,0.005669424,-0.007131452,0.014669128,0.014645684,-0.0046589198,0.007245555,-0.009824238,0.012704332,0.0012064956,-0.005171896,0.008855567,0.0035659594,-0.0070483256},{-0.0033548672,-0.0028327382,-0.006100121,-0.0004531784,0.0017322864,0.008593076,0.014164945,0.015058318,0.013961992,0.006029815,0.0017504487,-0.003813087,-0.0047341273,0.0046154927,-0.0021899864,0.009936082,-0.0038068094,-0.003843512,-0.011135121,0.005308881,-0.012323564,0.0022960012,-0.0056968178,-0.006213284,-0.008232255,-0.00047391577,0.009132637,0.007373214,0.0030912065,0.007832001,-0.012418138,-0.0047468836,0.0039617796,0.0036221095,0.019025564,0.004368478,-0.006245014,0.014301037,0.01431203,-0.0032941524,-0.0031804426,-0.009136704,0.011496504,-0.00039617074,0.0039780466,0.0075760954,0.0071268673,-0.0066640778},{-0.012022157,0.007510327,0.012773675,0.008057289,-0.009625914,0.003516068,-0.005412218,-0.006009522,-0.0073292656,0.00024316124,0.008626879,0.0015175014,0.00062325015,-0.00057096436,0.008951062,0.003174953,-0.009189411,-0.013720484,-0.00175662,-0.0042589256,0.0073153796,-0.014149935,0.0072490363,0.00018006485,-0.0003144578,-0.0035971396,-0.00018520223,-0.00070434966,-0.011646736,-0.008154991,0.00288954,0.00027211587,-0.0014899205,0.014516268,0.00256517,-0.00072460616,0.0005656776,-0.005650255,-0.0057115117,0.0020850194,-0.012392668,-0.00057153305,-0.008893538,-0.005147076,0.015555848,-0.0010341288,0.004191643,-0.00028312686},{0.004038278,-0.0026536658,0.008535384,-0.0025915692,8.0944024e-05,-0.009681378,-0.009680064,0.012756425,-0.0072587156,-0.04679948,0.012565986,0.030485192,0.03790574,-0.03934482,-0.0015540008,-0.0083272485,-0.0014775487,0.0005683033,0.007770125,-0.02160052,-0.025630794,-0.0052550384,0.0012894538,0.04733014,0.04551348,-0.008549315,0.0032142093,-0.03932149,-0.004646974,0.0006550279,0.010846903,0.04046973,-0.032052234,-8.1896906e-05,-0.019500712,-0.032973096,0.039808717,-0.006126312,-0.00724918,0.024831442,0.004805418,0.04947281,-0.0036603294,-0.0075930976,-0.0051814057,-0.03774717,-0.00809468,0.045701575},{0.0041785794,-0.004144747,-0.009148279,-0.004499656,0.0056937183,0.0018153109,0.0043777525,0.008353826,0.004601716,0.0035697927,-0.004218905,-0.0029586465,-0.0031031442,0.002946339,-0.0016751552,0.002311312,0.0025800937,0.005703235,-0.001838716,0.0044542067,-0.008390192,0.0080596935,-0.005581738,-0.00366701,-0.0052715093,0.0015293206,0.0027932622,0.0049239784,0.0071685584,0.0042042714,-0.003559382,-0.0029191584,0.0028410326,-0.005868145,0.010856698,0.003671649,-0.004045642,0.0047259214,0.004594925,-0.003022095,0.0071050804,-0.0056862165,0.004201669,0.0013238557,-0.0055277185,0.0052786735,-0.002080754,-0.0038969496},{-0.012516421,0.008100466,0.015767459,0.0069765835,-0.0107224975,0.0007679871,-0.009631441,-0.00871268,-0.011315765,-0.0020565116,0.00972485,0.0029541582,0.0024142389,-0.0022869257,0.009219033,-0.00084957015,-0.00814408,-0.014925549,0.0028130254,-0.006578799,0.008975141,-0.016688341,0.009583313,0.0026307416,0.002928667,-0.0035289887,-0.0028973136,-0.003684896,-0.014017571,-0.010436948,0.006640802,0.0021149088,-0.0030741617,0.015880197,-0.0015321325,-0.0023553828,0.0031962164,-0.009918127,-0.01003206,0.003249877,-0.0135353515,0.0031658292,-0.012118697,-0.0054177674,0.017339323,-0.0040921224,0.0008022414,0.0023946054},{-0.0003447699,0.008914017,0.0144783305,0.008043405,-0.009121847,-0.007092987,-0.019912131,-0.027052896,-0.020264028,-0.007951472,0.0007000417,0.0063112197,0.0067661917,-0.006424635,0.0065317145,-0.005854868,-0.0012567914,-0.0013969054,0.002206312,-0.010132424,0.023603385,-0.0094482135,0.010176833,0.0083266385,0.011759223,-0.002522034,-0.010898351,-0.011032786,-0.008865693,-0.013003898,0.016727868,0.006525937,-0.0062760385,0.0021400934,-0.019787038,-0.0077951676,0.008876925,-0.02093395,-0.020818882,0.006695147,-0.0047084875,0.012949646,-0.01757745,-0.0022404317,0.0012450197,-0.011791193,0.0006958852,0.008791012},{0.003976001,-0.008332832,-0.0020824878,-0.0070608957,0.0051168683,-0.004767834,0.0019913083,0.018791104,0.0047538253,-0.028847981,0.005383572,0.017079193,0.022539452,-0.023744421,-0.006562867,-0.004487255,-0.00014188228,0.0044372957,0.007270161,-0.009268454,-0.02649906,0.0021351138,-0.0042971056,0.029115632,0.0263901,-0.0024524925,0.006531575,-0.022096535,0.0016027275,0.009191401,0.00047778516,0.02466149,-0.018254835,-0.0039464543,-0.007320003,-0.018873645,0.023162575,0.0051262565,0.0041830586,0.012791486,0.009292922,0.029067118,0.0073577925,-0.0021822164,-0.005543076,-0.02063848,-0.009446236,0.02766637},{-0.0074256444,0.013119804,0.022197608,0.011976377,-0.015979415,-0.005840171,-0.02335095,-0.026805548,-0.024682982,-0.0075456956,0.006595998,0.006841098,0.006929534,-0.006574763,0.01230423,-0.0041797427,-0.0074020503,-0.0073093814,0.002287169,-0.01270595,0.024591366,-0.017563675,0.014363106,0.008375745,0.011197968,-0.003942578,-0.010720525,-0.011295469,-0.016343188,-0.018289698,0.019061897,0.0065976735,-0.00711411,0.008928566,-0.01807643,-0.007463455,0.009424891,-0.02452392,-0.024497798,0.007072954,-0.007113945,0.012566235,-0.023041284,-0.005883217,0.010654348,-0.01210279,0.0012440546,0.008687633},{0.003097775,0.006414005,0.01051731,0.0048090615,-0.006053681,-0.0076919957,-0.017937213,-0.02409057,-0.017834615,-0.0071981726,-0.0019531476,0.0054659056,0.0060341335,-0.005763741,0.004516175,-0.006829681,0.0010762141,0.0035025964,0.004590539,-0.008329207,0.020388296,-0.005046614,0.0074682087,0.0074750176,0.010445097,-0.0015429313,-0.010060565,-0.009652002,-0.0052303704,-0.010975058,0.015611714,0.0058779693,-0.0054517556,-0.002877863,-0.017899118,-0.0066064238,0.007841712,-0.018535748,-0.018519912,0.005597214,0.00079715764,0.011489096,-0.015192885,-0.0011844219,-0.0036858232,-0.010245728,-0.0018441707,0.00793098},{-0.0066144373,0.010561321,0.016881375,0.011745307,-0.012246405,-0.0013068571,-0.011207248,-0.017186813,-0.013083458,-0.0028733644,0.0032135122,0.0033381695,0.0030683416,-0.0028699622,0.010616226,7.648694e-05,-0.0069101746,-0.0054004216,-0.0007734064,-0.007912258,0.017158628,-0.013333811,0.010040128,0.0032864807,0.0049797627,-0.0022366194,-0.0049187876,-0.005640205,-0.012641015,-0.012246424,0.008653508,0.0024217581,-0.0037432907,0.0063817683,-0.0042290417,-0.0028212576,0.004536386,-0.012205373,-0.01197543,0.0032002393,-0.004231724,0.005625174,-0.013849356,-0.0035160086,0.008738311,-0.006202994,0.0050556413,0.0037268864},{-0.00032385037,0.01030554,0.010858918,0.00908339,-0.009447505,-0.002102582,-0.012559832,-0.022821346,-0.014154026,0.0018469986,-0.0013162276,0.0020094763,0.00027260184,0.00034411077,0.008424226,0.00043770036,-0.0010272919,0.0014326078,-0.004854248,-0.005943784,0.022077795,-0.006119808,0.0074585006,-0.0020563286,0.00086729147,-0.003782573,-0.007153511,-0.0022148646,-0.006064512,-0.013100958,0.010135818,-0.0007032101,-0.0016433203,-0.00055307464,-0.009160907,-0.0019094535,0.0008682776,-0.013997245,-0.013703026,0.0032588067,-0.0010790653,0.0001285725,-0.014281311,-0.0032729246,-2.8365355e-06,-0.0031392677,0.0056480644,-0.00094121706},{-0.0067034457,0.0024649184,0.014774575,-0.0019521614,-0.0021874032,-0.01589184,-0.02291488,-0.020295376,-0.022924872,-0.0062238392,0.00420762,0.0042663245,0.0049887374,-0.004685897,0.0069041373,-0.020032696,0.00092903996,-0.012027261,0.022255382,-0.008057127,0.016220253,-0.013667657,0.012937818,0.0073957597,0.009851142,0.0018320992,-0.014426077,-0.009280289,-0.01219828,-0.011512393,0.019436259,0.0048950696,-0.0045038187,0.011950687,-0.032767173,-0.004198985,0.007877789,-0.022683512,-0.02267314,0.0035163423,-0.014788077,0.011136173,-0.019793542,0.00043804286,0.0113841,-0.009760837,-0.01529997,0.0075439033},{0.0047282167,-0.0015113478,0.010122424,-0.0016782437,-0.00083997234,-0.010489233,-0.011546208,0.011923947,-0.009261046,-0.049944192,0.013146193,0.032912243,0.040663555,-0.042136036,-0.0006124574,-0.008981213,-0.0015713044,0.0013803495,0.007835925,-0.023829594,-0.025722224,-0.005886313,0.0020010707,0.05048054,0.048825543,-0.00973178,0.002877781,-0.042360134,-0.005357725,-0.00096878316,0.012484305,0.043306675,-0.03455169,-0.0007913677,-0.021065203,-0.03557524,0.04274662,-0.007936355,-0.009089086,0.026999297,0.005922562,0.05299716,-0.0056000846,-0.008631539,-0.006112926,-0.040759508,-0.0077630696,0.04887076},{0.0035845365,-0.010538828,-0.0072917067,-0.009000748,0.007761652,-0.0023765292,0.008013355,0.021766156,0.010591437,-0.016807169,0.0019536691,0.008154459,0.012160123,-0.013160121,-0.008825426,-0.0031961564,0.0012198177,0.004568674,0.007093737,-0.0018741057,-0.02548647,0.005492241,-0.006677771,0.016990457,0.014060372,0.0009929601,0.0074150776,-0.010983601,0.0046330146,0.012592022,-0.005206172,0.013857947,-0.009057766,-0.0045262454,0.00073588325,-0.009465247,0.012212918,0.010483335,0.009791309,0.0051281755,0.008790856,0.015997885,0.012386229,0.0008033903,-0.004798054,-0.009703712,-0.009063229,0.015694136},{-0.0063195545,0.003653866,0.016210755,-0.0010542329,-0.003250747,-0.01639017,-0.025022171,-0.023721453,-0.025212048,-0.006666639,0.0037306377,0.004665916,0.005372383,-0.0050298558,0.007631517,-0.020331683,0.00079197704,-0.011218879,0.022151515,-0.008929508,0.01937696,-0.014196608,0.013697002,0.00783446,0.01066291,0.0015426531,-0.015482466,-0.010059346,-0.012770214,-0.013318979,0.021174867,0.005240131,-0.0048903786,0.011382585,-0.034203984,-0.004846498,0.008408621,-0.024956176,-0.024938816,0.0040402953,-0.013908693,0.012059612,-0.021910137,0.00015066823,0.010886988,-0.010636786,-0.01513851,0.0080489265},{0.0058808,-0.0042190794,-0.010703662,-0.002915762,0.0067136562,0.0043582176,0.010846179,0.005539837,0.010611829,0.0067137135,-0.008490683,-0.00542141,-0.0058017806,0.0057069757,-0.0027400963,0.0057607223,0.0045895446,0.008356531,-0.0058391867,0.007909608,-0.0043781414,0.010305189,-0.006773963,-0.0075368057,-0.00810221,0.0029755495,0.0030359533,0.007819243,0.008812646,0.0071253036,-0.009472708,-0.0060272194,0.005488408,-0.008937678,0.0071664867,0.0055617844,-0.0071170023,0.009859404,0.010247191,-0.0055617834,0.008463724,-0.008936599,0.009506472,0.0046538985,-0.007918721,0.008104805,0.002214328,-0.007016348},{-0.009689614,0.007623788,0.01515122,0.007005753,-0.01055665,-0.000539065,-0.0116441855,-0.010671115,-0.012935603,-0.004642055,0.008939863,0.0050557745,0.0047158,-0.0045580007,0.007549435,0.00019927291,-0.007417208,-0.010738185,-0.0005549052,-0.008438403,0.0102723865,-0.014389419,0.008991752,0.005301744,0.0060596135,-0.0043588644,-0.002941727,-0.006486271,-0.012305674,-0.0106556155,0.008798999,0.004560951,-0.0050968966,0.012176658,-0.0053551304,-0.0052297087,0.00562966,-0.0115341,-0.0117485225,0.005548993,-0.01060155,0.006514231,-0.01297728,-0.006011862,0.012497093,-0.006999403,0.0022282598,0.0049787676},{0.0027609188,0.0019854496,0.0056686713,-0.0006877795,-0.0012712714,-0.008725527,-0.013200665,-0.013029713,-0.012891833,-0.005890799,-0.0005558069,0.0037056855,0.004604541,-0.004494779,0.0014783726,-0.010372654,0.0036535305,0.0024750913,0.011256646,-0.004944591,0.010504994,-0.0024891063,0.005324033,0.006102615,0.007934128,0.00038204825,-0.008423835,-0.0070488374,-0.003048114,-0.0069357892,0.011641595,0.004664615,-0.00380985,-0.002413515,-0.018812679,-0.004180001,0.0060484544,-0.013191976,-0.013231853,0.0032021904,0.0019198469,0.008790011,-0.01045273,0.00026313073,-0.0032075946,-0.00721615,-0.0073537403,0.0064589726},{0.003846243,-0.0031189744,0.007817919,-0.0029572758,0.00045653287,-0.009307279,-0.008824667,0.013330893,-0.006353334,-0.04554756,0.012297098,0.02951294,0.036804445,-0.03823307,-0.0019474723,-0.008023396,-0.0014528212,0.00047196733,0.0077239727,-0.020696968,-0.0257954,-0.004894176,0.00093409396,0.046065763,0.044181734,-0.0080945,0.0034475396,-0.03809749,-0.0042896457,0.0013382072,0.010095277,0.039341845,-0.031052738,1.6737424e-05,-0.018767728,-0.03198329,0.038626075,-0.005279522,-0.006394342,0.02398131,0.0046269656,0.04805639,-0.0028085883,-0.007178976,-0.0049784677,-0.036532868,-0.008214287,0.04443209}};
static const float rnn_bias_ih[48] = {-0.0006263157,2.3604307e-05,-0.012098382,0.002473194,1.1032761e-07,0.00089242123,0.0010015866,0.007822076,-0.0013898448,0.00058771874,0.0012137106,0.0010695301,0.0011744511,0.0007824232,9.257478e-06,0.00053467724,0.0077358345,-0.0125650745,0.0022961502,-0.0010514992,-0.007843869,0.015493009,0.0060719736,0.00028346543,0.0004049328,-0.000325559,0.0017104895,0.0006163087,0.001596774,-0.0022962308,0.0003035886,-0.01429927,0.0017042508,0.0023839178,0.0018310382,0.0007539706,-0.0010829952,0.00016231048,-0.00072145095,-0.0011237081,-0.00030906557,-0.005679494,-0.0005407088,-0.0009419068,0.00085088046,5.2320884e-05,0.001515427,-0.006620071};
static const float rnn_weight_hh[48][48] = {{-0.0015720738,0.0037903956,0.0048104916,-0.004517455,-0.0048908233,-0.0011385567,-0.005847848,-0.0039845156,0.004384493,-0.0023392616,-0.0060261623,0.0019219843,-0.0033643122,0.00040174188,0.0025852406,0.004324105,0.00338449,0.0032520774,0.0033428525,0.0025223168,-0.002229933,0.002850572,-0.0033850318,-0.0010762628,-0.0011420784,-0.0015935517,-0.0008327806,0.0029331169,0.002507144,0.00044566244,-0.0035953145,-0.002800876,0.0022190963,-0.004533428,-0.004763698,-0.002967566,-0.008353408,-0.0033403058,-0.0030330706,-0.002244413,-0.0020010518,-0.002761425,-0.0020595444,-0.0022392168,0.007027749,-0.0065029673,-0.00036479,-0.0028181435},{-0.0006082304,-0.006873445,-0.010937123,0.0029891804,0.0027223914,0.0050914157,0.008093605,0.0026370022,-0.0027802088,0.0029406315,0.0049049556,-0.0022713812,0.005506551,0.003403196,-0.00455347,-0.010086862,0.001383018,0.00324156,0.00019881099,-0.002864294,0.00028189676,-0.00571372,-0.00079846266,0.00093187165,0.0007807046,0.0018835473,0.005761706,0.00062728033,-0.004902445,-0.0048268368,-0.001252329,-0.00010339753,-0.004278998,-1.5239213e-05,0.0072760973,-0.00087116036,0.0043423544,0.007175426,0.0028876578,0.0043855305,0.0024668241,-2.8244556e-05,-0.0017449913,0.0027540685,-0.004133721,0.001467663,0.0045026573,-0.000141347},{-0.0012863161,-0.00819052,-0.015007904,0.0035850038,0.0035666812,0.007251877,0.008579716,0.0040351218,-0.0012234754,0.004153817,0.0052991826,-0.0024776286,0.006091077,0.0054382333,-0.006103025,-0.008170034,0.0018478058,0.005686517,-0.00058914174,-0.004062009,0.0017792092,-0.006754686,-0.0021425653,0.00329244,0.0005497183,0.0034968937,0.008243413,0.0005446971,-0.0069014905,-0.007098127,0.00077611406,0.0016254401,-0.0060584894,0.0016140711,0.007900273,0.00012330546,0.0036467416,0.009141526,0.004826591,0.006616512,0.0039161704,0.0017202218,-0.0026314205,0.003909142,-0.003756916,0.0020280657,0.0066909934,0.001587127},{-0.0012216822,0.010169541,0.013750261,-0.0077726473,-0.008282899,-0.0060079983,-0.012343824,-0.010364522,0.0064292075,-0.008489133,-0.009367231,0.004073416,-0.010775078,-0.0021660924,0.009181251,0.011769362,0.0010272375,0.0008545072,0.0026599613,0.008891113,-0.002049007,0.010065573,-0.0012633214,-0.006703934,-0.0019803578,-0.0077596135,-0.0065569854,0.0019286695,0.008068408,0.00531438,-0.0057377885,-0.0021361874,0.006285306,-0.007325037,-0.011756586,-0.0017521894,-0.012385842,-0.009755271,-0.007761236,-0.006413896,-0.008170775,-0.0021525915,-0.00015406644,-0.008720724,0.010174885,-0.008921884,-0.0051570483,-0.002128346},{-0.0012419526,0.009703142,0.013480866,-0.0075567337,-0.007870144,-0.0059834723,-0.011231642,-0.013057872,0.005686144,-0.008492962,-0.008949469,0.0038474745,-0.011118446,-0.0021843472,0.0093782665,0.011284077,0.00021212907,-0.00090817694,0.0023266997,0.008737751,-0.0016924186,0.010365278,-0.0002985911,-0.0065449425,-0.0019436876,-0.007653655,-0.0064277616,0.001594584,0.008510199,0.0052497922,-0.0060203644,-0.0015302121,0.0067359577,-0.0072437893,-0.011160185,-0.0012245096,-0.011830029,-0.010177364,-0.0076362966,-0.0064704553,-0.008060991,-0.0015696328,0.00024372202,-0.008611011,0.0096829515,-0.008684095,-0.0050588907,-0.0015178007},{0.0013340939,0.003517663,0.005734074,0.00019632954,0.00067523436,-0.003964507,-0.0035747755,-0.0028728729,0.0013037788,-0.00077029987,-0.00064588315,0.00047760986,-0.0027893542,-0.0031336362,0.0022528074,0.0051098675,-0.0025090384,-0.003904917,-0.00045281052,0.000571667,0.0012898765,0.0030599555,0.0017258452,0.0007438764,0.00025649235,0.00014551071,-0.004447167,-0.00064104795,0.002780717,0.003830434,0.0051980726,0.0010249073,0.0021391707,0.0045891716,-0.0033376506,0.0011404771,0.0018001595,-0.004126685,0.0005187256,-0.0020294948,-0.0002730542,0.0010374497,0.0013618987,-0.00041192185,-0.00072734174,0.0039450256,-0.0037062005,0.0010241121},{-3.0764713e-05,0.008736042,0.013231736,-0.005225686,-0.004882342,-0.006560608,-0.010325142,0.0011340356,0.0040862635,-0.006105806,-0.0072797113,0.0031646106,-0.008697033,-0.003872834,0.007564636,0.012255354,0.00021085198,-0.0013136201,0.0008743537,0.0060659708,-0.0019981754,0.008709528,-0.00036615523,-0.003898535,-0.001348647,-0.004958021,-0.0073924223,0.00032499648,0.0074799084,0.0063087298,-0.0011369992,-0.0013397855,0.006317783,-0.0025607236,-0.0093483105,-0.00044704057,-0.0075642667,-0.009436521,-0.0050546927,-0.0053284313,-0.0055811633,-0.0014111861,0.0009683041,-0.005933456,0.0067335204,-0.0042121485,-0.005919328,-0.0013027596},{0.0003939546,0.0070633013,-0.0017156622,0.0060532214,0.0036268244,0.0024545852,-0.010522131,0.18010929,0.00961346,0.0037564158,0.0012023996,-0.004756232,-0.0024299573,0.005473538,0.0006156563,0.008049452,0.050081983,0.058033444,0.015496838,-0.0026216742,0.0074174316,0.0019789354,-0.03065817,-0.0007061672,0.0069796275,0.0005377878,-0.0062196,0.012610207,-0.007647235,0.005847519,-0.001391625,0.0012057573,-0.0074382527,0.0072859954,-0.009847603,-0.003048952,-0.00504791,-0.01280738,-0.005283817,-0.010974726,0.0043654405,0.0012286662,0.0002865723,0.00089288026,-0.00054097193,-0.003066208,-0.0048284964,0.0010306091},{0.00074821303,-0.002933551,-0.0021866271,0.0010283393,0.0006096418,0.0026874605,0.0034776686,-0.0018846631,-0.006368164,-0.0008137133,0.0022548372,-0.001951217,0.001487583,0.0014369223,-0.0018007986,-0.0027437736,0.012211418,0.00040143225,-0.0022642969,0.0007529677,-0.012365496,-0.0013176281,-0.009314618,-0.0025690517,0.00166143,-0.0024382677,0.002792635,-0.003343198,-0.0019691742,-0.0027757413,-0.006207289,-0.0026391945,-0.0019804598,-0.005683905,0.00249234,0.0029770655,-0.0019548666,0.0030710986,-0.0026536859,-0.0029216313,-0.00135025,-0.0037544742,0.0048139817,-0.001430152,-0.0010890187,-0.0032595855,0.0027959342,-0.0022182488},{0.0008268371,0.00563459,0.007410634,-0.0027598075,-0.001960903,-0.005272094,-0.006575613,-0.00084558123,0.0062834523,-0.007743993,-0.003800117,0.0011888107,-0.0065819696,-0.0031804256,0.006586264,0.006209177,0.00015378007,-0.0001361827,0.0032347268,0.0076469686,-0.003038236,0.006583629,-0.0007857259,-0.008705264,-0.00015757217,-0.007814059,-0.0052361037,0.0030206775,0.0061014374,0.004732701,0.0020004713,-0.0036757987,0.004090379,0.00029667988,-0.006185971,-0.0037210921,-0.0019636767,-0.0063860645,-0.00096839265,-0.0029121663,-0.0079666,-0.003590614,-0.0026878314,-0.007688989,0.0031721534,0.0005526132,-0.005167812,-0.0037053153},{-0.0015910995,0.014543763,0.014917387,-0.009084918,-0.009161077,-0.008604703,-0.015044271,0.0023475084,0.0075609833,-0.01191725,-0.010859479,0.0049654786,-0.015995951,-0.003116077,0.014424021,0.012113192,0.0021739516,0.0035974476,0.0034932361,0.012120669,-0.0012916765,0.016189134,-0.002516696,-0.007773874,-0.002539658,-0.009729008,-0.008955702,0.0029500776,0.013484114,0.007706442,-0.0036630193,-0.002748775,0.010469755,-0.005756987,-0.016986277,-0.0030712627,-0.011785609,-0.014125845,-0.0073802415,-0.0061082137,-0.010877391,-0.0025896828,-0.0014229217,-0.011680029,0.011301403,-0.008557934,-0.007850188,-0.0028040742},{0.0010631739,-0.00995605,-0.012814916,0.008710445,0.008372387,0.0066630477,0.010999186,0.01156876,-0.007969507,0.009163697,0.010456693,-0.0041388315,0.012709584,0.0027947114,-0.010274648,-0.011987829,-0.005380281,-0.003748726,-0.004676913,-0.009144728,0.004551576,-0.012133648,0.005589005,0.0055447863,0.0020920325,0.0073558646,0.006964421,-0.0036699886,-0.010068622,-0.0057287253,0.003998168,0.004361647,-0.008062574,0.006288184,0.011489651,0.0037438045,0.014536566,0.010307574,0.008570176,0.004938469,0.008257036,0.0044315825,0.0017477399,0.008957612,-0.011586773,0.009631865,0.005411487,0.004333326},{0.0013499305,0.007119728,0.008873323,-0.002813633,-0.0022342093,-0.006308005,-0.008123684,-0.0052704606,0.0046765325,-0.005572193,-0.004705194,0.0017043648,-0.0072213626,-0.0042635,0.0065883687,0.008372658,-0.0023613623,-0.004715847,0.0016181846,0.0057267374,-0.0012286231,0.0071084476,0.0019241225,-0.0054723825,-0.00020206335,-0.005222753,-0.006985221,0.00136116,0.0063048243,0.006168808,0.003442154,-0.00095504406,0.0047336086,0.0019072152,-0.0074903024,-0.0010265949,-0.0023875684,-0.00788792,-0.001694813,-0.004431197,-0.0055322736,-0.0009425629,-0.00028234135,-0.00558206,0.003576964,0.0010367598,-0.0062645283,-0.0009636076},{0.0016182279,0.000510683,0.0015956812,0.0019238564,0.0023503616,-0.0020355214,0.00048583766,0.00018227227,-0.0009853579,0.00022830734,0.0022016221,-0.00053922465,-0.00045178077,-0.0023817657,0.00042691344,0.0011316543,-0.0028445288,-0.002998072,-0.0016927391,-0.00039632065,0.0018215296,0.00085900765,0.0023389207,0.00054979115,0.00061913434,0.00037486877,-0.0024760321,-0.0016538443,0.00080950453,0.0022420203,0.0043974086,0.0018147657,0.0005065776,0.004437433,7.49265e-06,0.0019478402,0.0043010847,-0.0010962393,0.0011538722,-0.0003189168,0.00032890364,0.0018068026,0.0017330731,0.00033586047,-0.0034198556,0.004969901,-0.0022079635,0.0018205597},{-0.0011298461,-0.0061266404,-0.008397413,0.0026660569,0.0020941808,0.0055203442,0.00715302,0.0014933727,-0.004776502,0.005850448,0.004681332,-0.0014485908,0.0065372633,0.0035941026,-0.00650111,-0.007641182,0.0008460533,0.0021026786,-0.0016630356,-0.0059219957,0.0009819,-0.0065644807,-0.00029685898,0.006148546,0.0002590494,0.0056070606,0.005997398,-0.0014824911,-0.005858758,-0.0055333083,-0.0030833292,0.0012698693,-0.004194447,-0.001515904,0.0065985196,0.0014476596,0.0026480814,0.0067023044,0.0011094488,0.0036723728,0.0059127533,0.001201504,0.0007244936,0.005808218,-0.0037074988,-0.00065615616,0.005825256,0.0012948159},{-0.0009992433,-0.008792365,-0.013774404,0.0034159818,0.003288804,0.0061013624,0.010549611,0.003360693,-0.0015141123,0.0045623686,0.0050612018,-0.003824912,0.0066907466,0.004244494,-0.005816528,-0.01313609,0.0051341676,0.0035185723,0.0016541667,-0.004247757,-0.00108935,-0.0072159967,-0.0049262284,0.0027690802,0.0015887335,0.0036632887,0.0069149793,0.0020004513,-0.0062639294,-0.005704027,-0.0002265232,-0.0019475793,-0.005643685,0.0010342505,0.00906427,-0.0022572752,0.0046940856,0.008858352,0.003205187,0.004785806,0.00410466,-0.0019149391,-0.0028151318,0.0043142275,-0.0037891194,0.0017362284,0.0054493677,-0.0019561194},{0.00044905712,0.0019213853,0.0063097975,-0.005490306,-0.0064436155,-0.0021840336,-0.0033118299,0.045315437,0.0013342178,-0.015096743,-0.00381679,0.00354137,-0.011791103,-0.0003772694,0.009667593,0.0022114671,0.057329956,0.033697836,0.004607569,0.014161551,-0.0472482,0.011140017,-0.051923208,-0.0154903475,-0.0035119646,-0.018122895,-0.0023230584,0.001411672,0.0069470047,0.001783937,-0.010149746,-0.024439234,0.0040582423,-0.01227398,-0.005922259,-0.007384759,-0.014456783,-0.0011894421,-0.0069238525,-0.00400345,-0.015235494,-0.027244255,0.0010233192,-0.016103176,0.006289648,-0.011882265,-0.002390317,-0.023355473},{0.00022976733,-0.0014987428,-0.003292336,0.00091815024,0.00018845043,0.003529385,-0.0002585868,0.04162374,-0.00043244232,-0.0013065508,0.0013902248,-0.00081631215,0.00049423,0.0026684068,-0.0013917604,8.8612716e-05,0.03227867,0.0033117,0.009094614,0.0016259702,-0.013726312,-0.00095703715,-0.027550848,-0.0045730122,0.0010673556,-0.0046665403,0.0023516791,0.005696207,-0.003654546,-0.0027822987,-0.0054605515,-0.00823635,-0.0030373167,-0.0043666307,-3.9557886e-05,-0.0025061222,-0.004928757,0.0006206268,-0.0034256054,-0.005092058,-0.0021058132,-0.009488275,0.0022377234,-0.0028034532,-4.1242653e-05,-0.0040796134,0.0026363202,-0.007844303},{8.161055e-05,-0.00087692996,0.0019944243,-0.0018761078,-0.0022263534,0.0013200418,0.00023106058,0.0098221265,-0.010320438,-0.0036866928,-0.0002529853,0.00046835843,-0.0017012506,0.00075726875,0.0013017412,0.0005498074,-0.0011677173,0.0024399504,-0.010052541,0.002963955,-0.009149631,0.0025303746,0.0039403755,-0.0040930416,-0.0005147572,-0.004663554,0.0014166811,-0.009984461,0.0011226116,-0.0015776654,-0.008147641,0.0013429178,0.0006287693,-0.0076981517,-0.00032673858,0.007489617,-0.0049399803,0.0011833959,-0.004744748,-0.0048626936,-0.0037415384,0.00019915181,0.008426124,-0.00379299,0.0013357273,-0.005697964,0.0014072092,0.0018143576},{-0.0005671219,-0.006129848,-0.008321173,0.0032000667,0.0024780666,0.0051756795,0.007403841,-0.0019231391,-0.006326659,0.0069479262,0.004574434,-0.0013864685,0.0067032403,0.002943194,-0.0066163503,-0.006872551,-0.00030097293,-0.00047869445,-0.0032002525,-0.0073545114,0.0029675853,-0.0066844053,0.000930614,0.008042834,0.0002665428,0.006919051,0.0053188424,-0.0029024684,-0.0059546796,-0.0050148545,-0.00198187,0.0036850795,-0.004204114,-0.00017620905,0.006872599,0.0035840229,0.0029437505,0.006675165,0.0011418387,0.0038145029,0.0073857964,0.0036045418,0.0023395955,0.00723985,-0.00399229,0.00026004028,0.00521443,0.0037101586},{0.000104623716,0.0021712189,-0.0029967632,0.0038974239,0.0042366046,0.00019745641,-0.0010170226,-0.029018201,0.0076085213,0.00931637,0.002185056,-0.0043581324,0.0055034016,-0.0002722641,-0.0047658216,0.00082413235,-0.020611493,-0.019926842,0.0028930558,-0.00809871,0.03233552,-0.0067354557,0.015649838,0.009383063,0.0050376365,0.011216234,-0.00096791453,0.004880771,-0.0046353764,0.00085501437,0.008827224,0.012198503,-0.0035656427,0.009309188,0.0006490045,0.00025949956,0.007789801,-0.0031127026,0.0040845284,0.0033095705,0.009426764,0.014425583,-0.0048253713,0.0095356405,-0.0036707497,0.00784591,-0.0001541995,0.011317122},{-0.0012404071,-0.006661126,-0.008975749,0.0026861848,0.0022019497,0.005568098,0.0077059655,0.0058786664,-0.003619978,0.0051170196,0.0044361274,-0.0017036188,0.0063512903,0.0039265486,-0.0059461496,-0.008263577,0.0026526875,0.005441613,-0.00089190167,-0.0050179213,0.0013729302,-0.0068490338,-0.0023418246,0.0046812114,0.0003812188,0.004697961,0.0062354812,-0.0005776369,-0.005872149,-0.0055703167,-0.0024383876,0.0007363671,-0.004441982,-0.0012388084,0.0070535634,0.00033477758,0.0024337955,0.007321902,0.0022697635,0.0047054687,0.005027984,0.0007926708,-0.00056611054,0.0050436663,-0.0033823461,-0.0005539088,0.0055417386,0.000716043},{-0.00033151195,-0.001506238,-0.0062594083,0.0051298253,0.0062182914,0.0014094237,0.003188067,-0.022674087,-0.00071770954,0.014528385,0.0038108528,-0.0028708845,0.011040331,-0.00013885155,-0.009077992,-0.0021398938,-0.055741016,-0.028262682,-0.004124725,-0.013687949,0.044378445,-0.010319949,0.050563548,0.015360567,0.0027047186,0.017760774,0.0017225976,-0.00090779044,-0.006013447,-0.0012710574,0.010343437,0.022667529,-0.00312012,0.01232527,0.005362233,0.0061662383,0.014276056,0.00089389517,0.0070464266,0.0046288706,0.014770707,0.025355047,-0.0019270765,0.01562562,-0.0061809397,0.011869372,0.0018573538,0.021620812},{-3.4805216e-05,0.0035343713,0.006060739,-0.0018640129,-0.0009705141,-0.0032697697,-0.0046855155,0.0013151737,0.0064303093,-0.0068140603,-0.002627712,0.0005984432,-0.004269275,-0.001395076,0.004820835,0.0040729805,0.0044072643,0.0033765715,0.0044993265,0.007073155,-0.0056487396,0.004362699,-0.004810526,-0.0097108,-9.804795e-05,-0.007211618,-0.00298659,0.004055282,0.0041598673,0.0023542547,0.0018299607,-0.006058059,0.0025934668,-7.340309e-05,-0.004218796,-0.005496382,-0.000999508,-0.003810424,0.0009596851,-0.0018869941,-0.0074439025,-0.0060344553,-0.003923461,-0.0068211495,0.0024714337,3.9105425e-06,-0.0029841699,-0.006057802},{-0.001423655,0.009047247,0.010919372,-0.00881749,-0.008817163,-0.0055352137,-0.010293135,-0.013074005,0.008060615,-0.008207893,-0.010731029,0.0037763566,-0.011238625,-0.0020081254,0.009115514,0.010159169,0.0069513493,0.0047759106,0.005727005,0.008334053,-0.0057523535,0.010898182,-0.007045329,-0.00509406,-0.002018312,-0.006568748,-0.0056712194,0.0046447003,0.008942134,0.0045971577,-0.0043913107,-0.005646711,0.007146022,-0.0068650707,-0.010824085,-0.0049142647,-0.015390562,-0.008456692,-0.008496863,-0.004117996,-0.007436087,-0.005728438,-0.0027257958,-0.008085504,0.01234383,-0.010434331,-0.004335919,-0.005614422},{0.00062266,0.0045437263,0.0062512914,-0.0021337343,-0.0011379527,-0.0045400113,-0.0053554215,-0.0012368117,0.0065644383,-0.007733556,-0.0027405182,0.00073708623,-0.0058348235,-0.0025105253,0.0060512773,0.0047285547,0.0021003622,0.0009092946,0.0043244343,0.00802726,-0.005032089,0.0054437774,-0.0024963839,-0.010228287,4.2143707e-05,-0.008410854,-0.004296767,0.0039708153,0.005159376,0.0038294531,0.0022471792,-0.0053048376,0.0033202802,0.00031407113,-0.005050163,-0.005075709,-0.0009441069,-0.0052902233,0.00028484582,-0.0022092501,-0.008367425,-0.005260812,-0.003732671,-0.00790822,0.0023542459,0.00095940114,-0.004466454,-0.0053195893},{0.0016212757,0.0021898355,0.004142185,0.0016974782,0.0022637541,-0.003214802,-0.0018047072,-0.0031624741,-0.00034388792,0.0008611012,0.0012032801,3.1218642e-05,-0.0011118314,-0.0029863908,0.00089825847,0.0039611254,-0.0026903618,-0.006196047,-0.0011917194,-0.00083436666,0.001415013,0.0014791135,0.002165161,0.0015971671,0.00041833273,0.0015799955,-0.0039976267,-0.0012758033,0.0014205159,0.003383507,0.0063773296,0.001782672,0.0011306138,0.0062079527,-0.0015933171,0.0019514041,0.0046260003,-0.0028488997,0.0019302436,-0.0012299666,0.0011235505,0.0017464478,0.001867932,0.0010446685,-0.0029866076,0.006059175,-0.0032926747,0.001798004},{0.00035712728,-0.00036126617,0.0023221825,-0.0012758236,-0.0015509395,0.0009962063,-0.00021059104,0.008059185,-0.009766496,-0.0026518074,0.00015341038,-5.7045105e-05,-0.0011919275,0.00041455484,0.0008063583,0.001159112,-0.0027514023,-0.0004160908,-0.008891025,0.0021221142,-0.006773352,0.0019141033,0.005251279,-0.0030702765,0.0001648544,-0.0034706185,0.0009086682,-0.008915688,0.0007055121,-0.0011640264,-0.0069669853,0.0024437467,0.0003448114,-0.006495173,-0.000575339,0.0074727857,-0.0039128195,0.00052742247,-0.0043999306,-0.0048061963,-0.0027408514,0.001450404,0.008087023,-0.0028003138,0.000692413,-0.004451243,0.0011319519,0.0028472112},{-0.0009448442,-0.006683895,-0.009995689,0.0031156375,0.0028706675,0.005493346,0.008034706,0.005451407,-0.0041004163,0.005426439,0.005254503,-0.0018690206,0.0066966717,0.0036441518,-0.0060662897,-0.008673431,0.0016086544,0.0026620778,-0.00075998897,-0.005170194,5.7556117e-05,-0.0069920244,-0.0009316235,0.004380312,0.0004903465,0.0048102234,0.006009378,-0.0004222818,-0.0060754633,-0.005287952,-0.0017153221,0.00033618923,-0.0045269425,-0.00031774075,0.0072912322,0.00018094567,0.004351271,0.007131072,0.0027536305,0.004446579,0.005167357,0.000318373,-0.00064111303,0.0052698245,-0.00460813,0.0010363928,0.0052868403,0.00033949257},{-0.0019262023,-0.0013008565,-0.002193602,-0.0022665127,-0.0029025958,0.00328898,0.00037450308,0.00089238724,5.77147e-05,5.7029527e-05,-0.0019138502,0.00038396186,0.0013347628,0.0030288051,-0.0016438775,-0.0022829666,0.0018423736,0.0045400676,0.0008496246,-0.00063770055,-0.0012036768,-0.0015579859,-0.0012968127,0.00066192495,-0.0006194268,6.4778826e-05,0.004012651,0.0007970094,-0.0013886678,-0.004081995,-0.007251966,-0.0011631397,-0.0007932477,-0.0069956873,0.00051978225,-0.0011802814,-0.0058535007,0.002099438,-0.0028372442,0.00013795882,0.00044338516,-0.0011754582,-0.0010406751,0.0004637288,0.0036870234,-0.006962482,0.0041248165,-0.0011615882},{-0.0019017166,0.007307185,0.009753334,-0.0060497895,-0.006687198,-0.0013235749,-0.008563194,-0.009402805,0.0015230983,-0.009128638,-0.0077543613,0.0024112528,-0.008677476,0.0011488801,0.0076953294,0.0073062917,0.0017230838,-0.0006490345,0.0009696733,0.008944158,-0.0049394574,0.008778996,-0.00053890963,-0.009624895,-0.0010144012,-0.009707245,-0.0011288564,4.415073e-05,0.0068141078,0.0008331763,-0.011778052,-0.0030601672,0.0053328467,-0.011591614,-0.009563669,-0.0011602922,-0.010486986,-0.006849014,-0.0070309755,-0.0068635987,-0.009188513,-0.0033271806,0.001134256,-0.0093432935,0.009566336,-0.011351383,-0.0010335941,-0.0029587243},{0.0001448593,0.0020215223,-0.0008582078,0.0025698408,0.0029076135,-0.0014532087,-0.0012524413,-0.018818036,0.010202385,0.0057195607,0.0008459639,-0.0021353252,0.0030580529,-0.0010442019,-0.0024924804,0.00064472976,-0.011222307,-0.008355643,0.0056466362,-0.0046568,0.02201688,-0.003984131,0.007367464,0.006011967,0.002696011,0.0072777197,-0.0019377972,0.0069816215,-0.0019784076,0.0017893309,0.008592447,0.005608872,-0.0014592999,0.008221379,-0.00020931517,-0.0038393363,0.0062291175,-0.0026141622,0.0040979744,0.00492185,0.0056651244,0.007347526,-0.0073096347,0.0058378177,-0.0020544073,0.007030895,-0.0013518415,0.0049407287},{-0.00021345659,-0.007887562,-0.012264815,0.0051050507,0.0054283226,0.00541663,0.010272472,0.0068068784,-0.005080572,0.0059364825,0.007863247,-0.002943233,0.007768692,0.0030844586,-0.0065753865,-0.010317414,-0.0009891596,-3.0402809e-05,-0.0013415229,-0.0058916076,0.0013335638,-0.007768563,0.0015841093,0.004307544,0.0011477623,0.0052379724,0.0059286472,-0.0007020106,-0.006450116,-0.004897996,0.0015965371,0.0012613472,-0.005131716,0.003406715,0.008927217,0.00057481136,0.009511119,0.007755424,0.00513237,0.0052670473,0.0056073163,0.0013194309,-0.0007318874,0.0059451396,-0.008280186,0.006015454,0.0047372375,0.0012318344},{-0.0016197454,0.009861108,0.011010115,-0.0062518576,-0.006451664,-0.0034186984,-0.01021126,-0.0077286963,0.0028287407,-0.010464755,-0.008210267,0.0026517007,-0.011135274,8.015531e-05,0.010195718,0.008370569,-9.863955e-05,-0.00032209634,0.0014711176,0.010461702,-0.0049664904,0.01105959,0.0009471646,-0.009837996,-0.0010097601,-0.0102142645,-0.0032923927,0.0005825738,0.008834998,0.002791908,-0.009137946,-0.0036647387,0.0067031137,-0.010781925,-0.011960731,-0.0017207303,-0.010027374,-0.009399452,-0.0065470436,-0.007113337,-0.010337707,-0.0039029482,0.00063749595,-0.010608115,0.009709449,-0.009893761,-0.003120423,-0.0035707615},{0.000522798,0.007673001,0.011499459,-0.0036117872,-0.0033159966,-0.0055607506,-0.009036421,-0.0035269773,0.0031297572,-0.0034970532,-0.005701505,0.0024699867,-0.0060988576,-0.0036445316,0.0051722447,0.010723912,-0.0009915335,-0.0043904036,0.0001626406,0.0034856533,-0.0018720338,0.006249299,0.000684699,-0.0015843513,-0.00086310983,-0.0024359417,-0.006299695,-0.00036501218,0.005425096,0.005314052,0.00068199297,-0.0006150154,0.004685308,-0.000566703,-0.008156813,0.0005610281,-0.0049523003,-0.008083509,-0.003701824,-0.005169253,-0.00306585,-0.00077921955,0.0017159221,-0.003338035,0.0049183737,-0.00207335,-0.004931115,-0.0005434389},{-0.00033374864,0.0013647224,-0.00042957396,0.0009682076,0.0011318384,-0.0017442284,-0.00090581295,-0.008613383,0.010148248,0.0023436123,-0.00064340374,2.6325877e-05,0.00059930416,-0.0008068635,-0.0003197976,-0.00029798615,-0.0030747089,0.0005350019,0.005913968,-0.0017128575,0.013458583,-0.0014617394,-9.0827285e-05,0.002821662,6.888957e-05,0.003334455,-0.0017587404,0.0067800097,-0.0001359605,0.001853475,0.006665412,0.00095242786,-1.1998506e-05,0.0060866782,-0.00041798767,-0.0058053914,0.0033962638,-0.0015334473,0.0037898833,0.004961338,0.0024299936,0.0022259771,-0.007658969,0.0025150029,-0.00019918317,0.004127107,-0.001732982,0.00047213366},{-0.001465429,0.011967447,0.012562409,-0.00724008,-0.0073245782,-0.0066427323,-0.013025896,-0.011205241,0.0043746834,-0.009742413,-0.009553871,0.0040814504,-0.011233878,-0.0021671013,0.010913681,0.011328303,-0.004053746,-0.005326562,0.002237043,0.009924602,-0.0022353234,0.01133149,0.004415469,-0.008295424,-0.0017680979,-0.008874487,-0.007115358,0.0017153291,0.009872154,0.006182727,-0.005767044,-0.0015925826,0.007869488,-0.0074508428,-0.013148005,-0.001459828,-0.01037393,-0.012183945,-0.0063408366,-0.007968466,-0.009435878,-0.0016255112,-1.3354064e-06,-0.009745105,0.010221915,-0.008468592,-0.006363871,-0.0015926708},{0.00085541245,0.004679073,0.007913554,-0.00084861834,-0.0004938635,-0.0037450378,-0.005547127,-0.0027956665,0.00084283727,-0.0007688656,-0.0021341245,0.0014498215,-0.0029631914,-0.0028879608,0.002465311,0.007490219,-0.0029597494,-0.0055111945,-0.0012130798,0.0006319631,0.0013443945,0.0033671702,0.002438543,0.0007579814,-0.00028620407,0.0001504531,-0.0043387585,-0.0013416053,0.0029741714,0.003695881,0.003113743,0.001868354,0.0027442933,0.0026258049,-0.0046446645,0.0020242163,-6.745548e-05,-0.0052316412,-0.0007398496,-0.0029483526,-0.00038682055,0.001828131,0.0020808927,-0.0005146286,0.0008101626,0.0019709505,-0.0034406758,0.0018858765},{-0.0009367455,0.0050750906,0.009243128,-0.0053955466,-0.0058576735,-0.0013530868,-0.008336964,-0.0082381265,0.0009266087,-0.005016442,-0.005624815,0.0022826884,-0.0045157396,3.29962e-05,0.0041406206,0.008158182,-0.0013036834,-0.0046232077,-8.6717715e-05,0.0051394342,-0.003275862,0.004241088,0.0021728375,-0.00577614,-0.0008382661,-0.005970201,-0.0016506973,-0.00071428245,0.0030893262,0.0012023052,-0.009710331,-0.0012084083,0.0025696056,-0.009925127,-0.0060568545,0.00048214843,-0.009018679,-0.0047574122,-0.008389223,-0.0063098324,-0.00531263,-0.0014620683,0.0021029282,-0.005459517,0.006761879,-0.008053584,-0.0011451351,-0.0011114548},{0.0008437702,0.0013211494,0.00421008,0.0008313443,0.00095081003,-0.00079622073,-0.0019218327,-0.007800702,-0.0056677917,0.0008728934,0.0007605962,0.00017902428,0.00027510192,-0.0011741603,-0.00042118996,0.0034920482,-0.006946062,-0.009535835,-0.003465468,-0.0009868683,-0.0004324964,0.00017455324,0.008063438,0.000537745,0.000245574,0.0007235492,-0.0013961429,-0.0035922797,-6.765994e-05,0.0010598702,-5.700028e-05,0.0041518253,0.0002515757,0.00025010805,-0.00121465,0.0050841323,0.001186384,-0.0015099859,-0.0006789356,-0.0029058543,0.0008014816,0.0037940852,0.0046190782,0.00082634785,-0.0015585171,0.0015448661,-0.00081545534,0.0042645233},{0.0006840778,0.0051599643,0.0071341163,-0.0026110131,-0.0018027335,-0.004697269,-0.006200566,0.0020148985,0.006243642,-0.0074561737,-0.00353295,0.001092937,-0.006187084,-0.0026611108,0.0063585485,0.0056576873,0.0007661917,0.00095099275,0.0034418344,0.007737697,-0.0038010322,0.006113119,-0.0012540522,-0.009114864,-0.00018501998,-0.0078012105,-0.0046887966,0.0031869807,0.0054748235,0.0045507257,0.0018688502,-0.0042913686,0.0036608884,7.083109e-05,-0.0057690665,-0.004103841,-0.0018384372,-0.0058031995,-0.0007211141,-0.0026780441,-0.008044049,-0.004236402,-0.0029267115,-0.0077452376,0.0030567907,0.00040433032,-0.0048365835,-0.0043076673},{0.00017148702,0.0020309722,-0.0011270243,0.0028165928,0.0031716563,-0.0012404679,-0.0012082333,-0.02102984,0.009983164,0.006304303,0.0010806773,-0.0024955536,0.0035072842,-0.00097314385,-0.0028903869,0.0006765017,-0.01267351,-0.010293695,0.00556216,-0.00519296,0.023590138,-0.0044444185,0.008683634,0.006554272,0.003112431,0.0079243295,-0.0018185013,0.006946776,-0.0023750584,0.0016545109,0.008728562,0.006493798,-0.0017698173,0.008459168,-7.2455616e-05,-0.003420329,0.006602596,-0.0026974888,0.0041164244,0.0047935075,0.006237245,0.008301867,-0.0071152207,0.006411017,-0.0023281646,0.007337058,-0.0011722996,0.005798005},{-0.000902666,0.00044324817,-0.0015379259,-0.00037241404,-0.00036728385,-0.00093609194,-0.00013642076,-0.00026007756,0.00890559,0.0002769636,-0.0014995006,0.00090773817,-0.0005450595,3.1657576e-06,0.0007106107,-0.001449274,0.001814049,0.005917462,0.0051512276,2.0626043e-05,0.00743314,-0.00012438477,-0.0042660334,0.0008975582,-0.0010863374,0.00090517325,-0.0006091681,0.0056833667,0.00059873494,0.00085035915,0.0039239866,-0.0018343423,0.0005098986,0.0034026646,-8.859788e-05,-0.0060601793,0.0008022654,-0.00035287914,0.0027704972,0.0043172715,0.00044158063,-0.0009351107,-0.006828906,0.0004481055,0.0012877438,0.0011656026,-0.0009796127,-0.002161629},{0.00074823905,0.0055127996,0.0072881607,-0.0026547492,-0.0018355823,-0.0049612927,-0.006519319,-0.00047114826,0.006222051,-0.0072133513,-0.0036622894,0.0011367701,-0.0063546496,-0.0028718188,0.006423411,0.006005216,0.0005410261,-0.00017108436,0.003504218,0.007606162,-0.0038844806,0.0062409993,-0.001038328,-0.008843693,-0.0001481047,-0.007521703,-0.0050755036,0.0032071257,0.005598471,0.004871324,0.0021446138,-0.004229601,0.0038162593,0.00036117306,-0.0060817706,-0.0039975177,-0.001822205,-0.006197154,-0.00074822956,-0.0030901458,-0.007794451,-0.0041914447,-0.002778715,-0.0075740973,0.0030899476,0.00056078297,-0.0051023993,-0.004240492},{0.0017714513,-0.014024624,-0.013821205,0.008379824,0.008268685,0.00755624,0.014390538,-0.0024622215,-0.007006927,0.011626788,0.010564528,-0.0046955873,0.014973485,0.0023740581,-0.0135893645,-0.011595179,-0.0007766422,-0.002666947,-0.0029042542,-0.011651575,0.0010006076,-0.015347329,0.0010923132,0.008394879,0.0024705476,0.0098315235,0.007692636,-0.0025409292,-0.01288477,-0.0067140637,0.0042280853,0.00235397,-0.010257394,0.0062870914,0.01644788,0.0026648482,0.010934099,0.013776863,0.0063232947,0.0062840604,0.0107545275,0.0022067076,0.0012818532,0.011380319,-0.011228569,0.008483513,0.0069390847,0.0024050141},{-0.0021093937,0.01150591,0.012505642,-0.00719098,-0.0073880455,-0.004131829,-0.012243128,-0.009557823,0.0033894796,-0.0103316745,-0.009675037,0.0036652419,-0.011712905,-0.0002916123,0.010617207,0.010055203,-0.0031151243,-0.0024219197,0.0013668746,0.010167055,-0.001543459,0.012401324,0.0037306817,-0.008885057,-0.0017794087,-0.009589785,-0.004005497,0.00090970926,0.010259361,0.0034479115,-0.008439352,-0.0008611337,0.008461676,-0.009186198,-0.013982926,-0.00085233885,-0.0107451035,-0.011006337,-0.006072816,-0.0070838775,-0.009917413,-0.0008934136,0.00030913728,-0.010268165,0.010863713,-0.010820108,-0.0036323636,-0.00086300203},{0.0016266983,0.0017731368,0.0027444996,0.0016072791,0.0022258156,-0.003416059,-0.0010683361,-0.00056503975,0.0005702269,-0.000487192,0.001009804,-0.0002068475,-0.0017624774,-0.0028836015,0.0020033407,0.00265575,-0.0013216698,-0.0037280961,-0.00044416692,0.00091271126,0.0009946732,0.0019012826,0.00073992537,-0.00083762617,0.0005227387,-0.00029998418,-0.004022468,-0.0004363256,0.0017870979,0.003927424,0.0067433435,0.00081204384,0.0010735209,0.0062663923,-0.0011784123,0.00076919905,0.004640449,-0.002464276,0.002543956,-0.00042690782,-0.0006744057,0.0008392569,0.0007385287,-0.0006668532,-0.0025970277,0.005940074,-0.0040788176,0.00080533366},{0.00013224178,0.002017473,-0.00075155695,0.002466958,0.0027959463,-0.0015316053,-0.0012696672,-0.017965939,0.010294427,0.0054721776,0.0007435977,-0.0019905628,0.0028654027,-0.0010664728,-0.0023225534,0.0006256847,-0.010553351,-0.0076243808,0.00569935,-0.0044298717,0.021322593,-0.0037917355,0.006739623,0.0057790703,0.0025273494,0.006998934,-0.0019831988,0.007011141,-0.0018200563,0.001843036,0.008520781,0.005218276,-0.0013382685,0.008112033,-0.0002649298,-0.0040206886,0.0060572983,-0.0025802923,0.0040844325,0.0049673454,0.005423545,0.0069265463,-0.0073895915,0.0055929804,-0.0019334777,0.006884246,-0.0014239983,0.004560922}};
static const float rnn_bias_hh[48] = {0.00049105735,-0.0023255239,0.013125073,-0.001233869,0.0012078655,0.00062141014,0.0010235246,-0.04470703,0.0021311527,2.2329234e-05,0.00025938696,-0.00022942791,0.0002611631,-7.3093914e-05,-0.0015302037,-0.0023335412,0.004502295,0.009717329,0.005389244,0.0001676708,-0.011692361,-0.016818399,-0.017161427,-0.00063810986,-0.0021135157,0.00045875518,-6.146294e-05,0.0046238774,-0.003043642,0.0006299771,0.00013943455,2.6819487e-05,-0.0027078467,-0.0015367364,0.00017429254,-0.007887227,0.002933072,0.0023621547,0.0013301614,0.0019864435,0.00082525285,-0.009602194,-0.0019380645,0.0015214541,-0.002835948,0.0011633072,5.8690304e-05,-0.0072225025};
