
#include "network_evaluate.h"



float linear(float num) {
	return num;
}



float sigmoid(float num) {
	return 1 / (1 + exp(-num));
}



float relu(float num) {
	if (num > 0) {
		return num;
	} else {
		return 0;
	}
}

static int state_dim = 22;
static int action_dim = 4;
static int hidden_dim = 48;
static int goal_dim = 18;
static const float linear_1_weight[48][40] = {{0.18102868,-0.08884904,-0.054826338,-0.020724908,0.04324882,-0.05947442,0.050691202,-0.1066827,0.017666547,0.098731786,-0.27704498,-0.27174512,0.22195956,-0.028621914,0.2569959,0.066754565,0.14439324,-0.046232495,0.018093072,0.115273036,0.0077962317,-0.10937866,-1.2681e-40,-1.07883e-40,1.4844e-40,-0.03906079,0.06342163,0.0031946127,-0.032667432,0.0718449,0.025617728,0.12499905,0.086962946,0.4123751,-0.47304267,0.24582629,-0.104457006,-0.03325329,-0.09964767,-0.017628651},{0.018531239,-0.05990979,0.022668745,0.0049655363,-0.19506459,0.067992605,0.1558225,0.0028945594,0.1172825,0.11761336,0.0887946,0.033843357,0.07052956,0.038597915,-0.053732634,0.032646142,-0.083634004,0.117061995,0.048567247,0.07512931,-0.038354207,0.02321051,-8.516e-42,-9.1978e-41,-7.7447e-41,0.04770728,-0.19695187,0.06737199,0.17845187,0.09980793,-0.08163245,0.035110377,0.11457177,0.05096579,0.025181025,-0.14786759,-0.11977906,-0.1191613,0.02628711,0.112916544},{-0.014904911,-0.0002524505,0.042892057,-0.34770417,-0.13091458,0.31316087,0.10203406,-0.3409314,-0.412552,0.10773911,0.11803401,0.1387176,0.16898404,0.07927839,-0.28289312,-0.040116806,-0.0963752,0.11300099,-0.15720476,0.016500104,-0.21553355,0.0917271,2.3767e-41,-2.61977e-40,1.8078e-41,-0.045080785,0.3459354,-0.012153566,-0.26564607,-0.09724298,-0.15121189,-0.07970744,-0.23053019,0.20225188,-0.2714885,-0.1470313,0.1561074,-0.057929497,-0.03350828,0.025571203},{-0.08102244,-0.0030875176,0.045978524,0.06340549,-0.04440467,0.005288219,0.0390521,0.12562111,-0.13023779,0.2190887,0.016524034,-0.021393105,-0.03629542,-0.012643212,0.09067499,0.010646935,-0.0063559,0.013264639,-0.102725334,-0.070090465,0.11893076,0.086834274,4.8863e-41,-1.62338e-40,-2.31005e-40,0.066629305,-0.04684841,0.0145278815,0.018845458,0.06751595,0.0061325277,0.1612841,0.065048814,0.12206449,0.2686645,-0.44093195,0.018636627,0.24385282,0.048810296,-0.0021773027},{0.047280803,0.019167028,0.04283481,0.13405782,0.14179984,0.23372611,-0.21077171,0.043939847,-0.05014517,0.08189589,0.20223773,-0.10077068,0.1934828,0.034887593,-0.027436262,0.1991321,-0.0917389,0.05616427,0.057307597,0.024348408,-0.07479317,-0.009145981,1.96374e-40,2.362e-41,-3.548e-41,-0.08140816,-0.12708421,0.002581269,0.13077553,-0.06718098,0.19124672,-0.32687777,-0.13746367,-0.0078916885,-0.3858063,-0.25624532,-0.12149771,-0.13876714,-0.017719377,0.050225403},{-0.060532548,-0.05030123,-0.04012117,0.004889457,-0.08956791,-0.08741432,0.09994566,-0.036126025,-0.035189293,0.06734467,-0.23417693,0.10648303,-0.19679554,-0.1415565,-0.08484599,-0.11163329,-0.063690454,0.1670407,0.037491035,-0.00075572956,-0.06506737,-0.008786684,-1.69693e-40,8.9013e-41,5.386e-41,0.03815246,0.12022062,0.0051923185,-0.10021682,0.023930496,0.032972053,0.051000927,0.32062557,0.041548822,0.691413,0.329829,0.07434055,0.06168522,-0.029348288,-0.06288425},{-0.0062906854,-0.05391239,0.053737342,-0.15148081,-0.20207827,0.18420151,0.110573635,-0.039284483,-0.055515755,0.040299162,-0.16862814,0.09291721,0.093632184,0.1171091,-0.046567086,-0.11054767,0.11595395,-0.019622412,-0.0033724052,-0.027006185,0.05724231,0.048869394,-1.79606e-40,8.2849e-41,6.9297e-41,-0.03501077,0.117716305,-0.08839615,-0.12764,-0.06747232,-0.14577097,0.030118538,0.12655446,-0.12428654,0.17638357,-0.24284406,-0.10701949,-0.052753035,0.14383383,-0.014345897},{-0.035328668,0.053061474,-0.035037953,0.297862,0.030012475,-0.23626739,0.11811912,0.24424288,0.30106968,-0.3460434,0.11936544,-0.002087956,0.014323908,-0.048523948,0.1886974,-0.07718434,0.04280936,-0.16113058,0.10384197,-0.015108367,0.01026299,-0.057350196,3.016e-41,-1.8357e-40,1.13026e-40,0.07879512,0.36787662,-0.13270658,-0.35352188,0.018496213,-0.04818135,-0.26790014,-0.24740826,-0.275669,0.024479974,-0.008842413,0.021996189,0.0061671147,0.0049424698,-0.13728939},{0.02587737,0.0093487045,-0.027477339,-0.15601449,0.11739676,-0.034794934,-0.12231699,-0.04249266,-0.14942358,-0.04915311,-0.024258273,0.14429648,-0.19258407,0.0123570645,0.020141961,0.13727325,-0.02219299,0.03527465,-0.0033571501,0.06337426,-0.040134534,0.031969976,-1.36733e-40,-8.7266e-41,-1.34251e-40,0.049785376,-0.09617164,0.10194036,0.112687275,0.066131756,0.08440381,0.5069435,0.1871249,-0.07839594,0.20049536,0.19166033,0.13249491,-0.008297972,-0.02695165,0.056181382},{-0.082540356,0.039979868,0.08553275,-0.11612092,0.18305394,0.15221633,-0.29995978,-0.18070681,0.04760985,-0.14186154,-0.005006235,-0.19108254,-0.13712336,-0.04965616,0.016206745,-0.21285655,-0.07435232,0.05256302,-0.0386658,-0.026981333,-0.030931786,0.044766203,1.57629e-40,-8.2378e-41,8.7025e-41,0.07101092,-0.21305399,-0.0056708017,0.18225309,0.022774978,0.012132111,-0.087155625,0.17272885,0.27620935,0.37765712,-0.327531,-0.0051644417,0.10939695,0.073760755,0.041930012},{0.01221125,0.005773117,-0.0037144453,0.32586256,0.25908428,0.16010435,-0.31013694,0.19364293,0.28969762,0.13728657,0.20699872,0.024502046,0.012667143,0.11112146,-0.13587037,0.05108935,-0.1690225,0.21530768,-0.012194726,0.061967567,-0.17472374,0.120921776,-1.93193e-40,-8.7643e-41,2.5529e-41,-0.23180713,-0.3272913,-0.09991519,0.3354831,-0.26499823,0.25668943,-0.1316025,0.032401793,-0.014139436,-0.2175311,0.2595081,0.06915451,-0.032164723,0.07076887,0.07516479},{0.003700174,0.10922247,0.071868286,-0.19838057,0.17399366,0.038871855,-0.17554049,-0.15091322,-0.2024331,-0.16064084,-0.14070234,0.017029075,0.040888026,0.07302488,-0.03473276,-0.043863673,-0.059578553,-0.20595568,-0.05331899,-0.07589927,0.10121435,-0.08996,-8.231e-42,1.55128e-40,5.7613e-41,0.22842614,-0.052021552,0.07307519,0.056698386,0.2623749,-0.04355956,0.018298425,0.08739354,0.046417233,-0.22177517,-0.6530651,0.0909119,-0.02240157,0.021788701,-0.02295415},{-0.10790962,0.05499028,0.06315867,-0.1380337,0.105722114,0.020771645,0.021330936,-0.06331162,0.044071365,0.14751898,0.06363431,-0.075378895,-0.22949089,0.06676617,0.12178985,-0.06241373,0.002750291,0.08094322,-0.24590445,-0.01783031,0.022306476,0.093392424,3.8386e-41,-1.71567e-40,-1.3289e-41,-0.0126948515,-0.15794763,0.13228342,0.19595663,-0.05822028,0.09657707,0.078085154,0.05341633,-0.3766572,0.10205839,-0.3680573,-0.10118731,0.072280094,-0.039057467,-0.09386667},{0.014024395,-0.0012191721,-0.048773423,-0.19614312,-0.3783843,-0.07820852,0.31228742,-0.23562947,-0.2579044,0.22592475,0.0492086,-0.048990782,-0.13662733,0.048970044,-0.04063552,0.22501096,-0.17174739,0.16712297,-0.062487904,0.03718397,-0.022619724,0.047602113,-2.9403e-41,1.42574e-40,1.7334e-41,0.1298641,0.33270007,-0.019611116,-0.33534437,0.09640128,0.087571,0.036511246,-0.20746735,-0.009343277,0.058169622,0.22076036,0.055319417,0.04789919,0.010821472,0.28782472},{0.0015454118,0.020498456,0.0035167774,-0.023728233,0.09918496,0.07670566,-0.038823057,-0.03213433,0.0005061503,-0.1339635,-0.048391547,-0.06755398,0.04979335,-0.0003601206,0.040839586,0.026451021,0.095755436,-0.120953746,-0.011457161,0.0073431884,0.012008048,-0.01718294,-2.31333e-40,8.429e-42,4.1137e-41,-0.075259924,0.014992184,0.017068043,0.022248942,-0.08614543,0.083849914,-0.042402547,-0.21481676,-0.085732564,-0.08412215,-0.018772319,-0.0007035499,-0.042922076,-0.12007221,-0.056703787},{-0.008085499,-0.026191857,-0.028413618,-0.13880388,0.049878474,-0.16516967,-0.07052619,-0.035784736,-0.029488768,-0.020377493,-0.12884161,0.12741423,-0.04685227,-0.092008546,0.11651544,0.052136704,-0.028675374,-0.009528228,0.09303412,-0.025772953,-0.027876385,-0.058339022,-2.03024e-40,1.33108e-40,1.29015e-40,0.20529716,0.0118284235,0.009346681,-0.044050522,0.23539177,-0.042797994,-0.11828482,-0.048782017,-0.077275306,0.01923548,0.34473646,-0.14955676,-0.08218716,0.06433581,-0.045607604},{-0.030723028,0.008919071,-0.0052711926,-0.081219755,0.08938985,0.075855404,-0.08166918,-0.020484623,-0.17960207,0.025805185,0.20843467,0.03332324,0.021615041,-0.08464006,0.08575271,0.032136988,0.11196506,0.11015116,-0.034717306,0.07291048,-0.06047092,0.030597413,1.4502e-41,2.633e-42,2.42189e-40,-0.15572122,-0.018162254,0.038871214,0.016172573,-0.16761345,-0.13714245,-0.13000566,-0.31087375,0.058484275,-0.10112672,0.034644596,-0.058546778,-0.11761217,0.05635556,-0.06744874},{0.025531888,0.0074327947,-0.0023939712,-0.16765603,0.11006393,-0.0023981961,0.10614331,-0.04618112,-0.2052682,-0.04269214,-0.08992943,-0.031174751,0.0943979,0.076502085,0.051540133,0.12010281,0.008362163,-0.02574238,0.06372062,0.025174156,-0.016012248,-0.013303404,1.6611e-41,-7.8397e-41,1.46651e-40,-0.24564698,-0.17194976,0.07044583,0.18610914,-0.21858157,0.09803232,-0.121331275,-0.05546703,-0.020110736,-0.09903735,0.07243551,-0.0017212604,-0.13407399,-0.0440229,-0.07457969},{-0.07903121,0.06707041,0.035114218,0.08484013,-0.055164322,-0.2397363,0.1518833,0.07464644,0.07938997,-0.047663923,-0.12843046,-0.11574388,-0.13549288,0.18500248,0.086417,0.19903918,0.07585197,-0.0381875,0.0510442,0.03955426,0.0010661937,-0.014993701,-3.1089e-41,-1.17897e-40,-9.0566e-41,-0.064818785,-0.0139790615,-0.105346955,-0.047226306,-0.12210314,0.11827529,-0.06169497,0.18955484,0.1887172,0.42768556,-0.6362269,0.30883017,-0.2606588,-0.22623864,0.03042794},{-0.052223433,-0.045518886,0.1753413,0.048015658,0.020148644,0.020969814,-0.06352466,0.004764286,-0.049766194,-0.024749307,-0.011011174,-0.080859505,0.01649239,0.07750725,0.07114147,-0.12095479,-0.01514043,-0.04409783,0.036437288,-0.07917063,0.1568795,0.17174159,-2.08918e-40,6.5155e-41,-1.71632e-40,0.09181094,0.015697166,-0.08230431,-0.039079815,0.054138083,-0.00068218826,-0.1807408,-0.0036125032,0.15067317,0.09323428,-0.6064075,-0.31278765,0.045998562,0.06494788,-0.014449676},{-0.007842641,0.048394542,0.026350975,0.047342394,0.035408817,0.006283697,0.14054103,-0.10266551,0.20092079,-0.12770146,0.08034717,0.033056714,0.1329104,-0.03469779,0.009162005,0.1604128,-0.19230758,-0.105113804,-0.019950604,-0.07123313,-0.03796587,-0.038417798,-2.52559e-40,-2.2595e-40,7.5258e-41,0.06547503,0.056047764,0.110006474,-0.040476475,0.097176775,-0.19280834,-0.291259,-0.47500604,-0.03398547,-0.42511657,-0.21780153,-0.12346341,0.013989925,-0.011233358,0.0009677294},{-0.04327386,0.024932396,0.0012836655,-0.3368478,0.16283369,0.2907171,-0.31761482,-0.38895184,-0.16626827,-1.5715204e-05,-0.093241625,0.10510627,-0.04290375,-0.16833328,-0.014196146,-0.008982736,-0.1749131,-0.06158007,0.0044507217,0.043730307,-0.14544208,0.08285365,1.257e-41,-1.05406e-40,1.41492e-40,0.3237584,-0.16080031,0.06377576,0.18798628,0.30304807,0.05671571,-0.38987595,0.26090384,0.002546597,0.06660324,-0.007303712,0.031903766,-0.06543483,0.011756778,0.11406207},{-0.02588734,-0.018756518,0.06522736,-0.077644706,-0.027073102,-0.009005799,0.10528464,-0.06522139,0.032826204,-0.17731859,0.08823803,0.033563875,0.06667792,-0.020089978,0.22108477,0.014024327,0.022500856,0.00806349,-0.059162427,-0.121791795,0.08392126,0.29629996,-1.38234e-40,-5.2571e-41,-8.9315e-41,-0.07410147,-0.12317587,0.008924255,0.066509016,-0.1545151,0.039812695,-0.17165497,-0.11445362,0.058515985,0.23730226,-0.36628965,-0.21631116,0.12233477,0.16538872,0.10246116},{0.0049457736,0.055579565,0.013870447,-0.22213727,-0.29744473,0.02969051,0.37187374,-0.19953947,-0.30635586,-0.09262662,-0.089480475,0.12425023,-0.025580509,-0.10504196,-0.084172405,-0.029924238,-0.035060607,-0.119384706,-0.0798943,-0.039095618,-0.029138852,0.017577242,-1.67039e-40,-5.4553e-41,1.34041e-40,-0.2191077,0.14788082,-0.020429788,-0.12799266,-0.2049746,-0.0028181248,0.13721772,-0.25391224,-0.0062726364,-0.08587279,-0.11986045,0.1423562,0.04751774,-0.072048716,-0.14299059},{0.004927906,-0.012439195,0.054277994,0.08342608,0.012881956,-0.15703362,-0.07614963,0.10976036,0.012023405,0.111753054,0.1629585,-0.094639584,-0.0980152,0.056732714,0.002510189,0.052366685,0.01790329,0.07338622,-0.061732754,0.03225601,0.088761665,0.00059074524,2.64351e-40,3.6986e-41,5.4028e-41,0.1957407,0.10037316,0.07189699,-0.061061602,0.26669803,0.11943802,0.112921335,0.003074822,0.18293934,-0.10819064,-0.017572025,-0.015791213,0.023583177,-0.12625626,-0.045148},{0.0523835,-0.01823804,-0.0034609404,0.06971257,0.07178441,-0.1804114,0.0027577647,0.14974254,0.023205476,-0.0028303163,0.0413967,-0.11424631,-0.07373226,0.09288142,-0.06888561,0.020593308,0.13730037,0.048420798,-0.063422434,0.0374736,0.0073318817,-0.015462127,-3.5152e-41,-1.18717e-40,-9.757e-42,0.089368746,-0.25133786,0.07787968,0.24892429,0.1466072,0.13937421,-0.008344006,0.05284236,0.05807409,-0.19095187,0.07341679,0.012888389,-0.018061168,-0.073920146,0.013103939},{0.024732778,-0.07893616,0.025519231,0.04669486,-0.3226614,-0.3347943,0.5062564,0.0875596,-0.2645395,-0.12276453,-0.14341567,-0.12214167,0.020003371,-0.0291517,0.09274884,-0.0045398325,0.012155311,-0.15794435,0.065227,-0.012007311,0.18912365,-0.14960809,-1.84676e-40,1.7094e-40,8.5265e-41,-0.25245023,0.27293226,0.081130855,-0.3225309,-0.21238154,-0.0023814335,0.08259247,-0.07692447,-0.1372607,0.051170286,-0.31312972,-0.07258864,0.008383975,-0.12508294,-0.0035741522},{-0.011568572,0.041813362,0.039393198,0.16658908,0.123928994,0.2327097,-0.08692444,0.010750095,0.12882708,0.07550116,-0.035623137,-0.049157187,-0.020094464,-0.11595722,-0.056368686,0.10290062,-0.01727318,-0.14228292,0.106661424,0.014923069,0.050989017,-0.084122024,9.6509e-41,-2.23898e-40,-8.1273e-41,0.1381838,0.22130045,-0.022398459,-0.21416071,0.18374705,0.026311828,-0.10012809,-0.01469436,-0.019339683,-0.17379703,-0.004664637,0.005955989,0.058217317,-0.06356855,-0.04733102},{0.021675639,-0.042419735,-0.026719864,-0.11005962,-0.05002073,0.09704216,-0.107462,-0.20537296,0.051970985,0.17240874,0.13158439,-0.1218893,0.118284814,0.0120576015,-0.028791733,-0.08449758,-0.02747605,-0.027604403,0.08846912,0.051035784,0.0022498313,-0.14349705,-1.84435e-40,1.98253e-40,-1.63232e-40,-0.114335135,-0.21196257,0.042548962,0.2596586,-0.08656504,0.17434184,0.010815145,0.0642801,-0.21825883,-0.07898189,0.36713442,0.01940789,-0.081943,-0.15082388,-0.17989732},{-0.025784487,0.056663513,0.03118015,0.056329727,0.0046678353,-0.29723543,0.4019371,0.20959473,-0.012426432,0.08242364,0.16308631,0.08672963,0.18269032,-0.107281834,-0.0013605834,-0.025466232,-0.04272494,0.13212168,-0.14238441,-0.001397097,-0.085753836,0.13733517,1.28652e-40,-8.7221e-41,-1.50162e-40,-0.014921832,0.18764007,0.07599561,-0.16125211,-0.04523086,-0.112125225,-0.004497823,-0.6061765,-0.038872015,-0.28822735,-0.021894261,-0.028439164,0.008030092,0.090364344,0.008691948},{-0.019231476,0.014977569,0.12305464,0.2822701,0.12248124,0.0720931,-0.03491215,0.25888088,0.15366155,0.15733789,-0.18852411,0.045316577,0.08961059,0.12118112,-0.0657562,-0.009730568,0.10181452,0.18935172,-0.09123803,-0.038564187,-0.065241426,0.03922964,4.927e-42,1.0389e-40,-6.1268e-41,-0.253624,-0.06421352,-0.1012759,0.0580521,-0.29508275,-0.045665804,0.17058705,0.07659676,0.045734536,0.14165181,-0.44101453,-0.1450297,0.038980607,0.02242504,0.008717585},{-0.03148365,0.02369269,-0.0049178754,-0.16645958,-0.049566362,-0.21193686,0.18666087,-0.13020551,0.27861777,-0.051030528,0.17239301,0.06771668,0.12263808,0.101551,-0.04232839,-0.015346021,0.043188665,-0.042786762,0.015236825,0.08937088,0.07563255,-0.053187106,-1.31795e-40,1.6628e-40,-3.0481e-41,0.10483732,0.055067588,0.018013118,-0.049550217,0.116008684,-0.336851,-0.07989954,-0.27639788,0.06540948,-0.24395607,-0.0898493,0.12391088,-0.052252963,0.05545281,-0.163982},{0.018702898,0.0026320908,-0.13078308,0.148562,-0.05353635,-0.1804197,0.12900642,0.1378306,-0.14503984,0.018952364,-0.065085046,0.101384304,0.057948176,-0.08669611,-0.07629764,0.032538176,-0.052294288,0.036254946,-0.04383394,-0.026960772,-0.11793118,-0.08167066,-1.08365e-40,-5.5524e-41,-9.5917e-41,-0.121215954,0.102009706,2.8634755e-05,-0.060393356,-0.10020759,0.25218415,-0.0034837935,0.26603687,-0.19664179,0.16721937,0.6085147,0.21507066,0.24779294,-0.092456296,-0.1331744},{-0.008597459,-0.041552342,-0.013333903,-0.07362136,-0.1686421,-0.47572148,0.35250166,0.094244644,-0.15570682,0.1282404,0.12890469,-0.07714927,-0.035905275,0.045128096,0.014966973,0.024666838,-0.09420138,0.10168607,0.058225326,0.13711934,-0.06367291,0.15410565,-2.36742e-40,8.489e-42,1.51189e-40,0.30504897,0.051707607,0.100616835,-0.03126569,0.27625018,-0.263487,-0.0595717,-0.21940435,-0.1441478,-0.012397821,-0.24372514,0.15478668,0.013200381,0.013705604,-0.15453117},{0.0057993913,0.0879529,-0.03604754,-0.15209635,-0.04213596,0.108094916,-0.09216934,-0.091129735,0.18035059,-0.26605353,-0.00986026,0.21145122,-0.3844676,-0.16862416,0.011975322,0.0012128071,-0.04462827,0.01938835,0.022489455,-0.0016534158,-0.11319209,-0.09016938,2.07039e-40,-1.52295e-40,-1.09404e-40,0.06640504,-0.004948331,-0.030893613,0.0086660925,0.04192612,-0.16686022,0.8100417,0.20983581,-0.071051925,0.7343005,0.36134148,0.398203,0.09955478,0.005416631,-0.004344874},{-0.02980543,-0.06526729,0.17093994,-0.0008662969,0.06550032,0.033205695,-0.060116302,0.082095906,-0.17417215,0.22738911,0.0031394335,0.016199525,0.07804157,-0.13217561,0.22427185,0.018287987,-0.048987366,0.033999305,-0.00045744583,-0.026404852,-0.061722174,0.039659426,4.849e-41,-1.17168e-40,2.26335e-40,-0.06283796,-0.08509544,0.12833318,0.04326276,-0.03484591,-0.071089625,0.3247896,-0.2354892,0.10724827,0.49453458,-0.4386438,-0.4979521,-0.22146809,-0.11720263,0.11855184},{-0.034059234,-0.04513737,-0.0050306083,0.29607418,0.028194105,-0.12509117,0.18857302,0.36225536,0.17942218,0.18745103,0.2485091,0.044626474,0.14937623,0.008825654,-0.10748927,-0.12150709,-0.2965061,-0.056674875,-0.031918287,0.046119966,-0.08947353,0.062960126,-1.7218e-41,1.74483e-40,-5.5447e-41,-0.26578313,0.066422954,-0.00468582,-0.055622377,-0.29180974,0.123139925,-0.1459445,-0.10057209,0.020725193,0.14975289,0.2864371,-0.090763144,0.10545404,0.03897486,0.08630017},{-0.025447115,0.007712293,-0.04756595,-0.13177837,-0.32404742,-0.062351618,0.3220804,-0.009980468,-0.38217047,0.0010714335,-0.1531823,0.13523541,0.019057551,0.01613277,0.076614104,-0.19989091,-0.108508795,-0.09210029,0.016393755,-0.03560582,0.1404737,0.026868185,3.11038e-40,-2.46948e-40,2.29212e-40,0.062196463,0.3517923,-0.114337474,-0.31141627,0.048427064,-0.047841437,0.12895799,0.11564386,0.013990244,0.40772197,-0.17011781,0.20389454,0.12710543,-0.09942348,-0.09668116},{0.02784702,0.055353776,0.002942945,0.07238535,0.0049741254,-0.14430077,0.14190897,0.13968666,-0.033820674,0.053855497,0.28416988,-0.085934974,0.056062587,0.086843364,0.097401805,0.022432331,-0.049107704,0.27330306,-0.072939135,0.061852526,-0.017183453,0.06944494,4.067e-42,-3.278e-41,-4.2e-41,-0.06860594,0.000968821,0.04594181,0.0027015472,-0.07672981,0.016611649,0.3261112,-0.21722414,-0.029368814,-0.17133726,-0.047902897,0.24424933,0.020875951,-0.062168233,0.10464554},{0.017093085,-0.020384762,-0.0388706,0.09322151,-0.032344148,0.23728968,-0.12960702,0.13200247,-0.16356665,0.24548373,-0.07129421,0.29889506,0.12268951,0.06649416,0.15375194,-0.07629196,-0.16297427,0.048124097,0.0070046443,0.028736627,-0.08393822,0.07804576,-2.9349e-41,-2.25756e-40,-1.17259e-40,-0.15393178,-0.054289274,-0.018997261,0.072954,-0.11276528,0.13398279,0.074567154,0.40840495,0.000343105,0.24946086,-0.03722538,0.021216998,-0.033510268,-0.073522724,0.07545465},{0.0131946625,-0.0015104688,-0.011031132,0.24829848,0.10091803,0.08913033,-0.07195614,0.22449082,0.09159721,0.04796594,0.19637838,-0.12300083,-0.04000622,0.001374523,0.2058172,-0.032873936,-0.054323345,0.03248339,0.041433148,0.108308576,-0.08342085,0.097274974,7.098e-42,-1.55754e-40,7.2307e-41,-0.13030615,0.16466464,-0.061211146,-0.13904758,-0.14482786,0.15092446,-0.087307274,-0.048565783,-0.14477423,0.0691383,0.028093394,0.041084733,-0.024740793,-0.09358867,-0.15296179},{0.0015366143,-0.01446164,0.017331883,-0.29380488,0.14186524,0.2813808,-0.22765997,-0.36120582,-0.08646395,0.076745875,0.11948433,0.12459522,-0.05398713,-0.10466261,0.06995832,0.095096305,-0.087667815,0.25759688,0.00962181,0.062260173,-0.1476925,0.095173664,-6.2449e-41,2.62945e-40,1.71523e-40,0.27279592,-0.14792798,0.03678788,0.20484444,0.29739106,-0.0084547065,0.0320299,0.077564,-0.22467615,-0.089031875,0.22052692,-0.11509724,-0.06467143,-0.018581826,0.23548537},{0.037972648,0.0210424,0.0095941955,0.014295408,0.0026250943,0.12650345,-0.053552005,0.022329284,0.224925,-0.02359782,0.12196518,0.2040852,-0.11945241,-0.13020085,0.02396602,0.022087935,0.17385322,0.025580948,-0.08019576,-0.0018534963,-0.05362536,-0.0064568934,-1.63695e-40,3.273e-41,-8.404e-41,-0.028832855,-0.037351638,0.11568333,0.033331323,-0.020096121,-0.20898749,0.5671262,-0.2610715,-0.21593063,0.21016875,0.327499,0.010936717,0.017201822,-0.18563509,-0.13692531},{0.10646327,0.048799932,-0.04638058,0.05063711,0.027858432,-0.13341212,-0.09835991,0.05473334,0.08119308,-0.06716998,0.05073305,0.12695888,0.103886366,-0.110063426,0.13815095,-0.089226045,-0.23712978,-0.0033774187,-0.015346607,0.004079098,0.046594802,0.051473286,-1.08098e-40,9.6586e-41,-4.9904e-41,-0.059501387,-0.093022116,-0.027500866,0.08568562,-0.017203039,-0.03672842,0.30224663,0.051624794,-0.09009142,-0.414748,0.17802303,-0.044322014,-0.3453754,-0.023220247,0.14389311},{-0.04655557,-0.016622175,-0.05850336,0.13382705,-0.15002805,-0.14603835,0.021097297,0.029949272,0.06426686,-0.043372605,-0.03406681,0.11037724,-0.060304057,0.004925347,-0.05622965,0.034533333,-0.0024787458,0.12199147,-0.11766615,-0.0147417905,-0.008867015,0.32470608,7.072e-41,-2.01657e-40,1.28285e-40,-0.10252869,-0.113634914,-0.0007034338,0.13052477,-0.114092425,0.10187754,-0.08914435,-0.05429768,0.31888974,0.11005339,-0.16531588,0.0528117,0.29561624,-0.0589664,-0.059809152},{-0.021860328,0.0005595083,0.057366285,-0.04012543,0.073672846,0.11609392,-0.16264196,-0.16614504,0.09899027,-0.054947592,0.18992701,0.03706859,0.074687086,0.024613759,0.27720478,-0.027734123,-0.020137781,0.044502594,-0.043211572,-0.046603806,0.18325439,0.085858814,-1.50296e-40,1.82962e-40,-2.6448e-41,-0.11159398,0.15187082,0.01556122,-0.16292606,-0.124041975,-0.0108003775,-0.0055833748,-0.0016242305,0.08938775,0.06589569,-0.3771336,-0.17814505,0.08713687,-0.06078918,-0.062224057},{0.035322662,-0.07646668,-0.03090145,0.102619186,-0.11981207,-0.32858077,0.23151825,0.22021657,-0.11814478,-0.16773804,-0.17683576,0.05185375,0.11815314,0.1463287,0.12304872,-0.029333962,0.051518448,-0.05534433,0.023609634,-0.05420078,-0.027808614,0.021818152,2.43551e-40,1.173e-41,4.0416e-41,-0.061847605,-0.20166637,0.02874236,0.2565761,-0.116707906,0.08611467,-0.16748257,-0.084973864,0.1558875,0.028075948,0.0922568,0.05007875,-0.07792401,-0.038669117,-0.15399235},{0.099426,0.013291097,-0.0896413,-0.058319785,0.009543848,0.060213007,0.00824324,-0.022468902,0.060011122,-0.08363477,-0.07423216,0.07301069,0.28381163,0.019323267,-0.35086283,-0.03138105,0.1021396,0.078376435,-0.18403836,0.0468315,0.008428979,-0.15030564,-6.0233e-41,2.41989e-40,-9.1331e-41,0.036506604,0.05378616,0.053543087,0.008999222,0.09197086,-0.040205557,0.2359237,0.05115728,-0.23415907,-1.0878097,-0.019038517,0.47991526,0.07536489,-0.08124349,-0.0823331}};
static const float linear_1_bias[48] = {0.31728995,0.13081914,0.20829645,-0.15056053,0.065375395,-0.065660685,0.12148123,-0.18116719,-0.0015974102,-0.007599406,-0.023393234,-0.016599694,-0.16855274,0.059000876,-0.025242263,-0.10789592,-0.07345681,0.07069219,-0.08398478,0.16192518,-0.06511193,0.0509593,0.09786263,0.13215087,0.2502157,0.020998267,-0.27499425,0.0012678739,-0.23396756,-0.033903696,-0.05046773,-0.10462946,0.010830819,-0.30491212,-0.09032267,-0.09980843,-0.09583888,-0.0062006433,0.09829265,0.09093238,-0.20081173,0.08483533,-0.030900229,0.039184533,0.2052044,0.16716805,0.13886653,-0.045597795};
static const float linear_rnn_weight[48][26] = {{-0.06783947,-0.7834479,0.33541766,0.02962953,-0.030351564,0.014148281,-0.020688009,-0.0003838276,0.039242852,0.10532777,-0.11093388,0.01749809,-0.21516371,0.15603906,0.038225785,-0.0052447286,-0.084717,0.031221528,0.065552436,-0.08941551,-0.0027927326,0.060232982,-0.030559741,-0.037045844,-0.022092348,-0.012006734},{-0.10392616,0.050504874,-0.12138394,0.045306247,-0.0012347724,0.014101248,0.0023397033,-0.071105115,0.015994458,0.48158765,0.10580659,-0.087636344,-0.2331953,0.0121088335,0.012455251,-0.1642842,-0.27038667,-0.08021881,0.038717434,0.018466968,-0.0019234403,0.101872645,-0.08114266,0.012888051,-0.050779693,0.09506553},{-0.68187344,0.4533332,1.812333,-0.012561108,-0.037799712,0.0102386745,-0.035448022,0.016297178,-0.032670673,0.0338185,-0.022160131,0.0010341674,-0.1801127,0.0578942,0.09752645,0.0018263692,0.01871613,0.0016147287,0.07429114,-0.0071895374,0.06284534,-0.08078746,0.015697008,-0.009222411,0.035483763,-0.031966012},{0.05304696,0.0122015895,-0.035979915,-0.007088818,-0.05374945,-0.02969853,-0.04675786,-0.005426322,0.06947423,-0.0115914885,0.025555132,-0.07917821,-0.36988798,-0.0017242735,0.107104845,-0.08492013,-0.07396784,-0.106842294,0.11562683,-0.25189283,0.022927193,0.114048585,0.05237005,-0.058863975,-0.0056804996,0.050800778},{0.052627284,-0.060635112,0.095259674,-0.037643738,0.035325557,0.027039848,0.03322603,-0.013353742,-0.08161075,-0.34654754,0.38807756,0.08495587,-0.0056686816,-0.50517786,-0.0039089276,-0.026944982,-0.093106754,0.025996089,-0.050965186,-0.09841076,-0.09223293,0.19708973,-0.042612676,-0.071884714,0.00081853324,0.15321195},{-0.004164325,0.015953567,0.026784677,0.07544733,0.06362715,-0.09081344,0.033292558,-0.068333745,-0.068343095,0.083537824,0.20776767,0.075089864,0.07682398,0.15580331,-0.051083077,0.0054461416,-0.038698405,-0.07279107,0.0831225,-0.11868471,-0.013017398,-0.08335159,-0.027503679,0.029223932,0.029630238,0.010180529},{0.08137096,-0.019066146,0.115160376,-0.04510844,0.001471479,-0.0047236085,0.011933861,-0.029086966,0.15426797,-0.27340332,-0.17260973,0.08776719,0.09045684,-0.09086567,-0.17624335,-0.018454893,-0.020661084,0.00846483,0.13235125,-0.19856937,-0.08202573,0.2003194,-0.012453178,0.031103466,0.04584965,-0.050941184},{-0.20730636,-2.1770463,0.834437,-0.008256365,-0.02367373,0.016659008,-0.025108261,0.0077428822,0.019404676,0.0056485296,0.059713885,-0.004325397,0.015861876,-0.16974013,-0.012473543,-0.00060230936,0.020132156,0.021320593,-0.04816454,0.012268283,0.02859737,0.032019235,0.006888419,0.016851936,0.01287875,0.0017007106},{0.055551972,0.0151381735,-0.090838835,0.039843023,-0.06437947,0.043598756,-0.058974378,0.008466432,0.11114942,0.0600719,0.08478136,-0.085981406,-0.34763113,0.12228203,0.4015975,0.026402274,-0.071468644,-0.078571014,0.32652208,-0.19530946,-0.06037225,0.02855936,0.061801463,0.03451791,0.08024799,-0.06547763},{1.2747526,-0.5307985,-1.5333972,-0.0078361705,-0.006856728,0.018462386,-0.005778358,0.0068059843,-0.023581844,-0.08419017,0.07403264,-0.02474049,0.21668436,-0.08247241,-0.053541105,-0.021906378,0.00092005514,0.009276151,-0.03076145,-0.062037513,0.05222313,0.08164259,0.012236098,-0.042293597,0.020122321,0.018062886},{-0.07462812,-0.049194306,-0.025629276,0.032270763,-0.019212728,-0.017326057,0.040130805,0.035403218,-0.113866866,0.10019282,0.09582252,0.0014449984,0.048659958,-0.117260486,0.03551404,0.049409732,-0.20802525,-0.13572294,-0.12154986,-0.13756247,0.24905878,0.14502776,0.011624804,-0.0834735,0.16126777,-0.002265989},{0.08819326,0.066368885,-0.03752448,-0.02124711,0.025197929,-0.08603754,0.038312856,0.030461892,0.005311024,-0.23442496,-0.17978036,0.040563658,0.18382983,-0.038088832,-0.07548109,-0.25558287,0.28067634,0.09897238,0.040138356,-0.08254205,0.13325456,0.041625146,0.06538068,0.030141106,0.091492616,0.05640085},{-0.06214201,0.059733268,0.09472177,-0.016557036,-0.029508326,-0.029110635,-0.010449589,-0.019509666,-0.05607711,-0.0707736,-0.13247518,-0.055834472,0.36631814,-0.045234963,-0.015366254,0.04397007,0.025965845,-0.04931798,0.19531575,0.1522048,-0.14182636,-0.08769705,0.0064739534,0.045890108,-0.0033250102,0.0066703814},{-0.069096155,-0.044697143,-0.008386379,-0.028782234,-0.010792561,-0.09013256,-0.060436595,0.026024569,0.14313528,0.07281874,0.17609335,0.21828008,0.109925024,0.16045092,0.03923072,-0.16852784,-0.030664684,-0.01760268,-0.038607843,-0.07314591,0.06983752,-0.11558697,0.063809805,-0.06065172,-0.031524833,-0.094164684},{-0.08058234,0.018625012,0.0737083,0.0629859,0.10105402,0.05060998,0.07267188,-0.067287244,0.12477861,0.17727779,-0.060030874,0.029140575,0.28853774,0.003817441,-0.082932614,-0.007351142,-0.03486445,-0.08430428,-0.011118061,-0.22058007,0.01269366,0.042270344,0.031849828,-0.036690466,0.08849914,0.031711843},{-0.07334881,-0.019331777,0.03343915,-0.03583662,0.011150127,-0.018205237,0.021013536,0.014638622,0.08525315,-0.17338036,0.019952038,-0.10803076,0.29478282,0.15763226,0.29277343,-0.09471938,-0.11999888,0.038981993,0.10547506,0.023391949,-0.12726982,0.14919506,0.030902155,0.0052713384,-0.04007907,0.014886787},{0.014603969,0.043358568,-0.0044183913,0.015191689,0.03417242,-0.050191194,0.057376646,0.023282686,0.10577854,-0.10419829,0.13726631,-0.058228686,0.06384079,-0.16985026,0.35220376,0.025272377,0.002867284,-0.077992015,0.23094888,-0.024279695,0.19003728,-0.14208084,-0.03243897,-0.004960911,-0.04572784,-0.03351221},{-0.05398261,-0.059713036,0.004188909,0.020557495,0.0035836552,0.031886835,0.03431409,-0.028510546,-0.19394623,-0.082557485,-0.21219382,-0.040679406,0.063357964,0.2966634,0.16046284,0.008519022,-0.023109978,-0.08767391,0.0019516392,-0.052385777,0.14514679,-0.012309627,-0.024513086,-0.06730836,-0.082015835,-0.022651738},{0.024727179,0.004821262,0.04855658,0.014390346,0.060670763,-0.06688727,0.04518692,0.006222953,-0.028552946,-0.06817723,-0.12247274,-0.10838233,-0.18150213,0.1427613,-0.0042363843,-0.121716425,-0.055352133,-0.07201924,-0.124807976,-0.15847997,0.16584972,0.09282653,-0.0016324539,0.017567398,-0.0073674703,0.07702771},{-0.05377617,0.06692271,-0.050629817,0.03844519,0.0031194321,-0.037683986,-0.008071389,-0.036938883,-0.035950176,0.050418638,-0.2910886,0.02668347,-0.035919018,0.057045244,0.045636185,-0.36080614,-0.09409255,0.019751,-0.030022021,-0.01547328,0.1096052,0.1291273,0.048854392,-0.011787481,0.04218544,0.012186066},{1.5759952,0.75617784,1.0771763,0.0037381563,0.006494444,0.029970648,-0.002784307,-0.03155748,0.051937573,-0.005199819,0.0050334414,-0.06920196,0.10514813,0.10607926,0.0709428,-0.014176164,0.0061965147,-0.03099445,-0.07307528,0.000939992,0.00027450576,0.094758615,0.0004914543,0.01143724,0.02005767,0.0056708674},{0.012437639,0.060950074,-0.13673392,0.0019658944,0.0142042935,0.035773426,0.006282237,-0.0006844917,0.070596024,0.07631712,-0.1744064,0.097037256,-0.33054408,-0.3439818,0.1052321,-0.0037100762,0.030010452,0.063728325,-0.21887392,0.04492254,-0.004707529,0.0015757607,-0.02609426,0.012629713,0.072687946,-0.01879775},{0.06888444,0.10835531,0.054390144,-0.04301656,0.025542287,-0.0011206181,-0.0006892446,0.041297846,-0.13637766,-0.28200117,0.26444587,-0.025891695,0.29355255,-0.1559488,-0.04336383,-0.014731756,0.16695479,0.16467525,-0.031886935,0.066814534,0.03256265,0.097019814,-0.0015134622,-0.11828468,-0.033516847,0.09954692},{0.030836307,0.050164986,-0.027419131,-0.023566375,0.03400603,0.00036760457,-8.6604115e-05,-0.026985502,-0.045151524,-0.12063691,-0.08789102,-0.063316986,-0.29018912,0.0059175077,0.24115676,0.08423101,0.066339105,0.0058629746,0.0038581067,0.03240537,0.07226962,-0.007765661,0.075553656,-0.097035386,0.023809984,-0.01344517},{0.027001299,0.016160026,0.09561137,0.000712455,0.03266056,-0.050934266,0.055770278,0.015792118,0.0935975,0.13576142,0.2224725,-0.0027727038,0.14784208,0.009660779,-0.15672116,0.16560337,-0.07944972,0.053537596,-0.066236466,0.05939746,0.011017347,-0.04803323,-0.016002974,0.043093488,0.1344418,-0.033061936},{0.05235911,-0.032752957,-0.090096384,0.0652934,0.016419273,0.007603158,0.03697416,-0.07870812,-0.09911644,0.03436152,0.13537523,0.045047693,-0.30538082,-0.028089562,0.082507014,-0.03335074,0.037065208,-0.009340502,-0.00090882054,0.15806882,0.12826158,-0.17088594,0.059254974,0.077650435,0.021355225,-0.11050058},{0.061589327,-0.16763169,0.12640256,-0.026666155,0.015300354,-0.023782184,-0.014723348,-0.021914085,-0.051643506,-0.0494663,0.306439,-0.0764897,0.19513953,-0.5496646,0.15997419,-0.033126242,0.057426207,0.00036772867,0.019002927,-0.06011392,-0.05031889,-0.031171722,-0.044358578,-0.02712924,-0.010619122,-0.03905595},{-0.009047344,0.00953266,0.12938108,-0.051166743,0.026508171,-0.029917173,0.015876984,0.04833097,-0.0026846724,-0.11760583,0.06722999,-0.13671319,0.0558891,-0.30434665,-0.14738436,-0.042273503,0.0269915,0.04279741,-0.27716014,-0.10996356,0.19954202,0.19588634,0.048320632,0.0051797233,0.0069269426,-0.0032327727},{0.10628216,0.06487152,0.11930676,0.043322936,-0.0054962416,0.06949175,0.009013912,0.013386029,-0.24637584,-0.06642542,0.147108,-0.17775832,-0.2893335,-0.15539303,-0.47127762,-0.067415826,-0.11111189,-0.03705042,-0.032785643,-0.076326646,0.05051931,0.08160098,-0.010718631,-0.0116401715,-0.012281319,-0.05460429},{-0.0006430541,-0.09957464,-0.026563749,-0.08149324,-0.06388312,0.0052940217,-0.06576829,0.09240056,-0.090183586,-0.32366845,-0.13858588,0.016406722,-0.05966394,0.121850744,0.20838642,-0.08138405,-0.03846331,0.093603425,-0.085017584,-0.084915,0.02487658,0.13048434,-0.014988863,-0.018889893,-0.03987603,-0.045578346},{-0.03739728,-0.00734954,-0.015623226,-0.018253887,0.09278689,-0.11048667,0.10679203,0.010735719,0.19074205,0.046242226,-0.19614172,0.2770878,0.0448063,-0.065639995,0.15823458,0.017741343,-0.01616698,-0.1825948,0.15318008,-0.13116126,0.20980744,-0.03758745,-0.017896056,0.047904957,-0.003689941,0.02982943},{-0.05600107,-0.052315798,-0.0010321237,0.07844568,-0.001111909,0.114531726,0.05267174,-0.05650466,-0.15674484,0.1909676,0.008188003,0.10776887,-0.040090162,0.23144005,-0.072652064,-0.03792823,-0.046929043,-0.07735831,0.050368764,-0.25850913,0.016927728,0.26564497,0.09303385,0.038450155,-0.0022514253,0.018681867},{-0.07538168,-0.015606526,0.026763305,-0.061730474,-0.017138653,0.05053323,-0.023289556,-0.011266448,-0.020314649,-0.24255611,-0.10430744,-0.025723163,0.18298796,0.41273713,0.10790977,-0.12357009,0.064612165,0.16795945,-0.1110158,-0.039327655,0.12334402,-0.008717479,0.021685153,-0.05515359,0.07346682,-0.04495635},{-0.011621998,-0.080295816,-0.046554204,-0.022395767,0.0020208333,-0.061027654,0.030485218,0.030776126,-0.13523573,0.050443225,0.22325888,0.13264272,0.056353368,0.1908367,-0.03698357,-0.043305654,0.0821416,0.017682826,-0.120755136,0.012875118,0.15045056,0.042268544,0.024654593,-0.030675627,-0.049507767,-0.0543269},{-0.04156089,0.01940361,-0.08074842,0.018638622,-0.030649154,0.10631588,-0.016301043,0.00083034695,-0.11441239,0.23579484,0.03950881,0.11128229,-0.21353216,0.0022348715,-0.086289756,-0.021906303,0.023866879,0.0450878,-0.22329654,0.070081964,0.044092238,0.09033825,0.022639701,0.04474204,0.024006186,0.036127884},{-0.13337298,-0.015631204,-0.02954059,-0.06215001,0.10363575,0.0362557,0.05815446,0.045252338,-0.04727929,-0.0670223,0.0036307944,-0.20722514,0.21731798,0.18348956,0.3555114,0.05554386,0.06985587,-0.007233812,-0.10313603,0.088687,0.07294216,-0.077282384,-0.021178767,-0.030643096,0.04414421,0.017239178},{-0.09322307,-0.037355732,-0.0044220956,-0.024242712,0.08699551,-0.074655734,0.04342481,0.011751576,-0.052489996,0.02888914,-0.05969926,-0.21554627,0.23878695,0.049260955,0.2184642,0.05602216,0.06165597,0.007887235,-0.0247765,0.13881582,-0.020437112,-0.057075083,0.06999208,-0.046436638,-0.0064561213,0.00010326342},{-0.1922976,0.033226095,-0.064118244,-0.041783098,-0.00420258,0.026894275,-0.0073811775,0.009098758,-0.05674606,-0.17046183,-0.06035706,0.27113596,0.19557488,0.16258599,0.1188027,0.014784234,0.069166794,0.09604619,-0.072347276,0.3108756,0.015292333,0.0468927,0.029558675,0.07916292,0.011543406,0.07788698},{-0.48508623,-0.5612343,-0.48431227,-0.006116156,0.031510934,-0.021335647,0.03227552,0.018011244,0.0028041273,0.10195369,0.068125695,-0.021317052,-0.23938331,-0.019798262,-0.13565344,-0.06937009,0.052717306,-0.07156207,-0.17625736,-0.021313913,0.085205115,0.021287777,-0.04378469,0.019591562,0.035221774,0.00073865865},{0.10121971,0.025709148,0.13605781,0.020682149,0.10762087,0.014401931,0.09593619,0.09045368,-0.18765171,-0.079245195,-0.26025763,-0.01650267,0.105037026,-0.10907085,-0.112186976,0.011583296,0.0067198626,-0.080628395,0.12053501,-0.11682051,0.09292347,-0.16140625,0.030165892,-0.062044363,0.083565496,-0.10643153},{-1.6459005,0.63514894,-0.13787402,0.019985355,-0.0311632,0.035074327,-0.04040802,-0.016294813,0.047650136,0.04347178,0.0016460468,-0.04410356,-0.06516549,0.1514322,0.061390366,-0.06849201,-0.002720905,0.048969638,-0.15412639,-0.019812096,0.035852674,0.14282538,-0.013387046,-0.011096313,0.0067317905,-0.016979119},{-0.0054594143,0.043593276,0.038369276,-0.0026983407,0.02037719,0.08864087,0.044156864,0.006315053,-0.17378218,-0.15612337,0.07941136,-0.008911608,-0.16129692,0.5002833,-0.17905107,0.044064935,-0.025260294,-0.10123622,0.105308115,0.0024920763,-0.045871187,-0.09643172,-0.024361625,-0.036141854,-0.06121538,0.042467352},{-0.3054336,-0.698541,1.8246117,0.011708257,0.026623668,-0.017855097,0.017849114,-0.010912512,0.0020799097,-0.03975842,0.0347642,-0.11078778,0.039605908,0.032041095,0.31891853,-0.0035436482,0.002490662,0.010503832,-0.035652976,0.05469696,0.0037682524,0.04192831,-0.012339184,-0.007010316,-0.03637764,0.0073267315},{-0.013160544,-0.027314661,0.032917093,0.02451179,0.18977714,0.12812711,0.10836757,-0.0539594,-0.011046729,-0.087505944,0.010854567,0.028087534,-0.05090623,0.15879369,-0.019099198,-0.054812815,-0.07122496,0.071232975,-0.046125576,-0.095421135,-0.1848409,0.12299461,-0.085997544,0.025287965,-0.020544019,0.06550026},{0.064046964,-0.006521213,0.005878424,0.043579876,0.06926525,-0.020176137,0.032684825,0.0006142352,-0.07474258,0.15439005,-0.08930383,0.041803747,-0.17688677,-0.08675535,-0.36790276,0.06431054,-0.07378219,-0.046810474,0.19943932,-0.06522677,-0.17559145,-0.105508715,0.08761522,-0.03401579,-0.054082334,0.0138000315},{-0.2919894,0.04851431,-0.086234726,-0.018407231,-0.02978011,0.029367758,-0.023275098,-0.01982667,0.06308524,-0.13453892,0.012716752,-0.1065628,0.01446933,-0.03744206,0.19870417,0.08212227,-0.0017561839,-0.102011114,-0.05631383,0.01800823,-0.025922555,-0.0015695593,0.020575574,0.02562234,0.00011804283,-0.048081692},{0.12580918,0.11111156,0.33514622,-0.015603667,-0.09179536,-0.035650436,-0.027629497,0.041179746,-0.03285882,-0.27148214,-0.114936486,0.25441378,0.28751838,-0.20672135,-0.08829529,-0.07440537,-0.12890556,-0.11112701,0.03957268,-0.11920936,-0.11145152,-0.06522034,0.027471062,-0.06360216,-0.04202216,-0.021943899},{0.67619395,0.4377605,0.4596966,0.013703136,-0.030021831,-0.014147771,-0.039169744,-0.010123583,0.0040403656,0.06560223,-0.062274992,-0.0068209176,0.053631213,0.28103903,0.2532046,-0.09343306,-0.025643134,0.11249722,-0.12656374,0.051928803,-0.009173448,0.1848454,-0.026042571,0.0041488474,-0.052958332,0.008443733}};
static const float linear_rnn_bias[48] = {-0.07366747,0.107292734,0.025106,0.052469194,-0.12055333,-0.111106314,-0.09264289,0.040670186,0.15275277,0.028392864,0.078405276,0.13779174,0.1750556,-0.26139933,-0.09512591,0.17929453,0.15962262,0.005669474,0.10060657,0.1342417,0.07091354,-0.12547944,0.03573639,0.08772966,0.0143788615,0.08017207,-0.015735643,0.11216619,0.07182827,-0.051621705,-0.100552656,-0.057842582,0.007512555,-0.13642195,-0.06715637,0.21430579,0.24466269,0.026155673,-0.02674004,-0.015172392,0.018363083,-0.079007864,0.123770244,-0.15301238,-0.12969318,0.094898045,-0.30141392,-0.01020543};
static const float rnn_weight_ih[48][48] = {{0.07345216,0.22358006,-0.082762085,0.16023639,-0.068166085,0.09291314,-0.03618179,-0.27356848,0.1481056,0.025608398,0.0064441757,-0.16500203,-0.085551545,-0.06284135,0.14237246,-0.23157142,-0.090647675,0.05211141,0.02432886,0.022427212,0.029913843,0.06196565,-0.21171865,-0.03372902,-0.042614542,-0.08315407,-0.079294585,-0.1194656,0.15979636,-0.126171,-0.055514652,0.1560286,-0.17781912,-0.11097849,0.031425275,-0.11159511,-0.11579767,-0.3613118,0.07413206,0.105969064,-0.032351032,0.13960883,-0.2499549,0.051440835,0.29350746,7.092227e-05,0.031530235,-0.09652824},{-0.05661362,-0.038810182,0.024966994,0.010734086,0.07335467,-0.07622622,0.074930765,0.027213156,-0.116124526,-0.09045474,0.016643679,0.07277622,0.04587809,0.036236618,0.15669248,0.00037085262,-0.015762847,-0.00028973754,-0.034089707,0.14397182,-0.067283355,0.14572512,-0.07142705,-0.01015483,-0.09262573,-0.10852963,0.11173708,0.06327075,-0.08799031,-0.020933757,0.170187,0.0009522827,-0.051318254,-0.11837203,-0.037218895,-0.032397095,0.037256215,-0.100391045,-0.040069412,0.049785532,0.06704154,-0.16547175,0.037612025,0.0024265912,0.12507297,0.032572497,0.17875195,-0.08763786},{0.21422905,-0.075312935,-0.3974793,0.037894215,0.06922796,-0.031526893,8.685022e-06,0.036664385,0.13158411,0.38199955,-0.14810511,-0.032925695,-0.12256985,-0.012898598,-0.122187845,0.0298366,-0.027589059,-0.017633867,0.01231171,-0.12800327,-0.20044975,0.06720853,-0.045606878,0.071233355,0.040380254,0.047591045,-0.13141856,-0.11366292,-0.0067357183,0.08695665,-0.023611227,-0.02996229,-0.0048092576,-0.059622545,0.015527993,-0.038604915,-0.07365032,-0.004302061,0.052321564,-0.12907161,-0.23064229,0.06680872,-0.24715821,0.16436575,0.050675925,-0.010065779,-0.042674117,-0.007868955},{0.053322762,-0.0099771125,0.2296011,0.016800908,-0.056279395,0.010104538,0.07096142,0.08035186,0.031609487,-0.069056876,-0.1949056,-0.052468307,0.04961803,-0.032462638,0.07869068,0.034921043,-0.03525141,0.036144387,0.010190344,-0.04982674,0.76817924,-0.034052547,-0.04233015,-0.0137634035,-0.03089954,-0.08441291,0.055836655,-0.046934318,-0.059930164,-0.009584978,0.01828466,0.0437122,-0.023816455,-0.075385556,-0.036095418,-0.010728763,-0.014583253,-0.07946024,-0.29235548,0.03796176,-0.4466766,0.0071810307,0.36404872,0.04725276,0.049739093,-0.04079963,0.16161257,0.32878134},{-0.0350879,0.0049933637,-0.14198698,-0.05875981,-0.10295731,0.08658893,0.001447616,0.064716496,-0.05342069,0.0025077555,-0.072855726,-0.02780579,0.033638887,0.13337074,0.092644736,-0.07746749,-0.00010367273,-0.085219994,-0.14528479,-0.11931288,-0.33632362,-0.05762086,-0.039283868,-0.10826173,0.044211775,-0.014209903,0.028817346,-0.08130654,-0.04689612,-0.17796087,0.02588861,-0.03752369,-0.010194192,0.036314197,-0.061536457,-0.039300427,-0.032278668,-0.09693064,0.096173994,-0.056186177,0.055786178,0.036519524,-0.20563695,-0.029751971,0.12909882,0.017771507,0.03843087,-0.27786297},{0.14146824,-0.019974552,-0.073751345,0.0045808344,-0.025524657,0.052033164,0.059801593,0.345676,0.13841067,0.10422739,0.015402514,-0.055810966,0.16191858,-0.05914196,0.016028339,0.012791539,0.13773625,0.036647074,-0.077823035,-0.03434834,-0.1522277,-0.11311542,-0.1006044,-0.019685514,0.025432542,-0.04360639,0.01164165,-0.14858355,-0.09763159,-0.07729161,0.1752213,-0.0037042112,-0.1819938,-0.05687726,-0.1464824,-0.005990481,0.0218625,-0.019979114,-0.015946886,0.13717608,-0.2892035,0.061783697,0.06807209,-0.07606673,0.116488434,0.009034682,0.0408446,-0.20764653},{0.035094153,0.029613208,-0.2067836,-0.08719929,-0.04752448,0.03399119,0.12496297,0.042707097,-0.078138664,0.22635023,0.013043761,0.013717829,0.03887311,0.018981759,0.07174071,-0.02110036,-0.10753907,0.009176723,-0.02119669,-0.067036755,-0.09284711,-0.1187048,-0.020066183,-0.18248637,0.077609584,-0.118632115,-0.022848293,0.032349568,0.10811418,0.009774537,-0.05898682,0.16652074,-0.042315118,0.079965085,-0.0065670875,-0.12847574,-0.09252042,-0.033651486,-0.008171372,0.065987036,-0.049178734,0.019105373,-0.24422504,-0.027337924,0.048050445,-0.13361095,0.13304484,0.065290004},{-0.12883508,0.09781954,-0.24031556,0.09961046,0.049962573,-0.045513183,0.11105282,-0.23207802,0.09164194,0.1521513,-0.08481012,-0.10002769,-0.1101132,0.096125625,-0.057161346,0.013676557,0.06431784,-0.063515216,-0.021899477,-0.068067566,-0.42309824,0.11969423,-0.026446918,0.06428409,-0.08780925,0.05592258,0.06624988,0.035269067,-0.0789403,0.12063235,-0.030657277,-0.07490264,-0.027089804,-0.033976976,-0.040840626,-0.07012843,-0.12822865,0.054818098,0.13621713,-0.06517446,0.31407732,-0.078346066,-0.36510146,0.08684475,-0.1687179,0.06790944,-0.071077086,-0.14460176},{0.011475816,0.06387084,-0.14550225,-0.04375311,-0.033001304,0.17579468,-0.053024165,0.16383612,0.1367186,0.19405043,-0.058521222,0.049219646,0.1733896,0.03280791,0.07405302,-0.019071395,0.28274038,0.03862607,-0.1352761,-0.095020674,0.26524666,-0.14486612,-0.06770172,-0.04725228,0.022663752,0.098847,0.0962566,-0.2466704,-0.08151916,-0.16335157,0.24825422,0.03032819,-0.10637531,-0.01946452,-0.1351387,-0.039013043,-0.054998036,0.010886481,-0.018035697,0.06815485,-0.53798354,0.10615522,0.05813783,-0.15536542,0.032977533,-0.013969295,-0.055933468,-0.03912607},{-0.056386724,-0.118461125,0.040779717,-0.069540985,0.17770158,-0.06561852,-0.06786174,0.089995466,-0.22902478,-0.06782294,-0.026296977,0.13338904,0.05381541,-0.036166355,-0.0049241227,0.0475049,-0.0530051,-0.00893315,-0.015758215,0.06728596,0.067708574,0.08322667,0.059635766,-0.023378348,-0.034373865,-0.061831243,0.047020696,0.035795704,-0.047718957,0.023960639,0.045599885,-0.058170617,0.0056887236,-0.02440761,0.041916277,0.059391417,0.06786829,0.12092353,-0.071037255,-0.02669592,-0.1291694,-0.032854747,0.075175606,0.044611957,-0.00084663974,-0.017108932,0.16290049,0.026196776},{0.11079548,0.12313908,0.09154922,0.20475292,0.17520037,0.07119148,0.20404442,0.14442243,0.20504858,-0.093050785,0.020834219,0.0012506599,0.07267874,-0.017560573,0.07062448,0.24033444,0.12543203,0.01873941,0.11488208,0.07400516,0.16356787,-0.15432858,-0.11811018,-0.06872494,-0.014896864,-0.08138143,-0.017115435,-0.010603126,0.1469486,0.11634198,0.07976146,0.022060473,-0.02221271,-0.11997384,-0.20208484,-0.087574005,-0.1513212,-0.09841509,-0.040002026,0.026096867,-0.04402952,0.11696649,0.28294188,0.048063587,-0.0060676984,0.07422381,0.051002607,0.038142018},{0.02529384,0.106280506,-0.14740756,-0.0359491,-0.12616162,0.117778145,-0.09507227,-0.16707464,0.035084195,0.08804893,-0.017037382,-0.13751775,0.006297219,0.024003264,0.07805168,0.067590766,-0.11731418,0.049094796,-0.010517279,-0.063597314,-0.081382334,-0.2314686,-0.04367957,-0.00024805666,0.1004228,0.08126152,-0.22556476,-0.16702962,0.02284044,-0.12807024,-0.075575225,0.23942168,0.08567303,0.10457037,0.08688691,0.061384186,0.07042277,0.09335057,0.08021367,-0.083592996,0.10686914,0.275207,-0.2216423,0.10067236,0.11838503,-0.08756623,-0.19410765,-0.0055281953},{0.12404375,-0.009019255,-0.004451629,-0.08754956,-0.079838656,-0.0066266414,-0.03780453,0.38708368,0.036181476,0.0340523,-0.040157348,0.043841686,0.028254528,0.00072288275,0.03435703,0.025096657,0.0001530951,0.085309386,0.030371437,0.038332336,0.14927831,-0.026724344,-0.072039954,-0.018918084,-0.055871822,-0.013245922,-0.039783176,-0.06435441,-0.024630079,0.07423831,-0.024454124,-0.022231564,0.06531893,-0.048525225,-0.04416566,0.08912667,0.04420296,-0.04105696,0.08695988,0.14663087,-0.25849056,0.07540123,0.29851022,0.041884616,-0.042383213,-0.084913954,0.08292439,0.1591887},{-0.13409667,-0.042777713,-0.12043181,-0.24325652,-0.10312648,-0.04474564,0.04347897,-0.41625828,-0.06992665,-0.054491922,-0.071767,0.046102677,0.27804834,-0.091806725,0.024538262,0.03209841,-0.11167307,-0.07144864,-0.2930962,-0.022101453,-0.021814175,0.043604206,-0.02611392,-0.0018764961,0.04955059,-0.09797875,-0.18554145,-0.24562578,-0.1342495,-0.06982676,-0.047649246,-0.1433518,0.072643146,-0.16651969,-0.07287564,0.011461406,0.09486699,0.1417671,-0.1408295,0.06998593,-0.05040934,0.025941052,-0.31998065,-0.055703305,0.1775365,0.05887587,0.09390722,-0.1191194},{-0.035765674,-0.03960977,0.112877674,-0.14439929,-0.015639937,-0.085974686,0.0077761207,0.15145147,-0.09601134,-0.06642203,0.048889562,-0.05455597,0.06149339,-0.07612789,0.0036983967,-0.057293437,-0.045044854,-0.09960099,-0.1196451,-0.07279972,-0.057850827,0.041432556,0.09515294,0.034371063,0.040165544,-0.05008771,0.08022783,0.076837726,-0.026103757,-0.06637595,-0.088670954,-0.08928916,-0.014986545,0.048903752,0.039221097,0.025115004,0.062591776,0.072297886,-0.053535696,-0.0043892837,0.09807741,-0.105867445,0.080158584,-0.043697614,-0.058339015,-0.049287826,-0.0674685,-0.067752704},{-0.09920707,-0.09075972,0.112566836,-0.046634104,0.008400544,-0.021774653,0.042959027,-0.051262252,-0.10192091,-0.21031453,0.003578833,-0.065369785,-0.04603952,0.14544693,0.0538359,-0.033095103,-0.058100924,0.005179909,-0.044602342,-0.009994602,-0.22357242,0.0072770678,0.014851804,-0.0954465,-0.021896016,-0.033722788,-0.01838889,0.0027672101,-0.0587738,0.015088704,0.072648,0.1002691,-0.06086164,0.15051952,0.085484594,-0.1158333,-0.110057004,0.083747126,0.011950718,-0.08392582,0.39084437,-0.043425724,-0.048519835,-0.019973867,-0.015517657,0.017402312,0.17069381,-0.08201966},{-0.080832,-0.08800847,-0.2177581,-0.051026538,-0.0646602,0.024893587,-0.04593347,-0.025964664,-0.05593186,0.07877879,-0.009241885,0.061675705,0.15813322,-0.06292811,0.043622613,0.13733718,0.08915442,0.09632378,-0.022580488,-0.078894824,-0.22991617,-0.20816821,0.13606185,0.014212189,0.0046872194,-0.12048712,0.011432833,0.02168881,-0.044422034,-0.059043,-0.023172153,-0.009657341,0.008460131,0.01517798,-0.09599404,0.103006534,0.14396295,0.040156793,-0.027246183,-0.04489905,0.17938374,0.049926095,-0.04532371,-0.101491384,0.0035344064,0.08869259,-0.008589673,-0.11969163},{-0.09515811,0.009562492,-0.29113746,0.13592248,0.012342499,-0.09201188,-0.026051356,-0.2912302,0.053688563,0.3330212,-0.017617308,0.023609113,-0.056773342,0.0009718117,-0.13356318,-0.07004845,0.089905724,-0.010631575,0.042055644,-0.00541541,0.10129837,0.12049835,-0.049166292,0.049104027,-0.16654186,0.11145283,0.12985563,-0.015641954,0.023454295,0.018607154,0.004198344,-0.10574728,-0.086456574,-0.0026722068,-0.023049835,-0.109266184,-0.07832644,-0.08751715,0.019156802,-0.018955197,-0.15944707,-0.09534745,-0.34126377,-0.14511524,-0.028134577,0.012898106,0.0979871,0.014379453},{0.008873266,-0.06716346,0.05451431,-0.07284016,0.04892248,-0.0162456,0.02371546,0.43643785,-0.110943064,-0.016781738,0.05614683,0.01454278,0.0040927515,-0.023931568,0.051614642,0.04116007,-0.0034820887,-0.02939265,0.0072282124,-0.036197048,-0.15687509,0.01980234,0.033553842,-0.014919335,0.0556541,-0.06326617,0.05079131,0.19259657,0.046668287,0.04460727,0.022520982,-0.059101008,0.06085168,-0.0138017,-0.026926275,0.041320678,0.034142908,-0.01572898,0.09379119,0.047183104,0.04718985,-0.09116986,0.20283829,-0.029172251,-0.053166028,0.038289048,-0.040444873,-0.11895454},{-0.035534117,0.05828422,0.09679198,-0.011945683,0.06753406,0.1504677,-0.043353617,0.06727393,-0.002121709,-0.095555246,-0.0014016113,-0.101102374,-0.07491157,0.12645806,0.09165675,-0.10823043,-0.046371385,-0.09389656,-0.06357222,-0.060612775,0.08676656,-0.083185844,0.036564022,-0.06947957,0.09915742,0.04177396,0.04377854,-0.044147946,-0.03791681,-0.18620083,0.046758164,0.14324749,-0.07244572,0.116999306,0.06256701,-0.07556027,-0.05371491,0.053719327,0.039995763,-0.15300918,0.028885903,0.037072666,0.053692173,0.021449529,0.068353385,-0.08757402,0.014806722,0.03582235},{-0.07824291,-0.07672687,-0.261969,-0.001780424,0.015439403,-0.03345262,0.076608755,-0.042019907,-0.00048819903,0.20219077,-0.07662822,-0.051834572,0.05480592,-0.07588503,-0.06530184,0.070264004,-0.03615453,0.05746196,-0.035331074,-0.02884111,-0.042051263,0.010305803,-0.022406157,0.034952443,-0.06494794,0.0124110095,-0.06370169,-0.06980011,-0.029530589,0.1029015,-0.058747187,-0.008796219,0.020361908,-0.006711946,-0.0332997,-0.007565821,-0.0076705758,0.07006338,0.027478797,0.05291379,-0.09327058,0.095779926,-0.1355444,0.040546987,-0.036838412,0.08049495,0.06569327,-0.020928448},{-0.016551895,-0.03402444,-0.1077672,0.018455582,-0.18032455,0.04948944,0.11409976,-0.16524468,-0.28847057,0.015001102,-0.059254024,0.171091,-0.103398465,0.3035077,0.14375721,-0.21585444,-0.24218166,0.19123855,0.13370521,0.16446419,-0.009155827,0.060541585,-0.11165749,-0.07309674,-0.18011832,-0.06928398,-0.17649269,0.014642599,-0.018157506,0.09513648,0.12652476,0.10956757,0.17580076,0.1600352,0.08434602,-0.13529685,-0.18783963,0.058668833,0.12989292,0.09946233,0.1319423,0.08838547,-0.2793822,0.07018187,0.0472891,-0.116872534,0.20172824,0.05417095},{0.098630354,-0.11326769,-0.21475102,0.11271499,0.19629116,0.06438035,0.15716365,-0.087277144,-0.05118964,0.27103397,-0.031056138,0.07540486,-0.19514273,0.13808209,-0.016482895,-0.034556597,-0.09818479,-0.011899394,0.10256169,-0.13758673,-0.0021851896,-0.010368617,0.041868333,-0.14884871,0.0034266915,-0.10170576,-0.19999982,0.002672349,0.19102208,0.13077974,0.0006284748,0.07627075,-0.062347572,0.032444235,0.04104168,-0.29151827,-0.3044322,-0.039260354,0.029227793,-0.0099115735,-0.19136198,0.18008858,-0.32045886,0.10938073,0.06835076,-0.14316364,0.2527465,-0.087053984},{-0.092062734,0.04744054,-0.081254534,-0.04258207,-0.01787537,-0.0080043515,-0.04061205,-0.34764743,-0.013792363,0.045057166,-0.10028182,0.010388421,0.0288689,0.06577123,-0.039253674,0.083877616,-0.0108569525,-0.011987804,-0.033599027,-0.02967437,0.08628757,-0.03474971,0.056618266,-0.0931726,-0.008524233,0.026157798,-0.02182589,-0.056536995,-0.040456425,0.0050704377,-0.050046884,0.01036852,0.09632812,0.03164954,0.02400089,-0.018499766,-0.014173239,0.06360523,-0.09349445,-0.15391974,0.1689189,-0.03419948,-0.1692762,0.057096,-0.12173935,-0.009274534,0.012767135,0.15757412},{-0.05517608,0.11000737,0.007820423,0.055969704,-0.017217336,-0.06090222,-0.10118581,0.08668966,-0.14997119,0.16855156,-0.012624647,0.096886285,-0.065073885,-0.019009378,-0.029266475,-0.028250238,-0.13861491,-0.08539136,0.059418477,0.12488807,0.165328,0.019083913,0.10798091,-0.062130824,-0.07868087,0.051227946,0.17061639,0.22788751,0.24057919,-0.022532398,-0.3044516,0.09202352,0.055384737,0.080578506,0.15849647,-0.10948903,-0.010818169,-0.1406311,-0.005006402,-0.15420869,0.05405698,-0.17820147,-0.028938215,-0.06195261,-0.037286673,-0.108170286,-0.020160938,0.21259436},{0.04217648,0.030645443,-0.005820826,-0.054719552,-0.3482711,-0.09133107,-0.038975183,-0.11156816,0.02182589,-0.097917065,-0.13407119,-0.07945681,0.06866541,-0.13641433,-0.11081029,0.0031343189,-0.11857457,0.06269253,-0.020346966,0.06152153,0.027420988,-0.0026282482,-0.107269354,0.07844668,0.003947974,0.050155286,-0.18564929,-0.07085634,-0.067484945,0.0092155505,-0.07531539,0.042143207,0.049958702,-0.0063104946,0.08773654,0.055216704,0.07743202,0.11195193,0.010214704,-0.08562245,0.11109261,0.04510121,-0.04659684,0.002796371,-0.03145179,0.038939897,-0.15325528,0.12829313},{-0.06470945,-0.2160738,-0.20957729,-0.17615223,-0.19109017,-0.13488273,-0.09632353,0.2017258,-0.25047976,0.29923815,-0.0928113,0.046743374,-0.01206562,0.06844603,-0.065595895,-0.15468699,-0.07246409,-0.07144003,-0.047735568,-0.07904457,0.23646168,0.08791807,0.0985187,0.019242767,0.06242608,0.012604025,0.0713912,0.112714365,-0.19328329,-0.10254505,-0.056728933,-0.21774657,0.016805897,0.10169685,0.07219997,0.11730976,0.11844876,0.102096036,0.032170985,-0.07345067,-0.3779133,-0.074625894,-0.08875586,-0.11835968,-0.13438545,-0.051338963,-0.04188217,0.037978176},{0.049205486,-0.07411067,0.1104614,-0.10216033,-0.061161198,-0.05640646,0.043105442,-0.040270757,-0.1068436,-0.12740372,-0.009410662,0.051639356,-0.054649584,0.049241077,0.058883797,-0.049013045,-0.074619785,-0.027954264,0.03882017,0.050525513,0.31335467,0.12889117,-0.14158474,-0.09881744,0.0824445,-0.015110395,-0.10863998,0.0184984,-0.04543027,-0.026666468,0.08337868,-0.0026978145,-0.05277656,-0.029274536,0.056421947,-0.08419917,-0.08024546,0.038508903,-0.06587463,0.041612964,-0.15512313,-0.0852071,0.073646754,0.10702055,0.012925267,-0.059728142,0.23165633,0.17134802},{0.0212466,-0.017382815,0.045983933,-0.059997194,0.057071347,-0.02165133,-0.0916071,0.024758337,-0.026378524,0.08081226,0.07540552,-0.04600419,-0.03569975,0.015218288,0.06171069,0.07781096,0.010705018,0.049225204,-0.047108725,0.034478895,0.28743097,0.042782035,0.043357972,0.06372741,-0.0004889651,-0.07626289,0.032060236,-0.012178776,-0.17201637,0.01968746,0.03113305,-0.0088103,0.056196187,0.019361917,0.004075089,0.1736174,0.12744756,0.07189623,-0.1443871,-0.03152046,-0.107519,-0.05746935,0.26120874,0.095787294,-0.10787659,0.03779406,0.06017783,0.21428165},{-0.1788918,-0.13424543,0.080055274,-0.15334786,0.14682966,0.04291005,-0.048844088,-0.14328702,-0.26994988,0.004834609,0.06807529,-0.0193811,0.045446407,-0.12515424,-0.124403164,-0.25847223,-0.13157502,0.027784545,-0.030636862,0.0008520044,0.06404179,0.0073989606,0.15309109,-0.026981693,-0.03587613,0.10853312,0.046387978,0.030399926,0.32828292,-0.014983446,-0.16165176,-0.030761348,-0.09217131,0.06615592,0.08189385,-0.105087906,-0.1039505,0.08071061,-0.0026460087,0.19474573,-0.16316411,0.20516165,-0.21029164,-0.0043420503,0.14191702,-0.05468636,0.06498675,-0.22279981},{-0.056742173,0.047882486,0.015774963,-0.009319814,0.2026807,0.013703288,-0.0970466,-0.023490738,0.025727818,0.0014159654,0.12374266,-0.13487193,-0.05455648,0.099479936,0.0027203902,0.0048995544,0.13539767,-0.011446546,-0.042044517,-0.08742558,-0.07116368,0.056353986,0.032458927,-0.047890536,-0.0012285674,0.015511284,0.20229138,0.00508664,-0.098215446,0.020973586,0.043918785,-0.05691984,-0.10683337,0.0704152,-0.0065149437,0.07183268,0.035757802,-0.04290317,-0.03924446,0.016341362,-0.013540103,-0.11869213,0.10406376,0.043712553,-0.081500985,-0.027753856,0.14949676,0.03875731},{0.047689404,-0.09416304,0.17953846,0.06550519,-0.03912677,-0.12300861,-0.07616313,-0.09239008,0.1291628,-0.09243545,0.030833958,0.008718791,-0.048381217,0.018640703,-0.040504586,0.09528907,-0.030367918,-0.09225484,-0.03516014,-0.032075033,0.06147549,0.066827774,0.0149879055,0.07535198,-0.052407686,-0.020635927,-0.0356798,-0.0066380594,-0.13424335,0.010591414,-0.12958136,0.025527848,0.090053864,-0.0768291,0.0891982,0.014007293,0.029472906,0.09362908,-0.13426836,-0.23428279,0.20252277,-0.1023842,0.14248879,-0.0717072,-0.14730091,0.047631346,0.120918505,0.1660007},{-0.107609235,-0.02861534,0.35351408,0.04930645,-0.14155705,-0.041681282,-0.003947456,-0.12357538,0.18244101,-0.22229072,-0.06565856,0.044401776,0.11586253,-0.10562016,-0.048578575,0.07423662,0.19659479,0.14734045,-0.0022337905,0.036317535,0.26428258,-0.078572996,0.055811375,0.22566012,-0.09059289,0.10413239,0.04887835,0.018131884,-0.052655146,0.036120865,0.06800185,-0.04959576,0.078104496,-0.058748804,-0.12609817,0.22857454,0.11839391,0.052998886,-0.15124293,0.08055506,0.080405675,0.024873475,0.2766795,-0.11221158,-0.17787458,0.21544258,-0.22532521,0.031603523},{0.0016231857,0.014615077,-0.05360853,0.026064368,0.16424341,0.016289843,0.060056444,0.10673911,-0.04906641,0.06708731,-0.05295211,0.00398413,-0.0006001849,0.020599283,-0.053413995,0.019463986,-0.06254886,-0.14011897,-0.026187496,0.0071559595,0.017912554,-0.0141329495,0.041017797,0.017383074,0.04619627,0.040327173,0.065524794,0.032997385,0.049534976,-0.042909183,-0.07291703,-0.017824357,-0.05992335,0.012604587,-0.035033025,-0.09257424,0.017932337,-0.019361768,-0.03131343,-0.07939582,-0.21074414,-0.011057035,-0.030316837,0.028826669,0.1639796,-0.04334478,0.03221074,-0.06442887},{0.23012556,-0.0044651646,-0.043159455,0.12136371,-0.09415201,-0.08968643,-0.1415102,0.3354831,0.1730519,0.14511153,-0.08529845,-0.15797138,-0.18402451,-0.0012151967,-0.2374252,-0.07096255,-0.086160116,0.008403351,0.09955475,-0.008386063,-0.11123946,0.09179226,-0.09982103,0.1862529,-0.077107035,0.17276338,-0.1253673,-0.05184435,0.10267852,0.110491075,-0.18948041,-0.011952762,0.01753806,0.043130044,0.08946903,0.008384071,0.018845154,-0.012389474,0.11115999,-0.15116803,-0.15256445,0.08739479,0.07823632,0.05900923,0.09499009,-0.026656415,-0.18665712,0.03745827},{0.18234116,-0.087904125,-0.5019472,0.062870994,-0.0674205,-0.00021991224,-0.001115138,0.5147892,0.03344241,0.62509537,0.016809914,0.049749568,-0.070903994,0.035054386,0.02647115,-0.065734915,-0.051632226,0.12606627,0.085052215,0.0373203,-0.26767948,0.0075113233,-0.04607135,-0.01821266,-0.03108988,0.01450404,-0.0034787103,-0.017937988,-0.013495392,0.03929174,0.033117335,0.10520529,0.09007542,0.058675334,0.03702467,0.023384033,-0.019199198,-0.07308362,0.26618937,0.050552916,-0.2281369,-0.010375665,-0.20273755,-0.03645658,-0.038128536,-0.03446695,0.013210853,-0.1260517},{0.17446731,0.041601926,-0.37588927,-0.11881523,-0.026216883,0.04210821,0.01667084,0.28638068,-0.067031324,0.24081182,-0.042324897,-0.057348136,0.009152606,0.00059856067,0.069891565,0.100280456,-0.009910937,0.086232916,-0.035688806,0.052330438,-0.51343197,-0.08444492,-0.0033174506,-0.060752053,-0.022991711,-0.12478433,0.032505333,-0.03632814,-0.06793003,0.10508846,-0.07473428,-0.014597207,0.11214961,0.013856609,-0.05976873,0.06865878,0.01553772,0.019444006,0.044496786,0.058978006,0.15865442,-0.0064329845,-0.08425016,0.18801992,-0.05451633,-0.022322355,0.036776446,-0.05301504},{-0.060778722,-0.0066776215,0.12621629,-0.0033744131,-0.016045708,0.07846997,0.071929134,-0.08864015,-0.030653697,-0.17195186,-0.044032037,0.037662935,-0.00829702,-0.054911535,-0.017311394,-0.0418061,-0.022197887,-0.07206298,0.08024654,-0.042348403,0.050608207,-0.021967085,-0.03784666,-0.017607175,0.05123354,-0.021969656,-0.044726122,0.010745352,0.024357665,-0.029560104,-0.05805883,-0.13878775,0.04114311,-0.024476077,-0.08360114,-0.02449791,-0.04890606,0.0046777995,0.0057561356,0.01115167,0.02987707,0.104768224,0.053158913,0.067200586,0.02084861,0.00010804551,0.07956569,-0.07523284},{0.20216566,0.09531785,0.009251079,-0.013747619,0.093591206,-0.10944222,-0.029770304,0.9288276,-0.16391389,-0.22923614,0.080252476,-0.11297087,-0.0011713548,-0.03425359,-0.08845662,-0.0062395683,-0.09219338,-0.0766595,-0.0015654978,3.1890257e-05,-0.6743163,0.09694564,-0.032856278,0.0032192324,0.0039384053,0.018595695,0.18578689,0.12670039,-0.018707944,-0.02545963,-0.11841781,-0.07710403,-0.09606285,0.023985095,0.07049605,0.013035695,0.06879803,0.098317385,0.3653196,-0.20197208,0.23884872,-0.1611353,0.40455133,-0.020170955,-0.029671934,0.07577204,-0.1749619,-0.3079615},{-0.028919792,-0.080303855,-0.2651487,0.014573681,0.12961055,-0.074370444,0.09533076,0.1459017,-0.07057197,0.2862231,0.053848967,0.02970436,-0.026421065,-0.01848977,0.00052335067,0.056870747,0.007295257,0.07458385,0.07549782,-0.070971295,-0.058273885,-0.00055016734,0.06459888,0.012385411,-0.069436856,-0.03026453,0.031288356,0.09444263,-0.09269219,0.1058276,0.0789393,0.055381082,0.101633705,0.076113164,0.012822595,0.063718386,-0.030858481,0.14709842,0.117998816,-0.08766783,-0.009721641,-0.018198634,-0.03443614,0.009065314,-0.2160909,0.04510813,0.029442748,0.022886718},{0.005266446,0.030981602,-0.003189982,0.052265245,-0.025605889,-0.009845411,-0.046718843,0.01215842,0.0023093254,-8.5661886e-05,-0.043331943,-0.015160686,-0.011631637,-0.04724037,-0.0059447316,0.06575023,0.032088887,-0.021337474,0.049932774,-0.035131186,0.11974265,-0.046099044,0.034404688,-0.035111338,-0.021485625,-0.042264514,0.010180281,0.036535576,0.12484729,-0.02482276,-0.16785581,-0.10559632,0.025323099,-0.06792411,-0.07160829,0.052467097,0.04151597,-0.14214319,0.049377695,-0.053629775,0.045662966,0.060399722,0.061009523,-0.016354872,-0.047986057,0.053928684,-0.047490954,-0.0033631593},{0.027879722,-0.04964263,0.78415483,0.0662744,0.0644486,-0.06836245,0.0055003446,-0.1022344,-0.034401447,-0.71407723,-0.025281716,-0.097315475,-0.072081715,-0.025188893,-0.092136644,-0.15229633,-0.0041449456,0.028944658,0.03346001,-0.09170834,0.4724738,0.08335183,0.024057372,0.12103909,0.0032606649,0.13005216,-0.020385582,0.03552524,0.12419402,-0.04844372,-0.03219499,-0.0012835561,-0.059990723,0.020004328,0.09029348,-0.120792314,-0.13484788,0.0071746013,-0.12204743,-0.012303744,0.07233488,0.043477148,0.4245576,-0.005937711,-0.011895814,-0.05295824,0.0031357352,0.12800328},{0.035794105,0.0147990575,-0.28093606,-0.04714113,-0.10991668,-0.036016632,-0.16055994,0.24055298,-0.108451694,0.22746643,0.03308479,-0.021108108,-0.029499592,0.111000404,-0.01730927,-0.012845011,0.056703046,0.009211721,-0.065037765,0.051040456,-0.31952843,0.105204955,-0.10795589,0.05870896,-0.06438904,0.13842487,0.016187659,-0.048111986,-0.16278453,-0.06423403,0.119426064,-0.037150692,-0.018089022,0.037961233,0.079224885,0.019747054,0.046713103,0.13677889,0.101895206,-0.07055746,-0.14460528,-0.059984494,-0.1268543,-0.07385977,-0.049899705,-0.018726816,0.01784147,-0.10446613},{-0.14930819,-0.029930905,0.24148344,0.023657579,-0.10279533,-0.020229615,-0.1901233,-0.59631336,0.00015539372,-0.55296236,0.041222397,0.055714212,0.050169744,-0.016529657,0.018638846,-0.016638469,0.06520258,0.08780256,0.06195298,0.0795984,-0.48881963,0.0011188579,0.020033004,0.0520638,-0.06327172,-0.017907893,-0.14639096,-0.04985414,-0.05963714,-0.09879475,0.04437604,0.0312984,-0.00772424,-0.04753551,0.019748606,0.15953892,0.12306657,0.06288143,0.0221343,0.016498804,0.6926142,0.086261146,-0.1258629,-0.07470985,0.013422659,0.11077092,0.027111905,-0.21821594},{0.111062035,-0.009237592,-0.060804684,-0.0006503296,0.023685072,-0.17013668,0.12132515,0.15793814,-0.060120802,0.07725793,-0.109803505,0.09122791,0.030186923,-0.19639726,0.01381619,-0.09761332,-0.09236923,-0.16736548,-0.064687215,0.014716374,0.06357365,0.1887128,-0.027012447,0.00016116284,-0.03250115,-0.101760514,0.009999826,0.088569336,0.16251677,-0.12365494,0.0030696741,-0.021594616,-0.21487659,-0.22053292,0.08704886,-0.19545728,-0.08336054,-0.051658504,-0.053099405,0.041249137,-0.26609725,-0.13770734,-0.118067354,-0.018278334,0.18739726,-0.057720784,-0.02004955,-0.10845209},{0.21273617,-0.083355464,0.33943596,-0.078591734,-0.05408934,0.048131984,-0.074360944,0.49267477,-0.023208467,-0.32483444,0.016151989,-0.08884003,0.027771695,0.0105420295,-0.07841489,0.12436579,-0.044123504,0.1139854,0.0032990552,-0.013106419,-0.11467523,-0.2038186,0.06628622,-0.018709892,0.03686404,-0.011509594,-0.1676333,-0.14026222,0.03405262,0.10479333,-0.1265043,0.0732407,0.24696334,0.096568845,-0.0065402035,0.12127639,0.04427507,0.13688125,0.012993686,-0.010874087,0.09300418,0.27099782,0.5514435,0.065163225,-0.083841965,0.02333579,0.04245699,0.07328416},{0.017417261,0.005696372,-0.07140111,-0.060527295,-0.041081615,-0.07955531,-0.00990055,0.10940063,-0.076892234,0.36214322,0.06729606,-0.026834695,0.10200427,-0.08433057,-0.017455794,0.03608061,-0.009885597,0.015677374,-0.08199611,0.0044023343,0.6643758,-0.07609682,0.05373831,0.05342324,0.040917344,-0.074281484,0.10336238,-0.009276239,-0.040301505,-0.03995551,-0.15722752,-0.105077714,0.03565941,-0.00882697,-0.08747387,0.08759339,0.14881144,-0.032465078,-0.20697547,0.03478882,-0.56734675,-0.030238131,0.115402564,-0.0031527479,0.023322908,-0.072068155,0.04094707,0.19028498},{0.30505624,-0.115895815,0.44989178,0.054501098,0.01141546,-0.023497973,0.04238041,0.9308269,-0.008097809,-0.4313279,-0.027692536,0.06527027,-0.013442788,0.022511093,0.045174725,-0.062358003,-0.021049175,0.0397309,0.058712278,-0.02695961,-0.20178257,-0.033572976,-0.07910885,-0.018133484,-0.06253815,-0.0044162157,0.028926386,0.023651892,0.035366874,-0.015319645,0.045178507,0.046150647,-0.013303917,-0.040589754,-0.016883446,-0.0404408,-0.0019964385,-0.06955832,0.1317981,0.07436899,-0.017556516,0.004283791,0.6349356,0.002729849,0.051792666,-0.04020119,0.13139798,-0.14641099}};
static const float rnn_bias_ih[48] = {-0.16372274,-0.04362047,-0.13200869,0.062123466,0.03537532,0.009102991,-0.08257562,0.07480076,0.11036174,-0.113480546,-0.0049179294,0.08222837,-0.01508729,-0.053480115,0.07169686,0.006640835,0.1386851,-0.054237995,0.089733616,-0.120266035,0.07147534,-0.056329418,0.019838834,-0.052128907,0.097475536,0.14936812,-0.011605694,-0.2702427,-0.054256275,0.110764846,-0.11915061,-0.09854469,0.10630814,0.0316209,0.054903824,-0.06055478,-0.048538473,-0.016280184,0.048263695,0.032205854,0.1818471,-0.017874556,0.019567203,-0.11377637,-0.0742977,0.0152533,0.04682596,-0.088333};
static const float rnn_weight_hh[48][48] = {{0.1461007,0.018993871,0.11792642,-0.043138348,0.12955613,-0.18534693,0.1342789,0.06728049,-0.16864543,0.0492547,-0.22163402,0.04206619,0.014958441,0.113153525,-0.06883791,-0.1066935,-0.12794365,-0.01977436,-0.1656404,0.14661741,0.013994569,0.01973191,0.0531742,-0.013771942,0.12734026,-0.025393229,0.20648216,0.25937757,0.07596909,0.049651783,0.13600637,-0.0061709704,-0.20166737,-0.11945905,0.0657884,0.027425151,0.0037985356,0.16868153,-0.08671511,-0.016346175,-0.094154045,-0.10618036,-0.033904742,0.095076226,0.023532819,-0.0665975,0.0053492244,-0.098206975},{-0.004233818,0.39937812,0.025320182,-0.05838021,-0.012970934,0.011238895,0.09186117,-0.0903026,-0.023322616,0.032278758,0.05295547,-0.06708196,-0.056659475,0.03530219,0.015361822,0.09397982,0.043140713,0.0024056362,-0.0550182,0.0048705908,-0.18983008,0.14683487,0.003971225,-0.049521547,0.05602658,-0.09677719,-0.055862095,0.12246267,0.057289522,-0.038026493,0.00993909,0.012148242,-0.05287791,-0.098949336,-0.032654192,-0.011578117,0.04736993,0.11921723,-0.013537445,-0.05725659,-0.07485783,-0.09623074,-0.1120258,0.09150354,-0.0358373,-0.05571679,0.038246144,-0.007595167},{0.032005407,-0.0029245098,0.3129614,0.027063632,0.060383994,0.024696901,0.12678073,0.14043243,0.109244205,0.01094826,0.030788638,-0.061338086,0.10978315,0.038699646,-0.020285089,-0.06782316,-0.1058971,0.07083268,-0.0063063684,-0.01530396,-0.047750775,-0.0010724956,0.050160676,-0.06349819,0.009439535,-0.097119495,0.28229067,0.23647529,0.03304841,-0.11955056,0.091092765,0.12153215,-0.17677853,-0.042366218,0.11274744,0.22438768,-0.0417501,0.09211524,-0.09330054,0.018436432,-0.14920956,-0.17622434,0.07547111,-0.22853029,0.011654997,-0.0730362,0.022902206,0.022395195},{0.07538278,-0.06803968,-0.067493215,0.43506724,0.08657797,-0.11023776,0.006084607,-0.1111851,0.030853208,0.046555314,-0.027866345,0.017647492,0.04926901,0.047113363,-0.016124615,0.0031398798,0.00100856,0.017345527,-0.05858239,-0.011460855,0.15105177,0.08182032,-0.004549434,0.028757563,-0.00038688234,0.1439088,0.026306521,-0.08067095,0.058141336,0.071807206,-0.090939164,0.03477266,-0.044948153,0.08869941,0.01237451,-0.16880502,0.108687095,-0.045516647,-0.050478134,-0.0035418817,0.021885077,-0.09372559,-0.08094747,-0.27274275,-0.035142917,0.016603833,0.17613874,-0.09490029},{0.069772676,0.033324875,0.053666122,0.03565531,0.41785896,-0.034676693,-0.02057923,-0.08887269,0.023941403,-0.06796086,-0.08195836,-0.05317103,-0.045569636,-0.007095772,-0.038564377,0.019564427,0.13861679,0.017039038,0.036618788,0.027478257,0.12581263,-0.021780567,-0.0037902903,0.008460744,0.07341567,-0.03442803,-0.0028847456,-0.21533999,-0.07579536,-0.021950228,-0.03402713,0.0041063875,0.01870131,0.042426895,-0.029560024,-0.007851919,0.104461774,-0.044455763,0.013239877,-0.071317405,-0.05554787,-0.022745673,0.052006785,-0.05881482,-0.08614267,0.12163937,-0.14710954,0.12987493},{-0.17117351,0.0648458,-0.06068169,0.07773336,-0.0055459286,0.20523955,-0.027510632,0.01572347,0.26277515,0.043047488,0.06668219,-0.0076216026,0.12022782,-0.09141484,0.013685884,-0.01867308,0.028519616,0.042116895,0.034845766,-0.032373596,-0.011914935,-0.17395355,-0.0062346123,-0.048182845,-0.04888088,0.0046831346,0.019588375,-0.17243022,0.14069265,0.00067366485,0.025523216,-0.0954381,-0.04795245,-0.035628933,-0.013994376,0.12848344,-0.015891729,-0.044016063,0.18429762,0.1347987,0.016937016,0.004516429,-0.033761255,-0.13395393,0.090492286,-0.05609412,0.14020929,0.14763924},{-0.16695298,-0.015773157,-0.17041422,0.017515412,-0.0033997898,0.024929926,0.46489066,0.055069767,0.07355836,-0.026931718,-0.04934842,-0.023622613,0.08780051,0.12599503,0.05406161,0.13176252,0.21006465,-0.07340487,0.002303004,0.030615535,0.008036526,-0.063302085,0.024534356,-0.074420325,-0.0074970275,-0.0071127866,0.2325772,0.19463687,-0.08344935,-0.029892333,0.049933337,-0.00015715839,-0.09291162,-0.12554605,-0.09343443,-0.043026946,-0.09249053,0.23506707,0.082044855,-0.06403176,0.005835827,-0.14832272,-0.040259436,0.038542375,-0.036532965,0.04739426,0.08532996,-0.03134981},{-0.17457274,0.013817451,-0.059019286,-0.30364987,0.07426038,-0.029309157,-0.020052902,0.31573957,0.02293741,-0.030454425,-0.085624635,0.019401979,-0.10763709,-0.034136783,0.07843349,0.18243977,0.048788987,-0.13517596,-0.08422912,-0.041226037,0.066539876,-0.11818171,-0.03324186,-0.013921832,0.07166746,-0.044131886,0.016182976,-0.16179861,-0.15722659,0.091374695,-0.055880316,0.0568128,-0.008070237,0.019535394,0.17184986,-0.016566483,-0.056386765,0.056929015,0.07609325,0.06654769,0.05078736,-0.09873761,0.14937876,0.15301327,0.025934633,0.02484112,-0.02394623,-0.13829288},{-0.025301104,-0.10114724,-0.055618692,0.061377507,-0.08665068,-0.21108995,0.059286382,-0.06734341,0.27243468,0.042245,0.0485994,-0.042388722,0.24253127,0.025160994,0.07959039,-0.17164612,-0.061304014,0.012695971,0.004527073,0.02079188,0.025601216,-0.01652977,-0.04468333,0.17151882,0.057288043,0.03885922,0.16322674,-0.11157329,0.08737441,-0.0660414,-0.14803067,0.010945649,0.11779327,0.018426187,-0.016887525,-0.05509607,-0.06682335,-0.07645577,-0.0066735363,0.06362535,0.17510118,-0.045798272,0.00787273,-0.32921058,-0.010111584,0.041196667,0.21402612,-0.22845614},{0.00020424923,0.017072372,0.020262685,0.096101016,-0.14526515,-0.009842179,0.06890148,-0.01435106,0.009656632,0.32761627,-0.013898826,-0.071360394,0.015346301,0.05820371,-0.020837454,-0.13517883,-0.1498608,-0.086800516,-0.16209847,0.08838708,0.017012106,-0.060630597,0.1864267,0.018691074,-0.00801024,-0.16738273,-0.0042512487,0.26721057,0.148617,0.14911942,0.06708396,0.18604636,-0.050065957,-0.01580801,0.09853366,-0.0012107155,-0.009328242,0.13256629,-0.09179077,-0.022313112,-0.17147985,-0.039868418,-0.12853457,-0.006643038,0.10965259,-0.05007736,0.07771818,0.066048786},{-0.099699624,-0.14974521,-0.051957525,0.057908777,-0.08250853,0.038422685,0.010581416,0.05304511,0.06898344,-0.030521944,0.26020095,-0.08789983,0.078789726,-0.00013375925,0.09581457,-0.090233706,-0.055146217,-0.08296466,0.04242269,-0.044816416,-0.09962495,-0.05001162,-0.03743902,-0.06145724,-0.053025816,0.017657341,0.006549389,0.031044725,-0.028206816,-0.048997913,-0.18457375,0.034065638,0.03952221,0.1404104,0.030988097,-0.052173745,-0.02025218,0.053546038,0.13205123,-0.024520202,0.19048467,0.071185045,-0.04053523,-0.13620277,-0.020413917,0.016408559,0.09162474,0.22276701},{-0.053121418,0.03678202,-0.01139284,-0.14230806,-0.07199508,-0.11394916,0.07590235,-0.11355858,-0.004525572,-0.1193688,0.16525276,0.3878656,0.09408254,0.00010404744,-0.15272036,-0.046564918,0.039172128,-0.005842473,-0.011637104,0.13322864,-0.06777703,0.05318947,0.03302525,0.12717794,-0.07444897,0.06601806,-0.12697478,0.025394471,0.013865667,-0.014049148,-0.19126341,-0.043507475,0.017447656,0.020593032,0.0065496243,0.014472784,0.025835382,-0.099661075,-0.07445236,0.002440816,0.101826355,-0.0011024042,0.011539415,0.13269393,-0.050641645,0.07731232,-0.040823705,-0.11194933},{0.010974261,-0.0017548869,-0.071813636,-0.00863642,-0.051398832,-0.24589874,0.11955112,0.06970495,-0.082540974,-0.097601585,-0.105567046,0.0110357795,0.39716712,0.15290429,0.019951737,0.11972641,-0.08374674,0.023459265,0.06271162,0.005082041,0.03691888,0.112937644,-0.0025720869,0.011647624,-0.036055606,0.05098554,0.06739829,0.11402958,0.024721025,0.0051041488,0.027432889,-0.036200963,-0.055610344,-0.029697051,0.029637808,0.044666305,-0.06990497,0.023399124,0.046775185,-0.0454483,0.06301559,-0.009358827,0.030267473,0.022494618,-0.16319275,-0.025379198,-0.03348475,-0.011010466},{0.028132845,0.092348166,0.13452445,-0.09742961,0.043714773,-0.172271,-0.18508834,0.06066131,-0.17819734,-0.06010814,-0.01785709,0.0042798272,0.07623639,0.26182815,0.05578407,0.09427795,-0.09271315,-0.06174538,0.027782654,-0.07450574,0.022311294,0.052664597,0.085039735,-0.007425571,0.03588523,-0.0730857,0.040815685,0.094491504,-0.048298746,-0.018931871,0.07440745,0.029542798,0.019557735,-0.04293021,-0.037796617,0.042553656,-0.018301198,0.038467146,-0.15782341,0.009270429,-0.014331132,0.02560041,-0.047464345,0.11840041,-0.058166686,0.053126432,-0.010162642,-0.065763086},{-0.02521206,0.14619343,-0.09869892,-0.1149959,0.04414979,0.10711342,-0.06570716,-0.011327204,-0.19174574,0.017978191,-0.07844431,-0.058316942,0.04730357,-0.024769727,0.26998082,0.13927457,0.01308679,-0.060492247,0.09354158,-0.106283225,-0.061180644,-0.026374666,-0.06171301,-0.16383533,-0.052367248,-0.03363547,-0.07012344,-0.05977481,-0.041775584,-0.057447825,-0.048609544,0.06443446,-0.0014609278,-0.0023599823,-0.037576694,0.03971238,0.0732809,-0.09969813,0.28510857,-0.032048773,0.069833085,0.09664469,0.030247344,0.0072210254,0.18618019,0.04797495,0.060732573,0.26465565},{-0.11002672,0.11985085,-0.19083734,-0.11667562,0.07766946,0.04422908,-0.01853751,0.093619905,-0.022340417,0.03043284,0.0059509673,0.032946505,-0.18572511,0.04558125,0.028631851,0.52769256,0.12953737,-0.012960089,-0.115511045,-0.032937694,0.013095297,-0.085821286,0.062121127,0.10941026,-0.13585186,0.054586064,-0.26587152,-0.077013716,-0.17605327,0.13856736,0.022113584,0.0101389615,-0.06751495,0.033831287,-0.094573766,-0.18744448,0.021357039,0.010435272,-0.029351225,0.040455576,-0.022662591,0.01795492,-0.058020268,0.25300393,-0.08742775,0.021932906,-0.17448086,-0.07107089},{-0.16507968,0.11683012,-0.02501059,0.10919737,0.030601487,0.018808993,-0.017051963,-0.106828764,0.060580235,-0.011901409,0.016110882,0.028457781,-0.017937183,-0.04484404,0.020878624,-0.086157784,0.30741695,0.10549416,0.12053602,-0.031773206,-0.05104771,0.06687794,0.03391717,0.076105535,-0.03234923,-0.04461099,-0.0044493913,-0.22780615,0.014575945,-0.08281178,-0.06415499,-0.022193208,0.069591016,0.03546284,-0.13871624,-0.014644532,0.20911416,-0.19094747,0.0455463,0.03715922,0.21492395,-0.13699189,-0.047722477,0.033189602,0.037261203,-0.0015299087,0.050974153,-0.036502086},{-0.006169244,-0.09681582,0.07865322,0.029419634,0.029729959,0.0021448887,0.11630251,0.044808354,0.07753929,-0.04046386,-0.17730391,-0.06573696,0.019413227,0.16064005,-0.11040351,0.10883477,-0.07802402,0.38686082,-0.13195015,0.023780972,0.054371044,-0.00054893515,0.0153779965,0.15958193,0.03618631,-0.03965663,0.10173828,0.12339356,0.008769631,0.028699353,0.13116276,0.0024447243,-0.07388363,0.04562995,-0.07045144,-0.027271064,0.018366637,-0.090035476,-0.3110105,-0.033973582,-0.05684947,-0.045746464,0.15979595,-0.15846649,0.05098295,-0.23254384,0.04171338,-0.30227298},{0.045369882,-0.038993202,-0.06106842,-0.056256674,0.102309704,-0.06477391,-0.061600033,0.011812184,-0.091187425,-0.12351236,-0.049184006,-0.0056292284,0.03624424,-0.119596064,-0.034991797,-0.030759212,0.14356212,0.0005846507,0.4030167,-0.0741618,0.037650812,0.12174432,0.025059797,0.039941657,0.016756468,-0.017377028,-0.0412679,-0.21525572,-0.0056610624,0.048409667,-0.02278119,-0.076106,0.09809184,-0.009733354,0.08536655,0.11376606,0.11867119,-0.19788173,0.12119311,0.08645483,0.1346811,0.01071719,0.12716112,-0.18104479,0.14040431,0.011602937,-0.17725846,0.13860385},{-0.042788822,0.07314734,-0.085964434,-0.0129858665,0.10820437,-0.12584887,0.20708248,-0.053462155,-0.06876535,0.0601842,-0.20063987,0.12870252,-0.0040513333,-0.096742146,-0.004190809,0.022386165,-0.03947898,-0.113374524,-0.09668959,0.40713313,-0.049924277,0.020366974,-0.019205758,0.07983783,0.04645899,-0.100877315,0.056239065,0.12014915,0.18159424,-0.06428615,0.09534748,0.050375346,-0.0404691,-0.0065118144,-0.028028501,-0.13061474,-0.09575786,0.17101389,0.059158567,0.0584364,-0.19882853,0.043002643,-0.049897037,0.037382837,-0.056771774,0.053793453,-0.016992131,-0.066888675},{0.032031957,-0.14155197,0.04599229,0.122086905,0.07317592,0.004662914,-0.0961745,-0.013817168,-0.17683862,0.060561534,-0.0752406,0.0034790568,0.07669261,0.09304265,0.023939699,-0.032754738,-0.009669249,0.056094844,0.07471595,-0.07998161,0.531216,-0.06678646,0.06773719,-0.055034366,-0.009368209,0.020190628,0.037278626,-0.20047902,0.021436233,-0.01884422,0.13345203,0.028443545,0.07948925,0.027056683,-0.10601998,0.030482749,0.10890554,-0.10980688,0.021462478,0.05073196,0.01691465,0.17064025,-0.026213914,0.043374058,-0.0055459547,0.017211227,-0.0042456556,0.056090232},{0.040038507,-0.034784418,0.14511451,-0.028460035,0.090819374,0.08158189,0.19797653,0.041291997,-0.07081826,0.008068475,-0.08240043,0.0015913763,0.042267326,0.112663396,-0.010135874,0.056830663,-0.11290771,0.10871766,-0.27221197,0.10680614,0.02894613,0.16852196,0.107539006,-0.015112909,-0.022970503,-0.059648532,0.0678545,0.2537641,-0.011533668,0.04015892,-0.011325188,-0.0056390236,-0.20423272,0.06068784,-0.24166185,0.10433245,0.068920396,0.11409999,-0.15662792,-0.086408176,-0.065933816,-0.0788117,0.2048695,0.03530569,-0.11606391,0.013891561,0.0733853,0.07501995},{-0.048960365,-0.055147417,0.051289435,0.01041999,0.07051821,-0.06618462,0.13168494,0.0028555372,0.07583741,0.027757226,0.06294811,-0.012938492,0.0289951,0.006695916,0.081835955,0.026458936,-0.070293985,0.005539788,-0.039324634,-0.097108684,0.07822076,0.03111271,0.32613078,0.016031165,-0.19078608,-0.051768843,0.025964733,0.08547995,-0.11791456,0.025983937,-0.12158213,0.029928753,-0.17349385,0.09522124,0.049461436,0.10455299,-0.04724961,0.02679405,-0.16335367,0.019785905,0.0120903235,-0.13012043,-0.038412627,-0.11797077,-0.065962896,-0.034563772,-0.051228773,-0.057619497},{0.0564666,0.006690574,-0.025009962,-0.023231335,0.008456064,-0.24726611,0.09679293,-0.077931225,-0.09951772,-0.111482844,-0.013956404,0.024287501,-0.12035628,0.045148313,-0.06979678,0.061931383,-0.037197676,-0.010714554,-0.11540828,0.1988699,-0.063270226,0.0106649725,-0.015579186,0.26326,-0.06913398,0.034586158,-0.0978809,0.15072525,0.12043754,0.021574633,-0.064895205,0.09717343,0.07576122,-0.010686661,-0.060148675,-0.16108973,-0.0038118141,-0.094507344,-0.27406147,-0.008112941,0.010743968,0.14938495,-0.09562725,0.10888103,-0.09581353,0.00016918422,-0.1629719,-0.38481158},{-0.034930352,-0.018621458,-0.09462645,0.10137277,-0.035074424,0.09213618,0.15751979,-0.08172764,0.21975927,0.070915334,-0.021653546,-0.045412913,-0.073450826,-0.15566303,-0.011038744,0.007397196,0.10371852,0.081838205,0.045284443,-0.0753968,-0.028440803,-0.04581369,0.025807131,-0.049737122,0.25653005,-0.09635236,0.095008746,-0.06052491,-0.12249049,0.06853307,-0.044611234,-0.12003091,-0.018205106,0.10511539,0.06379793,0.004934574,-0.064642236,-0.023215527,-0.03271655,-0.09723589,0.09528476,-0.09867451,0.09346717,-0.25478745,0.17073572,-0.07919538,0.21482185,-0.0070657376},{0.021447793,-0.023804948,-0.059596065,0.12973726,-0.007826574,-0.102716245,-0.116922915,-0.028152363,-0.06552233,-0.04724794,0.011182417,0.06468375,0.058922898,0.0985737,0.10009806,0.025437128,0.09577007,0.08234543,-0.05237819,-0.11881423,0.16785099,0.24526843,-0.11883852,0.13858752,-0.015134239,0.29943466,-0.01745867,-0.22590321,-0.031352267,-0.02407024,-0.17787762,0.00039244175,0.11203819,0.041891944,-0.025020692,-0.13034758,0.1042724,-0.14516601,0.12560813,-0.045605626,0.20125954,0.13047159,-0.0011918052,0.038231142,-0.094947726,0.065447904,0.094157495,-0.18463406},{-0.23063889,0.11899567,0.027803408,0.23433119,0.01755649,0.020036234,-0.18685922,-0.12943709,0.15077204,0.059748273,-0.041264415,0.040074795,0.048556615,-0.040224455,0.028387927,-0.12463687,0.09050332,0.02714709,0.08062697,-0.14474921,-0.053423427,-0.020541158,-0.020573383,0.00020111814,0.06864454,-0.06746981,0.17417279,-0.13422844,0.05139559,0.060484134,0.082713,0.0033659216,0.022000065,0.16226874,0.153199,0.12831078,0.020071555,-0.09046475,-0.046355918,0.08515818,0.023590907,-0.093667895,0.18297465,-0.32530114,-0.04323585,-0.08152816,0.40228096,0.005844869},{-0.23545733,-0.0112053845,-0.01808206,0.07903033,-0.097524926,0.09229321,0.080514856,0.1513862,0.048772674,0.029322322,-0.017366,0.0659187,0.05056606,0.0765496,-0.046000164,0.0364679,-0.039800033,-0.14019242,-0.078937635,-0.0130066555,-0.13289775,-0.006087719,0.035079833,-0.1494894,-0.0013837281,-0.0022372936,0.26515728,0.5033527,0.031806264,0.0369009,0.096867636,0.024773244,-0.10567001,-0.076125905,0.06904546,-0.057447877,-0.2267661,0.32443714,-0.13375106,-0.047311723,-0.18381187,-0.14472888,0.09885322,0.1740062,-0.040812965,0.033229016,0.01169827,0.0044188234},{-0.11143206,0.06490721,-0.10429984,0.1889993,-0.06747349,-0.0541239,-0.10283783,-0.027652346,-0.1262069,-0.048266433,0.012375988,-0.0030122753,-0.0711662,-0.16283433,-0.008169459,-0.07712521,-0.051590707,-0.08922241,0.08032938,0.047563918,-0.04212828,0.015387617,0.005216121,-0.0066140103,0.13875636,-0.035729337,-0.0723623,-0.015029205,0.40253693,-0.034399223,0.06996639,0.089047775,0.09209766,-0.1326973,0.040956922,0.10774415,-0.01205725,-0.008553764,-0.1225243,0.14551094,-0.2026237,-0.018006444,-0.1225815,-0.08922356,-0.021719757,-0.009502314,0.057108585,-0.07136191},{0.002929884,0.029635614,-0.3167853,-0.08745558,-0.14575493,-0.035911664,-0.04648384,-0.022616077,-0.020600328,0.1110571,0.053747263,-0.008539667,-0.053976756,0.0064740023,0.02589167,-0.015597066,-0.12728934,-0.1151341,-0.0152707,0.053905323,0.08063684,-0.13889676,0.069273174,0.032817297,0.08149729,-0.04878005,-0.20447843,-0.052479237,0.000194045,0.49961954,0.06828736,-0.08576991,0.00094324694,-0.011901919,-0.08650424,-0.0663739,-0.20667562,-0.08896778,-0.09816406,-0.010267161,0.062320903,0.13359295,-0.14438452,0.071459256,0.06947952,-0.00056012487,0.008268913,0.0035081778},{0.0019097123,0.07656118,-0.008751038,-0.041254226,-0.010446211,-0.09432974,0.05345112,0.07282324,0.02078502,0.084976025,-0.19305548,-0.055404615,0.13780099,0.016960632,-0.073738195,-0.055552457,-0.113887765,0.0072925454,0.010425654,0.067443974,0.06315523,-0.10910663,0.07212492,-0.06956539,0.093415655,-0.1634384,0.002685042,0.16083206,0.03282874,-0.037912276,0.49822748,-0.05966275,-0.071380146,-0.1145056,0.021431072,-0.052544247,-0.10439469,0.15090112,-0.0150608085,-0.0038511353,-0.22122857,0.028077748,0.038366552,0.07528114,-0.02817611,-0.06856214,-0.029740721,0.054351207},{0.0076441322,0.22108892,0.06511116,0.16520223,-0.029761977,0.10695534,-0.09679789,0.07234832,0.029403795,0.1185768,0.010882009,-0.09208235,-0.1468596,0.09294723,-0.027659433,0.13162164,-0.041208357,-0.10130014,-0.14163238,-0.015992288,-0.067997515,-0.052865457,0.034847084,-0.05544657,-0.017314889,-0.058770698,-0.16731091,0.011463769,0.037292115,-0.042592548,0.048198245,0.24915728,0.06145378,-0.028764399,0.12356727,-0.052892186,-0.013689232,0.08115984,-0.13259701,-0.008047508,-0.2861615,-0.02346154,-0.077767625,0.037994772,0.01393819,0.012125801,-0.05372597,0.04541179},{0.13876311,-0.04616064,0.04091899,0.026779026,0.0014057051,0.013330147,-0.2333908,-0.038081903,-0.05642974,-0.08465433,0.064086825,0.030980803,-0.09444955,0.027231961,-0.034849968,-0.19052823,0.07218689,0.05291423,0.03751716,-0.040849477,-0.017286967,0.22261901,-0.18082163,0.043850336,0.041869164,0.055556014,-0.22366418,-0.103883766,0.101908006,0.049405742,-0.056735713,-0.038115222,0.3990241,-0.15689573,-0.086649105,-0.07433716,0.040292606,-0.050970964,-0.17247814,-0.10521888,-0.06475552,0.21810813,0.016144473,0.03075602,0.041916747,-0.008653883,0.010842161,0.022431657},{0.029661005,-0.063241296,0.13775444,-0.017723,0.06511668,0.077798,-0.14282763,0.015797893,0.015487984,0.036440697,0.052873574,0.06774357,-0.11191569,0.0613061,-0.006867111,0.05168378,-0.07250067,-0.02333808,-0.055592414,-0.035035986,0.091449566,-0.19695702,0.07631495,0.02325209,-0.07658892,-0.02811904,-0.014809068,-0.05594664,-0.13122988,0.032194454,-0.12219518,0.0063081984,-0.12963468,0.350415,0.061436348,-0.08167239,0.010401771,-0.16318868,0.077134736,0.023456022,0.16454348,0.09942365,0.0697704,-0.06452596,-0.0053817146,0.016018081,0.019786859,0.025259756},{-0.06812036,-0.07227097,0.2040552,0.03516644,-0.008005808,0.0023686371,0.004898241,0.05622029,0.17555606,0.0031837123,-0.034937732,0.032097142,0.0010100914,-0.08863112,0.0015777086,0.016766543,-0.026554734,-0.026045658,-0.08395834,-0.06738629,-0.03595758,0.1706522,0.10863696,-0.068867594,-0.052792806,0.18140788,-0.036720738,-0.07224069,-0.07722047,-0.019067546,-0.17741066,-0.016162869,-0.029588828,-0.031495467,0.32917345,0.23874907,-0.024163274,0.1082951,-0.035403337,-0.00825984,-0.052022237,-0.2219395,0.11179394,-0.10158615,-0.05534432,0.0009455791,-0.12719645,-0.10982045},{-0.0058500334,0.112483256,0.048319273,-0.010876864,-0.101277985,0.13648288,-0.04644976,0.0981496,0.021194592,-0.01503154,0.08774164,0.01351631,0.025092224,-0.12621428,-0.016038233,0.043748308,-0.070279896,-0.084736384,0.0052045677,-0.006468002,-0.047752913,0.006375806,-0.013818177,-0.0489773,-0.010634342,0.078209676,-0.07113219,0.045735665,0.05766232,-0.0055746944,0.009145492,-0.022922859,0.05371668,-0.08943429,0.035505604,0.37958437,-0.0557529,0.034738436,0.09049002,0.01344556,-0.14104417,-0.121554434,-0.04314622,-0.04944465,0.010591918,-0.05336315,-0.03542858,0.11963947},{0.030760594,-0.004419764,0.17217413,-0.026931241,0.079981655,0.095749676,0.12758398,-0.0120612485,-0.054585036,0.11733218,0.0070142006,0.02958379,0.042292975,0.063885815,0.033774804,-0.037588105,0.026645472,0.06019658,-0.09966523,0.07330602,0.033715673,-0.0010979858,-0.090830006,-0.079695046,-0.0021095972,-0.054011256,-0.112501085,0.07263017,0.019901665,0.025329724,0.09863902,0.11642231,-0.13412617,0.0027542717,-0.0055396664,0.22206183,0.31131282,-0.061967477,0.25548986,-0.002078622,-0.13870959,-0.3362872,0.033209972,-0.032106906,0.094046265,0.029279841,-0.025440188,0.23259698},{0.04583789,0.06498937,-0.0064477823,0.06388863,-0.018695643,-0.06443036,0.058173493,0.1933961,0.095470585,0.037399676,0.0024451215,-0.010580906,-0.0056230593,0.034043223,-0.1013627,0.026614163,-0.12986343,-0.20470569,-0.061282486,0.08160323,-0.094748855,-0.0019423774,0.0063301646,-0.19842319,0.11273949,-0.06518115,0.15850322,0.06821632,-0.014959622,0.06441446,0.18326053,0.08827353,-0.0129148895,-0.06201598,0.20141564,-0.017504258,-0.19767717,0.6493369,0.02594659,0.0037439037,-0.41025326,-0.17008874,-0.012077386,0.06550802,-0.08572905,-0.031366795,0.0025102212,-0.010514809},{-0.011276441,0.019729113,-0.0025016712,-0.045871954,-0.04692669,0.011279961,-0.018815521,-0.011784578,0.07306706,0.10574607,-0.009015151,-0.018997235,0.051286023,0.03248126,-0.04643222,-0.019399533,0.074861445,0.09307282,-0.028959252,0.035121765,0.022203878,0.07722905,0.006842187,0.04588092,0.0030119733,0.0389186,0.006590006,-0.015174411,0.030779624,0.037572928,-0.014945057,0.0384352,-0.021974947,0.023281628,-0.0061520957,-0.04111298,0.06448907,-0.06375542,0.32852358,0.0090876315,0.08404085,0.07404326,0.04722071,0.03646885,0.0017155786,0.0021297897,-0.040523116,0.11563252},{-0.11800971,0.06402191,0.09173481,-0.03803424,-0.13558693,-0.114227444,-0.07461084,-0.0049612974,-0.109244525,0.07590312,0.051960334,0.09315889,-0.024092576,-0.030986052,0.003057539,-0.015482618,-0.011124502,-0.02238747,0.081764504,-0.012553385,0.07914977,-0.08642575,0.076366656,0.023946175,-0.023374494,-0.050343737,-0.026780872,0.025409373,0.06786974,0.021370405,0.10116037,0.05674948,-0.018642196,0.003639293,0.08317452,0.12102844,0.03154689,-0.17770776,0.08678304,0.35873398,-0.009439107,0.04657977,-0.06912022,-0.03246439,0.024378465,0.0063620033,-0.011464892,0.022870835},{-0.07760065,-0.01668646,-0.055497248,-0.052982874,-0.12520708,0.050284926,-0.08846637,-0.11852894,-0.029517775,-0.038886525,0.06777183,-0.0041765235,0.009108718,-0.030180724,0.09264301,0.006945488,0.091804735,0.07454053,0.061860062,-0.07218701,-0.12528154,0.0017311524,0.02496252,0.09287069,-0.0198859,-0.0050530736,0.09849703,0.01072975,-0.074951805,0.019167388,-0.13045497,-0.11912349,-0.03499234,0.023493418,-0.07167759,-0.05198713,-0.0020964635,-0.32374763,0.07591626,0.023798255,0.50823694,-0.035419215,-0.0073988326,0.003934156,0.03595637,-0.03147845,0.016554637,-0.08796061},{0.07115189,0.043884046,0.07127439,0.10596547,-0.08442234,-0.115192264,-0.05977637,-0.07827269,0.023645286,-0.008413365,-0.090195544,-0.09813754,0.031458408,0.038583755,-0.052766044,0.0066010947,-0.06848371,0.07433448,0.07534485,0.076890066,-0.023533296,0.077611856,0.029161023,0.017992605,0.07873258,-0.14480974,-0.060051296,0.13382728,0.058202222,-0.05160088,0.089340486,0.011574947,0.042601548,0.026865495,-0.0040907715,-0.17164049,-0.17808492,-0.14017543,-0.14241105,-0.034079626,0.015724255,0.41514164,-0.03279862,0.013430031,-0.04367258,0.09058203,-0.032101188,0.19044004},{0.07497584,-0.047550723,0.1523453,-0.1561645,0.055127244,0.0917411,-0.108021736,-0.052217048,0.12643997,0.099108726,-0.14786239,0.0021270802,-0.010867939,0.044501465,-0.16522259,0.016444186,-0.023774622,0.038294695,-0.1885753,0.02536759,0.037001878,0.03729261,-0.007183329,0.022119913,-0.009837323,-0.086758345,0.08073831,-0.04954616,-0.12886211,-0.01758922,0.07006268,0.0005853308,0.023800429,0.086360246,-0.0486455,-0.002123478,-0.03763595,-0.10987591,-0.0015081263,-0.03102221,0.032961868,0.027813053,0.42522433,0.005353214,0.004187602,0.117798015,0.045382887,0.01566874},{-0.13878883,0.02311078,0.01641283,0.019175872,-0.077619895,-0.030001666,-0.074713536,0.08554789,-0.012811479,0.11478051,-0.084186055,0.09672347,0.0043343445,-0.061010152,0.04795013,-0.13168721,0.040305287,0.00013191337,-0.0503034,-0.07350294,-0.048110496,-0.032733586,0.087362126,-0.08120723,-0.02372314,0.06715362,0.044532117,-0.065562166,-0.042088855,-0.049706735,0.0735095,-0.017365532,-0.059473705,-0.08201784,0.0151099,-0.1608618,-0.025146568,0.11646372,-0.03340915,0.041282855,-0.051760055,0.022433912,-0.07334668,0.416136,0.002889191,-0.046070125,-0.014867023,-0.033461034},{0.08028342,0.025731873,-0.006504913,0.005947773,0.0024750545,0.10739107,-0.030547474,-0.09177157,0.022555724,0.16675611,0.023184212,-0.11785109,0.012097099,0.03143887,0.13332725,-0.13536899,-0.08412532,0.0024037957,-0.057546504,-0.022582296,0.009605249,0.0604205,-0.12600425,0.05947736,0.017325528,-0.008359522,0.07355505,0.12649305,0.13812427,0.037688874,-0.047533557,0.047078162,0.00852185,-0.049261127,-0.06250977,0.08013734,0.11219984,-0.03268703,0.17784764,-0.038679324,-0.06711589,0.051138137,0.0359867,-0.16551545,0.4434357,0.13289829,0.1845936,0.14130141},{-0.045280915,0.009906412,0.02310162,0.014355662,0.01124274,0.1097608,-0.12267446,-0.079320185,-0.076602094,0.12422737,0.18010496,0.007992274,0.05891689,0.009652413,0.16947153,-0.15391374,-0.041067436,-0.47134426,0.14053553,0.0131745,0.09607587,-0.020949623,0.007565618,-0.13887598,-0.008710065,-0.14054672,-0.007689317,0.109964594,0.005494187,-0.08249341,0.010801327,0.04862933,0.07905881,-0.073403955,-0.124625646,0.11917891,0.059954498,4.5365527e-05,0.22880839,-0.07734435,0.022277765,-0.005386213,-0.046364453,0.010207107,0.06646118,0.71565706,0.026533106,0.4004582},{-0.0743696,0.075769745,-0.05566858,0.034638382,-0.15135175,0.038110916,0.047580697,-0.13842413,0.044786222,0.07535566,0.021202855,0.056006677,0.098490566,-0.089147694,0.10821937,-0.019771414,-0.085649595,0.053124543,-0.012784346,-0.046606146,-0.081073016,-0.07888267,0.05255076,-0.009138408,0.030293163,-0.18121949,-0.11738071,0.10904095,0.02683008,-0.09289583,0.041738566,-0.009769532,-0.09258887,0.063313946,0.014511138,0.052870397,-0.015620701,-0.039270014,-0.06962313,-0.056257695,0.06312626,0.07394843,0.069002345,-0.2380336,0.08098773,-0.036107708,0.36228096,0.1363326},{-0.011152882,0.043635894,0.022895886,0.049284965,0.10009424,0.1134703,0.028726494,-0.055629686,0.11406687,0.06167776,-0.027082643,-0.012575709,0.13116264,0.00049174414,-0.10117944,0.13791175,-0.046919677,0.027621934,0.039888225,-0.0017514599,-0.08771095,-0.13240705,0.06217865,-0.11251028,-0.011478789,-0.014453682,0.025030838,0.026079502,-0.037923723,0.015706137,0.0507954,-0.060907286,-0.045288708,-0.01669555,0.09476655,0.08291603,-0.009875395,0.043764096,0.17347613,-0.023525923,-0.07981823,-0.03429683,0.06095241,-0.062387843,-0.07473294,-0.08033673,-0.13734367,0.3021926}};
static const float rnn_bias_hh[48] = {-0.15539412,-0.027832163,-0.11872892,0.05184358,-0.0037173673,0.0035137036,-0.074325636,0.06923777,0.101865634,-0.1165158,-0.012660876,0.048065193,-0.030975413,-0.07066601,0.057250958,-0.031749774,0.14448133,-0.05657558,0.08415627,-0.11685506,0.08263204,-0.07823386,0.038742922,-0.06059555,0.117639095,0.13102323,0.012150614,-0.27348483,-0.06192241,0.104649946,-0.12029226,-0.10767035,0.124915294,0.06508435,0.058910854,-0.0872419,-0.04964506,-0.0011481884,0.056514286,0.039054744,0.120173216,-0.02004119,0.007189751,-0.06760093,-0.09683736,-0.017353352,0.057276405,-0.071100354};
